{"learner":{"attributes":{"scikit_learn":"{\"_estimator_type\": \"regressor\"}"},"feature_names":[],"feature_types":[],"gradient_booster":{"model":{"gbtree_model_param":{"num_parallel_tree":"1","num_trees":"200"},"iteration_indptr":[0,1,2,3,4,5,6,7,8,9,10,11,12,13,14,15,16,17,18,19,20,21,22,23,24,25,26,27,28,29,30,31,32,33,34,35,36,37,38,39,40,41,42,43,44,45,46,47,48,49,50,51,52,53,54,55,56,57,58,59,60,61,62,63,64,65,66,67,68,69,70,71,72,73,74,75,76,77,78,79,80,81,82,83,84,85,86,87,88,89,90,91,92,93,94,95,96,97,98,99,100,101,102,103,104,105,106,107,108,109,110,111,112,113,114,115,116,117,118,119,120,121,122,123,124,125,126,127,128,129,130,131,132,133,134,135,136,137,138,139,140,141,142,143,144,145,146,147,148,149,150,151,152,153,154,155,156,157,158,159,160,161,162,163,164,165,166,167,168,169,170,171,172,173,174,175,176,177,178,179,180,181,182,183,184,185,186,187,188,189,190,191,192,193,194,195,196,197,198,199,200],"tree_info":[0,0,0,0,0,0,0,0,0,0,0,0,0,0,0,0,0,0,0,0,0,0,0,0,0,0,0,0,0,0,0,0,0,0,0,0,0,0,0,0,0,0,0,0,0,0,0,0,0,0,0,0,0,0,0,0,0,0,0,0,0,0,0,0,0,0,0,0,0,0,0,0,0,0,0,0,0,0,0,0,0,0,0,0,0,0,0,0,0,0,0,0,0,0,0,0,0,0,0,0,0,0,0,0,0,0,0,0,0,0,0,0,0,0,0,0,0,0,0,0,0,0,0,0,0,0,0,0,0,0,0,0,0,0,0,0,0,0,0,0,0,0,0,0,0,0,0,0,0,0,0,0,0,0,0,0,0,0,0,0,0,0,0,0,0,0,0,0,0,0,0,0,0,0,0,0,0,0,0,0,0,0,0,0,0,0,0,0,0,0,0,0,0,0,0,0,0,0,0,0],"trees":[{"base_weights":[5.4186042E-9,7.720001E-2,-2.7571428E-3,1.1333327E-3,5.3000017E-3],"categories":[],"categories_nodes":[],"categories_segments":[],"categories_sizes":[],"default_left":[0,0,0,0,0],"id":0,"left_children":[1,3,-1,-1,-1],"loss_changes":[5.1084347E-2,5.4501444E-3,0E0,0E0,0E0],"parents":[2147483647,0,0,1,1],"right_children":[2,4,-1,-1,-1],"split_conditions":[2E0,8.1E1,-2.7571428E-3,1.1333327E-3,5.3000017E-3],"split_indices":[5,0,0,0,0],"split_type":[0,0,0,0,0],"sum_hessian":[1E1,4E0,6E0,2E0,2E0],"tree_param":{"num_deleted":"0","num_feature":"24","num_nodes":"5","size_leaf_vector":"1"}},{"base_weights":[3.3420324E-4,7.4626684E-2,-5.2779596E-2,1.0955553E-3,5.1233354E-3,-1.6297151E-3,-3.441428E-3],"categories":[],"categories_nodes":[],"categories_segments":[],"categories_sizes":[],"default_left":[0,0,0,0,0,0,0],"id":1,"left_children":[1,3,5,-1,-1,-1,-1],"loss_changes":[4.7344282E-2,5.0928555E-3,2.425164E-5,0E0,0E0,0E0,0E0],"parents":[2147483647,0,0,1,1,2,2],"right_children":[2,4,6,-1,-1,-1,-1],"split_conditions":[2E0,8.1E1,8.4E1,1.0955553E-3,5.1233354E-3,-1.6297151E-3,-3.441428E-3],"split_indices":[5,0,0,0,0,0,0],"split_type":[0,0,0,0,0,0,0],"sum_hessian":[1E1,4E0,6E0,2E0,2E0,4E0,2E0],"tree_param":{"num_deleted":"0","num_feature":"24","num_nodes":"7","size_leaf_vector":"1"}},{"base_weights":[4.218329E-4,7.213912E-2,-5.086506E-2,1.0590375E-3,4.952556E-3,-1.5645266E-3,-3.3267129E-3],"categories":[],"categories_nodes":[],"categories_segments":[],"categories_sizes":[],"default_left":[0,0,0,0,0,0,0],"id":2,"left_children":[1,3,5,-1,-1,-1,-1],"loss_changes":[4.4129092E-2,4.75898E-3,6.512925E-5,0E0,0E0,0E0,0E0],"parents":[2147483647,0,0,1,1,2,2],"right_children":[2,4,6,-1,-1,-1,-1],"split_conditions":[2E0,8.1E1,8.4E1,1.0590375E-3,4.952556E-3,-1.5645266E-3,-3.3267129E-3],"split_indices":[5,0,0,0,0,0,0],"split_type":[0,0,0,0,0,0,0],"sum_hessian":[1E1,4E0,6E0,2E0,2E0,4E0,2E0],"tree_param":{"num_deleted":"0","num_feature":"24","num_nodes":"7","size_leaf_vector":"1"}},{"base_weights":[5.0258095E-4,6.973448E-2,-4.902057E-2,1.0237356E-3,4.7874707E-3,-2.9749752E-3,-1.3143249E-3],"categories":[],"categories_nodes":[],"categories_segments":[],"categories_sizes":[],"default_left":[0,0,0,0,0,0,0],"id":3,"left_children":[1,3,5,-1,-1,-1,-1],"loss_changes":[4.1132823E-2,4.4470076E-3,1.0356866E-4,0E0,0E0,0E0,0E0],"parents":[2147483647,0,0,1,1,2,2],"right_children":[2,4,6,-1,-1,-1,-1],"split_conditions":[2E0,8.1E1,6E0,1.0237356E-3,4.7874707E-3,-2.9749752E-3,-1.3143249E-3],"split_indices":[5,0,6,0,0,0,0],"split_type":[0,0,0,0,0,0,0],"sum_hessian":[1E1,4E0,6E0,2E0,2E0,3E0,3E0],"tree_param":{"num_deleted":"0","num_feature":"24","num_nodes":"7","size_leaf_vector":"1"}},{"base_weights":[6.1582436E-4,6.7410015E-2,-4.7182288E-2,9.89612E-4,4.6278895E-3,-1.4327663E-3,-3.1166563E-3],"categories":[],"categories_nodes":[],"categories_segments":[],"categories_sizes":[],"default_left":[0,0,0,0,0,0,0],"id":4,"left_children":[1,3,5,-1,-1,-1,-1],"loss_changes":[3.8299557E-2,4.1554794E-3,1.7871521E-4,0E0,0E0,0E0,0E0],"parents":[2147483647,0,0,1,1,2,2],"right_children":[2,4,6,-1,-1,-1,-1],"split_conditions":[2E0,8.1E1,8.4E1,9.89612E-4,4.6278895E-3,-1.4327663E-3,-3.1166563E-3],"split_indices":[5,0,0,0,0,0,0],"split_type":[0,0,0,0,0,0,0],"sum_hessian":[1E1,4E0,6E0,2E0,2E0,4E0,2E0],"tree_param":{"num_deleted":"0","num_feature":"24","num_nodes":"7","size_leaf_vector":"1"}},{"base_weights":[6.821264E-4,6.5162994E-2,-4.547308E-2,9.5662475E-4,4.4736248E-3,-1.3754553E-3,-3.0127675E-3],"categories":[],"categories_nodes":[],"categories_segments":[],"categories_sizes":[],"default_left":[0,0,0,0,0,0,0],"id":5,"left_children":[1,3,5,-1,-1,-1,-1],"loss_changes":[3.5700567E-2,3.88306E-3,2.0126812E-4,0E0,0E0,0E0,0E0],"parents":[2147483647,0,0,1,1,2,2],"right_children":[2,4,6,-1,-1,-1,-1],"split_conditions":[2E0,8.1E1,8.4E1,9.5662475E-4,4.4736248E-3,-1.3754553E-3,-3.0127675E-3],"split_indices":[5,0,0,0,0,0,0],"split_type":[0,0,0,0,0,0,0],"sum_hessian":[1E1,4E0,6E0,2E0,2E0,4E0,2E0],"tree_param":{"num_deleted":"0","num_feature":"24","num_nodes":"7","size_leaf_vector":"1"}},{"base_weights":[7.4276055E-4,6.2990926E-2,-4.3826323E-2,9.2473824E-4,4.324506E-3,-1.3204379E-3,-2.9123416E-3],"categories":[],"categories_nodes":[],"categories_segments":[],"categories_sizes":[],"default_left":[0,0,0,0,0,0,0],"id":6,"left_children":[1,3,5,-1,-1,-1,-1],"loss_changes":[3.3278443E-2,3.6285035E-3,2.1996442E-4,0E0,0E0,0E0,0E0],"parents":[2147483647,0,0,1,1,2,2],"right_children":[2,4,6,-1,-1,-1,-1],"split_conditions":[2E0,8.1E1,8.4E1,9.2473824E-4,4.324506E-3,-1.3204379E-3,-2.9123416E-3],"split_indices":[5,0,0,0,0,0,0],"split_type":[0,0,0,0,0,0,0],"sum_hessian":[1E1,4E0,6E0,2E0,2E0,4E0,2E0],"tree_param":{"num_deleted":"0","num_feature":"24","num_nodes":"7","size_leaf_vector":"1"}},{"base_weights":[7.9800864E-4,6.08912E-2,-4.22397E-2,2.7261347E-2,4.885265E-3,-1.267621E-3,-2.8152636E-3,2.954349E-4,1.6204665E-3],"categories":[],"categories_nodes":[],"categories_segments":[],"categories_sizes":[],"default_left":[0,0,0,0,0,0,0,0,0],"id":7,"left_children":[1,3,5,7,-1,-1,-1,-1,-1],"loss_changes":[3.102103E-2,3.5266858E-3,2.352288E-4,2.4819514E-4,0E0,0E0,0E0,0E0,0E0],"parents":[2147483647,0,0,1,1,2,2,3,3],"right_children":[2,4,6,8,-1,-1,-1,-1,-1],"split_conditions":[2E0,8.5E1,8.4E1,7.2E1,4.885265E-3,-1.267621E-3,-2.8152636E-3,2.954349E-4,1.6204665E-3],"split_indices":[5,0,0,0,0,0,0,0,0],"split_type":[0,0,0,0,0,0,0,0,0],"sum_hessian":[1E1,4E0,6E0,3E0,1E0,4E0,2E0,1E0,2E0],"tree_param":{"num_deleted":"0","num_feature":"24","num_nodes":"9","size_leaf_vector":"1"}},{"base_weights":[1.005216E-3,5.9206866E-2,-4.0710993E-2,2.637726E-2,4.7631324E-3,-1.2169165E-3,-2.7214221E-3,2.8804838E-4,1.5664519E-3],"categories":[],"categories_nodes":[],"categories_segments":[],"categories_sizes":[],"default_left":[0,0,0,0,0,0,0,0,0],"id":8,"left_children":[1,3,5,7,-1,-1,-1,-1,-1],"loss_changes":[2.9117847E-2,3.4057181E-3,2.474403E-4,2.278632E-4,0E0,0E0,0E0,0E0,0E0],"parents":[2147483647,0,0,1,1,2,2,3,3],"right_children":[2,4,6,8,-1,-1,-1,-1,-1],"split_conditions":[2E0,8.5E1,8.4E1,7.2E1,4.7631324E-3,-1.2169165E-3,-2.7214221E-3,2.8804838E-4,1.5664519E-3],"split_indices":[5,0,0,0,0,0,0,0,0],"split_type":[0,0,0,0,0,0,0,0,0],"sum_hessian":[1E1,4E0,6E0,3E0,1E0,4E0,2E0,1E0,2E0],"tree_param":{"num_deleted":"0","num_feature":"24","num_nodes":"9","size_leaf_vector":"1"}},{"base_weights":[1.1985247E-3,5.7570063E-2,-3.9238077E-2,2.5522038E-2,4.6440545E-3,-1.1682409E-3,-2.6307076E-3,2.8084667E-4,1.5142382E-3],"categories":[],"categories_nodes":[],"categories_segments":[],"categories_sizes":[],"default_left":[0,0,0,0,0,0,0,0,0],"id":9,"left_children":[1,3,5,7,-1,-1,-1,-1,-1],"loss_changes":[2.733315E-2,3.287727E-3,2.569342E-4,2.091024E-4,0E0,0E0,0E0,0E0,0E0],"parents":[2147483647,0,0,1,1,2,2,3,3],"right_children":[2,4,6,8,-1,-1,-1,-1,-1],"split_conditions":[2E0,8.5E1,8.4E1,7.2E1,4.6440545E-3,-1.1682409E-3,-2.6307076E-3,2.8084667E-4,1.5142382E-3],"split_indices":[5,0,0,0,0,0,0,0,0],"split_type":[0,0,0,0,0,0,0,0,0],"sum_hessian":[1E1,4E0,6E0,3E0,1E0,4E0,2E0,1E0,2E0],"tree_param":{"num_deleted":"0","num_feature":"24","num_nodes":"9","size_leaf_vector":"1"}},{"base_weights":[1.3786283E-3,5.597941E-2,-3.7818875E-2,2.4694726E-2,4.5279535E-3,-1.1215109E-3,-2.5430173E-3,2.7382522E-4,1.4637649E-3],"categories":[],"categories_nodes":[],"categories_segments":[],"categories_sizes":[],"default_left":[0,0,0,0,0,0,0,0,0],"id":10,"left_children":[1,3,5,7,-1,-1,-1,-1,-1],"loss_changes":[2.5659434E-2,3.1727366E-3,2.6402622E-4,1.917954E-4,0E0,0E0,0E0,0E0,0E0],"parents":[2147483647,0,0,1,1,2,2,3,3],"right_children":[2,4,6,8,-1,-1,-1,-1,-1],"split_conditions":[2E0,8.5E1,8.4E1,7.2E1,4.5279535E-3,-1.1215109E-3,-2.5430173E-3,2.7382522E-4,1.4637649E-3],"split_indices":[5,0,0,0,0,0,0,0,0],"split_type":[0,0,0,0,0,0,0,0,0],"sum_hessian":[1E1,4E0,6E0,3E0,1E0,4E0,2E0,1E0,2E0],"tree_param":{"num_deleted":"0","num_feature":"24","num_nodes":"9","size_leaf_vector":"1"}},{"base_weights":[1.5461608E-3,5.4433547E-2,-3.6451425E-2,2.3894385E-2,4.4147554E-3,-1.0766501E-3,-2.4582497E-3,2.6697965E-4,1.4149726E-3],"categories":[],"categories_nodes":[],"categories_segments":[],"categories_sizes":[],"default_left":[0,0,0,0,0,0,0,0,0],"id":11,"left_children":[1,3,5,7,-1,-1,-1,-1,-1],"loss_changes":[2.4089705E-2,3.06076E-3,2.689939E-4,1.75833E-4,0E0,0E0,0E0,0E0,0E0],"parents":[2147483647,0,0,1,1,2,2,3,3],"right_children":[2,4,6,8,-1,-1,-1,-1,-1],"split_conditions":[2E0,8.5E1,8.4E1,7.2E1,4.4147554E-3,-1.0766501E-3,-2.4582497E-3,2.6697965E-4,1.4149726E-3],"split_indices":[5,0,0,0,0,0,0,0,0],"split_type":[0,0,0,0,0,0,0,0,0],"sum_hessian":[1E1,4E0,6E0,3E0,1E0,4E0,2E0,1E0,2E0],"tree_param":{"num_deleted":"0","num_feature":"24","num_nodes":"9","size_leaf_vector":"1"}},{"base_weights":[1.7017343E-3,5.293119E-2,-3.513384E-2,2.3120135E-2,4.3043853E-3,-1.0335845E-3,-2.376307E-3,2.6030542E-4,1.3678054E-3],"categories":[],"categories_nodes":[],"categories_segments":[],"categories_sizes":[],"default_left":[0,0,0,0,0,0,0,0,0],"id":12,"left_children":[1,3,5,7,-1,-1,-1,-1,-1],"loss_changes":[2.2617407E-2,2.9517924E-3,2.7208962E-4,1.6111461E-4,0E0,0E0,0E0,0E0,0E0],"parents":[2147483647,0,0,1,1,2,2,3,3],"right_children":[2,4,6,8,-1,-1,-1,-1,-1],"split_conditions":[2E0,8.5E1,8.4E1,7.2E1,4.3043853E-3,-1.0335845E-3,-2.376307E-3,2.6030542E-4,1.3678054E-3],"split_indices":[5,0,0,0,0,0,0,0,0],"split_type":[0,0,0,0,0,0,0,0,0],"sum_hessian":[1E1,4E0,6E0,3E0,1E0,4E0,2E0,1E0,2E0],"tree_param":{"num_deleted":"0","num_feature":"24","num_nodes":"9","size_leaf_vector":"1"}},{"base_weights":[1.845983E-3,5.1471125E-2,-3.386426E-2,2.2371158E-2,4.196775E-3,-9.922403E-4,-2.2970967E-3,2.5379806E-4,1.3222118E-3],"categories":[],"categories_nodes":[],"categories_segments":[],"categories_sizes":[],"default_left":[0,0,0,0,0,0,0,0,0],"id":13,"left_children":[1,3,5,7,-1,-1,-1,-1,-1],"loss_changes":[2.1236418E-2,2.8458266E-3,2.7354714E-4,1.4754874E-4,0E0,0E0,0E0,0E0,0E0],"parents":[2147483647,0,0,1,1,2,2,3,3],"right_children":[2,4,6,8,-1,-1,-1,-1,-1],"split_conditions":[2E0,8.5E1,8.4E1,7.2E1,4.196775E-3,-9.922403E-4,-2.2970967E-3,2.5379806E-4,1.3222118E-3],"split_indices":[5,0,0,0,0,0,0,0,0],"split_type":[0,0,0,0,0,0,0,0,0],"sum_hessian":[1E1,4E0,6E0,3E0,1E0,4E0,2E0,1E0,2E0],"tree_param":{"num_deleted":"0","num_feature":"24","num_nodes":"9","size_leaf_vector":"1"}},{"base_weights":[1.9794377E-3,5.0052095E-2,-3.2640953E-2,2.164656E-2,4.091856E-3,-9.525508E-4,-2.2205263E-3,2.4745168E-4,1.2781363E-3],"categories":[],"categories_nodes":[],"categories_segments":[],"categories_sizes":[],"default_left":[0,0,0,0,0,0,0,0,0],"id":14,"left_children":[1,3,5,7,-1,-1,-1,-1,-1],"loss_changes":[1.9940982E-2,2.7428614E-3,2.7356902E-4,1.3505016E-4,0E0,0E0,0E0,0E0,0E0],"parents":[2147483647,0,0,1,1,2,2,3,3],"right_children":[2,4,6,8,-1,-1,-1,-1,-1],"split_conditions":[2E0,8.5E1,8.4E1,7.2E1,4.091856E-3,-9.525508E-4,-2.2205263E-3,2.4745168E-4,1.2781363E-3],"split_indices":[5,0,0,0,0,0,0,0,0],"split_type":[0,0,0,0,0,0,0,0,0],"sum_hessian":[1E1,4E0,6E0,3E0,1E0,4E0,2E0,1E0,2E0],"tree_param":{"num_deleted":"0","num_feature":"24","num_nodes":"9","size_leaf_vector":"1"}},{"base_weights":[2.1026677E-3,4.8672963E-2,-3.146221E-2,2.0945609E-2,3.9895596E-3,-1.9738288E-3,-7.7911466E-4,2.412647E-4,1.2355308E-3],"categories":[],"categories_nodes":[],"categories_segments":[],"categories_sizes":[],"default_left":[0,0,0,0,0,0,0,0,0],"id":15,"left_children":[1,3,5,7,-1,-1,-1,-1,-1],"loss_changes":[1.8725747E-2,2.642856E-3,2.7573667E-4,1.2353633E-4,0E0,0E0,0E0,0E0,0E0],"parents":[2147483647,0,0,1,1,2,2,3,3],"right_children":[2,4,6,8,-1,-1,-1,-1,-1],"split_conditions":[2E0,8.5E1,6E0,7.2E1,3.9895596E-3,-1.9738288E-3,-7.7911466E-4,2.412647E-4,1.2355308E-3],"split_indices":[5,0,6,0,0,0,0,0,0],"split_type":[0,0,0,0,0,0,0,0,0],"sum_hessian":[1E1,4E0,6E0,3E0,1E0,3E0,3E0,1E0,2E0],"tree_param":{"num_deleted":"0","num_feature":"24","num_nodes":"9","size_leaf_vector":"1"}},{"base_weights":[2.2442015E-3,4.7332596E-2,-3.0282395E-2,2.0267546E-2,3.88982E-3,-8.7133824E-4,-2.0807157E-3,2.3523271E-4,1.194348E-3],"categories":[],"categories_nodes":[],"categories_segments":[],"categories_sizes":[],"default_left":[0,0,0,0,0,0,0,0,0],"id":16,"left_children":[1,3,5,7,-1,-1,-1,-1,-1],"loss_changes":[1.7565636E-2,2.5457796E-3,2.945494E-4,1.1293404E-4,0E0,0E0,0E0,0E0,0E0],"parents":[2147483647,0,0,1,1,2,2,3,3],"right_children":[2,4,6,8,-1,-1,-1,-1,-1],"split_conditions":[2E0,8.5E1,8.4E1,7.2E1,3.88982E-3,-8.7133824E-4,-2.0807157E-3,2.3523271E-4,1.194348E-3],"split_indices":[5,0,0,0,0,0,0,0,0],"split_type":[0,0,0,0,0,0,0,0,0],"sum_hessian":[1E1,4E0,6E0,3E0,1E0,4E0,2E0,1E0,2E0],"tree_param":{"num_deleted":"0","num_feature":"24","num_nodes":"9","size_leaf_vector":"1"}},{"base_weights":[2.34722E-3,4.6029855E-2,-2.9189978E-2,1.9611567E-2,3.792575E-3,-8.3648384E-4,-2.0113578E-3,2.2935272E-4,1.154536E-3],"categories":[],"categories_nodes":[],"categories_segments":[],"categories_sizes":[],"default_left":[0,0,0,0,0,0,0,0,0],"id":17,"left_children":[1,3,5,7,-1,-1,-1,-1,-1],"loss_changes":[1.6497517E-2,2.4516182E-3,2.896986E-4,1.03171915E-4,0E0,0E0,0E0,0E0,0E0],"parents":[2147483647,0,0,1,1,2,2,3,3],"right_children":[2,4,6,8,-1,-1,-1,-1,-1],"split_conditions":[2E0,8.5E1,8.4E1,7.2E1,3.792575E-3,-8.3648384E-4,-2.0113578E-3,2.2935272E-4,1.154536E-3],"split_indices":[5,0,0,0,0,0,0,0,0],"split_type":[0,0,0,0,0,0,0,0,0],"sum_hessian":[1E1,4E0,6E0,3E0,1E0,4E0,2E0,1E0,2E0],"tree_param":{"num_deleted":"0","num_feature":"24","num_nodes":"9","size_leaf_vector":"1"}},{"base_weights":[2.441558E-3,4.4763662E-2,-2.813731E-2,1.8976957E-2,3.697762E-3,-8.0302416E-4,-1.9443125E-3,2.2361874E-4,1.1160512E-3],"categories":[],"categories_nodes":[],"categories_segments":[],"categories_sizes":[],"default_left":[0,0,0,0,0,0,0,0,0],"id":18,"left_children":[1,3,5,7,-1,-1,-1,-1,-1],"loss_changes":[1.5495311E-2,2.360328E-3,2.841591E-4,9.418931E-5,0E0,0E0,0E0,0E0,0E0],"parents":[2147483647,0,0,1,1,2,2,3,3],"right_children":[2,4,6,8,-1,-1,-1,-1,-1],"split_conditions":[2E0,8.5E1,8.4E1,7.2E1,3.697762E-3,-8.0302416E-4,-1.9443125E-3,2.2361874E-4,1.1160512E-3],"split_indices":[5,0,0,0,0,0,0,0,0],"split_type":[0,0,0,0,0,0,0,0,0],"sum_hessian":[1E1,4E0,6E0,3E0,1E0,4E0,2E0,1E0,2E0],"tree_param":{"num_deleted":"0","num_feature":"24","num_nodes":"9","size_leaf_vector":"1"}},{"base_weights":[2.5276812E-3,4.3532968E-2,-2.7122905E-2,1.8363029E-2,3.605318E-3,-7.70902E-4,-1.8795023E-3,2.1802784E-4,1.07885E-3],"categories":[],"categories_nodes":[],"categories_segments":[],"categories_sizes":[],"default_left":[0,0,0,0,0,0,0,0,0],"id":19,"left_children":[1,3,5,7,-1,-1,-1,-1,-1],"loss_changes":[1.455488E-2,2.2718608E-3,2.7805008E-4,8.59265E-5,0E0,0E0,0E0,0E0,0E0],"parents":[2147483647,0,0,1,1,2,2,3,3],"right_children":[2,4,6,8,-1,-1,-1,-1,-1],"split_conditions":[2E0,8.5E1,8.4E1,7.2E1,3.605318E-3,-7.70902E-4,-1.8795023E-3,2.1802784E-4,1.07885E-3],"split_indices":[5,0,0,0,0,0,0,0,0],"split_type":[0,0,0,0,0,0,0,0,0],"sum_hessian":[1E1,4E0,6E0,3E0,1E0,4E0,2E0,1E0,2E0],"tree_param":{"num_deleted":"0","num_feature":"24","num_nodes":"9","size_leaf_vector":"1"}},{"base_weights":[2.6060126E-3,4.233675E-2,-2.6145373E-2,1.7769098E-2,3.515184E-3,-7.4006495E-4,-1.8168519E-3,2.1257698E-4,1.0428886E-3],"categories":[],"categories_nodes":[],"categories_segments":[],"categories_sizes":[],"default_left":[0,0,0,0,0,0,0,0,0],"id":20,"left_children":[1,3,5,7,-1,-1,-1,-1,-1],"loss_changes":[1.3672361E-2,2.1861764E-3,2.7146935E-4,7.832772E-5,0E0,0E0,0E0,0E0,0E0],"parents":[2147483647,0,0,1,1,2,2,3,3],"right_children":[2,4,6,8,-1,-1,-1,-1,-1],"split_conditions":[2E0,8.5E1,8.4E1,7.2E1,3.515184E-3,-7.4006495E-4,-1.8168519E-3,2.1257698E-4,1.0428886E-3],"split_indices":[5,0,0,0,0,0,0,0,0],"split_type":[0,0,0,0,0,0,0,0,0],"sum_hessian":[1E1,4E0,6E0,3E0,1E0,4E0,2E0,1E0,2E0],"tree_param":{"num_deleted":"0","num_feature":"24","num_nodes":"9","size_leaf_vector":"1"}},{"base_weights":[2.6769638E-3,4.1174054E-2,-2.520338E-2,1.719454E-2,3.427303E-3,-7.104629E-4,-1.7562896E-3,2.0726323E-4,1.0081272E-3],"categories":[],"categories_nodes":[],"categories_segments":[],"categories_sizes":[],"default_left":[0,0,0,0,0,0,0,0,0],"id":21,"left_children":[1,3,5,7,-1,-1,-1,-1,-1],"loss_changes":[1.2844159E-2,2.1032197E-3,2.6450586E-4,7.134199E-5,0E0,0E0,0E0,0E0,0E0],"parents":[2147483647,0,0,1,1,2,2,3,3],"right_children":[2,4,6,8,-1,-1,-1,-1,-1],"split_conditions":[2E0,8.5E1,8.4E1,7.2E1,3.427303E-3,-7.104629E-4,-1.7562896E-3,2.0726323E-4,1.0081272E-3],"split_indices":[5,0,0,0,0,0,0,0,0],"split_type":[0,0,0,0,0,0,0,0,0],"sum_hessian":[1E1,4E0,6E0,3E0,1E0,4E0,2E0,1E0,2E0],"tree_param":{"num_deleted":"0","num_feature":"24","num_nodes":"9","size_leaf_vector":"1"}},{"base_weights":[2.740936E-3,4.004388E-2,-2.4295585E-2,1.6638637E-2,3.3416213E-3,-6.8204344E-4,-1.697746E-3,2.0208061E-4,9.745221E-4],"categories":[],"categories_nodes":[],"categories_segments":[],"categories_sizes":[],"default_left":[0,0,0,0,0,0,0,0,0],"id":22,"left_children":[1,3,5,7,-1,-1,-1,-1,-1],"loss_changes":[1.2066849E-2,2.022962E-3,2.5724713E-4,6.492424E-5,0E0,0E0,0E0,0E0,0E0],"parents":[2147483647,0,0,1,1,2,2,3,3],"right_children":[2,4,6,8,-1,-1,-1,-1,-1],"split_conditions":[2E0,8.5E1,8.4E1,7.2E1,3.3416213E-3,-6.8204344E-4,-1.697746E-3,2.0208061E-4,9.745221E-4],"split_indices":[5,0,0,0,0,0,0,0,0],"split_type":[0,0,0,0,0,0,0,0,0],"sum_hessian":[1E1,4E0,6E0,3E0,1E0,4E0,2E0,1E0,2E0],"tree_param":{"num_deleted":"0","num_feature":"24","num_nodes":"9","size_leaf_vector":"1"}},{"base_weights":[2.7982863E-3,3.8945317E-2,-2.3420777E-2,1.6100854E-2,3.2580793E-3,-7.475898E-4,-1.8558666E-3,1.9702912E-4,9.4203756E-4],"categories":[],"categories_nodes":[],"categories_segments":[],"categories_sizes":[],"default_left":[0,0,0,0,0,0,0,0,0],"id":23,"left_children":[1,3,5,7,-1,-1,-1,-1,-1],"loss_changes":[1.1337284E-2,1.9453261E-3,2.5700033E-4,5.902804E-5,0E0,0E0,0E0,0E0,0E0],"parents":[2147483647,0,0,1,1,2,2,3,3],"right_children":[2,4,6,8,-1,-1,-1,-1,-1],"split_conditions":[2E0,8.5E1,4.51E2,7.2E1,3.2580793E-3,-7.475898E-4,-1.8558666E-3,1.9702912E-4,9.4203756E-4],"split_indices":[5,0,2,0,0,0,0,0,0],"split_type":[0,0,0,0,0,0,0,0,0],"sum_hessian":[1E1,4E0,6E0,3E0,1E0,5E0,1E0,1E0,2E0],"tree_param":{"num_deleted":"0","num_feature":"24","num_nodes":"9","size_leaf_vector":"1"}},{"base_weights":[2.8214238E-3,3.787749E-2,-2.2621682E-2,1.5580595E-2,3.1766265E-3,-7.1644137E-4,-1.8094704E-3,1.9210279E-4,9.1063784E-4],"categories":[],"categories_nodes":[],"categories_segments":[],"categories_sizes":[],"default_left":[0,0,0,0,0,0,0,0,0],"id":24,"left_children":[1,3,5,7,-1,-1,-1,-1,-1],"loss_changes":[1.066814E-2,1.8702643E-3,2.6905444E-4,5.3616473E-5,0E0,0E0,0E0,0E0,0E0],"parents":[2147483647,0,0,1,1,2,2,3,3],"right_children":[2,4,6,8,-1,-1,-1,-1,-1],"split_conditions":[2E0,8.5E1,4.51E2,7.2E1,3.1766265E-3,-7.1644137E-4,-1.8094704E-3,1.9210279E-4,9.1063784E-4],"split_indices":[5,0,2,0,0,0,0,0,0],"split_type":[0,0,0,0,0,0,0,0,0],"sum_hessian":[1E1,4E0,6E0,3E0,1E0,5E0,1E0,1E0,2E0],"tree_param":{"num_deleted":"0","num_feature":"24","num_nodes":"9","size_leaf_vector":"1"}},{"base_weights":[2.839771E-3,3.6839508E-2,-2.1851437E-2,1.5077263E-2,3.0972124E-3,-6.865894E-4,-1.7642335E-3,1.8730164E-4,8.802831E-4],"categories":[],"categories_nodes":[],"categories_segments":[],"categories_sizes":[],"default_left":[0,0,0,0,0,0,0,0,0],"id":25,"left_children":[1,3,5,7,-1,-1,-1,-1,-1],"loss_changes":[1.0039438E-2,1.7977273E-3,2.7899048E-4,4.86481E-5,0E0,0E0,0E0,0E0,0E0],"parents":[2147483647,0,0,1,1,2,2,3,3],"right_children":[2,4,6,8,-1,-1,-1,-1,-1],"split_conditions":[2E0,8.5E1,4.51E2,7.2E1,3.0972124E-3,-6.865894E-4,-1.7642335E-3,1.8730164E-4,8.802831E-4],"split_indices":[5,0,2,0,0,0,0,0,0],"split_type":[0,0,0,0,0,0,0,0,0],"sum_hessian":[1E1,4E0,6E0,3E0,1E0,5E0,1E0,1E0,2E0],"tree_param":{"num_deleted":"0","num_feature":"24","num_nodes":"9","size_leaf_vector":"1"}},{"base_weights":[2.8536103E-3,3.583052E-2,-2.1108985E-2,1.4590323E-2,3.019783E-3,-6.5798167E-4,-1.7201275E-3,1.826197E-4,8.509417E-4],"categories":[],"categories_nodes":[],"categories_segments":[],"categories_sizes":[],"default_left":[0,0,0,0,0,0,0,0,0],"id":26,"left_children":[1,3,5,7,-1,-1,-1,-1,-1],"loss_changes":[9.448682E-3,1.7276504E-3,2.8700195E-4,4.4092012E-5,0E0,0E0,0E0,0E0,0E0],"parents":[2147483647,0,0,1,1,2,2,3,3],"right_children":[2,4,6,8,-1,-1,-1,-1,-1],"split_conditions":[2E0,8.5E1,4.51E2,7.2E1,3.019783E-3,-6.5798167E-4,-1.7201275E-3,1.826197E-4,8.509417E-4],"split_indices":[5,0,2,0,0,0,0,0,0],"split_type":[0,0,0,0,0,0,0,0,0],"sum_hessian":[1E1,4E0,6E0,3E0,1E0,5E0,1E0,1E0,2E0],"tree_param":{"num_deleted":"0","num_feature":"24","num_nodes":"9","size_leaf_vector":"1"}},{"base_weights":[2.863223E-3,3.4849666E-2,-2.039327E-2,1.4119208E-2,2.9442876E-3,-6.30566E-4,-1.6771242E-3,1.7805398E-4,8.225779E-4],"categories":[],"categories_nodes":[],"categories_segments":[],"categories_sizes":[],"default_left":[0,0,0,0,0,0,0,0,0],"id":27,"left_children":[1,3,5,7,-1,-1,-1,-1,-1],"loss_changes":[8.893517E-3,1.6599754E-3,2.9327045E-4,3.991573E-5,0E0,0E0,0E0,0E0,0E0],"parents":[2147483647,0,0,1,1,2,2,3,3],"right_children":[2,4,6,8,-1,-1,-1,-1,-1],"split_conditions":[2E0,8.5E1,4.51E2,7.2E1,2.9442876E-3,-6.30566E-4,-1.6771242E-3,1.7805398E-4,8.225779E-4],"split_indices":[5,0,2,0,0,0,0,0,0],"split_type":[0,0,0,0,0,0,0,0,0],"sum_hessian":[1E1,4E0,6E0,3E0,1E0,5E0,1E0,1E0,2E0],"tree_param":{"num_deleted":"0","num_feature":"24","num_nodes":"9","size_leaf_vector":"1"}},{"base_weights":[2.8689017E-3,3.3896185E-2,-1.9703286E-2,1.3663411E-2,2.870682E-3,-6.042928E-4,-1.6351969E-3,1.7360151E-4,7.951598E-4],"categories":[],"categories_nodes":[],"categories_segments":[],"categories_sizes":[],"default_left":[0,0,0,0,0,0,0,0,0],"id":28,"left_children":[1,3,5,7,-1,-1,-1,-1,-1],"loss_changes":[8.371756E-3,1.5946506E-3,2.9796595E-4,3.6089565E-5,0E0,0E0,0E0,0E0,0E0],"parents":[2147483647,0,0,1,1,2,2,3,3],"right_children":[2,4,6,8,-1,-1,-1,-1,-1],"split_conditions":[2E0,8.5E1,4.51E2,7.2E1,2.870682E-3,-6.042928E-4,-1.6351969E-3,1.7360151E-4,7.951598E-4],"split_indices":[5,0,2,0,0,0,0,0,0],"split_type":[0,0,0,0,0,0,0,0,0],"sum_hessian":[1E1,4E0,6E0,3E0,1E0,5E0,1E0,1E0,2E0],"tree_param":{"num_deleted":"0","num_feature":"24","num_nodes":"9","size_leaf_vector":"1"}},{"base_weights":[2.8709064E-3,3.2969285E-2,-1.9038064E-2,1.3222456E-2,2.798915E-3,-5.7911477E-4,-1.594317E-3,1.6926229E-4,7.6865556E-4],"categories":[],"categories_nodes":[],"categories_segments":[],"categories_sizes":[],"default_left":[0,0,0,0,0,0,0,0,0],"id":29,"left_children":[1,3,5,7,-1,-1,-1,-1,-1],"loss_changes":[7.881341E-3,1.5316047E-3,3.012393E-4,3.2584067E-5,0E0,0E0,0E0,0E0,0E0],"parents":[2147483647,0,0,1,1,2,2,3,3],"right_children":[2,4,6,8,-1,-1,-1,-1,-1],"split_conditions":[2E0,8.5E1,4.51E2,7.2E1,2.798915E-3,-5.7911477E-4,-1.594317E-3,1.6926229E-4,7.6865556E-4],"split_indices":[5,0,2,0,0,0,0,0,0],"split_type":[0,0,0,0,0,0,0,0,0],"sum_hessian":[1E1,4E0,6E0,3E0,1E0,5E0,1E0,1E0,2E0],"tree_param":{"num_deleted":"0","num_feature":"24","num_nodes":"9","size_leaf_vector":"1"}},{"base_weights":[2.8694868E-3,3.206818E-2,-1.839665E-2,1.2795806E-2,2.728942E-3,-5.5498484E-4,-1.5544593E-3,1.6503036E-4,7.4303354E-4],"categories":[],"categories_nodes":[],"categories_segments":[],"categories_sizes":[],"default_left":[0,0,0,0,0,0,0,0,0],"id":30,"left_children":[1,3,5,7,-1,-1,-1,-1,-1],"loss_changes":[7.420325E-3,1.4707893E-3,3.0323747E-4,2.9375893E-5,0E0,0E0,0E0,0E0,0E0],"parents":[2147483647,0,0,1,1,2,2,3,3],"right_children":[2,4,6,8,-1,-1,-1,-1,-1],"split_conditions":[2E0,8.5E1,4.51E2,7.2E1,2.728942E-3,-5.5498484E-4,-1.5544593E-3,1.6503036E-4,7.4303354E-4],"split_indices":[5,0,2,0,0,0,0,0,0],"split_type":[0,0,0,0,0,0,0,0,0],"sum_hessian":[1E1,4E0,6E0,3E0,1E0,5E0,1E0,1E0,2E0],"tree_param":{"num_deleted":"0","num_feature":"24","num_nodes":"9","size_leaf_vector":"1"}},{"base_weights":[2.8648863E-3,3.1192183E-2,-1.7778168E-2,1.2383044E-2,2.6607185E-3,-4.476613E-4,-1.3280173E-3,1.6090572E-4,7.182658E-4],"categories":[],"categories_nodes":[],"categories_segments":[],"categories_sizes":[],"default_left":[0,0,0,0,0,0,0,0,0],"id":31,"left_children":[1,3,5,7,-1,-1,-1,-1,-1],"loss_changes":[6.9869207E-3,1.4121365E-3,3.0471478E-4,2.6440248E-5,0E0,0E0,0E0,0E0,0E0],"parents":[2147483647,0,0,1,1,2,2,3,3],"right_children":[2,4,6,8,-1,-1,-1,-1,-1],"split_conditions":[2E0,8.5E1,8.4E1,7.2E1,2.6607185E-3,-4.476613E-4,-1.3280173E-3,1.6090572E-4,7.182658E-4],"split_indices":[5,0,0,0,0,0,0,0,0],"split_type":[0,0,0,0,0,0,0,0,0],"sum_hessian":[1E1,4E0,6E0,3E0,1E0,4E0,2E0,1E0,2E0],"tree_param":{"num_deleted":"0","num_feature":"24","num_nodes":"9","size_leaf_vector":"1"}},{"base_weights":[2.8820308E-3,3.0340552E-2,-1.7142918E-2,1.1983693E-2,2.5941997E-3,-5.058711E-4,-1.4823973E-3,1.5688241E-4,6.943246E-4],"categories":[],"categories_nodes":[],"categories_segments":[],"categories_sizes":[],"default_left":[0,0,0,0,0,0,0,0,0],"id":32,"left_children":[1,3,5,7,-1,-1,-1,-1,-1],"loss_changes":[6.5685357E-3,1.355588E-3,3.1501753E-4,2.3758039E-5,0E0,0E0,0E0,0E0,0E0],"parents":[2147483647,0,0,1,1,2,2,3,3],"right_children":[2,4,6,8,-1,-1,-1,-1,-1],"split_conditions":[2E0,8.5E1,4.51E2,7.2E1,2.5941997E-3,-5.058711E-4,-1.4823973E-3,1.5688241E-4,6.943246E-4],"split_indices":[5,0,2,0,0,0,0,0,0],"split_type":[0,0,0,0,0,0,0,0,0],"sum_hessian":[1E1,4E0,6E0,3E0,1E0,5E0,1E0,1E0,2E0],"tree_param":{"num_deleted":"0","num_feature":"24","num_nodes":"9","size_leaf_vector":"1"}},{"base_weights":[2.8703972E-3,2.951262E-2,-1.656982E-2,1.1597335E-2,2.529344E-3,-4.8479342E-4,-1.4453381E-3,1.5296042E-4,6.7118206E-4],"categories":[],"categories_nodes":[],"categories_segments":[],"categories_sizes":[],"default_left":[0,0,0,0,0,0,0,0,0],"id":33,"left_children":[1,3,5,7,-1,-1,-1,-1,-1],"loss_changes":[6.1862543E-3,1.3010842E-3,3.1334872E-4,2.1307205E-5,0E0,0E0,0E0,0E0,0E0],"parents":[2147483647,0,0,1,1,2,2,3,3],"right_children":[2,4,6,8,-1,-1,-1,-1,-1],"split_conditions":[2E0,8.5E1,4.51E2,7.2E1,2.529344E-3,-4.8479342E-4,-1.4453381E-3,1.5296042E-4,6.7118206E-4],"split_indices":[5,0,2,0,0,0,0,0,0],"split_type":[0,0,0,0,0,0,0,0,0],"sum_hessian":[1E1,4E0,6E0,3E0,1E0,5E0,1E0,1E0,2E0],"tree_param":{"num_deleted":"0","num_feature":"24","num_nodes":"9","size_leaf_vector":"1"}},{"base_weights":[2.8562655E-3,2.8707694E-2,-1.601708E-2,1.1223525E-2,2.4661093E-3,-4.645949E-4,-1.4092043E-3,1.4913679E-4,6.4881047E-4],"categories":[],"categories_nodes":[],"categories_segments":[],"categories_sizes":[],"default_left":[0,0,0,0,0,0,0,0,0],"id":34,"left_children":[1,3,5,7,-1,-1,-1,-1,-1],"loss_changes":[5.8267456E-3,1.2485678E-3,3.1089375E-4,1.906947E-5,0E0,0E0,0E0,0E0,0E0],"parents":[2147483647,0,0,1,1,2,2,3,3],"right_children":[2,4,6,8,-1,-1,-1,-1,-1],"split_conditions":[2E0,8.5E1,4.51E2,7.2E1,2.4661093E-3,-4.645949E-4,-1.4092043E-3,1.4913679E-4,6.4881047E-4],"split_indices":[5,0,2,0,0,0,0,0,0],"split_type":[0,0,0,0,0,0,0,0,0],"sum_hessian":[1E1,4E0,6E0,3E0,1E0,5E0,1E0,1E0,2E0],"tree_param":{"num_deleted":"0","num_feature":"24","num_nodes":"9","size_leaf_vector":"1"}},{"base_weights":[2.839847E-3,2.792511E-2,-1.5483891E-2,1.0861814E-2,2.4044574E-3,-4.4523575E-4,-1.3739736E-3,1.4540851E-4,6.271819E-4],"categories":[],"categories_nodes":[],"categories_segments":[],"categories_sizes":[],"default_left":[0,0,0,0,0,0,0,0,0],"id":35,"left_children":[1,3,5,7,-1,-1,-1,-1,-1],"loss_changes":[5.4886024E-3,1.1979891E-3,3.077502E-4,1.7027516E-5,0E0,0E0,0E0,0E0,0E0],"parents":[2147483647,0,0,1,1,2,2,3,3],"right_children":[2,4,6,8,-1,-1,-1,-1,-1],"split_conditions":[2E0,8.5E1,4.51E2,7.2E1,2.4044574E-3,-4.4523575E-4,-1.3739736E-3,1.4540851E-4,6.271819E-4],"split_indices":[5,0,2,0,0,0,0,0,0],"split_type":[0,0,0,0,0,0,0,0,0],"sum_hessian":[1E1,4E0,6E0,3E0,1E0,5E0,1E0,1E0,2E0],"tree_param":{"num_deleted":"0","num_feature":"24","num_nodes":"9","size_leaf_vector":"1"}},{"base_weights":[2.8212992E-3,2.716427E-2,-1.4969579E-2,1.0511875E-2,2.3443461E-3,-4.266838E-4,-1.3396249E-3,1.4177263E-4,6.062766E-4],"categories":[],"categories_nodes":[],"categories_segments":[],"categories_sizes":[],"default_left":[0,0,0,0,0,0,0,0,0],"id":36,"left_children":[1,3,5,7,-1,-1,-1,-1,-1],"loss_changes":[5.1705483E-3,1.1492779E-3,3.0399964E-4,1.5167083E-5,0E0,0E0,0E0,0E0,0E0],"parents":[2147483647,0,0,1,1,2,2,3,3],"right_children":[2,4,6,8,-1,-1,-1,-1,-1],"split_conditions":[2E0,8.5E1,4.51E2,7.2E1,2.3443461E-3,-4.266838E-4,-1.3396249E-3,1.4177263E-4,6.062766E-4],"split_indices":[5,0,2,0,0,0,0,0,0],"split_type":[0,0,0,0,0,0,0,0,0],"sum_hessian":[1E1,4E0,6E0,3E0,1E0,5E0,1E0,1E0,2E0],"tree_param":{"num_deleted":"0","num_feature":"24","num_nodes":"9","size_leaf_vector":"1"}},{"base_weights":[2.8007952E-3,2.6424527E-2,-1.4473413E-2,1.0173291E-2,2.2857368E-3,-4.0890425E-4,-1.3061345E-3,1.3822914E-4,5.860666E-4],"categories":[],"categories_nodes":[],"categories_segments":[],"categories_sizes":[],"default_left":[0,0,0,0,0,0,0,0,0],"id":37,"left_children":[1,3,5,7,-1,-1,-1,-1,-1],"loss_changes":[4.871347E-3,1.1023795E-3,2.9971846E-4,1.3471377E-5,0E0,0E0,0E0,0E0,0E0],"parents":[2147483647,0,0,1,1,2,2,3,3],"right_children":[2,4,6,8,-1,-1,-1,-1,-1],"split_conditions":[2E0,8.5E1,4.51E2,7.2E1,2.2857368E-3,-4.0890425E-4,-1.3061345E-3,1.3822914E-4,5.860666E-4],"split_indices":[5,0,2,0,0,0,0,0,0],"split_type":[0,0,0,0,0,0,0,0,0],"sum_hessian":[1E1,4E0,6E0,3E0,1E0,5E0,1E0,1E0,2E0],"tree_param":{"num_deleted":"0","num_feature":"24","num_nodes":"9","size_leaf_vector":"1"}},{"base_weights":[2.7784759E-3,2.5705313E-2,-1.3994762E-2,9.845704E-3,2.228594E-3,-3.9186724E-4,-1.2734815E-3,1.3477207E-4,5.6653225E-4],"categories":[],"categories_nodes":[],"categories_segments":[],"categories_sizes":[],"default_left":[0,0,0,0,0,0,0,0,0],"id":38,"left_children":[1,3,5,7,-1,-1,-1,-1,-1],"loss_changes":[4.58987E-3,1.05724E-3,2.9497454E-4,1.1929806E-5,0E0,0E0,0E0,0E0,0E0],"parents":[2147483647,0,0,1,1,2,2,3,3],"right_children":[2,4,6,8,-1,-1,-1,-1,-1],"split_conditions":[2E0,8.5E1,4.51E2,7.2E1,2.228594E-3,-3.9186724E-4,-1.2734815E-3,1.3477207E-4,5.6653225E-4],"split_indices":[5,0,2,0,0,0,0,0,0],"split_type":[0,0,0,0,0,0,0,0,0],"sum_hessian":[1E1,4E0,6E0,3E0,1E0,5E0,1E0,1E0,2E0],"tree_param":{"num_deleted":"0","num_feature":"24","num_nodes":"9","size_leaf_vector":"1"}},{"base_weights":[2.7544985E-3,2.5006032E-2,-1.3532953E-2,9.528756E-3,2.1728785E-3,-3.7554055E-4,-1.2416452E-3,1.3140142E-4,5.476495E-4],"categories":[],"categories_nodes":[],"categories_segments":[],"categories_sizes":[],"default_left":[0,0,0,0,0,0,0,0,0],"id":39,"left_children":[1,3,5,7,-1,-1,-1,-1,-1],"loss_changes":[4.325034E-3,1.013801E-3,2.898341E-4,1.0528194E-5,0E0,0E0,0E0,0E0,0E0],"parents":[2147483647,0,0,1,1,2,2,3,3],"right_children":[2,4,6,8,-1,-1,-1,-1,-1],"split_conditions":[2E0,8.5E1,4.51E2,7.2E1,2.1728785E-3,-3.7554055E-4,-1.2416452E-3,1.3140142E-4,5.476495E-4],"split_indices":[5,0,2,0,0,0,0,0,0],"split_type":[0,0,0,0,0,0,0,0,0],"sum_hessian":[1E1,4E0,6E0,3E0,1E0,5E0,1E0,1E0,2E0],"tree_param":{"num_deleted":"0","num_feature":"24","num_nodes":"9","size_leaf_vector":"1"}},{"base_weights":[2.729042E-3,2.4326134E-2,-1.30873155E-2,9.22209E-3,2.1185577E-3,-3.5989186E-4,-1.2106047E-3,1.281172E-4,5.2939454E-4],"categories":[],"categories_nodes":[],"categories_segments":[],"categories_sizes":[],"default_left":[0,0,0,0,0,0,0,0,0],"id":40,"left_children":[1,3,5,7,-1,-1,-1,-1,-1],"loss_changes":[4.0758243E-3,9.7201345E-4,2.843592E-4,9.2537375E-6,0E0,0E0,0E0,0E0,0E0],"parents":[2147483647,0,0,1,1,2,2,3,3],"right_children":[2,4,6,8,-1,-1,-1,-1,-1],"split_conditions":[2E0,8.5E1,4.51E2,7.2E1,2.1185577E-3,-3.5989186E-4,-1.2106047E-3,1.281172E-4,5.2939454E-4],"split_indices":[5,0,2,0,0,0,0,0,0],"split_type":[0,0,0,0,0,0,0,0,0],"sum_hessian":[1E1,4E0,6E0,3E0,1E0,5E0,1E0,1E0,2E0],"tree_param":{"num_deleted":"0","num_feature":"24","num_nodes":"9","size_leaf_vector":"1"}},{"base_weights":[2.702182E-3,2.3665022E-2,-1.26573015E-2,8.9253485E-3,2.0655931E-3,-9.1647805E-4,-1.9103587E-4,1.2491345E-4,5.117476E-4],"categories":[],"categories_nodes":[],"categories_segments":[],"categories_sizes":[],"default_left":[0,0,0,0,0,0,0,0,0],"id":41,"left_children":[1,3,5,7,-1,-1,-1,-1,-1],"loss_changes":[3.8412982E-3,9.3182037E-4,2.808316E-4,8.098024E-6,0E0,0E0,0E0,0E0,0E0],"parents":[2147483647,0,0,1,1,2,2,3,3],"right_children":[2,4,6,8,-1,-1,-1,-1,-1],"split_conditions":[2E0,8.5E1,6E0,7.2E1,2.0655931E-3,-9.1647805E-4,-1.9103587E-4,1.2491345E-4,5.117476E-4],"split_indices":[5,0,6,0,0,0,0,0,0],"split_type":[0,0,0,0,0,0,0,0,0],"sum_hessian":[1E1,4E0,6E0,3E0,1E0,3E0,3E0,1E0,2E0],"tree_param":{"num_deleted":"0","num_feature":"24","num_nodes":"9","size_leaf_vector":"1"}},{"base_weights":[2.7120493E-3,2.3022223E-2,-1.2182653E-2,8.638233E-3,2.0139546E-3,-3.248458E-4,-1.1574269E-3,1.2179017E-4,4.9468875E-4],"categories":[],"categories_nodes":[],"categories_segments":[],"categories_sizes":[],"default_left":[0,0,0,0,0,0,0,0,0],"id":42,"left_children":[1,3,5,7,-1,-1,-1,-1,-1],"loss_changes":[3.6081255E-3,8.9317304E-4,2.860499E-4,7.0503447E-6,0E0,0E0,0E0,0E0,0E0],"parents":[2147483647,0,0,1,1,2,2,3,3],"right_children":[2,4,6,8,-1,-1,-1,-1,-1],"split_conditions":[2E0,8.5E1,4.51E2,7.2E1,2.0139546E-3,-3.248458E-4,-1.1574269E-3,1.2179017E-4,4.9468875E-4],"split_indices":[5,0,2,0,0,0,0,0,0],"split_type":[0,0,0,0,0,0,0,0,0],"sum_hessian":[1E1,4E0,6E0,3E0,1E0,5E0,1E0,1E0,2E0],"tree_param":{"num_deleted":"0","num_feature":"24","num_nodes":"9","size_leaf_vector":"1"}},{"base_weights":[2.6808165E-3,2.2397185E-2,-1.1785277E-2,8.360416E-3,1.9636066E-3,-3.113106E-4,-1.1284918E-3,1.1874438E-4,4.7819814E-4],"categories":[],"categories_nodes":[],"categories_segments":[],"categories_sizes":[],"default_left":[0,0,0,0,0,0,0,0,0],"id":43,"left_children":[1,3,5,7,-1,-1,-1,-1,-1],"loss_changes":[3.4013642E-3,8.56017E-4,2.791399E-4,6.102113E-6,0E0,0E0,0E0,0E0,0E0],"parents":[2147483647,0,0,1,1,2,2,3,3],"right_children":[2,4,6,8,-1,-1,-1,-1,-1],"split_conditions":[2E0,8.5E1,4.51E2,7.2E1,1.9636066E-3,-3.113106E-4,-1.1284918E-3,1.1874438E-4,4.7819814E-4],"split_indices":[5,0,2,0,0,0,0,0,0],"split_type":[0,0,0,0,0,0,0,0,0],"sum_hessian":[1E1,4E0,6E0,3E0,1E0,5E0,1E0,1E0,2E0],"tree_param":{"num_deleted":"0","num_feature":"24","num_nodes":"9","size_leaf_vector":"1"}},{"base_weights":[2.6486733E-3,2.1789456E-2,-1.1401696E-2,1.9503634E-4,1.6207517E-3,-5.9667826E-3,-1.1002794E-3,-3.8332344E-4,-1.6001612E-4],"categories":[],"categories_nodes":[],"categories_segments":[],"categories_sizes":[],"default_left":[0,0,0,0,0,0,0,0,0],"id":44,"left_children":[1,3,5,-1,-1,7,-1,-1,-1],"loss_changes":[3.2067222E-3,8.239483E-4,2.721161E-4,0E0,0E0,3.6775164E-6,0E0,0E0,0E0],"parents":[2147483647,0,0,1,1,2,2,5,5],"right_children":[2,4,6,-1,-1,8,-1,-1,-1],"split_conditions":[2E0,8.1E1,4.51E2,1.9503634E-4,1.6207517E-3,6E0,-1.1002794E-3,-3.8332344E-4,-1.6001612E-4],"split_indices":[5,0,2,0,0,6,0,0,0],"split_type":[0,0,0,0,0,0,0,0,0],"sum_hessian":[1E1,4E0,6E0,2E0,2E0,5E0,1E0,2E0,3E0],"tree_param":{"num_deleted":"0","num_feature":"24","num_nodes":"9","size_leaf_vector":"1"}},{"base_weights":[2.531897E-3,2.1063138E-2,-1.1066402E-2,7.588953E-3,1.8739969E-3,-5.758991E-3,-1.0727718E-3,1.109004E-4,4.319966E-4,-3.705462E-4,-1.5401468E-4],"categories":[],"categories_nodes":[],"categories_segments":[],"categories_sizes":[],"default_left":[0,0,0,0,0,0,0,0,0,0,0],"id":45,"left_children":[1,3,5,7,-1,9,-1,-1,-1,-1,-1],"loss_changes":[3.0050199E-3,8.215818E-4,2.6241055E-4,3.4155528E-6,0E0,3.7223363E-6,0E0,0E0,0E0,0E0,0E0],"parents":[2147483647,0,0,1,1,2,2,3,3,5,5],"right_children":[2,4,6,8,-1,10,-1,-1,-1,-1,-1],"split_conditions":[2E0,8.5E1,4.51E2,7.2E1,1.8739969E-3,6E0,-1.0727718E-3,1.109004E-4,4.319966E-4,-3.705462E-4,-1.5401468E-4],"split_indices":[5,0,2,0,0,6,0,0,0,0,0],"split_type":[0,0,0,0,0,0,0,0,0,0,0],"sum_hessian":[1E1,4E0,6E0,3E0,1E0,5E0,1E0,1E0,2E0,2E0,3E0],"tree_param":{"num_deleted":"0","num_feature":"24","num_nodes":"11","size_leaf_vector":"1"}},{"base_weights":[2.4798133E-3,2.0493364E-2,-1.0741268E-2,7.3452294E-3,1.8271477E-3,-5.558461E-3,-1.0459528E-3,1.08128785E-4,4.175961E-4,-3.581941E-4,-1.4823899E-4],"categories":[],"categories_nodes":[],"categories_segments":[],"categories_sizes":[],"default_left":[0,0,0,0,0,0,0,0,0,0,0],"id":46,"left_children":[1,3,5,7,-1,9,-1,-1,-1,-1,-1],"loss_changes":[2.8398694E-3,7.8669447E-4,2.5296875E-4,2.8076902E-6,0E0,3.7443679E-6,0E0,0E0,0E0,0E0,0E0],"parents":[2147483647,0,0,1,1,2,2,3,3,5,5],"right_children":[2,4,6,8,-1,10,-1,-1,-1,-1,-1],"split_conditions":[2E0,8.5E1,4.51E2,7.2E1,1.8271477E-3,6E0,-1.0459528E-3,1.08128785E-4,4.175961E-4,-3.581941E-4,-1.4823899E-4],"split_indices":[5,0,2,0,0,6,0,0,0,0,0],"split_type":[0,0,0,0,0,0,0,0,0,0,0],"sum_hessian":[1E1,4E0,6E0,3E0,1E0,5E0,1E0,1E0,2E0,2E0,3E0],"tree_param":{"num_deleted":"0","num_feature":"24","num_nodes":"11","size_leaf_vector":"1"}},{"base_weights":[2.4285913E-3,1.993928E-2,-1.0425985E-2,7.1094036E-3,1.7814696E-3,-5.3649545E-3,-1.0198042E-3,1.05425715E-4,4.0367641E-4,-3.462553E-4,-1.4268012E-4],"categories":[],"categories_nodes":[],"categories_segments":[],"categories_sizes":[],"default_left":[0,0,0,0,0,0,0,0,0,0,0],"id":47,"left_children":[1,3,5,7,-1,9,-1,-1,-1,-1,-1],"loss_changes":[2.6839036E-3,7.5320737E-4,2.437887E-4,2.2627937E-6,0E0,3.7470309E-6,0E0,0E0,0E0,0E0,0E0],"parents":[2147483647,0,0,1,1,2,2,3,3,5,5],"right_children":[2,4,6,8,-1,10,-1,-1,-1,-1,-1],"split_conditions":[2E0,8.5E1,4.51E2,7.2E1,1.7814696E-3,6E0,-1.0198042E-3,1.05425715E-4,4.0367641E-4,-3.462553E-4,-1.4268012E-4],"split_indices":[5,0,2,0,0,6,0,0,0,0,0],"split_type":[0,0,0,0,0,0,0,0,0,0,0],"sum_hessian":[1E1,4E0,6E0,3E0,1E0,5E0,1E0,1E0,2E0,2E0,3E0],"tree_param":{"num_deleted":"0","num_feature":"24","num_nodes":"11","size_leaf_vector":"1"}},{"base_weights":[2.378247E-3,-4.3316605E-3,1.736933E-3,6.881237E-3,-1.0120221E-2,1.0279119E-4,3.9022168E-4,-5.178193E-3,-9.943098E-4,-3.3471387E-4,-1.373291E-4],"categories":[],"categories_nodes":[],"categories_segments":[],"categories_sizes":[],"default_left":[0,0,0,0,0,0,0,0,0,0,0],"id":48,"left_children":[1,3,-1,5,7,-1,-1,9,-1,-1,-1],"loss_changes":[2.5389653E-3,7.1870507E-4,0E0,1.7746788E-6,2.3487152E-4,0E0,0E0,3.73277E-6,0E0,0E0,0E0],"parents":[2147483647,0,0,1,1,3,3,4,4,7,7],"right_children":[2,4,-1,6,8,-1,-1,10,-1,-1,-1],"split_conditions":[4.78E2,2E0,1.736933E-3,7.2E1,4.51E2,1.0279119E-4,3.9022168E-4,6E0,-9.943098E-4,-3.3471387E-4,-1.373291E-4],"split_indices":[13,5,0,0,2,0,0,6,0,0,0],"split_type":[0,0,0,0,0,0,0,0,0,0,0],"sum_hessian":[1E1,9E0,1E0,3E0,6E0,1E0,2E0,5E0,1E0,2E0,3E0],"tree_param":{"num_deleted":"0","num_feature":"24","num_nodes":"11","size_leaf_vector":"1"}},{"base_weights":[2.3287751E-3,-4.2123916E-3,1.693511E-3,6.6604614E-3,-9.82368E-3,1.5402636E-4,4.3500663E-4,-4.9979487E-3,-9.694517E-4,-3.2355587E-4,-1.3217927E-4],"categories":[],"categories_nodes":[],"categories_segments":[],"categories_sizes":[],"default_left":[0,0,0,0,0,0,0,0,0,0,0],"id":49,"left_children":[1,3,-1,5,7,-1,-1,9,-1,-1,-1],"loss_changes":[2.4121709E-3,6.755374E-4,0E0,2.4065666E-6,2.2621336E-4,0E0,0E0,3.7033024E-6,0E0,0E0,0E0],"parents":[2147483647,0,0,1,1,3,3,4,4,7,7],"right_children":[2,4,-1,6,8,-1,-1,10,-1,-1,-1],"split_conditions":[4.78E2,2E0,1.693511E-3,8.1E1,4.51E2,1.5402636E-4,4.3500663E-4,6E0,-9.694517E-4,-3.2355587E-4,-1.3217927E-4],"split_indices":[13,5,0,0,2,0,0,6,0,0,0],"split_type":[0,0,0,0,0,0,0,0,0,0,0],"sum_hessian":[1E1,9E0,1E0,3E0,6E0,2E0,1E0,5E0,1E0,2E0,3E0],"tree_param":{"num_deleted":"0","num_feature":"24","num_nodes":"11","size_leaf_vector":"1"}},{"base_weights":[2.2902868E-3,-4.0853797E-3,1.6511738E-3,6.4747036E-3,-9.5360875E-3,1.488924E-4,4.2413175E-4,-4.8240027E-3,-9.4521494E-4,-3.127714E-4,-1.2722165E-4],"categories":[],"categories_nodes":[],"categories_segments":[],"categories_sizes":[],"default_left":[0,0,0,0,0,0,0,0,0,0,0],"id":50,"left_children":[1,3,-1,5,7,-1,-1,9,-1,-1,-1],"loss_changes":[2.2903036E-3,6.373427E-4,0E0,2.8257782E-6,2.178122E-4,0E0,0E0,3.6616839E-6,0E0,0E0,0E0],"parents":[2147483647,0,0,1,1,3,3,4,4,7,7],"right_children":[2,4,-1,6,8,-1,-1,10,-1,-1,-1],"split_conditions":[4.78E2,2E0,1.6511738E-3,8.1E1,4.51E2,1.488924E-4,4.2413175E-4,6E0,-9.4521494E-4,-3.127714E-4,-1.2722165E-4],"split_indices":[13,5,0,0,2,0,0,6,0,0,0],"split_type":[0,0,0,0,0,0,0,0,0,0,0],"sum_hessian":[1E1,9E0,1E0,3E0,6E0,2E0,1E0,5E0,1E0,2E0,3E0],"tree_param":{"num_deleted":"0","num_feature":"24","num_nodes":"11","size_leaf_vector":"1"}},{"base_weights":[2.2520314E-3,-3.962344E-3,1.6098947E-3,6.2942207E-3,-9.257189E-3,1.4392933E-4,4.135281E-4,-4.656156E-3,-9.2158467E-4,-3.0234654E-4,-1.2245179E-4],"categories":[],"categories_nodes":[],"categories_segments":[],"categories_sizes":[],"default_left":[0,0,0,0,0,0,0,0,0,0,0],"id":51,"left_children":[1,3,-1,5,7,-1,-1,9,-1,-1,-1],"loss_changes":[2.1746221E-3,6.013359E-4,0E0,3.1943055E-6,2.0966463E-4,0E0,0E0,3.6084966E-6,0E0,0E0,0E0],"parents":[2147483647,0,0,1,1,3,3,4,4,7,7],"right_children":[2,4,-1,6,8,-1,-1,10,-1,-1,-1],"split_conditions":[4.78E2,2E0,1.6098947E-3,8.1E1,4.51E2,1.4392933E-4,4.135281E-4,6E0,-9.2158467E-4,-3.0234654E-4,-1.2245179E-4],"split_indices":[13,5,0,0,2,0,0,6,0,0,0],"split_type":[0,0,0,0,0,0,0,0,0,0,0],"sum_hessian":[1E1,9E0,1E0,3E0,6E0,2E0,1E0,5E0,1E0,2E0,3E0],"tree_param":{"num_deleted":"0","num_feature":"24","num_nodes":"11","size_leaf_vector":"1"}},{"base_weights":[2.2140688E-3,-3.8431108E-3,1.5696466E-3,6.1188936E-3,-8.986669E-3,1.3913313E-4,4.0318965E-4,-4.4941506E-3,-8.985445E-4,-2.922674E-4,-1.17860734E-4],"categories":[],"categories_nodes":[],"categories_segments":[],"categories_sizes":[],"default_left":[0,0,0,0,0,0,0,0,0,0,0],"id":52,"left_children":[1,3,-1,5,7,-1,-1,9,-1,-1,-1],"loss_changes":[2.064804E-3,5.6738994E-4,0E0,3.5157136E-6,2.0176853E-4,0E0,0E0,3.5457924E-6,0E0,0E0,0E0],"parents":[2147483647,0,0,1,1,3,3,4,4,7,7],"right_children":[2,4,-1,6,8,-1,-1,10,-1,-1,-1],"split_conditions":[4.78E2,2E0,1.5696466E-3,8.1E1,4.51E2,1.3913313E-4,4.0318965E-4,6E0,-8.985445E-4,-2.922674E-4,-1.17860734E-4],"split_indices":[13,5,0,0,2,0,0,6,0,0,0],"split_type":[0,0,0,0,0,0,0,0,0,0,0],"sum_hessian":[1E1,9E0,1E0,3E0,6E0,2E0,1E0,5E0,1E0,2E0,3E0],"tree_param":{"num_deleted":"0","num_feature":"24","num_nodes":"11","size_leaf_vector":"1"}},{"base_weights":[2.1763877E-3,-3.727597E-3,1.530406E-3,5.9485435E-3,-8.724307E-3,1.3449589E-4,3.9311053E-4,-4.3378174E-3,-8.76081E-4,-2.8252602E-4,-1.134418E-4],"categories":[],"categories_nodes":[],"categories_segments":[],"categories_sizes":[],"default_left":[0,0,0,0,0,0,0,0,0,0,0],"id":53,"left_children":[1,3,-1,5,7,-1,-1,9,-1,-1,-1],"loss_changes":[1.9605602E-3,5.353855E-4,0E0,3.794994E-6,1.9411964E-4,0E0,0E0,3.475645E-6,0E0,0E0,0E0],"parents":[2147483647,0,0,1,1,3,3,4,4,7,7],"right_children":[2,4,-1,6,8,-1,-1,10,-1,-1,-1],"split_conditions":[4.78E2,2E0,1.530406E-3,8.1E1,4.51E2,1.3449589E-4,3.9311053E-4,6E0,-8.76081E-4,-2.8252602E-4,-1.134418E-4],"split_indices":[13,5,0,0,2,0,0,6,0,0,0],"split_type":[0,0,0,0,0,0,0,0,0,0,0],"sum_hessian":[1E1,9E0,1E0,3E0,6E0,2E0,1E0,5E0,1E0,2E0,3E0],"tree_param":{"num_deleted":"0","num_feature":"24","num_nodes":"11","size_leaf_vector":"1"}},{"base_weights":[2.1390156E-3,-3.6156655E-3,1.4921457E-3,5.7830215E-3,-8.46982E-3,1.3001362E-4,3.832817E-4,-4.1869283E-3,-8.5417926E-4,-2.7310848E-4,-1.0918826E-4],"categories":[],"categories_nodes":[],"categories_segments":[],"categories_sizes":[],"default_left":[0,0,0,0,0,0,0,0,0,0,0],"id":54,"left_children":[1,3,-1,5,7,-1,-1,9,-1,-1,-1],"loss_changes":[1.8616E-3,5.0520804E-4,0E0,4.034795E-6,1.8671498E-4,0E0,0E0,3.399E-6,0E0,0E0,0E0],"parents":[2147483647,0,0,1,1,3,3,4,4,7,7],"right_children":[2,4,-1,6,8,-1,-1,10,-1,-1,-1],"split_conditions":[4.78E2,2E0,1.4921457E-3,8.1E1,4.51E2,1.3001362E-4,3.832817E-4,6E0,-8.5417926E-4,-2.7310848E-4,-1.0918826E-4],"split_indices":[13,5,0,0,2,0,0,6,0,0,0],"split_type":[0,0,0,0,0,0,0,0,0,0,0],"sum_hessian":[1E1,9E0,1E0,3E0,6E0,2E0,1E0,5E0,1E0,2E0,3E0],"tree_param":{"num_deleted":"0","num_feature":"24","num_nodes":"11","size_leaf_vector":"1"}},{"base_weights":[2.1019687E-3,-3.507203E-3,1.4548422E-3,5.6221783E-3,-8.222963E-3,1.2567839E-4,3.7370026E-4,-4.041294E-3,-8.3282444E-4,-2.640049E-4,-1.0509342E-4],"categories":[],"categories_nodes":[],"categories_segments":[],"categories_sizes":[],"default_left":[0,0,0,0,0,0,0,0,0,0,0],"id":55,"left_children":[1,3,-1,5,7,-1,-1,9,-1,-1,-1],"loss_changes":[1.7676562E-3,4.7675066E-4,0E0,4.2400206E-6,1.7954974E-4,0E0,0E0,3.3173346E-6,0E0,0E0,0E0],"parents":[2147483647,0,0,1,1,3,3,4,4,7,7],"right_children":[2,4,-1,6,8,-1,-1,10,-1,-1,-1],"split_conditions":[4.78E2,2E0,1.4548422E-3,8.1E1,4.51E2,1.2567839E-4,3.7370026E-4,6E0,-8.3282444E-4,-2.640049E-4,-1.0509342E-4],"split_indices":[13,5,0,0,2,0,0,6,0,0,0],"split_type":[0,0,0,0,0,0,0,0,0,0,0],"sum_hessian":[1E1,9E0,1E0,3E0,6E0,2E0,1E0,5E0,1E0,2E0,3E0],"tree_param":{"num_deleted":"0","num_feature":"24","num_nodes":"11","size_leaf_vector":"1"}},{"base_weights":[2.0652576E-3,-3.402102E-3,1.4184713E-3,5.4659247E-3,-7.983531E-3,1.2149016E-4,3.6435723E-4,-3.9007564E-3,-8.120045E-4,-2.5520523E-4,-1.0115281E-4],"categories":[],"categories_nodes":[],"categories_segments":[],"categories_sizes":[],"default_left":[0,0,0,0,0,0,0,0,0,0,0],"id":56,"left_children":[1,3,-1,5,7,-1,-1,9,-1,-1,-1],"loss_changes":[1.6784735E-3,4.4991978E-4,0E0,4.4114568E-6,1.726191E-4,0E0,0E0,3.2312746E-6,0E0,0E0,0E0],"parents":[2147483647,0,0,1,1,3,3,4,4,7,7],"right_children":[2,4,-1,6,8,-1,-1,10,-1,-1,-1],"split_conditions":[4.78E2,2E0,1.4184713E-3,8.1E1,4.51E2,1.2149016E-4,3.6435723E-4,6E0,-8.120045E-4,-2.5520523E-4,-1.0115281E-4],"split_indices":[13,5,0,0,2,0,0,6,0,0,0],"split_type":[0,0,0,0,0,0,0,0,0,0,0],"sum_hessian":[1E1,9E0,1E0,3E0,6E0,2E0,1E0,5E0,1E0,2E0,3E0],"tree_param":{"num_deleted":"0","num_feature":"24","num_nodes":"11","size_leaf_vector":"1"}},{"base_weights":[2.0289095E-3,-3.3002377E-3,1.3830096E-3,8.600205E-4,-1.329418E-2,5.3141117E-3,-1.4376284E-4,-7.917047E-4,-2.0535887E-4,1.1744102E-4,3.5524965E-4],"categories":[],"categories_nodes":[],"categories_segments":[],"categories_sizes":[],"default_left":[0,0,0,0,0,0,0,0,0,0,0],"id":57,"left_children":[1,3,-1,5,7,9,-1,-1,-1,-1,-1],"loss_changes":[1.5938068E-3,4.272071E-4,0E0,1.4837754E-4,4.96913E-6,4.5535926E-6,0E0,0E0,0E0,0E0,0E0],"parents":[2147483647,0,0,1,1,3,3,4,4,5,5],"right_children":[2,4,-1,6,8,10,-1,-1,-1,-1,-1],"split_conditions":[4.78E2,8.5E1,1.3830096E-3,2E0,8.9E1,8.1E1,-1.4376284E-4,-7.917047E-4,-2.0535887E-4,1.1744102E-4,3.5524965E-4],"split_indices":[13,0,0,5,0,0,0,0,0,0,0],"split_type":[0,0,0,0,0,0,0,0,0,0,0],"sum_hessian":[1E1,9E0,1E0,7E0,2E0,3E0,4E0,1E0,1E0,2E0,1E0],"tree_param":{"num_deleted":"0","num_feature":"24","num_nodes":"11","size_leaf_vector":"1"}},{"base_weights":[1.9924531E-3,-3.202033E-3,1.348433E-3,8.58143E-4,-1.2961824E-2,5.16659E-3,-1.3801217E-4,-7.7191147E-4,-2.0022542E-4,1.1352698E-4,3.4636856E-4],"categories":[],"categories_nodes":[],"categories_segments":[],"categories_sizes":[],"default_left":[0,0,0,0,0,0,0,0,0,0,0],"id":58,"left_children":[1,3,-1,5,7,9,-1,-1,-1,-1,-1],"loss_changes":[1.5134786E-3,4.0738782E-4,0E0,1.3897807E-4,4.7232606E-6,4.668371E-6,0E0,0E0,0E0,0E0,0E0],"parents":[2147483647,0,0,1,1,3,3,4,4,5,5],"right_children":[2,4,-1,6,8,10,-1,-1,-1,-1,-1],"split_conditions":[4.78E2,8.5E1,1.348433E-3,2E0,8.9E1,8.1E1,-1.3801217E-4,-7.7191147E-4,-2.0022542E-4,1.1352698E-4,3.4636856E-4],"split_indices":[13,0,0,5,0,0,0,0,0,0,0],"split_type":[0,0,0,0,0,0,0,0,0,0,0],"sum_hessian":[1E1,9E0,1E0,7E0,2E0,3E0,4E0,1E0,1E0,2E0,1E0],"tree_param":{"num_deleted":"0","num_feature":"24","num_nodes":"11","size_leaf_vector":"1"}},{"base_weights":[1.9563003E-3,-3.1069636E-3,1.3147235E-3,8.5546076E-4,-1.2637774E-2,5.023241E-3,-1.3249279E-4,-7.5261295E-4,-1.9522011E-4,1.09744076E-4,3.37708E-4],"categories":[],"categories_nodes":[],"categories_segments":[],"categories_sizes":[],"default_left":[0,0,0,0,0,0,0,0,0,0,0],"id":59,"left_children":[1,3,-1,5,7,9,-1,-1,-1,-1,-1],"loss_changes":[1.4372324E-3,3.8846227E-4,0E0,1.3018596E-4,4.4897024E-6,4.7580616E-6,0E0,0E0,0E0,0E0,0E0],"parents":[2147483647,0,0,1,1,3,3,4,4,5,5],"right_children":[2,4,-1,6,8,10,-1,-1,-1,-1,-1],"split_conditions":[4.78E2,8.5E1,1.3147235E-3,2E0,8.9E1,8.1E1,-1.3249279E-4,-7.5261295E-4,-1.9522011E-4,1.09744076E-4,3.37708E-4],"split_indices":[13,0,0,5,0,0,0,0,0,0,0],"split_type":[0,0,0,0,0,0,0,0,0,0,0],"sum_hessian":[1E1,9E0,1E0,7E0,2E0,3E0,4E0,1E0,1E0,2E0,1E0],"tree_param":{"num_deleted":"0","num_feature":"24","num_nodes":"11","size_leaf_vector":"1"}},{"base_weights":[1.9204617E-3,-3.0149103E-3,1.2818546E-3,8.520484E-4,-1.232183E-2,4.883915E-3,-1.2719275E-4,-7.3379726E-4,-1.9033998E-4,1.0608435E-4,3.29265E-4],"categories":[],"categories_nodes":[],"categories_segments":[],"categories_sizes":[],"default_left":[0,0,0,0,0,0,0,0,0,0,0],"id":60,"left_children":[1,3,-1,5,7,9,-1,-1,-1,-1,-1],"loss_changes":[1.3648478E-3,3.7039357E-4,0E0,1.21958605E-4,4.2676984E-6,4.8265065E-6,0E0,0E0,0E0,0E0,0E0],"parents":[2147483647,0,0,1,1,3,3,4,4,5,5],"right_children":[2,4,-1,6,8,10,-1,-1,-1,-1,-1],"split_conditions":[4.78E2,8.5E1,1.2818546E-3,2E0,8.9E1,8.1E1,-1.2719275E-4,-7.3379726E-4,-1.9033998E-4,1.0608435E-4,3.29265E-4],"split_indices":[13,0,0,5,0,0,0,0,0,0,0],"split_type":[0,0,0,0,0,0,0,0,0,0,0],"sum_hessian":[1E1,9E0,1E0,7E0,2E0,3E0,4E0,1E0,1E0,2E0,1E0],"tree_param":{"num_deleted":"0","num_feature":"24","num_nodes":"11","size_leaf_vector":"1"}},{"base_weights":[1.8849698E-3,-2.9257655E-3,1.2498081E-3,8.479655E-4,-1.2013793E-2,4.748553E-3,-1.2210489E-4,-7.154524E-4,-1.8558204E-4,1.02547805E-4,3.210336E-4],"categories":[],"categories_nodes":[],"categories_segments":[],"categories_sizes":[],"default_left":[0,0,0,0,0,0,0,0,0,0,0],"id":61,"left_children":[1,3,-1,5,7,9,-1,-1,-1,-1,-1],"loss_changes":[1.2961329E-3,3.53145E-4,0E0,1.14261864E-4,4.0566374E-6,4.8742877E-6,0E0,0E0,0E0,0E0,0E0],"parents":[2147483647,0,0,1,1,3,3,4,4,5,5],"right_children":[2,4,-1,6,8,10,-1,-1,-1,-1,-1],"split_conditions":[4.78E2,8.5E1,1.2498081E-3,2E0,8.9E1,8.1E1,-1.2210489E-4,-7.154524E-4,-1.8558204E-4,1.02547805E-4,3.210336E-4],"split_indices":[13,0,0,5,0,0,0,0,0,0,0],"split_type":[0,0,0,0,0,0,0,0,0,0,0],"sum_hessian":[1E1,9E0,1E0,7E0,2E0,3E0,4E0,1E0,1E0,2E0,1E0],"tree_param":{"num_deleted":"0","num_feature":"24","num_nodes":"11","size_leaf_vector":"1"}},{"base_weights":[1.8498518E-3,-2.8394163E-3,1.2185633E-3,8.432716E-4,-1.1713445E-2,4.6170354E-3,-1.17219686E-4,-6.975666E-4,-1.8094182E-4,9.913048E-5,3.1300783E-4],"categories":[],"categories_nodes":[],"categories_segments":[],"categories_sizes":[],"default_left":[0,0,0,0,0,0,0,0,0,0,0],"id":62,"left_children":[1,3,-1,5,7,9,-1,-1,-1,-1,-1],"loss_changes":[1.2308985E-3,3.3668042E-4,0E0,1.07060114E-4,3.8568687E-6,4.9032897E-6,0E0,0E0,0E0,0E0,0E0],"parents":[2147483647,0,0,1,1,3,3,4,4,5,5],"right_children":[2,4,-1,6,8,10,-1,-1,-1,-1,-1],"split_conditions":[4.78E2,8.5E1,1.2185633E-3,2E0,8.9E1,8.1E1,-1.17219686E-4,-6.975666E-4,-1.8094182E-4,9.913048E-5,3.1300783E-4],"split_indices":[13,0,0,5,0,0,0,0,0,0,0],"split_type":[0,0,0,0,0,0,0,0,0,0,0],"sum_hessian":[1E1,9E0,1E0,7E0,2E0,3E0,4E0,1E0,1E0,2E0,1E0],"tree_param":{"num_deleted":"0","num_feature":"24","num_nodes":"11","size_leaf_vector":"1"}},{"base_weights":[1.8150806E-3,-2.7558089E-3,1.1880994E-3,8.379668E-4,-1.1420608E-2,4.4891834E-3,-1.1253E-4,-6.8012776E-4,-1.7641783E-4,9.5824405E-5,3.0518175E-4],"categories":[],"categories_nodes":[],"categories_segments":[],"categories_sizes":[],"default_left":[0,0,0,0,0,0,0,0,0,0,0],"id":63,"left_children":[1,3,-1,5,7,9,-1,-1,-1,-1,-1],"loss_changes":[1.1689692E-3,3.2096353E-4,0E0,1.00319565E-4,3.6667334E-6,4.91643E-6,0E0,0E0,0E0,0E0,0E0],"parents":[2147483647,0,0,1,1,3,3,4,4,5,5],"right_children":[2,4,-1,6,8,10,-1,-1,-1,-1,-1],"split_conditions":[4.78E2,8.5E1,1.1880994E-3,2E0,8.9E1,8.1E1,-1.1253E-4,-6.8012776E-4,-1.7641783E-4,9.5824405E-5,3.0518175E-4],"split_indices":[13,0,0,5,0,0,0,0,0,0,0],"split_type":[0,0,0,0,0,0,0,0,0,0,0],"sum_hessian":[1E1,9E0,1E0,7E0,2E0,3E0,4E0,1E0,1E0,2E0,1E0],"tree_param":{"num_deleted":"0","num_feature":"24","num_nodes":"11","size_leaf_vector":"1"}},{"base_weights":[1.7806996E-3,-2.674824E-3,1.1583985E-3,8.3212554E-4,-1.1135082E-2,4.3649673E-3,-1.08028646E-4,-6.63124E-4,-1.7200709E-4,9.26296E-5,2.9755235E-4],"categories":[],"categories_nodes":[],"categories_segments":[],"categories_sizes":[],"default_left":[0,0,0,0,0,0,0,0,0,0,0],"id":64,"left_children":[1,3,-1,5,7,9,-1,-1,-1,-1,-1],"loss_changes":[1.1101766E-3,3.0596275E-4,0E0,9.401267E-5,3.485824E-6,4.914451E-6,0E0,0E0,0E0,0E0,0E0],"parents":[2147483647,0,0,1,1,3,3,4,4,5,5],"right_children":[2,4,-1,6,8,10,-1,-1,-1,-1,-1],"split_conditions":[4.78E2,8.5E1,1.1583985E-3,2E0,8.9E1,8.1E1,-1.08028646E-4,-6.63124E-4,-1.7200709E-4,9.26296E-5,2.9755235E-4],"split_indices":[13,0,0,5,0,0,0,0,0,0,0],"split_type":[0,0,0,0,0,0,0,0,0,0,0],"sum_hessian":[1E1,9E0,1E0,7E0,2E0,3E0,4E0,1E0,1E0,2E0,1E0],"tree_param":{"num_deleted":"0","num_feature":"24","num_nodes":"11","size_leaf_vector":"1"}},{"base_weights":[1.7466978E-3,-2.5963902E-3,1.1294394E-3,8.2577765E-4,-1.0856708E-2,4.244268E-3,-1.0370851E-4,-6.465465E-4,-1.6770662E-4,8.9542074E-5,2.901137E-4],"categories":[],"categories_nodes":[],"categories_segments":[],"categories_sizes":[],"default_left":[0,0,0,0,0,0,0,0,0,0,0],"id":65,"left_children":[1,3,-1,5,7,9,-1,-1,-1,-1,-1],"loss_changes":[1.0543588E-3,2.916472E-4,0E0,8.811088E-5,3.3139659E-6,4.8988586E-6,0E0,0E0,0E0,0E0,0E0],"parents":[2147483647,0,0,1,1,3,3,4,4,5,5],"right_children":[2,4,-1,6,8,10,-1,-1,-1,-1,-1],"split_conditions":[4.78E2,8.5E1,1.1294394E-3,2E0,8.9E1,8.1E1,-1.0370851E-4,-6.465465E-4,-1.6770662E-4,8.9542074E-5,2.901137E-4],"split_indices":[13,0,0,5,0,0,0,0,0,0,0],"split_type":[0,0,0,0,0,0,0,0,0,0,0],"sum_hessian":[1E1,9E0,1E0,7E0,2E0,3E0,4E0,1E0,1E0,2E0,1E0],"tree_param":{"num_deleted":"0","num_feature":"24","num_nodes":"11","size_leaf_vector":"1"}},{"base_weights":[1.7131079E-3,-2.5204003E-3,1.1012048E-3,8.189827E-4,-1.05852885E-2,4.126966E-3,-9.956003E-5,-6.303832E-4,-1.6351342E-4,8.655787E-5,2.828598E-4],"categories":[],"categories_nodes":[],"categories_segments":[],"categories_sizes":[],"default_left":[0,0,0,0,0,0,0,0,0,0,0],"id":66,"left_children":[1,3,-1,5,7,9,-1,-1,-1,-1,-1],"loss_changes":[1.0013636E-3,2.7798666E-4,0E0,8.258593E-5,3.1507225E-6,4.871057E-6,0E0,0E0,0E0,0E0,0E0],"parents":[2147483647,0,0,1,1,3,3,4,4,5,5],"right_children":[2,4,-1,6,8,10,-1,-1,-1,-1,-1],"split_conditions":[4.78E2,8.5E1,1.1012048E-3,2E0,8.9E1,8.1E1,-9.956003E-5,-6.303832E-4,-1.6351342E-4,8.655787E-5,2.828598E-4],"split_indices":[13,0,0,5,0,0,0,0,0,0,0],"split_type":[0,0,0,0,0,0,0,0,0,0,0],"sum_hessian":[1E1,9E0,1E0,7E0,2E0,3E0,4E0,1E0,1E0,2E0,1E0],"tree_param":{"num_deleted":"0","num_feature":"24","num_nodes":"11","size_leaf_vector":"1"}},{"base_weights":[1.6799081E-3,-2.4467944E-3,1.0736734E-3,8.1175566E-4,-1.0320663E-2,4.012972E-3,-9.5578434E-5,-6.146237E-4,-1.5942604E-4,8.3673E-5,2.7578772E-4],"categories":[],"categories_nodes":[],"categories_segments":[],"categories_sizes":[],"default_left":[0,0,0,0,0,0,0,0,0,0,0],"id":67,"left_children":[1,3,-1,5,7,9,-1,-1,-1,-1,-1],"loss_changes":[9.5104455E-4,2.649518E-4,0E0,7.741468E-5,2.9949297E-6,4.832713E-6,0E0,0E0,0E0,0E0,0E0],"parents":[2147483647,0,0,1,1,3,3,4,4,5,5],"right_children":[2,4,-1,6,8,10,-1,-1,-1,-1,-1],"split_conditions":[4.78E2,8.5E1,1.0736734E-3,2E0,8.9E1,8.1E1,-9.5578434E-5,-6.146237E-4,-1.5942604E-4,8.3673E-5,2.7578772E-4],"split_indices":[13,0,0,5,0,0,0,0,0,0,0],"split_type":[0,0,0,0,0,0,0,0,0,0,0],"sum_hessian":[1E1,9E0,1E0,7E0,2E0,3E0,4E0,1E0,1E0,2E0,1E0],"tree_param":{"num_deleted":"0","num_feature":"24","num_nodes":"11","size_leaf_vector":"1"}},{"base_weights":[1.6471527E-3,-2.3754537E-3,1.0468304E-3,8.0417097E-4,-1.0062635E-2,3.902197E-3,-9.17542E-5,-5.9925765E-4,-1.5543998E-4,8.08835E-5,2.6889445E-4],"categories":[],"categories_nodes":[],"categories_segments":[],"categories_sizes":[],"default_left":[0,0,0,0,0,0,0,0,0,0,0],"id":68,"left_children":[1,3,-1,5,7,9,-1,-1,-1,-1,-1],"loss_changes":[9.032667E-4,2.5251557E-4,0E0,7.25727E-5,2.8471986E-6,4.7853755E-6,0E0,0E0,0E0,0E0,0E0],"parents":[2147483647,0,0,1,1,3,3,4,4,5,5],"right_children":[2,4,-1,6,8,10,-1,-1,-1,-1,-1],"split_conditions":[4.78E2,8.5E1,1.0468304E-3,2E0,8.9E1,8.1E1,-9.17542E-5,-5.9925765E-4,-1.5543998E-4,8.08835E-5,2.6889445E-4],"split_indices":[13,0,0,5,0,0,0,0,0,0,0],"split_type":[0,0,0,0,0,0,0,0,0,0,0],"sum_hessian":[1E1,9E0,1E0,7E0,2E0,3E0,4E0,1E0,1E0,2E0,1E0],"tree_param":{"num_deleted":"0","num_feature":"24","num_nodes":"11","size_leaf_vector":"1"}},{"base_weights":[1.6148145E-3,-2.3063482E-3,1.020661E-3,7.9621375E-4,-9.811063E-3,3.794551E-3,-1.7616987E-3,-5.8427604E-4,-1.5155376E-4,7.8189376E-5,2.6217103E-4,-1.2988895E-4,-4.5161694E-5],"categories":[],"categories_nodes":[],"categories_segments":[],"categories_sizes":[],"default_left":[0,0,0,0,0,0,0,0,0,0,0,0,0],"id":69,"left_children":[1,3,-1,5,7,9,11,-1,-1,-1,-1,-1,-1],"loss_changes":[8.5790764E-4,2.4065016E-4,0E0,6.8040725E-5,2.7066853E-6,4.7287467E-6,1.2423261E-6,0E0,0E0,0E0,0E0,0E0,0E0],"parents":[2147483647,0,0,1,1,3,3,4,4,5,5,6,6],"right_children":[2,4,-1,6,8,10,12,-1,-1,-1,-1,-1,-1],"split_conditions":[4.78E2,8.5E1,1.020661E-3,2E0,8.9E1,8.1E1,9.192E1,-5.8427604E-4,-1.5155376E-4,7.8189376E-5,2.6217103E-4,-1.2988895E-4,-4.5161694E-5],"split_indices":[13,0,0,5,0,0,3,0,0,0,0,0,0],"split_type":[0,0,0,0,0,0,0,0,0,0,0,0,0],"sum_hessian":[1E1,9E0,1E0,7E0,2E0,3E0,4E0,1E0,1E0,2E0,1E0,1E0,3E0],"tree_param":{"num_deleted":"0","num_feature":"24","num_nodes":"13","size_leaf_vector":"1"}},{"base_weights":[1.575004E-3,-2.2480725E-3,9.951442E-4,7.770732E-4,-9.565771E-3,3.689915E-3,-1.7086149E-3,-5.696684E-4,-1.4776438E-4,7.558267E-5,2.5561752E-4,-1.2664199E-4,-4.3467433E-5],"categories":[],"categories_nodes":[],"categories_segments":[],"categories_sizes":[],"default_left":[0,0,0,0,0,0,0,0,0,0,0,0,0],"id":70,"left_children":[1,3,-1,5,7,9,11,-1,-1,-1,-1,-1,-1],"loss_changes":[8.1550103E-4,2.2880433E-4,0E0,6.422797E-5,2.5732443E-6,4.6656423E-6,1.2567998E-6,0E0,0E0,0E0,0E0,0E0,0E0],"parents":[2147483647,0,0,1,1,3,3,4,4,5,5,6,6],"right_children":[2,4,-1,6,8,10,12,-1,-1,-1,-1,-1,-1],"split_conditions":[4.78E2,8.5E1,9.951442E-4,2E0,8.9E1,8.1E1,9.192E1,-5.696684E-4,-1.4776438E-4,7.558267E-5,2.5561752E-4,-1.2664199E-4,-4.3467433E-5],"split_indices":[13,0,0,5,0,0,3,0,0,0,0,0,0],"split_type":[0,0,0,0,0,0,0,0,0,0,0,0,0],"sum_hessian":[1E1,9E0,1E0,7E0,2E0,3E0,4E0,1E0,1E0,2E0,1E0,1E0,3E0],"tree_param":{"num_deleted":"0","num_feature":"24","num_nodes":"13","size_leaf_vector":"1"}},{"base_weights":[1.5361417E-3,-2.1913052E-3,9.702653E-4,7.5835735E-4,-9.326637E-3,3.5882294E-3,-1.6572118E-3,-5.554274E-4,-1.4407039E-4,7.306338E-5,2.492279E-4,-1.2347549E-4,-4.183799E-5],"categories":[],"categories_nodes":[],"categories_segments":[],"categories_sizes":[],"default_left":[0,0,0,0,0,0,0,0,0,0,0,0,0],"id":71,"left_children":[1,3,-1,5,7,9,11,-1,-1,-1,-1,-1,-1],"loss_changes":[7.7519286E-4,2.1754115E-4,0E0,6.0632465E-5,2.446206E-6,4.5959787E-6,1.2658711E-6,0E0,0E0,0E0,0E0,0E0,0E0],"parents":[2147483647,0,0,1,1,3,3,4,4,5,5,6,6],"right_children":[2,4,-1,6,8,10,12,-1,-1,-1,-1,-1,-1],"split_conditions":[4.78E2,8.5E1,9.702653E-4,2E0,8.9E1,8.1E1,9.192E1,-5.554274E-4,-1.4407039E-4,7.306338E-5,2.492279E-4,-1.2347549E-4,-4.183799E-5],"split_indices":[13,0,0,5,0,0,3,0,0,0,0,0,0],"split_type":[0,0,0,0,0,0,0,0,0,0,0,0,0],"sum_hessian":[1E1,9E0,1E0,7E0,2E0,3E0,4E0,1E0,1E0,2E0,1E0,1E0,3E0],"tree_param":{"num_deleted":"0","num_feature":"24","num_nodes":"13","size_leaf_vector":"1"}},{"base_weights":[1.4982224E-3,-2.135992E-3,9.460092E-4,7.400587E-4,-9.093463E-3,3.489375E-3,-1.6074062E-3,-5.4154097E-4,-1.4046878E-4,7.062753E-5,2.4299622E-4,-1.2038797E-4,-4.02689E-5],"categories":[],"categories_nodes":[],"categories_segments":[],"categories_sizes":[],"default_left":[0,0,0,0,0,0,0,0,0,0,0,0,0],"id":72,"left_children":[1,3,-1,5,7,9,11,-1,-1,-1,-1,-1,-1],"loss_changes":[7.368799E-4,2.068301E-4,0E0,5.7240235E-5,2.3252796E-6,4.5206725E-6,1.2703731E-6,0E0,0E0,0E0,0E0,0E0,0E0],"parents":[2147483647,0,0,1,1,3,3,4,4,5,5,6,6],"right_children":[2,4,-1,6,8,10,12,-1,-1,-1,-1,-1,-1],"split_conditions":[4.78E2,8.5E1,9.460092E-4,2E0,8.9E1,8.1E1,9.192E1,-5.4154097E-4,-1.4046878E-4,7.062753E-5,2.4299622E-4,-1.2038797E-4,-4.02689E-5],"split_indices":[13,0,0,5,0,0,3,0,0,0,0,0,0],"split_type":[0,0,0,0,0,0,0,0,0,0,0,0,0],"sum_hessian":[1E1,9E0,1E0,7E0,2E0,3E0,4E0,1E0,1E0,2E0,1E0,1E0,3E0],"tree_param":{"num_deleted":"0","num_feature":"24","num_nodes":"13","size_leaf_vector":"1"}},{"base_weights":[1.4612403E-3,-2.0820678E-3,9.223581E-4,7.222071E-4,-8.866112E-3,3.393352E-3,-1.5591502E-3,-5.280018E-4,-1.3695657E-4,6.8275134E-5,2.3692251E-4,-1.1737794E-4,-3.875792E-5],"categories":[],"categories_nodes":[],"categories_segments":[],"categories_sizes":[],"default_left":[0,0,0,0,0,0,0,0,0,0,0,0,0],"id":73,"left_children":[1,3,-1,5,7,9,11,-1,-1,-1,-1,-1,-1],"loss_changes":[7.0045807E-4,1.966464E-4,0E0,5.4041433E-5,2.210596E-6,4.4402586E-6,1.2707997E-6,0E0,0E0,0E0,0E0,0E0,0E0],"parents":[2147483647,0,0,1,1,3,3,4,4,5,5,6,6],"right_children":[2,4,-1,6,8,10,12,-1,-1,-1,-1,-1,-1],"split_conditions":[4.78E2,8.5E1,9.223581E-4,2E0,8.9E1,8.1E1,9.192E1,-5.280018E-4,-1.3695657E-4,6.8275134E-5,2.3692251E-4,-1.1737794E-4,-3.875792E-5],"split_indices":[13,0,0,5,0,0,3,0,0,0,0,0,0],"split_type":[0,0,0,0,0,0,0,0,0,0,0,0,0],"sum_hessian":[1E1,9E0,1E0,7E0,2E0,3E0,4E0,1E0,1E0,2E0,1E0,1E0,3E0],"tree_param":{"num_deleted":"0","num_feature":"24","num_nodes":"13","size_leaf_vector":"1"}},{"base_weights":[1.4251254E-3,-2.029562E-3,8.993E-4,7.047206E-4,-8.644462E-3,3.2999814E-3,-1.5124321E-3,-5.1480235E-4,-1.3353229E-4,6.599824E-5,2.3100078E-4,-1.144439E-4,-3.7305057E-5],"categories":[],"categories_nodes":[],"categories_segments":[],"categories_sizes":[],"default_left":[0,0,0,0,0,0,0,0,0,0,0,0,0],"id":74,"left_children":[1,3,-1,5,7,9,11,-1,-1,-1,-1,-1,-1],"loss_changes":[6.658428E-4,1.8696199E-4,0E0,5.1023708E-5,2.1016895E-6,4.3565014E-6,1.2673381E-6,0E0,0E0,0E0,0E0,0E0,0E0],"parents":[2147483647,0,0,1,1,3,3,4,4,5,5,6,6],"right_children":[2,4,-1,6,8,10,12,-1,-1,-1,-1,-1,-1],"split_conditions":[4.78E2,8.5E1,8.993E-4,2E0,8.9E1,8.1E1,9.192E1,-5.1480235E-4,-1.3353229E-4,6.599824E-5,2.3100078E-4,-1.144439E-4,-3.7305057E-5],"split_indices":[13,0,0,5,0,0,3,0,0,0,0,0,0],"split_type":[0,0,0,0,0,0,0,0,0,0,0,0,0],"sum_hessian":[1E1,9E0,1E0,7E0,2E0,3E0,4E0,1E0,1E0,2E0,1E0,1E0,3E0],"tree_param":{"num_deleted":"0","num_feature":"24","num_nodes":"13","size_leaf_vector":"1"}},{"base_weights":[1.3898774E-3,-1.9784034E-3,8.768171E-4,6.87629E-4,-8.428355E-3,3.2092035E-3,-1.4671565E-3,-5.019322E-4,-1.3019443E-4,6.379684E-5,2.252251E-4,-1.1158288E-4,-3.590584E-5],"categories":[],"categories_nodes":[],"categories_segments":[],"categories_sizes":[],"default_left":[0,0,0,0,0,0,0,0,0,0,0,0,0],"id":75,"left_children":[1,3,-1,5,7,9,11,-1,-1,-1,-1,-1,-1],"loss_changes":[6.3293806E-4,1.7775338E-4,0E0,4.817602E-5,1.997716E-6,4.269168E-6,1.260617E-6,0E0,0E0,0E0,0E0,0E0,0E0],"parents":[2147483647,0,0,1,1,3,3,4,4,5,5,6,6],"right_children":[2,4,-1,6,8,10,12,-1,-1,-1,-1,-1,-1],"split_conditions":[4.78E2,8.5E1,8.768171E-4,2E0,8.9E1,8.1E1,9.192E1,-5.019322E-4,-1.3019443E-4,6.379684E-5,2.252251E-4,-1.1158288E-4,-3.590584E-5],"split_indices":[13,0,0,5,0,0,3,0,0,0,0,0,0],"split_type":[0,0,0,0,0,0,0,0,0,0,0,0,0],"sum_hessian":[1E1,9E0,1E0,7E0,2E0,3E0,4E0,1E0,1E0,2E0,1E0,1E0,3E0],"tree_param":{"num_deleted":"0","num_feature":"24","num_nodes":"13","size_leaf_vector":"1"}},{"base_weights":[1.3554964E-3,-1.928544E-3,8.548975E-4,6.709397E-4,-8.217652E-3,3.1210184E-3,-1.4233112E-3,-4.8938394E-4,-1.2694001E-4,6.1670944E-5,2.1959543E-4,-1.0879338E-4,-3.4560264E-5],"categories":[],"categories_nodes":[],"categories_segments":[],"categories_sizes":[],"default_left":[0,0,0,0,0,0,0,0,0,0,0,0,0],"id":76,"left_children":[1,3,-1,5,7,9,11,-1,-1,-1,-1,-1,-1],"loss_changes":[6.016615E-4,1.689979E-4,0E0,4.549082E-5,1.898894E-6,4.178666E-6,1.2507835E-6,0E0,0E0,0E0,0E0,0E0,0E0],"parents":[2147483647,0,0,1,1,3,3,4,4,5,5,6,6],"right_children":[2,4,-1,6,8,10,12,-1,-1,-1,-1,-1,-1],"split_conditions":[4.78E2,8.5E1,8.548975E-4,2E0,8.9E1,8.1E1,9.192E1,-4.8938394E-4,-1.2694001E-4,6.1670944E-5,2.1959543E-4,-1.0879338E-4,-3.4560264E-5],"split_indices":[13,0,0,5,0,0,3,0,0,0,0,0,0],"split_type":[0,0,0,0,0,0,0,0,0,0,0,0,0],"sum_hessian":[1E1,9E0,1E0,7E0,2E0,3E0,4E0,1E0,1E0,2E0,1E0,1E0,3E0],"tree_param":{"num_deleted":"0","num_feature":"24","num_nodes":"13","size_leaf_vector":"1"}},{"base_weights":[1.3219606E-3,-1.8799484E-3,8.3352625E-4,6.5464526E-4,-8.012216E-3,3.035307E-3,-1.3808131E-3,-4.7715008E-4,-1.2376606E-4,5.9616566E-5,2.1410585E-4,-1.06073916E-4,-3.3263863E-5],"categories":[],"categories_nodes":[],"categories_segments":[],"categories_sizes":[],"default_left":[0,0,0,0,0,0,0,0,0,0,0,0,0],"id":77,"left_children":[1,3,-1,5,7,9,11,-1,-1,-1,-1,-1,-1],"loss_changes":[5.719315E-4,1.6067321E-4,0E0,4.2957097E-5,1.8054125E-6,4.0856576E-6,1.2384917E-6,0E0,0E0,0E0,0E0,0E0,0E0],"parents":[2147483647,0,0,1,1,3,3,4,4,5,5,6,6],"right_children":[2,4,-1,6,8,10,12,-1,-1,-1,-1,-1,-1],"split_conditions":[4.78E2,8.5E1,8.3352625E-4,2E0,8.9E1,8.1E1,9.192E1,-4.7715008E-4,-1.2376606E-4,5.9616566E-5,2.1410585E-4,-1.06073916E-4,-3.3263863E-5],"split_indices":[13,0,0,5,0,0,3,0,0,0,0,0,0],"split_type":[0,0,0,0,0,0,0,0,0,0,0,0,0],"sum_hessian":[1E1,9E0,1E0,7E0,2E0,3E0,4E0,1E0,1E0,2E0,1E0,1E0,3E0],"tree_param":{"num_deleted":"0","num_feature":"24","num_nodes":"13","size_leaf_vector":"1"}},{"base_weights":[1.2892268E-3,-1.8326044E-3,8.126885E-4,6.387159E-4,-7.811924E-3,2.9519796E-3,-1.3396383E-3,-4.652217E-4,-1.2067259E-4,5.7629746E-5,2.0875335E-4,-1.0342151E-4,-3.2016636E-5],"categories":[],"categories_nodes":[],"categories_segments":[],"categories_sizes":[],"default_left":[0,0,0,0,0,0,0,0,0,0,0,0,0],"id":78,"left_children":[1,3,-1,5,7,9,11,-1,-1,-1,-1,-1,-1],"loss_changes":[5.4367125E-4,1.5275774E-4,0E0,4.0566225E-5,1.71602E-6,3.991059E-6,1.2237579E-6,0E0,0E0,0E0,0E0,0E0,0E0],"parents":[2147483647,0,0,1,1,3,3,4,4,5,5,6,6],"right_children":[2,4,-1,6,8,10,12,-1,-1,-1,-1,-1,-1],"split_conditions":[4.78E2,8.5E1,8.126885E-4,2E0,8.9E1,8.1E1,9.192E1,-4.652217E-4,-1.2067259E-4,5.7629746E-5,2.0875335E-4,-1.0342151E-4,-3.2016636E-5],"split_indices":[13,0,0,5,0,0,3,0,0,0,0,0,0],"split_type":[0,0,0,0,0,0,0,0,0,0,0,0,0],"sum_hessian":[1E1,9E0,1E0,7E0,2E0,3E0,4E0,1E0,1E0,2E0,1E0,1E0,3E0],"tree_param":{"num_deleted":"0","num_feature":"24","num_nodes":"13","size_leaf_vector":"1"}},{"base_weights":[1.2573004E-3,-1.7864585E-3,7.923722E-4,6.231591E-4,-7.616619E-3,2.8710067E-3,-1.2997508E-3,-4.5359135E-4,-1.176551E-4,5.5710476E-5,2.0353496E-4,-1.0083616E-4,-3.0816347E-5],"categories":[],"categories_nodes":[],"categories_segments":[],"categories_sizes":[],"default_left":[0,0,0,0,0,0,0,0,0,0,0,0,0],"id":79,"left_children":[1,3,-1,5,7,9,11,-1,-1,-1,-1,-1,-1],"loss_changes":[5.168085E-4,1.4523095E-4,0E0,3.831086E-5,1.6315898E-6,3.894853E-6,1.2070186E-6,0E0,0E0,0E0,0E0,0E0,0E0],"parents":[2147483647,0,0,1,1,3,3,4,4,5,5,6,6],"right_children":[2,4,-1,6,8,10,12,-1,-1,-1,-1,-1,-1],"split_conditions":[4.78E2,8.5E1,7.923722E-4,2E0,8.9E1,8.1E1,9.192E1,-4.5359135E-4,-1.176551E-4,5.5710476E-5,2.0353496E-4,-1.0083616E-4,-3.0816347E-5],"split_indices":[13,0,0,5,0,0,3,0,0,0,0,0,0],"split_type":[0,0,0,0,0,0,0,0,0,0,0,0,0],"sum_hessian":[1E1,9E0,1E0,7E0,2E0,3E0,4E0,1E0,1E0,2E0,1E0,1E0,3E0],"tree_param":{"num_deleted":"0","num_feature":"24","num_nodes":"13","size_leaf_vector":"1"}},{"base_weights":[1.2261488E-3,-1.7414868E-3,7.7256263E-4,6.079674E-4,-7.4262023E-3,2.7922988E-3,-1.2610912E-3,-4.4225156E-4,-1.1471361E-4,5.3854783E-5,1.9844771E-4,-9.8314886E-5,-2.9660761E-5],"categories":[],"categories_nodes":[],"categories_segments":[],"categories_sizes":[],"default_left":[0,0,0,0,0,0,0,0,0,0,0,0,0],"id":80,"left_children":[1,3,-1,5,7,9,11,-1,-1,-1,-1,-1,-1],"loss_changes":[4.912723E-4,1.3807467E-4,0E0,3.6182493E-5,1.5510886E-6,3.797868E-6,1.188515E-6,0E0,0E0,0E0,0E0,0E0,0E0],"parents":[2147483647,0,0,1,1,3,3,4,4,5,5,6,6],"right_children":[2,4,-1,6,8,10,12,-1,-1,-1,-1,-1,-1],"split_conditions":[4.78E2,8.5E1,7.7256263E-4,2E0,8.9E1,8.1E1,9.192E1,-4.4225156E-4,-1.1471361E-4,5.3854783E-5,1.9844771E-4,-9.8314886E-5,-2.9660761E-5],"split_indices":[13,0,0,5,0,0,3,0,0,0,0,0,0],"split_type":[0,0,0,0,0,0,0,0,0,0,0,0,0],"sum_hessian":[1E1,9E0,1E0,7E0,2E0,3E0,4E0,1E0,1E0,2E0,1E0,1E0,3E0],"tree_param":{"num_deleted":"0","num_feature":"24","num_nodes":"13","size_leaf_vector":"1"}},{"base_weights":[1.1957396E-3,-1.6976774E-3,7.5324776E-4,5.9310347E-4,-7.240534E-3,-8.613765E-4,1.6521812E-4,-4.311949E-4,-1.1184514E-4,-6.118119E-5,2.374649E-5],"categories":[],"categories_nodes":[],"categories_segments":[],"categories_sizes":[],"default_left":[0,0,0,0,0,0,0,0,0,0,0],"id":81,"left_children":[1,3,-1,5,7,9,-1,-1,-1,-1,-1],"loss_changes":[4.6699907E-4,1.3126909E-4,0E0,3.4394074E-5,1.4747056E-6,3.4855752E-6,0E0,0E0,0E0,0E0,0E0],"parents":[2147483647,0,0,1,1,3,3,4,4,5,5],"right_children":[2,4,-1,6,8,10,-1,-1,-1,-1,-1],"split_conditions":[4.78E2,8.5E1,7.5324776E-4,1.572E3,8.9E1,4.51E2,1.6521812E-4,-4.311949E-4,-1.1184514E-4,-6.118119E-5,2.374649E-5],"split_indices":[13,0,0,11,0,2,0,0,0,0,0],"split_type":[0,0,0,0,0,0,0,0,0,0,0],"sum_hessian":[1E1,9E0,1E0,7E0,2E0,5E0,2E0,1E0,1E0,4E0,1E0],"tree_param":{"num_deleted":"0","num_feature":"24","num_nodes":"11","size_leaf_vector":"1"}},{"base_weights":[1.1666634E-3,-1.6543329E-3,7.3441566E-4,5.794093E-4,-7.0595345E-3,-8.245607E-4,1.5971065E-4,-4.204154E-4,-1.0904968E-4,-9.4328825E-5,-1.1742115E-5],"categories":[],"categories_nodes":[],"categories_segments":[],"categories_sizes":[],"default_left":[0,0,0,0,0,0,0,0,0,0,0],"id":82,"left_children":[1,3,-1,5,7,9,-1,-1,-1,-1,-1],"loss_changes":[4.438891E-4,1.2482861E-4,0E0,3.2002674E-5,1.4016696E-6,3.3146935E-6,0E0,0E0,0E0,0E0,0E0],"parents":[2147483647,0,0,1,1,3,3,4,4,5,5],"right_children":[2,4,-1,6,8,10,-1,-1,-1,-1,-1],"split_conditions":[4.78E2,8.5E1,7.3441566E-4,1.572E3,8.9E1,6E0,1.5971065E-4,-4.204154E-4,-1.0904968E-4,-9.4328825E-5,-1.1742115E-5],"split_indices":[13,0,0,11,0,6,0,0,0,0,0],"split_type":[0,0,0,0,0,0,0,0,0,0,0],"sum_hessian":[1E1,9E0,1E0,7E0,2E0,5E0,2E0,1E0,1E0,1E0,4E0],"tree_param":{"num_deleted":"0","num_feature":"24","num_nodes":"11","size_leaf_vector":"1"}},{"base_weights":[1.1318381E-3,-1.6191959E-3,7.1605446E-4,5.5714697E-4,-6.883045E-3,2.5502741E-3,-1.1487842E-3,-4.0990562E-4,-1.0632277E-4,4.644394E-5,1.8536151E-4,-9.196997E-5,-2.5814026E-5],"categories":[],"categories_nodes":[],"categories_segments":[],"categories_sizes":[],"default_left":[0,0,0,0,0,0,0,0,0,0,0,0,0],"id":83,"left_children":[1,3,-1,5,7,9,11,-1,-1,-1,-1,-1,-1],"loss_changes":[4.223135E-4,1.18394266E-4,0E0,3.0130814E-5,1.3327954E-6,4.0599643E-6,1.2344371E-6,0E0,0E0,0E0,0E0,0E0,0E0],"parents":[2147483647,0,0,1,1,3,3,4,4,5,5,6,6],"right_children":[2,4,-1,6,8,10,12,-1,-1,-1,-1,-1,-1],"split_conditions":[4.78E2,8.5E1,7.1605446E-4,2E0,8.9E1,8.1E1,9.192E1,-4.0990562E-4,-1.0632277E-4,4.644394E-5,1.8536151E-4,-9.196997E-5,-2.5814026E-5],"split_indices":[13,0,0,5,0,0,3,0,0,0,0,0,0],"split_type":[0,0,0,0,0,0,0,0,0,0,0,0,0],"sum_hessian":[1E1,9E0,1E0,7E0,2E0,3E0,4E0,1E0,1E0,2E0,1E0,1E0,3E0],"tree_param":{"num_deleted":"0","num_feature":"24","num_nodes":"13","size_leaf_vector":"1"}},{"base_weights":[1.1037643E-3,-1.5784681E-3,6.981522E-4,5.435273E-4,-6.7109666E-3,-7.8051287E-4,1.505216E-4,-3.9965808E-4,-1.036644E-4,-8.967072E-5,-1.0962486E-5],"categories":[],"categories_nodes":[],"categories_segments":[],"categories_sizes":[],"default_left":[0,0,0,0,0,0,0,0,0,0,0],"id":84,"left_children":[1,3,-1,5,7,9,-1,-1,-1,-1,-1],"loss_changes":[4.0144756E-4,1.1255898E-4,0E0,2.8479926E-5,1.2670935E-6,3.01782E-6,0E0,0E0,0E0,0E0,0E0],"parents":[2147483647,0,0,1,1,3,3,4,4,5,5],"right_children":[2,4,-1,6,8,10,-1,-1,-1,-1,-1],"split_conditions":[4.78E2,8.5E1,6.981522E-4,1.572E3,8.9E1,6E0,1.505216E-4,-3.9965808E-4,-1.036644E-4,-8.967072E-5,-1.0962486E-5],"split_indices":[13,0,0,11,0,6,0,0,0,0,0],"split_type":[0,0,0,0,0,0,0,0,0,0,0],"sum_hessian":[1E1,9E0,1E0,7E0,2E0,5E0,2E0,1E0,1E0,1E0,4E0],"tree_param":{"num_deleted":"0","num_feature":"24","num_nodes":"11","size_leaf_vector":"1"}},{"base_weights":[1.0708083E-3,-1.5448987E-3,6.80697E-4,5.225763E-4,-6.543199E-3,2.4081469E-3,-1.0903955E-3,-3.8966685E-4,-1.01073085E-4,4.256765E-5,1.769632E-4,-8.742959E-5,-2.4434925E-5],"categories":[],"categories_nodes":[],"categories_segments":[],"categories_sizes":[],"default_left":[0,0,0,0,0,0,0,0,0,0,0,0,0],"id":85,"left_children":[1,3,-1,5,7,9,11,-1,-1,-1,-1,-1,-1],"loss_changes":[3.8193288E-4,1.0675794E-4,0E0,2.695681E-5,1.2044475E-6,4.030502E-6,1.1256388E-6,0E0,0E0,0E0,0E0,0E0,0E0],"parents":[2147483647,0,0,1,1,3,3,4,4,5,5,6,6],"right_children":[2,4,-1,6,8,10,12,-1,-1,-1,-1,-1,-1],"split_conditions":[4.78E2,8.5E1,6.80697E-4,2E0,8.9E1,8.1E1,9.192E1,-3.8966685E-4,-1.01073085E-4,4.256765E-5,1.769632E-4,-8.742959E-5,-2.4434925E-5],"split_indices":[13,0,0,5,0,0,3,0,0,0,0,0,0],"split_type":[0,0,0,0,0,0,0,0,0,0,0,0,0],"sum_hessian":[1E1,9E0,1E0,7E0,2E0,3E0,4E0,1E0,1E0,2E0,1E0,1E0,3E0],"tree_param":{"num_deleted":"0","num_feature":"24","num_nodes":"13","size_leaf_vector":"1"}},{"base_weights":[1.0443385E-3,-1.5059471E-3,6.6367985E-4,5.0991774E-4,-6.3796043E-3,2.3426414E-3,-1.0582447E-3,-3.799245E-4,-9.8545854E-5,4.114906E-5,1.7254055E-4,-8.5243584E-5,-2.3518503E-5],"categories":[],"categories_nodes":[],"categories_segments":[],"categories_sizes":[],"default_left":[0,0,0,0,0,0,0,0,0,0,0,0,0],"id":86,"left_children":[1,3,-1,5,7,9,11,-1,-1,-1,-1,-1,-1],"loss_changes":[3.6305847E-4,1.0149942E-4,0E0,2.5471154E-5,1.1450466E-6,3.8962135E-6,1.0987574E-6,0E0,0E0,0E0,0E0,0E0,0E0],"parents":[2147483647,0,0,1,1,3,3,4,4,5,5,6,6],"right_children":[2,4,-1,6,8,10,12,-1,-1,-1,-1,-1,-1],"split_conditions":[4.78E2,8.5E1,6.6367985E-4,2E0,8.9E1,8.1E1,9.192E1,-3.799245E-4,-9.8545854E-5,4.114906E-5,1.7254055E-4,-8.5243584E-5,-2.3518503E-5],"split_indices":[13,0,0,5,0,0,3,0,0,0,0,0,0],"split_type":[0,0,0,0,0,0,0,0,0,0,0,0,0],"sum_hessian":[1E1,9E0,1E0,7E0,2E0,3E0,4E0,1E0,1E0,2E0,1E0,1E0,3E0],"tree_param":{"num_deleted":"0","num_feature":"24","num_nodes":"13","size_leaf_vector":"1"}},{"base_weights":[1.0185133E-3,-1.4679909E-3,6.470889E-4,4.975572E-4,-6.2201223E-3,-7.19438E-4,1.3828477E-4,-3.7042648E-4,-9.608269E-5,-8.311272E-5,-9.921193E-6],"categories":[],"categories_nodes":[],"categories_segments":[],"categories_sizes":[],"default_left":[0,0,0,0,0,0,0,0,0,0,0],"id":87,"left_children":[1,3,-1,5,7,9,-1,-1,-1,-1,-1],"loss_changes":[3.451181E-4,9.65003E-5,0E0,2.4072253E-5,1.0883596E-6,2.617493E-6,0E0,0E0,0E0,0E0,0E0],"parents":[2147483647,0,0,1,1,3,3,4,4,5,5],"right_children":[2,4,-1,6,8,10,-1,-1,-1,-1,-1],"split_conditions":[4.78E2,8.5E1,6.470889E-4,1.572E3,8.9E1,6E0,1.3828477E-4,-3.7042648E-4,-9.608269E-5,-8.311272E-5,-9.921193E-6],"split_indices":[13,0,0,11,0,6,0,0,0,0,0],"split_type":[0,0,0,0,0,0,0,0,0,0,0],"sum_hessian":[1E1,9E0,1E0,7E0,2E0,5E0,2E0,1E0,1E0,1E0,4E0],"tree_param":{"num_deleted":"0","num_feature":"24","num_nodes":"11","size_leaf_vector":"1"}},{"base_weights":[9.881095E-4,-1.4367283E-3,6.309122E-4,4.7831982E-4,-6.064614E-3,2.212286E-3,-1.0045171E-3,-3.611654E-4,-9.3680625E-5,3.7638347E-5,1.6477109E-4,-8.10355E-5,-2.226457E-5],"categories":[],"categories_nodes":[],"categories_segments":[],"categories_sizes":[],"default_left":[0,0,0,0,0,0,0,0,0,0,0,0,0],"id":88,"left_children":[1,3,-1,5,7,9,11,-1,-1,-1,-1,-1,-1],"loss_changes":[3.2834208E-4,9.152705E-5,0E0,2.2791792E-5,1.0345902E-6,3.8427443E-6,1.0012659E-6,0E0,0E0,0E0,0E0,0E0,0E0],"parents":[2147483647,0,0,1,1,3,3,4,4,5,5,6,6],"right_children":[2,4,-1,6,8,10,12,-1,-1,-1,-1,-1,-1],"split_conditions":[4.78E2,8.5E1,6.309122E-4,2E0,8.9E1,8.1E1,9.192E1,-3.611654E-4,-9.3680625E-5,3.7638347E-5,1.6477109E-4,-8.10355E-5,-2.226457E-5],"split_indices":[13,0,0,5,0,0,3,0,0,0,0,0,0],"split_type":[0,0,0,0,0,0,0,0,0,0,0,0,0],"sum_hessian":[1E1,9E0,1E0,7E0,2E0,3E0,4E0,1E0,1E0,2E0,1E0,1E0,3E0],"tree_param":{"num_deleted":"0","num_feature":"24","num_nodes":"13","size_leaf_vector":"1"}},{"base_weights":[9.6373126E-4,-1.4004589E-3,6.1514083E-4,4.6680123E-4,-2.9564995E-4,2.1522641E-3,-4.8746468E-5,3.6382677E-5,1.606524E-4],"categories":[],"categories_nodes":[],"categories_segments":[],"categories_sizes":[],"default_left":[0,0,0,0,0,0,0,0,0],"id":89,"left_children":[1,3,-1,5,-1,7,-1,-1,-1],"loss_changes":[3.1211483E-4,8.702105E-5,0E0,2.1538171E-5,0E0,3.7068294E-6,0E0,0E0,0E0],"parents":[2147483647,0,0,1,1,3,3,5,5],"right_children":[2,4,-1,6,-1,8,-1,-1,-1],"split_conditions":[4.78E2,8.5E1,6.1514083E-4,2E0,-2.9564995E-4,8.1E1,-4.8746468E-5,3.6382677E-5,1.606524E-4],"split_indices":[13,0,0,5,0,0,0,0,0],"split_type":[0,0,0,0,0,0,0,0,0],"sum_hessian":[1E1,9E0,1E0,7E0,2E0,3E0,4E0,2E0,1E0],"tree_param":{"num_deleted":"0","num_feature":"24","num_nodes":"9","size_leaf_vector":"1"}},{"base_weights":[9.5807423E-4,-1.3451695E-3,5.9976283E-4,4.6200305E-4,-5.7159066E-3,-6.5417093E-4,2.54035E-3,-3.4474581E-4,-8.394718E-5,-7.779002E-5,-8.134246E-6,3.3891203E-5,1.5663505E-4],"categories":[],"categories_nodes":[],"categories_segments":[],"categories_sizes":[],"default_left":[0,0,0,0,0,0,0,0,0,0,0,0,0],"id":90,"left_children":[1,3,-1,5,7,9,11,-1,-1,-1,-1,-1,-1],"loss_changes":[2.9577018E-4,8.162753E-5,0E0,2.0220197E-5,2.7026763E-6,2.4057247E-6,1.1863885E-6,0E0,0E0,0E0,0E0,0E0,0E0],"parents":[2147483647,0,0,1,1,3,3,4,4,5,5,6,6],"right_children":[2,4,-1,6,8,10,12,-1,-1,-1,-1,-1,-1],"split_conditions":[4.78E2,8.5E1,5.9976283E-4,1.572E3,8.9E1,6E0,8.1E1,-3.4474581E-4,-8.394718E-5,-7.779002E-5,-8.134246E-6,3.3891203E-5,1.5663505E-4],"split_indices":[13,0,0,11,0,6,0,0,0,0,0,0,0],"split_type":[0,0,0,0,0,0,0,0,0,0,0,0,0],"sum_hessian":[1E1,9E0,1E0,7E0,2E0,5E0,2E0,1E0,1E0,1E0,4E0,1E0,1E0],"tree_param":{"num_deleted":"0","num_feature":"24","num_nodes":"13","size_leaf_vector":"1"}},{"base_weights":[9.3522394E-4,-1.3103306E-3,5.8476924E-4,4.5196712E-4,-5.5730143E-3,2.0483136E-3,-9.155035E-4,-3.3612698E-4,-8.18491E-5,3.474156E-5,1.5271902E-4,-7.584542E-5,-1.929626E-5],"categories":[],"categories_nodes":[],"categories_segments":[],"categories_sizes":[],"default_left":[0,0,0,0,0,0,0,0,0,0,0,0,0],"id":91,"left_children":[1,3,-1,5,7,9,11,-1,-1,-1,-1,-1,-1],"loss_changes":[2.8111265E-4,7.764E-5,0E0,1.9338893E-5,2.5690315E-6,3.324496E-6,1.0070421E-6,0E0,0E0,0E0,0E0,0E0,0E0],"parents":[2147483647,0,0,1,1,3,3,4,4,5,5,6,6],"right_children":[2,4,-1,6,8,10,12,-1,-1,-1,-1,-1,-1],"split_conditions":[4.78E2,8.5E1,5.8476924E-4,2E0,8.9E1,8.1E1,9.192E1,-3.3612698E-4,-8.18491E-5,3.474156E-5,1.5271902E-4,-7.584542E-5,-1.929626E-5],"split_indices":[13,0,0,5,0,0,3,0,0,0,0,0,0],"split_type":[0,0,0,0,0,0,0,0,0,0,0,0,0],"sum_hessian":[1E1,9E0,1E0,7E0,2E0,3E0,4E0,1E0,1E0,2E0,1E0,1E0,3E0],"tree_param":{"num_deleted":"0","num_feature":"24","num_nodes":"13","size_leaf_vector":"1"}},{"base_weights":[9.120323E-4,-1.2773692E-3,5.701512E-4,4.4092536E-4,-5.4336987E-3,1.992792E-3,-4.4437646E-5,-3.2772424E-4,-7.980317E-5,3.358523E-5,1.4890135E-4],"categories":[],"categories_nodes":[],"categories_segments":[],"categories_sizes":[],"default_left":[0,0,0,0,0,0,0,0,0,0,0],"id":92,"left_children":[1,3,-1,5,7,9,-1,-1,-1,-1,-1],"loss_changes":[2.672248E-4,7.381384E-5,0E0,1.8278964E-5,2.4421315E-6,3.2059706E-6,0E0,0E0,0E0,0E0,0E0],"parents":[2147483647,0,0,1,1,3,3,4,4,5,5],"right_children":[2,4,-1,6,8,10,-1,-1,-1,-1,-1],"split_conditions":[4.78E2,8.5E1,5.701512E-4,2E0,8.9E1,8.1E1,-4.4437646E-5,-3.2772424E-4,-7.980317E-5,3.358523E-5,1.4890135E-4],"split_indices":[13,0,0,5,0,0,0,0,0,0,0],"split_type":[0,0,0,0,0,0,0,0,0,0,0],"sum_hessian":[1E1,9E0,1E0,7E0,2E0,3E0,4E0,1E0,1E0,2E0,1E0],"tree_param":{"num_deleted":"0","num_feature":"24","num_nodes":"11","size_leaf_vector":"1"}},{"base_weights":[8.9376624E-4,-1.2404441E-3,5.558968E-4,4.361421E-4,-5.2978597E-3,-5.9525174E-4,2.353549E-3,-3.1953157E-4,-7.7807905E-5,-7.283837E-5,-6.579757E-6,3.1337142E-5,1.4517903E-4],"categories":[],"categories_nodes":[],"categories_segments":[],"categories_sizes":[],"default_left":[0,0,0,0,0,0,0,0,0,0,0,0,0],"id":93,"left_children":[1,3,-1,5,7,9,11,-1,-1,-1,-1,-1,-1],"loss_changes":[2.5381698E-4,7.03367E-5,0E0,1.7221768E-5,2.3216417E-6,2.2049805E-6,1.0295935E-6,0E0,0E0,0E0,0E0,0E0,0E0],"parents":[2147483647,0,0,1,1,3,3,4,4,5,5,6,6],"right_children":[2,4,-1,6,8,10,12,-1,-1,-1,-1,-1,-1],"split_conditions":[4.78E2,8.5E1,5.558968E-4,1.572E3,8.9E1,6E0,8.1E1,-3.1953157E-4,-7.7807905E-5,-7.283837E-5,-6.579757E-6,3.1337142E-5,1.4517903E-4],"split_indices":[13,0,0,11,0,6,0,0,0,0,0,0,0],"split_type":[0,0,0,0,0,0,0,0,0,0,0,0,0],"sum_hessian":[1E1,9E0,1E0,7E0,2E0,5E0,2E0,1E0,1E0,1E0,4E0,1E0,1E0],"tree_param":{"num_deleted":"0","num_feature":"24","num_nodes":"13","size_leaf_vector":"1"}},{"base_weights":[8.7230856E-4,-1.2084603E-3,5.4199994E-4,4.2645633E-4,-5.165418E-3,1.8962622E-3,-4.173398E-5,-3.1154306E-4,-7.58633E-5,3.2051405E-5,1.4154911E-4],"categories":[],"categories_nodes":[],"categories_segments":[],"categories_sizes":[],"default_left":[0,0,0,0,0,0,0,0,0,0,0],"id":94,"left_children":[1,3,-1,5,7,9,-1,-1,-1,-1,-1],"loss_changes":[2.4124476E-4,6.689579E-5,0E0,1.6411772E-5,2.2068198E-6,2.8784298E-6,0E0,0E0,0E0,0E0,0E0],"parents":[2147483647,0,0,1,1,3,3,4,4,5,5],"right_children":[2,4,-1,6,8,10,-1,-1,-1,-1,-1],"split_conditions":[4.78E2,8.5E1,5.4199994E-4,2E0,8.9E1,8.1E1,-4.173398E-5,-3.1154306E-4,-7.58633E-5,3.2051405E-5,1.4154911E-4],"split_indices":[13,0,0,5,0,0,0,0,0,0,0],"split_type":[0,0,0,0,0,0,0,0,0,0,0],"sum_hessian":[1E1,9E0,1E0,7E0,2E0,3E0,4E0,1E0,1E0,2E0,1E0],"tree_param":{"num_deleted":"0","num_feature":"24","num_nodes":"11","size_leaf_vector":"1"}},{"base_weights":[8.547306E-4,-1.1735916E-3,5.2844884E-4,4.2161345E-4,-5.0362744E-3,-5.562703E-4,1.1184216E-4,-3.037542E-4,-7.396639E-5,-6.997436E-5,-5.386472E-6],"categories":[],"categories_nodes":[],"categories_segments":[],"categories_sizes":[],"default_left":[0,0,0,0,0,0,0,0,0,0,0],"id":95,"left_children":[1,3,-1,5,7,9,-1,-1,-1,-1,-1],"loss_changes":[2.2914348E-4,6.374108E-5,0E0,1.5444957E-5,2.097935E-6,2.1185374E-6,0E0,0E0,0E0,0E0,0E0],"parents":[2147483647,0,0,1,1,3,3,4,4,5,5],"right_children":[2,4,-1,6,8,10,-1,-1,-1,-1,-1],"split_conditions":[4.78E2,8.5E1,5.2844884E-4,1.572E3,8.9E1,6E0,1.1184216E-4,-3.037542E-4,-7.396639E-5,-6.997436E-5,-5.386472E-6],"split_indices":[13,0,0,11,0,6,0,0,0,0,0],"split_type":[0,0,0,0,0,0,0,0,0,0,0],"sum_hessian":[1E1,9E0,1E0,7E0,2E0,5E0,2E0,1E0,1E0,1E0,4E0],"tree_param":{"num_deleted":"0","num_feature":"24","num_nodes":"11","size_leaf_vector":"1"}},{"base_weights":[8.2900847E-4,-1.1490404E-3,5.1523745E-4,4.0508807E-4,-4.91037E-3,1.7902851E-3,-7.8408717E-4,-2.9616058E-4,-7.211715E-5,2.9208264E-5,1.3521612E-4,-6.822497E-5,-1.4892966E-5],"categories":[],"categories_nodes":[],"categories_segments":[],"categories_sizes":[],"default_left":[0,0,0,0,0,0,0,0,0,0,0,0,0],"id":96,"left_children":[1,3,-1,5,7,9,11,-1,-1,-1,-1,-1,-1],"loss_changes":[2.1801883E-4,6.0445025E-5,0E0,1.4581675E-5,1.9943836E-6,2.829982E-6,1.004634E-6,0E0,0E0,0E0,0E0,0E0,0E0],"parents":[2147483647,0,0,1,1,3,3,4,4,5,5,6,6],"right_children":[2,4,-1,6,8,10,12,-1,-1,-1,-1,-1,-1],"split_conditions":[4.78E2,8.5E1,5.1523745E-4,2E0,8.9E1,8.1E1,9.192E1,-2.9616058E-4,-7.211715E-5,2.9208264E-5,1.3521612E-4,-6.822497E-5,-1.4892966E-5],"split_indices":[13,0,0,5,0,0,3,0,0,0,0,0,0],"split_type":[0,0,0,0,0,0,0,0,0,0,0,0,0],"sum_hessian":[1E1,9E0,1E0,7E0,2E0,3E0,4E0,1E0,1E0,2E0,1E0,1E0,3E0],"tree_param":{"num_deleted":"0","num_feature":"24","num_nodes":"13","size_leaf_vector":"1"}},{"base_weights":[8.0832024E-4,-1.1202752E-3,5.023569E-4,3.9500743E-4,-4.787604E-3,1.7418861E-3,-3.807485E-5,-2.887562E-4,-7.031411E-5,2.8234721E-5,1.3183654E-4],"categories":[],"categories_nodes":[],"categories_segments":[],"categories_sizes":[],"default_left":[0,0,0,0,0,0,0,0,0,0,0],"id":97,"left_children":[1,3,-1,5,7,9,-1,-1,-1,-1,-1],"loss_changes":[2.0725292E-4,5.7461533E-5,0E0,1.37878105E-5,1.8959181E-6,2.724667E-6,0E0,0E0,0E0,0E0,0E0],"parents":[2147483647,0,0,1,1,3,3,4,4,5,5],"right_children":[2,4,-1,6,8,10,-1,-1,-1,-1,-1],"split_conditions":[4.78E2,8.5E1,5.023569E-4,2E0,8.9E1,8.1E1,-3.807485E-5,-2.887562E-4,-7.031411E-5,2.8234721E-5,1.3183654E-4],"split_indices":[13,0,0,5,0,0,0,0,0,0,0],"split_type":[0,0,0,0,0,0,0,0,0,0,0],"sum_hessian":[1E1,9E0,1E0,7E0,2E0,3E0,4E0,1E0,1E0,2E0,1E0],"tree_param":{"num_deleted":"0","num_feature":"24","num_nodes":"11","size_leaf_vector":"1"}},{"base_weights":[7.920265E-4,-1.0879636E-3,4.897982E-4,3.9050728E-4,-4.667898E-3,-5.063911E-4,2.054135E-3,-2.8153657E-4,-6.8555775E-5,-6.55666E-5,-4.1568283E-6,2.5519728E-5,1.285404E-4],"categories":[],"categories_nodes":[],"categories_segments":[],"categories_sizes":[],"default_left":[0,0,0,0,0,0,0,0,0,0,0,0,0],"id":98,"left_children":[1,3,-1,5,7,9,11,-1,-1,-1,-1,-1,-1],"loss_changes":[1.9685809E-4,5.4751134E-5,0E0,1.2977036E-5,1.8023784E-6,1.93515E-6,1.0806998E-6,0E0,0E0,0E0,0E0,0E0,0E0],"parents":[2147483647,0,0,1,1,3,3,4,4,5,5,6,6],"right_children":[2,4,-1,6,8,10,12,-1,-1,-1,-1,-1,-1],"split_conditions":[4.78E2,8.5E1,4.897982E-4,1.572E3,8.9E1,6E0,8.1E1,-2.8153657E-4,-6.8555775E-5,-6.55666E-5,-4.1568283E-6,2.5519728E-5,1.285404E-4],"split_indices":[13,0,0,11,0,6,0,0,0,0,0,0,0],"split_type":[0,0,0,0,0,0,0,0,0,0,0,0,0],"sum_hessian":[1E1,9E0,1E0,7E0,2E0,5E0,2E0,1E0,1E0,1E0,4E0,1E0,1E0],"tree_param":{"num_deleted":"0","num_feature":"24","num_nodes":"13","size_leaf_vector":"1"}},{"base_weights":[7.727959E-4,-1.0601341E-3,4.775524E-4,3.8153678E-4,-4.551212E-3,1.657337E-3,-3.5770536E-5,-2.7449877E-4,-6.684214E-5,2.6937327E-5,1.2532772E-4],"categories":[],"categories_nodes":[],"categories_segments":[],"categories_sizes":[],"default_left":[0,0,0,0,0,0,0,0,0,0,0],"id":99,"left_children":[1,3,-1,5,7,9,-1,-1,-1,-1,-1],"loss_changes":[1.8711455E-4,5.206631E-5,0E0,1.23815635E-5,1.7133643E-6,2.4493074E-6,0E0,0E0,0E0,0E0,0E0],"parents":[2147483647,0,0,1,1,3,3,4,4,5,5],"right_children":[2,4,-1,6,8,10,-1,-1,-1,-1,-1],"split_conditions":[4.78E2,8.5E1,4.775524E-4,2E0,8.9E1,8.1E1,-3.5770536E-5,-2.7449877E-4,-6.684214E-5,2.6937327E-5,1.2532772E-4],"split_indices":[13,0,0,5,0,0,0,0,0,0,0],"split_type":[0,0,0,0,0,0,0,0,0,0,0],"sum_hessian":[1E1,9E0,1E0,7E0,2E0,3E0,4E0,1E0,1E0,2E0,1E0],"tree_param":{"num_deleted":"0","num_feature":"24","num_nodes":"11","size_leaf_vector":"1"}},{"base_weights":[7.5712526E-4,-1.0296166E-3,4.6561362E-4,3.7702173E-4,-4.4374466E-3,-4.733304E-4,9.7602606E-5,-2.676368E-4,-6.517172E-5,-6.30334E-5,-3.1864643E-6],"categories":[],"categories_nodes":[],"categories_segments":[],"categories_sizes":[],"default_left":[0,0,0,0,0,0,0,0,0,0,0],"id":100,"left_children":[1,3,-1,5,7,9,-1,-1,-1,-1,-1],"loss_changes":[1.777323E-4,4.9608858E-5,0E0,1.163861E-5,1.6286394E-6,1.8546249E-6,0E0,0E0,0E0,0E0,0E0],"parents":[2147483647,0,0,1,1,3,3,4,4,5,5],"right_children":[2,4,-1,6,8,10,-1,-1,-1,-1,-1],"split_conditions":[4.78E2,8.5E1,4.6561362E-4,1.572E3,8.9E1,6E0,9.7602606E-5,-2.676368E-4,-6.517172E-5,-6.30334E-5,-3.1864643E-6],"split_indices":[13,0,0,11,0,6,0,0,0,0,0],"split_type":[0,0,0,0,0,0,0,0,0,0,0],"sum_hessian":[1E1,9E0,1E0,7E0,2E0,5E0,2E0,1E0,1E0,1E0,4E0],"tree_param":{"num_deleted":"0","num_feature":"24","num_nodes":"11","size_leaf_vector":"1"}},{"base_weights":[7.3418295E-4,-1.0082901E-3,4.539728E-4,3.6208332E-4,-4.3265224E-3,1.5645325E-3,-3.3614637E-5,-2.6094617E-4,-6.3543026E-5,2.4465719E-5,1.1975467E-4],"categories":[],"categories_nodes":[],"categories_segments":[],"categories_sizes":[],"default_left":[0,0,0,0,0,0,0,0,0,0,0],"id":101,"left_children":[1,3,-1,5,7,9,-1,-1,-1,-1,-1],"loss_changes":[1.6911028E-4,4.7038735E-5,0E0,1.1002101E-5,1.5480982E-6,2.400183E-6,0E0,0E0,0E0,0E0,0E0],"parents":[2147483647,0,0,1,1,3,3,4,4,5,5],"right_children":[2,4,-1,6,8,10,-1,-1,-1,-1,-1],"split_conditions":[4.78E2,8.5E1,4.539728E-4,2E0,8.9E1,8.1E1,-3.3614637E-5,-2.6094617E-4,-6.3543026E-5,2.4465719E-5,1.1975467E-4],"split_indices":[13,0,0,5,0,0,0,0,0,0,0],"split_type":[0,0,0,0,0,0,0,0,0,0,0],"sum_hessian":[1E1,9E0,1E0,7E0,2E0,3E0,4E0,1E0,1E0,2E0,1E0],"tree_param":{"num_deleted":"0","num_feature":"24","num_nodes":"11","size_leaf_vector":"1"}},{"base_weights":[7.1930344E-4,-9.792626E-4,4.426241E-4,3.5780668E-4,-4.21836E-3,-2.5827545E-4,1.1675954E-4,-2.5442243E-4,-6.195456E-5,-6.0616436E-5,5.1394104E-6],"categories":[],"categories_nodes":[],"categories_segments":[],"categories_sizes":[],"default_left":[0,0,0,0,0,0,0,0,0,0,0],"id":102,"left_children":[1,3,-1,5,7,9,-1,-1,-1,-1,-1],"loss_changes":[1.6063105E-4,4.4818327E-5,0E0,1.0348971E-5,1.4716352E-6,2.5359307E-6,0E0,0E0,0E0,0E0,0E0],"parents":[2147483647,0,0,1,1,3,3,4,4,5,5],"right_children":[2,4,-1,6,8,10,-1,-1,-1,-1,-1],"split_conditions":[4.78E2,8.5E1,4.426241E-4,8.4E1,8.9E1,6E0,1.1675954E-4,-2.5442243E-4,-6.195456E-5,-6.0616436E-5,5.1394104E-6],"split_indices":[13,0,0,0,0,6,0,0,0,0,0],"split_type":[0,0,0,0,0,0,0,0,0,0,0],"sum_hessian":[1E1,9E0,1E0,7E0,2E0,6E0,1E0,1E0,1E0,1E0,5E0],"tree_param":{"num_deleted":"0","num_feature":"24","num_nodes":"11","size_leaf_vector":"1"}},{"base_weights":[7.003925E-4,-9.558022E-4,4.315585E-4,3.4759194E-4,-4.1129193E-3,1.4906228E-3,-3.1817555E-5,-2.4806263E-4,-6.0406328E-5,2.3480256E-5,1.13841896E-4],"categories":[],"categories_nodes":[],"categories_segments":[],"categories_sizes":[],"default_left":[0,0,0,0,0,0,0,0,0,0,0],"id":103,"left_children":[1,3,-1,5,7,9,-1,-1,-1,-1,-1],"loss_changes":[1.5273372E-4,4.257929E-5,0E0,9.945978E-6,1.3988792E-6,2.1417427E-6,0E0,0E0,0E0,0E0,0E0],"parents":[2147483647,0,0,1,1,3,3,4,4,5,5],"right_children":[2,4,-1,6,8,10,-1,-1,-1,-1,-1],"split_conditions":[4.78E2,8.5E1,4.315585E-4,2E0,8.9E1,8.1E1,-3.1817555E-5,-2.4806263E-4,-6.0406328E-5,2.3480256E-5,1.13841896E-4],"split_indices":[13,0,0,5,0,0,0,0,0,0,0],"split_type":[0,0,0,0,0,0,0,0,0,0,0],"sum_hessian":[1E1,9E0,1E0,7E0,2E0,3E0,4E0,1E0,1E0,2E0,1E0],"tree_param":{"num_deleted":"0","num_feature":"24","num_nodes":"11","size_leaf_vector":"1"}},{"base_weights":[6.8615784E-4,-9.283066E-4,4.2077005E-4,3.434047E-4,-4.0101013E-3,1.4504194E-3,-3.05444E-5,-2.4186075E-4,-5.889684E-5,2.269745E-5,1.10995774E-4],"categories":[],"categories_nodes":[],"categories_segments":[],"categories_sizes":[],"default_left":[0,0,0,0,0,0,0,0,0,0,0],"id":104,"left_children":[1,3,-1,5,7,9,-1,-1,-1,-1,-1],"loss_changes":[1.4507654E-4,4.0568615E-5,0E0,9.337373E-6,1.329634E-6,2.0593916E-6,0E0,0E0,0E0,0E0,0E0],"parents":[2147483647,0,0,1,1,3,3,4,4,5,5],"right_children":[2,4,-1,6,8,10,-1,-1,-1,-1,-1],"split_conditions":[4.78E2,8.5E1,4.2077005E-4,2E0,8.9E1,8.1E1,-3.05444E-5,-2.4186075E-4,-5.889684E-5,2.269745E-5,1.10995774E-4],"split_indices":[13,0,0,5,0,0,0,0,0,0,0],"split_type":[0,0,0,0,0,0,0,0,0,0,0],"sum_hessian":[1E1,9E0,1E0,7E0,2E0,3E0,4E0,1E0,1E0,2E0,1E0],"tree_param":{"num_deleted":"0","num_feature":"24","num_nodes":"11","size_leaf_vector":"1"}},{"base_weights":[6.721345E-4,-9.016514E-4,4.1024984E-4,3.3912808E-4,-3.9098463E-3,-2.3083176E-4,1.08221175E-4,-2.3581386E-4,-5.7424604E-5,-5.7542326E-5,5.715589E-6],"categories":[],"categories_nodes":[],"categories_segments":[],"categories_sizes":[],"default_left":[0,0,0,0,0,0,0,0,0,0,0],"id":105,"left_children":[1,3,-1,5,7,9,-1,-1,-1,-1,-1],"loss_changes":[1.3780428E-4,3.8651004E-5,0E0,8.822378E-6,1.2639175E-6,2.354315E-6,0E0,0E0,0E0,0E0,0E0],"parents":[2147483647,0,0,1,1,3,3,4,4,5,5],"right_children":[2,4,-1,6,8,10,-1,-1,-1,-1,-1],"split_conditions":[4.78E2,8.5E1,4.1024984E-4,8.4E1,8.9E1,6E0,1.08221175E-4,-2.3581386E-4,-5.7424604E-5,-5.7542326E-5,5.715589E-6],"split_indices":[13,0,0,0,0,6,0,0,0,0,0],"split_type":[0,0,0,0,0,0,0,0,0,0,0],"sum_hessian":[1E1,9E0,1E0,7E0,2E0,6E0,1E0,1E0,1E0,1E0,5E0],"tree_param":{"num_deleted":"0","num_feature":"24","num_nodes":"11","size_leaf_vector":"1"}},{"base_weights":[6.542856E-4,-8.8026526E-4,3.9999487E-4,3.2921135E-4,-3.8121145E-3,-3.9603314E-4,8.349816E-5,-2.2991897E-4,-5.5989625E-5,-5.6104363E-5,-1.3202429E-6],"categories":[],"categories_nodes":[],"categories_segments":[],"categories_sizes":[],"default_left":[0,0,0,0,0,0,0,0,0,0,0],"id":106,"left_children":[1,3,-1,5,7,9,-1,-1,-1,-1,-1],"loss_changes":[1.3103639E-4,3.671502E-5,0E0,8.440344E-6,1.2014025E-6,1.5805922E-6,0E0,0E0,0E0,0E0,0E0],"parents":[2147483647,0,0,1,1,3,3,4,4,5,5],"right_children":[2,4,-1,6,8,10,-1,-1,-1,-1,-1],"split_conditions":[4.78E2,8.5E1,3.9999487E-4,1.572E3,8.9E1,6E0,8.349816E-5,-2.2991897E-4,-5.5989625E-5,-5.6104363E-5,-1.3202429E-6],"split_indices":[13,0,0,11,0,6,0,0,0,0,0],"split_type":[0,0,0,0,0,0,0,0,0,0,0],"sum_hessian":[1E1,9E0,1E0,7E0,2E0,5E0,2E0,1E0,1E0,1E0,4E0],"tree_param":{"num_deleted":"0","num_feature":"24","num_nodes":"11","size_leaf_vector":"1"}},{"base_weights":[6.3431804E-4,-8.6223485E-4,3.899962E-4,3.1601638E-4,-3.7168264E-3,-2.2986105E-4,1.0342896E-4,-2.2417158E-4,-5.4590404E-5,-5.4702163E-5,4.825493E-6],"categories":[],"categories_nodes":[],"categories_segments":[],"categories_sizes":[],"default_left":[0,0,0,0,0,0,0,0,0,0,0],"id":107,"left_children":[1,3,-1,5,7,9,-1,-1,-1,-1,-1],"loss_changes":[1.2468615E-4,3.4808836E-5,0E0,8.128961E-6,1.1420125E-6,2.0798932E-6,0E0,0E0,0E0,0E0,0E0],"parents":[2147483647,0,0,1,1,3,3,4,4,5,5],"right_children":[2,4,-1,6,8,10,-1,-1,-1,-1,-1],"split_conditions":[4.78E2,8.5E1,3.899962E-4,8.4E1,8.9E1,6E0,1.0342896E-4,-2.2417158E-4,-5.4590404E-5,-5.4702163E-5,4.825493E-6],"split_indices":[13,0,0,0,0,6,0,0,0,0,0],"split_type":[0,0,0,0,0,0,0,0,0,0,0],"sum_hessian":[1E1,9E0,1E0,7E0,2E0,6E0,1E0,1E0,1E0,1E0,5E0],"tree_param":{"num_deleted":"0","num_feature":"24","num_nodes":"11","size_leaf_vector":"1"}},{"base_weights":[6.175854E-4,-8.4163545E-4,3.8024486E-4,3.0691922E-4,-3.6239028E-3,-2.2547586E-4,1.0084212E-4,-2.1856725E-4,-5.322546E-5,-5.3334235E-5,4.6253203E-6],"categories":[],"categories_nodes":[],"categories_segments":[],"categories_sizes":[],"default_left":[0,0,0,0,0,0,0,0,0,0,0],"id":108,"left_children":[1,3,-1,5,7,9,-1,-1,-1,-1,-1],"loss_changes":[1.1855689E-4,3.306811E-5,0E0,7.737586E-6,1.0856602E-6,1.9711017E-6,0E0,0E0,0E0,0E0,0E0],"parents":[2147483647,0,0,1,1,3,3,4,4,5,5],"right_children":[2,4,-1,6,8,10,-1,-1,-1,-1,-1],"split_conditions":[4.78E2,8.5E1,3.8024486E-4,8.4E1,8.9E1,6E0,1.0084212E-4,-2.1856725E-4,-5.322546E-5,-5.3334235E-5,4.6253203E-6],"split_indices":[13,0,0,0,0,6,0,0,0,0,0],"split_type":[0,0,0,0,0,0,0,0,0,0,0],"sum_hessian":[1E1,9E0,1E0,7E0,2E0,6E0,1E0,1E0,1E0,1E0,5E0],"tree_param":{"num_deleted":"0","num_feature":"24","num_nodes":"11","size_leaf_vector":"1"}},{"base_weights":[6.0129166E-4,-8.215308E-4,3.7073792E-4,2.9807538E-4,-3.5333037E-3,1.2842417E-3,-2.7523638E-5,-2.13103E-4,-5.1894785E-5,2.0068885E-5,9.8320845E-5],"categories":[],"categories_nodes":[],"categories_segments":[],"categories_sizes":[],"default_left":[0,0,0,0,0,0,0,0,0,0,0],"id":109,"left_children":[1,3,-1,5,7,9,-1,-1,-1,-1,-1],"loss_changes":[1.12729336E-4,3.141437E-5,0E0,7.4014165E-6,1.0320582E-6,1.619796E-6,0E0,0E0,0E0,0E0,0E0],"parents":[2147483647,0,0,1,1,3,3,4,4,5,5],"right_children":[2,4,-1,6,8,10,-1,-1,-1,-1,-1],"split_conditions":[4.78E2,8.5E1,3.7073792E-4,2E0,8.9E1,8.1E1,-2.7523638E-5,-2.13103E-4,-5.1894785E-5,2.0068885E-5,9.8320845E-5],"split_indices":[13,0,0,5,0,0,0,0,0,0,0],"split_type":[0,0,0,0,0,0,0,0,0,0,0],"sum_hessian":[1E1,9E0,1E0,7E0,2E0,3E0,4E0,1E0,1E0,2E0,1E0],"tree_param":{"num_deleted":"0","num_feature":"24","num_nodes":"11","size_leaf_vector":"1"}},{"base_weights":[5.8911066E-4,-7.9785584E-4,3.614694E-4,2.945438E-4,-1.7224849E-4,-2.1116223E-4,9.586215E-5,-5.131215E-5,4.786253E-6],"categories":[],"categories_nodes":[],"categories_segments":[],"categories_sizes":[],"default_left":[0,0,0,0,0,0,0,0,0],"id":110,"left_children":[1,3,-1,5,-1,7,-1,-1,-1],"loss_changes":[1.07076274E-4,2.9931758E-5,0E0,6.9697194E-6,0E0,1.8492025E-6,0E0,0E0,0E0],"parents":[2147483647,0,0,1,1,3,3,5,5],"right_children":[2,4,-1,6,-1,8,-1,-1,-1],"split_conditions":[4.78E2,8.5E1,3.614694E-4,8.4E1,-1.7224849E-4,6E0,9.586215E-5,-5.131215E-5,4.786253E-6],"split_indices":[13,0,0,0,0,6,0,0,0],"split_type":[0,0,0,0,0,0,0,0,0],"sum_hessian":[1E1,9E0,1E0,7E0,2E0,6E0,1E0,1E0,5E0],"tree_param":{"num_deleted":"0","num_feature":"24","num_nodes":"9","size_leaf_vector":"1"}},{"base_weights":[5.8135664E-4,-7.70241E-4,3.5243333E-4,2.85998E-4,-3.3301313E-3,1.2232959E-3,-2.6051997E-5,-2.034694E-4,-4.6290457E-5,1.9242367E-5,9.346604E-5],"categories":[],"categories_nodes":[],"categories_segments":[],"categories_sizes":[],"default_left":[0,0,0,0,0,0,0,0,0,0,0],"id":111,"left_children":[1,3,-1,5,7,9,-1,-1,-1,-1,-1],"loss_changes":[1.0158238E-4,2.7990975E-5,0E0,6.688866E-6,1.5647529E-6,1.4472316E-6,0E0,0E0,0E0,0E0,0E0],"parents":[2147483647,0,0,1,1,3,3,4,4,5,5],"right_children":[2,4,-1,6,8,10,-1,-1,-1,-1,-1],"split_conditions":[4.78E2,8.5E1,3.5243333E-4,2E0,8.9E1,8.1E1,-2.6051997E-5,-2.034694E-4,-4.6290457E-5,1.9242367E-5,9.346604E-5],"split_indices":[13,0,0,5,0,0,0,0,0,0,0],"split_type":[0,0,0,0,0,0,0,0,0,0,0],"sum_hessian":[1E1,9E0,1E0,7E0,2E0,3E0,4E0,1E0,1E0,2E0,1E0],"tree_param":{"num_deleted":"0","num_feature":"24","num_nodes":"11","size_leaf_vector":"1"}},{"base_weights":[5.6951697E-4,-7.4802636E-4,3.4362377E-4,2.8254092E-4,-3.2468636E-3,1.1903346E-3,-2.501011E-5,-1.9838214E-4,-4.5132638E-5,1.860261E-5,9.112954E-5],"categories":[],"categories_nodes":[],"categories_segments":[],"categories_sizes":[],"default_left":[0,0,0,0,0,0,0,0,0,0,0],"id":112,"left_children":[1,3,-1,5,7,9,-1,-1,-1,-1,-1],"loss_changes":[9.648942E-5,2.6669575E-5,0E0,6.2799613E-6,1.4875695E-6,1.3913577E-6,0E0,0E0,0E0,0E0,0E0],"parents":[2147483647,0,0,1,1,3,3,4,4,5,5],"right_children":[2,4,-1,6,8,10,-1,-1,-1,-1,-1],"split_conditions":[4.78E2,8.5E1,3.4362377E-4,2E0,8.9E1,8.1E1,-2.501011E-5,-1.9838214E-4,-4.5132638E-5,1.860261E-5,9.112954E-5],"split_indices":[13,0,0,5,0,0,0,0,0,0,0],"split_type":[0,0,0,0,0,0,0,0,0,0,0],"sum_hessian":[1E1,9E0,1E0,7E0,2E0,3E0,4E0,1E0,1E0,2E0,1E0],"tree_param":{"num_deleted":"0","num_feature":"24","num_nodes":"11","size_leaf_vector":"1"}},{"base_weights":[5.578507E-4,-7.264912E-4,3.3503174E-4,2.7902424E-4,-3.165702E-3,-1.8884454E-4,8.885265E-5,-1.9342304E-4,-4.400462E-5,-4.875213E-5,5.234778E-6],"categories":[],"categories_nodes":[],"categories_segments":[],"categories_sizes":[],"default_left":[0,0,0,0,0,0,0,0,0,0,0],"id":113,"left_children":[1,3,-1,5,7,9,-1,-1,-1,-1,-1],"loss_changes":[9.165174E-5,2.5409947E-5,0E0,5.942634E-6,1.4140915E-6,1.7175473E-6,0E0,0E0,0E0,0E0,0E0],"parents":[2147483647,0,0,1,1,3,3,4,4,5,5],"right_children":[2,4,-1,6,8,10,-1,-1,-1,-1,-1],"split_conditions":[4.78E2,8.5E1,3.3503174E-4,8.4E1,8.9E1,6E0,8.885265E-5,-1.9342304E-4,-4.400462E-5,-4.875213E-5,5.234778E-6],"split_indices":[13,0,0,0,0,6,0,0,0,0,0],"split_type":[0,0,0,0,0,0,0,0,0,0,0],"sum_hessian":[1E1,9E0,1E0,7E0,2E0,6E0,1E0,1E0,