{"learner":{"attributes":{"scikit_learn":"{\"_estimator_type\": \"regressor\"}"},"feature_names":[],"feature_types":[],"gradient_booster":{"model":{"gbtree_model_param":{"num_parallel_tree":"1","num_trees":"200"},"iteration_indptr":[0,1,2,3,4,5,6,7,8,9,10,11,12,13,14,15,16,17,18,19,20,21,22,23,24,25,26,27,28,29,30,31,32,33,34,35,36,37,38,39,40,41,42,43,44,45,46,47,48,49,50,51,52,53,54,55,56,57,58,59,60,61,62,63,64,65,66,67,68,69,70,71,72,73,74,75,76,77,78,79,80,81,82,83,84,85,86,87,88,89,90,91,92,93,94,95,96,97,98,99,100,101,102,103,104,105,106,107,108,109,110,111,112,113,114,115,116,117,118,119,120,121,122,123,124,125,126,127,128,129,130,131,132,133,134,135,136,137,138,139,140,141,142,143,144,145,146,147,148,149,150,151,152,153,154,155,156,157,158,159,160,161,162,163,164,165,166,167,168,169,170,171,172,173,174,175,176,177,178,179,180,181,182,183,184,185,186,187,188,189,190,191,192,193,194,195,196,197,198,199,200],"tree_info":[0,0,0,0,0,0,0,0,0,0,0,0,0,0,0,0,0,0,0,0,0,0,0,0,0,0,0,0,0,0,0,0,0,0,0,0,0,0,0,0,0,0,0,0,0,0,0,0,0,0,0,0,0,0,0,0,0,0,0,0,0,0,0,0,0,0,0,0,0,0,0,0,0,0,0,0,0,0,0,0,0,0,0,0,0,0,0,0,0,0,0,0,0,0,0,0,0,0,0,0,0,0,0,0,0,0,0,0,0,0,0,0,0,0,0,0,0,0,0,0,0,0,0,0,0,0,0,0,0,0,0,0,0,0,0,0,0,0,0,0,0,0,0,0,0,0,0,0,0,0,0,0,0,0,0,0,0,0,0,0,0,0,0,0,0,0,0,0,0,0,0,0,0,0,0,0,0,0,0,0,0,0,0,0,0,0,0,0,0,0,0,0,0,0,0,0,0,0,0,0],"trees":[{"base_weights":[5.4186042E-9,7.720001E-2,-2.7571428E-3,5.3000017E-3,1.1333327E-3],"categories":[],"categories_nodes":[],"categories_segments":[],"categories_sizes":[],"default_left":[0,0,0,0,0],"id":0,"left_children":[1,3,-1,-1,-1],"loss_changes":[5.1084347E-2,5.4501444E-3,0E0,0E0,0E0],"parents":[2147483647,0,0,1,1],"right_children":[2,4,-1,-1,-1],"split_conditions":[2E0,7.8E1,-2.7571428E-3,5.3000017E-3,1.1333327E-3],"split_indices":[5,0,0,0,0],"split_type":[0,0,0,0,0],"sum_hessian":[1E1,4E0,6E0,2E0,2E0],"tree_param":{"num_deleted":"0","num_feature":"24","num_nodes":"5","size_leaf_vector":"1"}},{"base_weights":[3.3420324E-4,7.4626684E-2,-5.2779596E-2,5.1233354E-3,1.0955553E-3,-3.441428E-3,-1.6297151E-3],"categories":[],"categories_nodes":[],"categories_segments":[],"categories_sizes":[],"default_left":[0,0,0,0,0,0,0],"id":1,"left_children":[1,3,5,-1,-1,-1,-1],"loss_changes":[4.7344282E-2,5.0928555E-3,2.425164E-5,0E0,0E0,0E0,0E0],"parents":[2147483647,0,0,1,1,2,2],"right_children":[2,4,6,-1,-1,-1,-1],"split_conditions":[2E0,7.8E1,6.7E1,5.1233354E-3,1.0955553E-3,-3.441428E-3,-1.6297151E-3],"split_indices":[5,0,0,0,0,0,0],"split_type":[0,0,0,0,0,0,0],"sum_hessian":[1E1,4E0,6E0,2E0,2E0,2E0,4E0],"tree_param":{"num_deleted":"0","num_feature":"24","num_nodes":"7","size_leaf_vector":"1"}},{"base_weights":[4.218329E-4,7.213912E-2,-5.086506E-2,4.952556E-3,1.0590375E-3,-3.3267129E-3,-1.5645266E-3],"categories":[],"categories_nodes":[],"categories_segments":[],"categories_sizes":[],"default_left":[0,0,0,0,0,0,0],"id":2,"left_children":[1,3,5,-1,-1,-1,-1],"loss_changes":[4.4129092E-2,4.75898E-3,6.512925E-5,0E0,0E0,0E0,0E0],"parents":[2147483647,0,0,1,1,2,2],"right_children":[2,4,6,-1,-1,-1,-1],"split_conditions":[2E0,7.8E1,6.7E1,4.952556E-3,1.0590375E-3,-3.3267129E-3,-1.5645266E-3],"split_indices":[5,0,0,0,0,0,0],"split_type":[0,0,0,0,0,0,0],"sum_hessian":[1E1,4E0,6E0,2E0,2E0,2E0,4E0],"tree_param":{"num_deleted":"0","num_feature":"24","num_nodes":"7","size_leaf_vector":"1"}},{"base_weights":[5.0258095E-4,6.973448E-2,-4.902057E-2,4.7874707E-3,1.0237356E-3,-2.9749752E-3,-1.3143249E-3],"categories":[],"categories_nodes":[],"categories_segments":[],"categories_sizes":[],"default_left":[0,0,0,0,0,0,0],"id":3,"left_children":[1,3,5,-1,-1,-1,-1],"loss_changes":[4.1132823E-2,4.4470076E-3,1.0356866E-4,0E0,0E0,0E0,0E0],"parents":[2147483647,0,0,1,1,2,2],"right_children":[2,4,6,-1,-1,-1,-1],"split_conditions":[2E0,7.8E1,6E0,4.7874707E-3,1.0237356E-3,-2.9749752E-3,-1.3143249E-3],"split_indices":[5,0,6,0,0,0,0],"split_type":[0,0,0,0,0,0,0],"sum_hessian":[1E1,4E0,6E0,2E0,2E0,3E0,3E0],"tree_param":{"num_deleted":"0","num_feature":"24","num_nodes":"7","size_leaf_vector":"1"}},{"base_weights":[6.1582436E-4,6.7410015E-2,-4.7182288E-2,4.6278895E-3,9.89612E-4,-3.1166563E-3,-1.4327663E-3],"categories":[],"categories_nodes":[],"categories_segments":[],"categories_sizes":[],"default_left":[0,0,0,0,0,0,0],"id":4,"left_children":[1,3,5,-1,-1,-1,-1],"loss_changes":[3.8299557E-2,4.1554794E-3,1.7871521E-4,0E0,0E0,0E0,0E0],"parents":[2147483647,0,0,1,1,2,2],"right_children":[2,4,6,-1,-1,-1,-1],"split_conditions":[2E0,7.8E1,6.7E1,4.6278895E-3,9.89612E-4,-3.1166563E-3,-1.4327663E-3],"split_indices":[5,0,0,0,0,0,0],"split_type":[0,0,0,0,0,0,0],"sum_hessian":[1E1,4E0,6E0,2E0,2E0,2E0,4E0],"tree_param":{"num_deleted":"0","num_feature":"24","num_nodes":"7","size_leaf_vector":"1"}},{"base_weights":[6.821264E-4,6.5162994E-2,-4.547308E-2,4.4736248E-3,9.5662475E-4,-3.0127675E-3,-1.3754553E-3],"categories":[],"categories_nodes":[],"categories_segments":[],"categories_sizes":[],"default_left":[0,0,0,0,0,0,0],"id":5,"left_children":[1,3,5,-1,-1,-1,-1],"loss_changes":[3.5700567E-2,3.88306E-3,2.0126812E-4,0E0,0E0,0E0,0E0],"parents":[2147483647,0,0,1,1,2,2],"right_children":[2,4,6,-1,-1,-1,-1],"split_conditions":[2E0,7.8E1,6.7E1,4.4736248E-3,9.5662475E-4,-3.0127675E-3,-1.3754553E-3],"split_indices":[5,0,0,0,0,0,0],"split_type":[0,0,0,0,0,0,0],"sum_hessian":[1E1,4E0,6E0,2E0,2E0,2E0,4E0],"tree_param":{"num_deleted":"0","num_feature":"24","num_nodes":"7","size_leaf_vector":"1"}},{"base_weights":[7.4276055E-4,6.2990926E-2,-4.3826323E-2,4.324506E-3,9.2473824E-4,-2.9123416E-3,-1.3204379E-3],"categories":[],"categories_nodes":[],"categories_segments":[],"categories_sizes":[],"default_left":[0,0,0,0,0,0,0],"id":6,"left_children":[1,3,5,-1,-1,-1,-1],"loss_changes":[3.3278443E-2,3.6285035E-3,2.1996442E-4,0E0,0E0,0E0,0E0],"parents":[2147483647,0,0,1,1,2,2],"right_children":[2,4,6,-1,-1,-1,-1],"split_conditions":[2E0,7.8E1,6.7E1,4.324506E-3,9.2473824E-4,-2.9123416E-3,-1.3204379E-3],"split_indices":[5,0,0,0,0,0,0],"split_type":[0,0,0,0,0,0,0],"sum_hessian":[1E1,4E0,6E0,2E0,2E0,2E0,4E0],"tree_param":{"num_deleted":"0","num_feature":"24","num_nodes":"7","size_leaf_vector":"1"}},{"base_weights":[7.9800864E-4,6.08912E-2,-4.22397E-2,2.7261347E-2,4.885265E-3,-2.8152636E-3,-1.267621E-3,1.6204665E-3,2.954349E-4],"categories":[],"categories_nodes":[],"categories_segments":[],"categories_sizes":[],"default_left":[0,0,0,0,0,0,0,0,0],"id":7,"left_children":[1,3,5,7,-1,-1,-1,-1,-1],"loss_changes":[3.102103E-2,3.5266858E-3,2.352288E-4,2.4819514E-4,0E0,0E0,0E0,0E0,0E0],"parents":[2147483647,0,0,1,1,2,2,3,3],"right_children":[2,4,6,8,-1,-1,-1,-1,-1],"split_conditions":[2E0,1E0,6.7E1,8.8E1,4.885265E-3,-2.8152636E-3,-1.267621E-3,1.6204665E-3,2.954349E-4],"split_indices":[5,4,0,0,0,0,0,0,0],"split_type":[0,0,0,0,0,0,0,0,0],"sum_hessian":[1E1,4E0,6E0,3E0,1E0,2E0,4E0,2E0,1E0],"tree_param":{"num_deleted":"0","num_feature":"24","num_nodes":"9","size_leaf_vector":"1"}},{"base_weights":[1.005216E-3,5.9206866E-2,-4.0710993E-2,2.637726E-2,4.7631324E-3,-2.7214221E-3,-1.2169165E-3,1.5664519E-3,2.8804838E-4],"categories":[],"categories_nodes":[],"categories_segments":[],"categories_sizes":[],"default_left":[0,0,0,0,0,0,0,0,0],"id":8,"left_children":[1,3,5,7,-1,-1,-1,-1,-1],"loss_changes":[2.9117847E-2,3.4057181E-3,2.474403E-4,2.278632E-4,0E0,0E0,0E0,0E0,0E0],"parents":[2147483647,0,0,1,1,2,2,3,3],"right_children":[2,4,6,8,-1,-1,-1,-1,-1],"split_conditions":[2E0,1E0,6.7E1,8.8E1,4.7631324E-3,-2.7214221E-3,-1.2169165E-3,1.5664519E-3,2.8804838E-4],"split_indices":[5,4,0,0,0,0,0,0,0],"split_type":[0,0,0,0,0,0,0,0,0],"sum_hessian":[1E1,4E0,6E0,3E0,1E0,2E0,4E0,2E0,1E0],"tree_param":{"num_deleted":"0","num_feature":"24","num_nodes":"9","size_leaf_vector":"1"}},{"base_weights":[1.1985247E-3,5.7570063E-2,-3.9238077E-2,2.5522038E-2,4.6440545E-3,-2.6307076E-3,-1.1682409E-3,1.5142382E-3,2.8084667E-4],"categories":[],"categories_nodes":[],"categories_segments":[],"categories_sizes":[],"default_left":[0,0,0,0,0,0,0,0,0],"id":9,"left_children":[1,3,5,7,-1,-1,-1,-1,-1],"loss_changes":[2.733315E-2,3.287727E-3,2.569342E-4,2.091024E-4,0E0,0E0,0E0,0E0,0E0],"parents":[2147483647,0,0,1,1,2,2,3,3],"right_children":[2,4,6,8,-1,-1,-1,-1,-1],"split_conditions":[2E0,1E0,6.7E1,8.8E1,4.6440545E-3,-2.6307076E-3,-1.1682409E-3,1.5142382E-3,2.8084667E-4],"split_indices":[5,4,0,0,0,0,0,0,0],"split_type":[0,0,0,0,0,0,0,0,0],"sum_hessian":[1E1,4E0,6E0,3E0,1E0,2E0,4E0,2E0,1E0],"tree_param":{"num_deleted":"0","num_feature":"24","num_nodes":"9","size_leaf_vector":"1"}},{"base_weights":[1.3786283E-3,5.597941E-2,-3.7818875E-2,2.4694726E-2,4.5279535E-3,-2.5430173E-3,-1.1215109E-3,1.4637649E-3,2.7382522E-4],"categories":[],"categories_nodes":[],"categories_segments":[],"categories_sizes":[],"default_left":[0,0,0,0,0,0,0,0,0],"id":10,"left_children":[1,3,5,7,-1,-1,-1,-1,-1],"loss_changes":[2.5659434E-2,3.1727366E-3,2.6402622E-4,1.917954E-4,0E0,0E0,0E0,0E0,0E0],"parents":[2147483647,0,0,1,1,2,2,3,3],"right_children":[2,4,6,8,-1,-1,-1,-1,-1],"split_conditions":[2E0,1E0,6.7E1,8.8E1,4.5279535E-3,-2.5430173E-3,-1.1215109E-3,1.4637649E-3,2.7382522E-4],"split_indices":[5,4,0,0,0,0,0,0,0],"split_type":[0,0,0,0,0,0,0,0,0],"sum_hessian":[1E1,4E0,6E0,3E0,1E0,2E0,4E0,2E0,1E0],"tree_param":{"num_deleted":"0","num_feature":"24","num_nodes":"9","size_leaf_vector":"1"}},{"base_weights":[1.5461608E-3,5.4433547E-2,-3.6451425E-2,2.3894385E-2,4.4147554E-3,-2.4582497E-3,-1.0766501E-3,1.4149726E-3,2.6697965E-4],"categories":[],"categories_nodes":[],"categories_segments":[],"categories_sizes":[],"default_left":[0,0,0,0,0,0,0,0,0],"id":11,"left_children":[1,3,5,7,-1,-1,-1,-1,-1],"loss_changes":[2.4089705E-2,3.06076E-3,2.689939E-4,1.75833E-4,0E0,0E0,0E0,0E0,0E0],"parents":[2147483647,0,0,1,1,2,2,3,3],"right_children":[2,4,6,8,-1,-1,-1,-1,-1],"split_conditions":[2E0,1E0,6.7E1,8.8E1,4.4147554E-3,-2.4582497E-3,-1.0766501E-3,1.4149726E-3,2.6697965E-4],"split_indices":[5,4,0,0,0,0,0,0,0],"split_type":[0,0,0,0,0,0,0,0,0],"sum_hessian":[1E1,4E0,6E0,3E0,1E0,2E0,4E0,2E0,1E0],"tree_param":{"num_deleted":"0","num_feature":"24","num_nodes":"9","size_leaf_vector":"1"}},{"base_weights":[1.7017343E-3,5.293119E-2,-3.513384E-2,2.3120135E-2,4.3043853E-3,-2.376307E-3,-1.0335845E-3,1.3678054E-3,2.6030542E-4],"categories":[],"categories_nodes":[],"categories_segments":[],"categories_sizes":[],"default_left":[0,0,0,0,0,0,0,0,0],"id":12,"left_children":[1,3,5,7,-1,-1,-1,-1,-1],"loss_changes":[2.2617407E-2,2.9517924E-3,2.7208962E-4,1.6111461E-4,0E0,0E0,0E0,0E0,0E0],"parents":[2147483647,0,0,1,1,2,2,3,3],"right_children":[2,4,6,8,-1,-1,-1,-1,-1],"split_conditions":[2E0,1E0,6.7E1,8.8E1,4.3043853E-3,-2.376307E-3,-1.0335845E-3,1.3678054E-3,2.6030542E-4],"split_indices":[5,4,0,0,0,0,0,0,0],"split_type":[0,0,0,0,0,0,0,0,0],"sum_hessian":[1E1,4E0,6E0,3E0,1E0,2E0,4E0,2E0,1E0],"tree_param":{"num_deleted":"0","num_feature":"24","num_nodes":"9","size_leaf_vector":"1"}},{"base_weights":[1.845983E-3,5.1471125E-2,-3.386426E-2,2.2371158E-2,4.196775E-3,-2.2970967E-3,-9.922403E-4,1.3222118E-3,2.5379806E-4],"categories":[],"categories_nodes":[],"categories_segments":[],"categories_sizes":[],"default_left":[0,0,0,0,0,0,0,0,0],"id":13,"left_children":[1,3,5,7,-1,-1,-1,-1,-1],"loss_changes":[2.1236418E-2,2.8458266E-3,2.7354714E-4,1.4754874E-4,0E0,0E0,0E0,0E0,0E0],"parents":[2147483647,0,0,1,1,2,2,3,3],"right_children":[2,4,6,8,-1,-1,-1,-1,-1],"split_conditions":[2E0,1E0,6.7E1,8.8E1,4.196775E-3,-2.2970967E-3,-9.922403E-4,1.3222118E-3,2.5379806E-4],"split_indices":[5,4,0,0,0,0,0,0,0],"split_type":[0,0,0,0,0,0,0,0,0],"sum_hessian":[1E1,4E0,6E0,3E0,1E0,2E0,4E0,2E0,1E0],"tree_param":{"num_deleted":"0","num_feature":"24","num_nodes":"9","size_leaf_vector":"1"}},{"base_weights":[1.9794377E-3,5.0052095E-2,-3.2640953E-2,2.164656E-2,4.091856E-3,-2.2205263E-3,-9.525508E-4,1.2781363E-3,2.4745168E-4],"categories":[],"categories_nodes":[],"categories_segments":[],"categories_sizes":[],"default_left":[0,0,0,0,0,0,0,0,0],"id":14,"left_children":[1,3,5,7,-1,-1,-1,-1,-1],"loss_changes":[1.9940982E-2,2.7428614E-3,2.7356902E-4,1.3505016E-4,0E0,0E0,0E0,0E0,0E0],"parents":[2147483647,0,0,1,1,2,2,3,3],"right_children":[2,4,6,8,-1,-1,-1,-1,-1],"split_conditions":[2E0,1E0,6.7E1,8.8E1,4.091856E-3,-2.2205263E-3,-9.525508E-4,1.2781363E-3,2.4745168E-4],"split_indices":[5,4,0,0,0,0,0,0,0],"split_type":[0,0,0,0,0,0,0,0,0],"sum_hessian":[1E1,4E0,6E0,3E0,1E0,2E0,4E0,2E0,1E0],"tree_param":{"num_deleted":"0","num_feature":"24","num_nodes":"9","size_leaf_vector":"1"}},{"base_weights":[2.1026677E-3,4.8672963E-2,-3.146221E-2,2.0945609E-2,3.9895596E-3,-1.9738288E-3,-7.7911466E-4,1.2355308E-3,2.412647E-4],"categories":[],"categories_nodes":[],"categories_segments":[],"categories_sizes":[],"default_left":[0,0,0,0,0,0,0,0,0],"id":15,"left_children":[1,3,5,7,-1,-1,-1,-1,-1],"loss_changes":[1.8725747E-2,2.642856E-3,2.7573667E-4,1.2353633E-4,0E0,0E0,0E0,0E0,0E0],"parents":[2147483647,0,0,1,1,2,2,3,3],"right_children":[2,4,6,8,-1,-1,-1,-1,-1],"split_conditions":[2E0,1E0,6E0,8.8E1,3.9895596E-3,-1.9738288E-3,-7.7911466E-4,1.2355308E-3,2.412647E-4],"split_indices":[5,4,6,0,0,0,0,0,0],"split_type":[0,0,0,0,0,0,0,0,0],"sum_hessian":[1E1,4E0,6E0,3E0,1E0,3E0,3E0,2E0,1E0],"tree_param":{"num_deleted":"0","num_feature":"24","num_nodes":"9","size_leaf_vector":"1"}},{"base_weights":[2.2442015E-3,4.7332596E-2,-3.0282395E-2,2.0267546E-2,3.88982E-3,-2.0807157E-3,-8.7133824E-4,1.194348E-3,2.3523271E-4],"categories":[],"categories_nodes":[],"categories_segments":[],"categories_sizes":[],"default_left":[0,0,0,0,0,0,0,0,0],"id":16,"left_children":[1,3,5,7,-1,-1,-1,-1,-1],"loss_changes":[1.7565636E-2,2.5457796E-3,2.945494E-4,1.1293404E-4,0E0,0E0,0E0,0E0,0E0],"parents":[2147483647,0,0,1,1,2,2,3,3],"right_children":[2,4,6,8,-1,-1,-1,-1,-1],"split_conditions":[2E0,1E0,6.7E1,8.8E1,3.88982E-3,-2.0807157E-3,-8.7133824E-4,1.194348E-3,2.3523271E-4],"split_indices":[5,4,0,0,0,0,0,0,0],"split_type":[0,0,0,0,0,0,0,0,0],"sum_hessian":[1E1,4E0,6E0,3E0,1E0,2E0,4E0,2E0,1E0],"tree_param":{"num_deleted":"0","num_feature":"24","num_nodes":"9","size_leaf_vector":"1"}},{"base_weights":[2.34722E-3,4.6029855E-2,-2.9189978E-2,1.9611567E-2,3.792575E-3,-2.0113578E-3,-8.3648384E-4,1.154536E-3,2.2935272E-4],"categories":[],"categories_nodes":[],"categories_segments":[],"categories_sizes":[],"default_left":[0,0,0,0,0,0,0,0,0],"id":17,"left_children":[1,3,5,7,-1,-1,-1,-1,-1],"loss_changes":[1.6497517E-2,2.4516182E-3,2.896986E-4,1.03171915E-4,0E0,0E0,0E0,0E0,0E0],"parents":[2147483647,0,0,1,1,2,2,3,3],"right_children":[2,4,6,8,-1,-1,-1,-1,-1],"split_conditions":[2E0,1E0,6.7E1,8.8E1,3.792575E-3,-2.0113578E-3,-8.3648384E-4,1.154536E-3,2.2935272E-4],"split_indices":[5,4,0,0,0,0,0,0,0],"split_type":[0,0,0,0,0,0,0,0,0],"sum_hessian":[1E1,4E0,6E0,3E0,1E0,2E0,4E0,2E0,1E0],"tree_param":{"num_deleted":"0","num_feature":"24","num_nodes":"9","size_leaf_vector":"1"}},{"base_weights":[2.441558E-3,4.4763662E-2,-2.813731E-2,1.8976957E-2,3.697762E-3,-1.9443125E-3,-8.0302416E-4,1.1160512E-3,2.2361874E-4],"categories":[],"categories_nodes":[],"categories_segments":[],"categories_sizes":[],"default_left":[0,0,0,0,0,0,0,0,0],"id":18,"left_children":[1,3,5,7,-1,-1,-1,-1,-1],"loss_changes":[1.5495311E-2,2.360328E-3,2.841591E-4,9.418931E-5,0E0,0E0,0E0,0E0,0E0],"parents":[2147483647,0,0,1,1,2,2,3,3],"right_children":[2,4,6,8,-1,-1,-1,-1,-1],"split_conditions":[2E0,1E0,6.7E1,8.8E1,3.697762E-3,-1.9443125E-3,-8.0302416E-4,1.1160512E-3,2.2361874E-4],"split_indices":[5,4,0,0,0,0,0,0,0],"split_type":[0,0,0,0,0,0,0,0,0],"sum_hessian":[1E1,4E0,6E0,3E0,1E0,2E0,4E0,2E0,1E0],"tree_param":{"num_deleted":"0","num_feature":"24","num_nodes":"9","size_leaf_vector":"1"}},{"base_weights":[2.5276812E-3,4.3532968E-2,-2.7122905E-2,1.8363029E-2,3.605318E-3,-1.8795023E-3,-7.70902E-4,1.07885E-3,2.1802784E-4],"categories":[],"categories_nodes":[],"categories_segments":[],"categories_sizes":[],"default_left":[0,0,0,0,0,0,0,0,0],"id":19,"left_children":[1,3,5,7,-1,-1,-1,-1,-1],"loss_changes":[1.455488E-2,2.2718608E-3,2.7805008E-4,8.59265E-5,0E0,0E0,0E0,0E0,0E0],"parents":[2147483647,0,0,1,1,2,2,3,3],"right_children":[2,4,6,8,-1,-1,-1,-1,-1],"split_conditions":[2E0,1E0,6.7E1,8.8E1,3.605318E-3,-1.8795023E-3,-7.70902E-4,1.07885E-3,2.1802784E-4],"split_indices":[5,4,0,0,0,0,0,0,0],"split_type":[0,0,0,0,0,0,0,0,0],"sum_hessian":[1E1,4E0,6E0,3E0,1E0,2E0,4E0,2E0,1E0],"tree_param":{"num_deleted":"0","num_feature":"24","num_nodes":"9","size_leaf_vector":"1"}},{"base_weights":[2.6060126E-3,4.233675E-2,-2.6145373E-2,1.7769098E-2,3.515184E-3,-1.8168519E-3,-7.4006495E-4,1.0428886E-3,2.1257698E-4],"categories":[],"categories_nodes":[],"categories_segments":[],"categories_sizes":[],"default_left":[0,0,0,0,0,0,0,0,0],"id":20,"left_children":[1,3,5,7,-1,-1,-1,-1,-1],"loss_changes":[1.3672361E-2,2.1861764E-3,2.7146935E-4,7.832772E-5,0E0,0E0,0E0,0E0,0E0],"parents":[2147483647,0,0,1,1,2,2,3,3],"right_children":[2,4,6,8,-1,-1,-1,-1,-1],"split_conditions":[2E0,1E0,6.7E1,8.8E1,3.515184E-3,-1.8168519E-3,-7.4006495E-4,1.0428886E-3,2.1257698E-4],"split_indices":[5,4,0,0,0,0,0,0,0],"split_type":[0,0,0,0,0,0,0,0,0],"sum_hessian":[1E1,4E0,6E0,3E0,1E0,2E0,4E0,2E0,1E0],"tree_param":{"num_deleted":"0","num_feature":"24","num_nodes":"9","size_leaf_vector":"1"}},{"base_weights":[2.6769638E-3,4.1174054E-2,-2.520338E-2,1.719454E-2,3.427303E-3,-1.7562896E-3,-7.104629E-4,1.0081272E-3,2.0726323E-4],"categories":[],"categories_nodes":[],"categories_segments":[],"categories_sizes":[],"default_left":[0,0,0,0,0,0,0,0,0],"id":21,"left_children":[1,3,5,7,-1,-1,-1,-1,-1],"loss_changes":[1.2844159E-2,2.1032197E-3,2.6450586E-4,7.134199E-5,0E0,0E0,0E0,0E0,0E0],"parents":[2147483647,0,0,1,1,2,2,3,3],"right_children":[2,4,6,8,-1,-1,-1,-1,-1],"split_conditions":[2E0,1E0,6.7E1,8.8E1,3.427303E-3,-1.7562896E-3,-7.104629E-4,1.0081272E-3,2.0726323E-4],"split_indices":[5,4,0,0,0,0,0,0,0],"split_type":[0,0,0,0,0,0,0,0,0],"sum_hessian":[1E1,4E0,6E0,3E0,1E0,2E0,4E0,2E0,1E0],"tree_param":{"num_deleted":"0","num_feature":"24","num_nodes":"9","size_leaf_vector":"1"}},{"base_weights":[2.740936E-3,4.004388E-2,-2.4295585E-2,1.6638637E-2,3.3416213E-3,-1.697746E-3,-6.8204344E-4,9.745221E-4,2.0208061E-4],"categories":[],"categories_nodes":[],"categories_segments":[],"categories_sizes":[],"default_left":[0,0,0,0,0,0,0,0,0],"id":22,"left_children":[1,3,5,7,-1,-1,-1,-1,-1],"loss_changes":[1.2066849E-2,2.022962E-3,2.5724713E-4,6.492424E-5,0E0,0E0,0E0,0E0,0E0],"parents":[2147483647,0,0,1,1,2,2,3,3],"right_children":[2,4,6,8,-1,-1,-1,-1,-1],"split_conditions":[2E0,1E0,6.7E1,8.8E1,3.3416213E-3,-1.697746E-3,-6.8204344E-4,9.745221E-4,2.0208061E-4],"split_indices":[5,4,0,0,0,0,0,0,0],"split_type":[0,0,0,0,0,0,0,0,0],"sum_hessian":[1E1,4E0,6E0,3E0,1E0,2E0,4E0,2E0,1E0],"tree_param":{"num_deleted":"0","num_feature":"24","num_nodes":"9","size_leaf_vector":"1"}},{"base_weights":[2.7982863E-3,3.8945317E-2,-2.3420777E-2,1.6100854E-2,3.2580793E-3,-1.8558666E-3,-7.475898E-4,9.4203756E-4,1.9702912E-4],"categories":[],"categories_nodes":[],"categories_segments":[],"categories_sizes":[],"default_left":[0,0,0,0,0,0,0,0,0],"id":23,"left_children":[1,3,5,7,-1,-1,-1,-1,-1],"loss_changes":[1.1337284E-2,1.9453261E-3,2.5700033E-4,5.902804E-5,0E0,0E0,0E0,0E0,0E0],"parents":[2147483647,0,0,1,1,2,2,3,3],"right_children":[2,4,6,8,-1,-1,-1,-1,-1],"split_conditions":[2E0,1E0,9.4E-1,8.8E1,3.2580793E-3,-1.8558666E-3,-7.475898E-4,9.4203756E-4,1.9702912E-4],"split_indices":[5,4,20,0,0,0,0,0,0],"split_type":[0,0,0,0,0,0,0,0,0],"sum_hessian":[1E1,4E0,6E0,3E0,1E0,1E0,5E0,2E0,1E0],"tree_param":{"num_deleted":"0","num_feature":"24","num_nodes":"9","size_leaf_vector":"1"}},{"base_weights":[2.8214238E-3,3.787749E-2,-2.2621682E-2,1.5580595E-2,3.1766265E-3,-1.8094704E-3,-7.1644137E-4,9.1063784E-4,1.9210279E-4],"categories":[],"categories_nodes":[],"categories_segments":[],"categories_sizes":[],"default_left":[0,0,0,0,0,0,0,0,0],"id":24,"left_children":[1,3,5,7,-1,-1,-1,-1,-1],"loss_changes":[1.066814E-2,1.8702643E-3,2.6905444E-4,5.3616473E-5,0E0,0E0,0E0,0E0,0E0],"parents":[2147483647,0,0,1,1,2,2,3,3],"right_children":[2,4,6,8,-1,-1,-1,-1,-1],"split_conditions":[2E0,1E0,9.4E-1,8.8E1,3.1766265E-3,-1.8094704E-3,-7.1644137E-4,9.1063784E-4,1.9210279E-4],"split_indices":[5,4,20,0,0,0,0,0,0],"split_type":[0,0,0,0,0,0,0,0,0],"sum_hessian":[1E1,4E0,6E0,3E0,1E0,1E0,5E0,2E0,1E0],"tree_param":{"num_deleted":"0","num_feature":"24","num_nodes":"9","size_leaf_vector":"1"}},{"base_weights":[2.839771E-3,3.6839508E-2,-2.1851437E-2,1.5077263E-2,3.0972124E-3,-1.7642335E-3,-6.865894E-4,8.802831E-4,1.8730164E-4],"categories":[],"categories_nodes":[],"categories_segments":[],"categories_sizes":[],"default_left":[0,0,0,0,0,0,0,0,0],"id":25,"left_children":[1,3,5,7,-1,-1,-1,-1,-1],"loss_changes":[1.0039438E-2,1.7977273E-3,2.7899048E-4,4.86481E-5,0E0,0E0,0E0,0E0,0E0],"parents":[2147483647,0,0,1,1,2,2,3,3],"right_children":[2,4,6,8,-1,-1,-1,-1,-1],"split_conditions":[2E0,1E0,9.4E-1,8.8E1,3.0972124E-3,-1.7642335E-3,-6.865894E-4,8.802831E-4,1.8730164E-4],"split_indices":[5,4,20,0,0,0,0,0,0],"split_type":[0,0,0,0,0,0,0,0,0],"sum_hessian":[1E1,4E0,6E0,3E0,1E0,1E0,5E0,2E0,1E0],"tree_param":{"num_deleted":"0","num_feature":"24","num_nodes":"9","size_leaf_vector":"1"}},{"base_weights":[2.8536103E-3,3.583052E-2,-2.1108985E-2,1.4590323E-2,3.019783E-3,-1.7201275E-3,-6.5798167E-4,8.509417E-4,1.826197E-4],"categories":[],"categories_nodes":[],"categories_segments":[],"categories_sizes":[],"default_left":[0,0,0,0,0,0,0,0,0],"id":26,"left_children":[1,3,5,7,-1,-1,-1,-1,-1],"loss_changes":[9.448682E-3,1.7276504E-3,2.8700195E-4,4.4092012E-5,0E0,0E0,0E0,0E0,0E0],"parents":[2147483647,0,0,1,1,2,2,3,3],"right_children":[2,4,6,8,-1,-1,-1,-1,-1],"split_conditions":[2E0,1E0,9.4E-1,8.8E1,3.019783E-3,-1.7201275E-3,-6.5798167E-4,8.509417E-4,1.826197E-4],"split_indices":[5,4,20,0,0,0,0,0,0],"split_type":[0,0,0,0,0,0,0,0,0],"sum_hessian":[1E1,4E0,6E0,3E0,1E0,1E0,5E0,2E0,1E0],"tree_param":{"num_deleted":"0","num_feature":"24","num_nodes":"9","size_leaf_vector":"1"}},{"base_weights":[2.863223E-3,3.4849666E-2,-2.039327E-2,1.4119208E-2,2.9442876E-3,-1.6771242E-3,-6.30566E-4,8.225779E-4,1.7805398E-4],"categories":[],"categories_nodes":[],"categories_segments":[],"categories_sizes":[],"default_left":[0,0,0,0,0,0,0,0,0],"id":27,"left_children":[1,3,5,7,-1,-1,-1,-1,-1],"loss_changes":[8.893517E-3,1.6599754E-3,2.9327045E-4,3.991573E-5,0E0,0E0,0E0,0E0,0E0],"parents":[2147483647,0,0,1,1,2,2,3,3],"right_children":[2,4,6,8,-1,-1,-1,-1,-1],"split_conditions":[2E0,1E0,9.4E-1,8.8E1,2.9442876E-3,-1.6771242E-3,-6.30566E-4,8.225779E-4,1.7805398E-4],"split_indices":[5,4,20,0,0,0,0,0,0],"split_type":[0,0,0,0,0,0,0,0,0],"sum_hessian":[1E1,4E0,6E0,3E0,1E0,1E0,5E0,2E0,1E0],"tree_param":{"num_deleted":"0","num_feature":"24","num_nodes":"9","size_leaf_vector":"1"}},{"base_weights":[2.8689017E-3,-1.2657868E-2,4.849291E-2,-1.9703286E-2,4.0003657E-4,7.662863E-4,2.870682E-3,-1.6351969E-3,-6.042928E-4],"categories":[],"categories_nodes":[],"categories_segments":[],"categories_sizes":[],"default_left":[0,0,0,0,0,0,0,0,0],"id":28,"left_children":[1,3,5,7,-1,-1,-1,-1,-1],"loss_changes":[8.406145E-3,1.467577E-3,7.720664E-6,2.9796595E-4,0E0,0E0,0E0,0E0,0E0],"parents":[2147483647,0,0,1,1,2,2,3,3],"right_children":[2,4,6,8,-1,-1,-1,-1,-1],"split_conditions":[4.57E2,8.6E1,6.5E1,9.4E-1,4.0003657E-4,7.662863E-4,2.870682E-3,-1.6351969E-3,-6.042928E-4],"split_indices":[12,0,0,20,0,0,0,0,0],"split_type":[0,0,0,0,0,0,0,0,0],"sum_hessian":[1E1,8E0,2E0,6E0,2E0,1E0,1E0,1E0,5E0],"tree_param":{"num_deleted":"0","num_feature":"24","num_nodes":"9","size_leaf_vector":"1"}},{"base_weights":[2.888853E-3,-1.22293765E-2,4.728059E-2,-1.9038064E-2,3.8670105E-4,7.471293E-4,2.798915E-3,-1.594317E-3,-5.7911477E-4],"categories":[],"categories_nodes":[],"categories_segments":[],"categories_sizes":[],"default_left":[0,0,0,0,0,0,0,0,0],"id":29,"left_children":[1,3,5,7,-1,-1,-1,-1,-1],"loss_changes":[7.960581E-3,1.3705617E-3,7.338822E-6,3.012393E-4,0E0,0E0,0E0,0E0,0E0],"parents":[2147483647,0,0,1,1,2,2,3,3],"right_children":[2,4,6,8,-1,-1,-1,-1,-1],"split_conditions":[4.57E2,8.6E1,6.5E1,9.4E-1,3.8670105E-4,7.471293E-4,2.798915E-3,-1.594317E-3,-5.7911477E-4],"split_indices":[12,0,0,20,0,0,0,0,0],"split_type":[0,0,0,0,0,0,0,0,0],"sum_hessian":[1E1,8E0,2E0,6E0,2E0,1E0,1E0,1E0,5E0],"tree_param":{"num_deleted":"0","num_feature":"24","num_nodes":"9","size_leaf_vector":"1"}},{"base_weights":[2.9043502E-3,-1.18164355E-2,4.609859E-2,-1.839665E-2,3.7381053E-4,7.284522E-4,2.728942E-3,-1.5544593E-3,-5.5498484E-4],"categories":[],"categories_nodes":[],"categories_segments":[],"categories_sizes":[],"default_left":[0,0,0,0,0,0,0,0,0],"id":30,"left_children":[1,3,5,7,-1,-1,-1,-1,-1],"loss_changes":[7.5391056E-3,1.280085E-3,6.9737434E-6,3.0323747E-4,0E0,0E0,0E0,0E0,0E0],"parents":[2147483647,0,0,1,1,2,2,3,3],"right_children":[2,4,6,8,-1,-1,-1,-1,-1],"split_conditions":[4.57E2,8.6E1,6.5E1,9.4E-1,3.7381053E-4,7.284522E-4,2.728942E-3,-1.5544593E-3,-5.5498484E-4],"split_indices":[12,0,0,20,0,0,0,0,0],"split_type":[0,0,0,0,0,0,0,0,0],"sum_hessian":[1E1,8E0,2E0,6E0,2E0,1E0,1E0,1E0,5E0],"tree_param":{"num_deleted":"0","num_feature":"24","num_nodes":"9","size_leaf_vector":"1"}},{"base_weights":[2.9156478E-3,-1.1418468E-2,4.4946115E-2,-1.7778168E-2,3.6134917E-4,7.1024004E-4,2.6607185E-3,-1.3280173E-3,-4.476613E-4],"categories":[],"categories_nodes":[],"categories_segments":[],"categories_sizes":[],"default_left":[0,0,0,0,0,0,0,0,0],"id":31,"left_children":[1,3,5,7,-1,-1,-1,-1,-1],"loss_changes":[7.1403813E-3,1.1956975E-3,6.6324137E-6,3.0471478E-4,0E0,0E0,0E0,0E0,0E0],"parents":[2147483647,0,0,1,1,2,2,3,3],"right_children":[2,4,6,8,-1,-1,-1,-1,-1],"split_conditions":[4.57E2,8.6E1,6.5E1,6.7E1,3.6134917E-4,7.1024004E-4,2.6607185E-3,-1.3280173E-3,-4.476613E-4],"split_indices":[12,0,0,0,0,0,0,0,0],"split_type":[0,0,0,0,0,0,0,0,0],"sum_hessian":[1E1,8E0,2E0,6E0,2E0,1E0,1E0,2E0,4E0],"tree_param":{"num_deleted":"0","num_feature":"24","num_nodes":"9","size_leaf_vector":"1"}},{"base_weights":[2.9477477E-3,-1.100468E-2,4.382245E-2,-1.7142918E-2,3.4930508E-4,6.924838E-4,2.5941997E-3,-1.4823973E-3,-5.058711E-4],"categories":[],"categories_nodes":[],"categories_segments":[],"categories_sizes":[],"default_left":[0,0,0,0,0,0,0,0,0],"id":32,"left_children":[1,3,5,7,-1,-1,-1,-1,-1],"loss_changes":[6.755566E-3,1.1136474E-3,6.304588E-6,3.1501753E-4,0E0,0E0,0E0,0E0,0E0],"parents":[2147483647,0,0,1,1,2,2,3,3],"right_children":[2,4,6,8,-1,-1,-1,-1,-1],"split_conditions":[4.57E2,8.6E1,6.5E1,9.4E-1,3.4930508E-4,6.924838E-4,2.5941997E-3,-1.4823973E-3,-5.058711E-4],"split_indices":[12,0,0,20,0,0,0,0,0],"split_type":[0,0,0,0,0,0,0,0,0],"sum_hessian":[1E1,8E0,2E0,6E0,2E0,1E0,1E0,1E0,5E0],"tree_param":{"num_deleted":"0","num_feature":"24","num_nodes":"9","size_leaf_vector":"1"}},{"base_weights":[2.9501482E-3,-1.0636555E-2,4.2726874E-2,-1.656982E-2,3.376623E-4,6.751716E-4,2.529344E-3,-1.4453381E-3,-4.8479342E-4],"categories":[],"categories_nodes":[],"categories_segments":[],"categories_sizes":[],"default_left":[0,0,0,0,0,0,0,0,0],"id":33,"left_children":[1,3,5,7,-1,-1,-1,-1,-1],"loss_changes":[6.399247E-3,1.0405048E-3,5.992595E-6,3.1334872E-4,0E0,0E0,0E0,0E0,0E0],"parents":[2147483647,0,0,1,1,2,2,3,3],"right_children":[2,4,6,8,-1,-1,-1,-1,-1],"split_conditions":[4.57E2,8.6E1,6.5E1,9.4E-1,3.376623E-4,6.751716E-4,2.529344E-3,-1.4453381E-3,-4.8479342E-4],"split_indices":[12,0,0,20,0,0,0,0,0],"split_type":[0,0,0,0,0,0,0,0,0],"sum_hessian":[1E1,8E0,2E0,6E0,2E0,1E0,1E0,1E0,5E0],"tree_param":{"num_deleted":"0","num_feature":"24","num_nodes":"9","size_leaf_vector":"1"}},{"base_weights":[2.949162E-3,-1.0281695E-2,4.165868E-2,-1.1027299E-3,-7.194777E-4,6.5829157E-4,2.4661093E-3,-2.9876456E-4,3.26405E-4],"categories":[],"categories_nodes":[],"categories_segments":[],"categories_sizes":[],"default_left":[0,0,0,0,0,0,0,0,0],"id":34,"left_children":[1,3,5,-1,7,-1,-1,-1,-1],"loss_changes":[6.062083E-3,9.973077E-4,5.6978315E-6,0E0,2.6755876E-4,0E0,0E0,0E0,0E0],"parents":[2147483647,0,0,1,1,2,2,4,4],"right_children":[2,4,6,-1,8,-1,-1,-1,-1],"split_conditions":[4.57E2,6E0,6.5E1,-1.1027299E-3,8.4E1,6.5829157E-4,2.4661093E-3,-2.9876456E-4,3.26405E-4],"split_indices":[12,6,0,0,0,0,0,0,0],"split_type":[0,0,0,0,0,0,0,0,0],"sum_hessian":[1E1,8E0,2E0,3E0,5E0,1E0,1E0,3E0,2E0],"tree_param":{"num_deleted":"0","num_feature":"24","num_nodes":"9","size_leaf_vector":"1"}},{"base_weights":[2.9880079E-3,-9.887066E-3,4.0617228E-2,-2.1227539E-2,-6.7890686E-4,6.4183475E-4,2.4044574E-3,-4.940788E-4,-1.3816357E-3,-2.8756188E-4,3.1552513E-4],"categories":[],"categories_nodes":[],"categories_segments":[],"categories_sizes":[],"default_left":[0,0,0,0,0,0,0,0,0,0,0],"id":35,"left_children":[1,3,5,7,9,-1,-1,-1,-1,-1,-1],"loss_changes":[5.730854E-3,9.254124E-4,5.4156408E-6,1.7636805E-5,2.4900876E-4,0E0,0E0,0E0,0E0,0E0,0E0],"parents":[2147483647,0,0,1,1,2,2,3,3,4,4],"right_children":[2,4,6,8,10,-1,-1,-1,-1,-1,-1],"split_conditions":[4.57E2,6E0,6.5E1,1.1143E2,8.4E1,6.4183475E-4,2.4044574E-3,-4.940788E-4,-1.3816357E-3,-2.8756188E-4,3.1552513E-4],"split_indices":[12,6,0,3,0,0,0,0,0,0,0],"split_type":[0,0,0,0,0,0,0,0,0,0,0],"sum_hessian":[1E1,8E0,2E0,3E0,5E0,1E0,1E0,2E0,1E0,3E0,2E0],"tree_param":{"num_deleted":"0","num_feature":"24","num_nodes":"11","size_leaf_vector":"1"}},{"base_weights":[2.9475526E-3,-9.598036E-3,3.9601803E-2,-2.0635098E-2,-6.4032275E-4,6.2578917E-4,2.3443461E-3,-4.7761E-4,-1.3470948E-3,-2.7677938E-4,3.0500692E-4],"categories":[],"categories_nodes":[],"categories_segments":[],"categories_sizes":[],"default_left":[0,0,0,0,0,0,0,0,0,0,0],"id":36,"left_children":[1,3,5,7,9,-1,-1,-1,-1,-1,-1],"loss_changes":[5.4384405E-3,8.7658846E-4,5.1478855E-6,2.2235909E-5,2.317459E-4,0E0,0E0,0E0,0E0,0E0,0E0],"parents":[2147483647,0,0,1,1,2,2,3,3,4,4],"right_children":[2,4,6,8,10,-1,-1,-1,-1,-1,-1],"split_conditions":[4.57E2,6E0,6.5E1,1.1143E2,8.4E1,6.2578917E-4,2.3443461E-3,-4.7761E-4,-1.3470948E-3,-2.7677938E-4,3.0500692E-4],"split_indices":[12,6,0,3,0,0,0,0,0,0,0],"split_type":[0,0,0,0,0,0,0,0,0,0,0],"sum_hessian":[1E1,8E0,2E0,3E0,5E0,1E0,1E0,2E0,1E0,3E0,2E0],"tree_param":{"num_deleted":"0","num_feature":"24","num_nodes":"11","size_leaf_vector":"1"}},{"base_weights":[2.9068699E-3,-9.317749E-3,3.861177E-2,-2.0059526E-2,-6.036063E-4,6.101459E-4,2.2857368E-3,-4.6168963E-4,-1.3134181E-3,-2.6639923E-4,2.9483836E-4],"categories":[],"categories_nodes":[],"categories_segments":[],"categories_sizes":[],"default_left":[0,0,0,0,0,0,0,0,0,0,0],"id":37,"left_children":[1,3,5,7,9,-1,-1,-1,-1,-1,-1],"loss_changes":[5.1610414E-3,8.303403E-4,4.890375E-6,2.6304275E-5,2.1567922E-4,0E0,0E0,0E0,0E0,0E0,0E0],"parents":[2147483647,0,0,1,1,2,2,3,3,4,4],"right_children":[2,4,6,8,10,-1,-1,-1,-1,-1,-1],"split_conditions":[4.57E2,6E0,6.5E1,1.1143E2,8.4E1,6.101459E-4,2.2857368E-3,-4.6168963E-4,-1.3134181E-3,-2.6639923E-4,2.9483836E-4],"split_indices":[12,6,0,3,0,0,0,0,0,0,0],"split_type":[0,0,0,0,0,0,0,0,0,0,0],"sum_hessian":[1E1,8E0,2E0,3E0,5E0,1E0,1E0,2E0,1E0,3E0,2E0],"tree_param":{"num_deleted":"0","num_feature":"24","num_nodes":"11","size_leaf_vector":"1"}},{"base_weights":[2.866008E-3,-9.045932E-3,3.764649E-2,-1.9500315E-2,-5.686879E-4,5.948931E-4,2.228594E-3,-4.462997E-4,-1.2805819E-3,-2.5641025E-4,5.7002306E-3,3.4018458E-4,8.733273E-5],"categories":[],"categories_nodes":[],"categories_segments":[],"categories_sizes":[],"default_left":[0,0,0,0,0,0,0,0,0,0,0,0,0],"id":38,"left_children":[1,3,5,7,9,-1,-1,-1,-1,-1,11,-1,-1],"loss_changes":[4.897881E-3,7.865296E-4,4.6477653E-6,2.9882998E-5,2.0073139E-4,0E0,0E0,0E0,0E0,0E0,1.2041492E-6,0E0,0E0],"parents":[2147483647,0,0,1,1,2,2,3,3,4,4,10,10],"right_children":[2,4,6,8,10,-1,-1,-1,-1,-1,12,-1,-1],"split_conditions":[4.57E2,6E0,6.5E1,1.1143E2,8.4E1,5.948931E-4,2.228594E-3,-4.462997E-4,-1.2805819E-3,-2.5641025E-4,8.8E1,3.4018458E-4,8.733273E-5],"split_indices":[12,6,0,3,0,0,0,0,0,0,0,0,0],"split_type":[0,0,0,0,0,0,0,0,0,0,0,0,0],"sum_hessian":[1E1,8E0,2E0,3E0,5E0,1E0,1E0,2E0,1E0,3E0,2E0,1E0,1E0],"tree_param":{"num_deleted":"0","num_feature":"24","num_nodes":"13","size_leaf_vector":"1"}},{"base_weights":[2.837956E-3,-8.766498E-3,3.6705334E-2,-1.8957004E-2,-5.1174563E-4,5.8002176E-4,2.1728785E-3,-4.3142238E-4,-1.2485668E-3,-2.4679452E-4,5.557696E-3,3.3167898E-4,8.514822E-5],"categories":[],"categories_nodes":[],"categories_segments":[],"categories_sizes":[],"default_left":[0,0,0,0,0,0,0,0,0,0,0,0,0],"id":39,"left_children":[1,3,5,7,9,-1,-1,-1,-1,-1,11,-1,-1],"loss_changes":[4.6449145E-3,7.473797E-4,4.415866E-6,3.301364E-5,1.8854471E-4,0E0,0E0,0E0,0E0,0E0,1.1449811E-6,0E0,0E0],"parents":[2147483647,0,0,1,1,2,2,3,3,4,4,10,10],"right_children":[2,4,6,8,10,-1,-1,-1,-1,-1,12,-1,-1],"split_conditions":[4.57E2,6E0,6.5E1,1.1143E2,8.4E1,5.8002176E-4,2.1728785E-3,-4.3142238E-4,-1.2485668E-3,-2.4679452E-4,8.8E1,3.3167898E-4,8.514822E-5],"split_indices":[12,6,0,3,0,0,0,0,0,0,0,0,0],"split_type":[0,0,0,0,0,0,0,0,0,0,0,0,0],"sum_hessian":[1E1,8E0,2E0,3E0,5E0,1E0,1E0,2E0,1E0,3E0,2E0,1E0,1E0],"tree_param":{"num_deleted":"0","num_feature":"24","num_nodes":"13","size_leaf_vector":"1"}},{"base_weights":[2.809064E-3,-8.495933E-3,3.57877E-2,-1.842916E-2,-4.5779347E-4,5.6551996E-4,2.1185577E-3,-4.170418E-4,-1.2173534E-3,-2.3753867E-4,5.4187775E-3,3.23388E-4,8.302033E-5],"categories":[],"categories_nodes":[],"categories_segments":[],"categories_sizes":[],"default_left":[0,0,0,0,0,0,0,0,0,0,0,0,0],"id":40,"left_children":[1,3,5,7,9,-1,-1,-1,-1,-1,11,-1,-1],"loss_changes":[4.4051073E-3,7.101651E-4,4.2009633E-6,3.573217E-5,1.7711139E-4,0E0,0E0,0E0,0E0,0E0,1.0882868E-6,0E0,0E0],"parents":[2147483647,0,0,1,1,2,2,3,3,4,4,10,10],"right_children":[2,4,6,8,10,-1,-1,-1,-1,-1,12,-1,-1],"split_conditions":[4.57E2,6E0,6.5E1,1.1143E2,8.4E1,5.6551996E-4,2.1185577E-3,-4.170418E-4,-1.2173534E-3,-2.3753867E-4,8.8E1,3.23388E-4,8.302033E-5],"split_indices":[12,6,0,3,0,0,0,0,0,0,0,0,0],"split_type":[0,0,0,0,0,0,0,0,0,0,0,0,0],"sum_hessian":[1E1,8E0,2E0,3E0,5E0,1E0,1E0,2E0,1E0,3E0,2E0,1E0,1E0],"tree_param":{"num_deleted":"0","num_feature":"24","num_nodes":"13","size_leaf_vector":"1"}},{"base_weights":[2.7793862E-3,-8.233971E-3,3.4892995E-2,-1.7916292E-2,-4.0676197E-4,5.5138173E-4,2.0655931E-3,-4.0313997E-4,-1.1869193E-3,-2.286315E-4,5.283316E-3,3.153026E-4,8.094609E-5],"categories":[],"categories_nodes":[],"categories_segments":[],"categories_sizes":[],"default_left":[0,0,0,0,0,0,0,0,0,0,0,0,0],"id":41,"left_children":[1,3,5,7,9,-1,-1,-1,-1,-1,11,-1,-1],"loss_changes":[4.1777734E-3,6.747823E-4,3.993511E-6,3.807398E-5,1.6638334E-4,0E0,0E0,0E0,0E0,0E0,1.0341246E-6,0E0,0E0],"parents":[2147483647,0,0,1,1,2,2,3,3,4,4,10,10],"right_children":[2,4,6,8,10,-1,-1,-1,-1,-1,12,-1,-1],"split_conditions":[4.57E2,6E0,6.5E1,1.1143E2,8.4E1,5.5138173E-4,2.0655931E-3,-4.0313997E-4,-1.1869193E-3,-2.286315E-4,8.8E1,3.153026E-4,8.094609E-5],"split_indices":[12,6,0,3,0,0,0,0,0,0,0,0,0],"split_type":[0,0,0,0,0,0,0,0,0,0,0,0,0],"sum_hessian":[1E1,8E0,2E0,3E0,5E0,1E0,1E0,2E0,1E0,3E0,2E0,1E0,1E0],"tree_param":{"num_deleted":"0","num_feature":"24","num_nodes":"13","size_leaf_vector":"1"}},{"base_weights":[2.7490258E-3,-7.980313E-3,3.4020703E-2,-1.7417982E-2,-3.584822E-4,5.3759816E-4,2.0139546E-3,-3.8970113E-4,-1.1572465E-3,-2.2005737E-4,2.5756162E-4],"categories":[],"categories_nodes":[],"categories_segments":[],"categories_sizes":[],"default_left":[0,0,0,0,0,0,0,0,0,0,0],"id":42,"left_children":[1,3,5,7,9,-1,-1,-1,-1,-1,-1],"loss_changes":[3.962265E-3,6.4114673E-4,3.7951395E-6,4.0071667E-5,1.5631491E-4,0E0,0E0,0E0,0E0,0E0,0E0],"parents":[2147483647,0,0,1,1,2,2,3,3,4,4],"right_children":[2,4,6,8,10,-1,-1,-1,-1,-1,-1],"split_conditions":[4.57E2,6E0,6.5E1,1.1143E2,8.4E1,5.3759816E-4,2.0139546E-3,-3.8970113E-4,-1.1572465E-3,-2.2005737E-4,2.5756162E-4],"split_indices":[12,6,0,3,0,0,0,0,0,0,0],"split_type":[0,0,0,0,0,0,0,0,0,0,0],"sum_hessian":[1E1,8E0,2E0,3E0,5E0,1E0,1E0,2E0,1E0,3E0,2E0],"tree_param":{"num_deleted":"0","num_feature":"24","num_nodes":"11","size_leaf_vector":"1"}},{"base_weights":[2.7063002E-3,-7.7490276E-3,3.3170182E-2,-1.6933829E-2,-3.3432245E-4,5.241573E-4,1.9636066E-3,-3.767113E-4,-1.1283159E-3,-2.118051E-4,4.9794912E-3,3.0097962E-4,7.248223E-5],"categories":[],"categories_nodes":[],"categories_segments":[],"categories_sizes":[],"default_left":[0,0,0,0,0,0,0,0,0,0,0,0,0],"id":43,"left_children":[1,3,5,7,9,-1,-1,-1,-1,-1,11,-1,-1],"loss_changes":[3.7606454E-3,6.0726196E-4,3.6095735E-6,4.1752937E-5,1.4549361E-4,0E0,0E0,0E0,0E0,0E0,2.2879249E-6,0E0,0E0],"parents":[2147483647,0,0,1,1,2,2,3,3,4,4,10,10],"right_children":[2,4,6,8,10,-1,-1,-1,-1,-1,12,-1,-1],"split_conditions":[4.57E2,6E0,6.5E1,1.1143E2,8.4E1,5.241573E-4,1.9636066E-3,-3.767113E-4,-1.1283159E-3,-2.118051E-4,8.8E1,3.0097962E-4,7.248223E-5],"split_indices":[12,6,0,3,0,0,0,0,0,0,0,0,0],"split_type":[0,0,0,0,0,0,0,0,0,0,0,0,0],"sum_hessian":[1E1,8E0,2E0,3E0,5E0,1E0,1E0,2E0,1E0,3E0,2E0,1E0,1E0],"tree_param":{"num_deleted":"0","num_feature":"24","num_nodes":"13","size_leaf_vector":"1"}},{"base_weights":[2.6750078E-3,-7.510854E-3,3.2340925E-2,-1.6463399E-2,-2.9068193E-4,5.110532E-4,1.9145161E-3,-3.6415458E-4,-1.100108E-3,-2.0386353E-4,4.854997E-3,2.9345453E-4,7.067025E-5],"categories":[],"categories_nodes":[],"categories_segments":[],"categories_sizes":[],"default_left":[0,0,0,0,0,0,0,0,0,0,0,0,0],"id":44,"left_children":[1,3,5,7,9,-1,-1,-1,-1,-1,11,-1,-1],"loss_changes":[3.5668102E-3,5.769647E-4,3.4316909E-6,4.314643E-5,1.3670255E-4,0E0,0E0,0E0,0E0,0E0,2.1748856E-6,0E0,0E0],"parents":[2147483647,0,0,1,1,2,2,3,3,4,4,10,10],"right_children":[2,4,6,8,10,-1,-1,-1,-1,-1,12,-1,-1],"split_conditions":[4.57E2,6E0,6.5E1,1.1143E2,8.4E1,5.110532E-4,1.9145161E-3,-3.6415458E-4,-1.100108E-3,-2.0386353E-4,8.8E1,2.9345453E-4,7.067025E-5],"split_indices":[12,6,0,3,0,0,0,0,0,0,0,0,0],"split_type":[0,0,0,0,0,0,0,0,0,0,0,0,0],"sum_hessian":[1E1,8E0,2E0,3E0,5E0,1E0,1E0,2E0,1E0,3E0,2E0,1E0,1E0],"tree_param":{"num_deleted":"0","num_feature":"24","num_nodes":"13","size_leaf_vector":"1"}},{"base_weights":[2.643206E-3,-7.2802175E-3,3.1532407E-2,-1.6006306E-2,-2.4945536E-4,4.9827696E-4,1.8666536E-3,-3.520171E-4,-1.072605E-3,-1.9621923E-4,4.733602E-3,2.861172E-4,6.890297E-5],"categories":[],"categories_nodes":[],"categories_segments":[],"categories_sizes":[],"default_left":[0,0,0,0,0,0,0,0,0,0,0,0,0],"id":45,"left_children":[1,3,5,7,9,-1,-1,-1,-1,-1,11,-1,-1],"loss_changes":[3.3830404E-3,5.4816663E-4,3.2621901E-6,4.4277054E-5,1.2845077E-4,0E0,0E0,0E0,0E0,0E0,2.0675652E-6,0E0,0E0],"parents":[2147483647,0,0,1,1,2,2,3,3,4,4,10,10],"right_children":[2,4,6,8,10,-1,-1,-1,-1,-1,12,-1,-1],"split_conditions":[4.57E2,6E0,6.5E1,1.1143E2,8.4E1,4.9827696E-4,1.8666536E-3,-3.520171E-4,-1.072605E-3,-1.9621923E-4,8.8E1,2.861172E-4,6.890297E-5],"split_indices":[12,6,0,3,0,0,0,0,0,0,0,0,0],"split_type":[0,0,0,0,0,0,0,0,0,0,0,0,0],"sum_hessian":[1E1,8E0,2E0,3E0,5E0,1E0,1E0,2E0,1E0,3E0,2E0,1E0,1E0],"tree_param":{"num_deleted":"0","num_feature":"24","num_nodes":"13","size_leaf_vector":"1"}},{"base_weights":[2.6109598E-3,-7.0568523E-3,3.0744076E-2,-1.5562147E-2,-2.1051367E-4,4.858196E-4,1.8199862E-3,-3.4028292E-4,-1.0457904E-3,-1.8886104E-4,4.6152673E-3,2.7896464E-4,6.7180394E-5],"categories":[],"categories_nodes":[],"categories_segments":[],"categories_sizes":[],"default_left":[0,0,0,0,0,0,0,0,0,0,0,0,0],"id":46,"left_children":[1,3,5,7,9,-1,-1,-1,-1,-1,11,-1,-1],"loss_changes":[3.208799E-3,5.2079506E-4,3.1013042E-6,4.5171182E-5,1.20705765E-4,0E0,0E0,0E0,0E0,0E0,1.9655054E-6,0E0,0E0],"parents":[2147483647,0,0,1,1,2,2,3,3,4,4,10,10],"right_children":[2,4,6,8,10,-1,-1,-1,-1,-1,12,-1,-1],"split_conditions":[4.57E2,6E0,6.5E1,1.1143E2,8.4E1,4.858196E-4,1.8199862E-3,-3.4028292E-4,-1.0457904E-3,-1.8886104E-4,8.8E1,2.7896464E-4,6.7180394E-5],"split_indices":[12,6,0,3,0,0,0,0,0,0,0,0,0],"split_type":[0,0,0,0,0,0,0,0,0,0,0,0,0],"sum_hessian":[1E1,8E0,2E0,3E0,5E0,1E0,1E0,2E0,1E0,3E0,2E0,1E0,1E0],"tree_param":{"num_deleted":"0","num_feature":"24","num_nodes":"13","size_leaf_vector":"1"}},{"base_weights":[2.578329E-3,-6.84054E-3,2.9975494E-2,-1.5130565E-2,-1.737674E-4,4.7367514E-4,1.774487E-3,-3.2894016E-4,-1.0196463E-3,-1.8177778E-4,4.4998727E-3,2.719909E-4,6.5499546E-5],"categories":[],"categories_nodes":[],"categories_segments":[],"categories_sizes":[],"default_left":[0,0,0,0,0,0,0,0,0,0,0,0,0],"id":47,"left_children":[1,3,5,7,9,-1,-1,-1,-1,-1,11,-1,-1],"loss_changes":[3.0436018E-3,4.9478014E-4,2.9469375E-6,4.5848778E-5,1.1343444E-4,0E0,0E0,0E0,0E0,0E0,1.8688334E-6,0E0,0E0],"parents":[2147483647,0,0,1,1,2,2,3,3,4,4,10,10],"right_children":[2,4,6,8,10,-1,-1,-1,-1,-1,12,-1,-1],"split_conditions":[4.57E2,6E0,6.5E1,1.1143E2,8.4E1,4.7367514E-4,1.774487E-3,-3.2894016E-4,-1.0196463E-3,-1.8177778E-4,8.8E1,2.719909E-4,6.5499546E-5],"split_indices":[12,6,0,3,0,0,0,0,0,0,0,0,0],"split_type":[0,0,0,0,0,0,0,0,0,0,0,0,0],"sum_hessian":[1E1,8E0,2E0,3E0,5E0,1E0,1E0,2E0,1E0,3E0,2E0,1E0,1E0],"tree_param":{"num_deleted":"0","num_feature":"24","num_nodes":"13","size_leaf_vector":"1"}},{"base_weights":[2.5453677E-3,-6.6310433E-3,2.9226145E-2,-1.4711171E-2,-1.3911724E-4,4.618347E-4,1.7301262E-3,-3.179749E-4,-9.941548E-4,-1.749605E-4,4.3873787E-3,2.6519E-4,6.38634E-5],"categories":[],"categories_nodes":[],"categories_segments":[],"categories_sizes":[],"default_left":[0,0,0,0,0,0,0,0,0,0,0,0,0],"id":48,"left_children":[1,3,5,7,9,-1,-1,-1,-1,-1,11,-1,-1],"loss_changes":[2.8869715E-3,4.7005375E-4,2.7995557E-6,4.6330446E-5,1.0660903E-4,0E0,0E0,0E0,0E0,0E0,1.7761413E-6,0E0,0E0],"parents":[2147483647,0,0,1,1,2,2,3,3,4,4,10,10],"right_children":[2,4,6,8,10,-1,-1,-1,-1,-1,12,-1,-1],"split_conditions":[4.57E2,6E0,6.5E1,1.1143E2,8.4E1,4.618347E-4,1.7301262E-3,-3.179749E-4,-9.941548E-4,-1.749605E-4,8.8E1,2.6519E-4,6.38634E-5],"split_indices":[12,6,0,3,0,0,0,0,0,0,0,0,0],"split_type":[0,0,0,0,0,0,0,0,0,0,0,0,0],"sum_hessian":[1E1,8E0,2E0,3E0,5E0,1E0,1E0,2E0,1E0,3E0,2E0,1E0,1E0],"tree_param":{"num_deleted":"0","num_feature":"24","num_nodes":"13","size_leaf_vector":"1"}},{"base_weights":[2.5120864E-3,-6.4281756E-3,2.8495511E-2,-1.43036395E-2,-1.0650357E-4,4.5028926E-4,1.6868741E-3,-3.073752E-4,-9.6930115E-4,-1.6840026E-4,4.2776666E-3,2.5855898E-4,6.226599E-5],"categories":[],"categories_nodes":[],"categories_segments":[],"categories_sizes":[],"default_left":[0,0,0,0,0,0,0,0,0,0,0,0,0],"id":49,"left_children":[1,3,5,7,9,-1,-1,-1,-1,-1,11,-1,-1],"loss_changes":[2.738459E-3,4.465515E-4,2.6610214E-6,4.6634814E-5,1.0020107E-4,0E0,0E0,0E0,0E0,0E0,1.6885497E-6,0E0,0E0],"parents":[2147483647,0,0,1,1,2,2,3,3,4,4,10,10],"right_children":[2,4,6,8,10,-1,-1,-1,-1,-1,12,-1,-1],"split_conditions":[4.57E2,6E0,6.5E1,1.1143E2,8.4E1,4.5028926E-4,1.6868741E-3,-3.073752E-4,-9.6930115E-4,-1.6840026E-4,8.8E1,2.5855898E-4,6.226599E-5],"split_indices":[12,6,0,3,0,0,0,0,0,0,0,0,0],"split_type":[0,0,0,0,0,0,0,0,0,0,0,0,0],"sum_hessian":[1E1,8E0,2E0,3E0,5E0,1E0,1E0,2E0,1E0,3E0,2E0,1E0,1E0],"tree_param":{"num_deleted":"0","num_feature":"24","num_nodes":"13","size_leaf_vector":"1"}},{"base_weights":[2.4785616E-3,-6.2316856E-3,2.7783116E-2,-1.3907626E-2,-7.5777374E-5,4.390329E-4,1.6447008E-3,-2.9712915E-4,-9.450689E-4,-1.620859E-4,4.170736E-3,2.5209488E-4,6.071031E-5],"categories":[],"categories_nodes":[],"categories_segments":[],"categories_sizes":[],"default_left":[0,0,0,0,0,0,0,0,0,0,0,0,0],"id":50,"left_children":[1,3,5,7,9,-1,-1,-1,-1,-1,11,-1,-1],"loss_changes":[2.5976337E-3,4.2421758E-4,2.5280751E-6,4.677882E-5,9.418559E-5,0E0,0E0,0E0,0E0,0E0,1.6049416E-6,0E0,0E0],"parents":[2147483647,0,0,1,1,2,2,3,3,4,4,10,10],"right_children":[2,4,6,8,10,-1,-1,-1,-1,-1,12,-1,-1],"split_conditions":[4.57E2,6E0,6.5E1,1.1143E2,8.4E1,4.390329E-4,1.6447008E-3,-2.9712915E-4,-9.450689E-4,-1.620859E-4,8.8E1,2.5209488E-4,6.071031E-5],"split_indices":[12,6,0,3,0,0,0,0,0,0,0,0,0],"split_type":[0,0,0,0,0,0,0,0,0,0,0,0,0],"sum_hessian":[1E1,8E0,2E0,3E0,5E0,1E0,1E0,2E0,1E0,3E0,2E0,1E0,1E0],"tree_param":{"num_deleted":"0","num_feature":"24","num_nodes":"13","size_leaf_vector":"1"}},{"base_weights":[2.4448307E-3,-6.041381E-3,2.7088523E-2,-1.3522789E-2,-4.6879053E-5,4.2805672E-4,1.6035825E-3,-2.8722486E-4,-9.2144165E-4,-1.5600845E-4,4.0664673E-3,2.4579169E-4,5.9193375E-5],"categories":[],"categories_nodes":[],"categories_segments":[],"categories_sizes":[],"default_left":[0,0,0,0,0,0,0,0,0,0,0,0,0],"id":51,"left_children":[1,3,5,7,9,-1,-1,-1,-1,-1,11,-1,-1],"loss_changes":[2.4640996E-3,4.029919E-4,2.403278E-6,4.677818E-5,8.8537105E-5,0E0,0E0,0E0,0E0,0E0,1.5254518E-6,0E0,0E0],"parents":[2147483647,0,0,1,1,2,2,3,3,4,4,10,10],"right_children":[2,4,6,8,10,-1,-1,-1,-1,-1,12,-1,-1],"split_conditions":[4.57E2,6E0,6.5E1,1.1143E2,8.4E1,4.2805672E-4,1.6035825E-3,-2.8722486E-4,-9.2144165E-4,-1.5600845E-4,8.8E1,2.4579169E-4,5.9193375E-5],"split_indices":[12,6,0,3,0,0,0,0,0,0,0,0,0],"split_type":[0,0,0,0,0,0,0,0,0,0,0,0,0],"sum_hessian":[1E1,8E0,2E0,3E0,5E0,1E0,1E0,2E0,1E0,3E0,2E0,1E0,1E0],"tree_param":{"num_deleted":"0","num_feature":"24","num_nodes":"13","size_leaf_vector":"1"}},{"base_weights":[2.410932E-3,-5.8570704E-3,2.6411295E-2,-1.3148814E-2,-1.9729137E-5,4.1735472E-4,1.5634925E-3,-2.7765037E-4,-8.984059E-4,-1.50159E-4,3.9647818E-3,2.3964644E-4,5.7712197E-5],"categories":[],"categories_nodes":[],"categories_segments":[],"categories_sizes":[],"default_left":[0,0,0,0,0,0,0,0,0,0,0,0,0],"id":52,"left_children":[1,3,5,7,9,-1,-1,-1,-1,-1,11,-1,-1],"loss_changes":[2.3374783E-3,3.8282014E-4,2.2852328E-6,4.664896E-5,8.323251E-5,0E0,0E0,0E0,0E0,0E0,1.4504076E-6,0E0,0E0],"parents":[2147483647,0,0,1,1,2,2,3,3,4,4,10,10],"right_children":[2,4,6,8,10,-1,-1,-1,-1,-1,12,-1,-1],"split_conditions":[4.57E2,6E0,6.5E1,1.1143E2,8.4E1,4.1735472E-4,1.5634925E-3,-2.7765037E-4,-8.984059E-4,-1.50159E-4,8.8E1,2.3964644E-4,5.7712197E-5],"split_indices":[12,6,0,3,0,0,0,0,0,0,0,0,0],"split_type":[0,0,0,0,0,0,0,0,0,0,0,0,0],"sum_hessian":[1E1,8E0,2E0,3E0,5E0,1E0,1E0,2E0,1E0,3E0,2E0,1E0,1E0],"tree_param":{"num_deleted":"0","num_feature":"24","num_nodes":"13","size_leaf_vector":"1"}},{"base_weights":[2.376925E-3,-5.6785345E-3,2.5750995E-2,-1.278539E-2,5.7915845E-6,4.069209E-4,1.5244037E-3,-2.6839573E-4,-8.759454E-4,-1.445286E-4,3.865679E-3,2.3365617E-4,5.6269764E-5],"categories":[],"categories_nodes":[],"categories_segments":[],"categories_sizes":[],"default_left":[0,0,0,0,0,0,0,0,0,0,0,0,0],"id":53,"left_children":[1,3,5,7,9,-1,-1,-1,-1,-1,11,-1,-1],"loss_changes":[2.2174055E-3,3.636532E-4,2.1718442E-6,4.6402914E-5,7.825185E-5,0E0,0E0,0E0,0E0,0E0,1.3787721E-6,0E0,0E0],"parents":[2147483647,0,0,1,1,2,2,3,3,4,4,10,10],"right_children":[2,4,6,8,10,-1,-1,-1,-1,-1,12,-1,-1],"split_conditions":[4.57E2,6E0,6.5E1,1.1143E2,8.4E1,4.069209E-4,1.5244037E-3,-2.6839573E-4,-8.759454E-4,-1.445286E-4,8.8E1,2.3365617E-4,5.6269764E-5],"split_indices":[12,6,0,3,0,0,0,0,0,0,0,0,0],"split_type":[0,0,0,0,0,0,0,0,0,0,0,0,0],"sum_hessian":[1E1,8E0,2E0,3E0,5E0,1E0,1E0,2E0,1E0,3E0,2E0,1E0,1E0],"tree_param":{"num_deleted":"0","num_feature":"24","num_nodes":"13","size_leaf_vector":"1"}},{"base_weights":[2.3428472E-3,-5.505595E-3,2.5107225E-2,-1.2432203E-2,2.9742718E-5,3.9674938E-4,1.4862925E-3,-2.594491E-4,-8.5404667E-4,-1.391083E-4,3.76904E-3,2.2781492E-4,5.4863096E-5],"categories":[],"categories_nodes":[],"categories_segments":[],"categories_sizes":[],"default_left":[0,0,0,0,0,0,0,0,0,0,0,0,0],"id":54,"left_children":[1,3,5,7,9,-1,-1,-1,-1,-1,11,-1,-1],"loss_changes":[2.103544E-3,3.4543977E-4,2.062181E-6,4.6054483E-5,7.357347E-5,0E0,0E0,0E0,0E0,0E0,1.3106837E-6,0E0,0E0],"parents":[2147483647,0,0,1,1,2,2,3,3,4,4,10,10],"right_children":[2,4,6,8,10,-1,-1,-1,-1,-1,12,-1,-1],"split_conditions":[4.57E2,6E0,6.5E1,1.1143E2,8.4E1,3.9674938E-4,1.4862925E-3,-2.594491E-4,-8.5404667E-4,-1.391083E-4,8.8E1,2.2781492E-4,5.4863096E-5],"split_indices":[12,6,0,3,0,0,0,0,0,0,0,0,0],"split_type":[0,0,0,0,0,0,0,0,0,0,0,0,0],"sum_hessian":[1E1,8E0,2E0,3E0,5E0,1E0,1E0,2E0,1E0,3E0,2E0,1E0,1E0],"tree_param":{"num_deleted":"0","num_feature":"24","num_nodes":"13","size_leaf_vector":"1"}},{"base_weights":[2.3087263E-3,-5.338073E-3,2.4479548E-2,-1.2088954E-2,5.2193802E-5,3.8683118E-4,1.449135E-3,-2.5080045E-4,-8.3269476E-4,-1.338914E-4,3.674825E-3,2.2211969E-4,5.349219E-5],"categories":[],"categories_nodes":[],"categories_segments":[],"categories_sizes":[],"default_left":[0,0,0,0,0,0,0,0,0,0,0,0,0],"id":55,"left_children":[1,3,5,7,9,-1,-1,-1,-1,-1,11,-1,-1],"loss_changes":[1.9955677E-3,3.2813245E-4,1.9595027E-6,4.56142E-5,6.9179725E-5,0E0,0E0,0E0,0E0,0E0,1.2458404E-6,0E0,0E0],"parents":[2147483647,0,0,1,1,2,2,3,3,4,4,10,10],"right_children":[2,4,6,8,10,-1,-1,-1,-1,-1,12,-1,-1],"split_conditions":[4.57E2,6E0,6.5E1,1.1143E2,8.4E1,3.8683118E-4,1.449135E-3,-2.5080045E-4,-8.3269476E-4,-1.338914E-4,8.8E1,2.2211969E-4,5.349219E-5],"split_indices":[12,6,0,3,0,0,0,0,0,0,0,0,0],"split_type":[0,0,0,0,0,0,0,0,0,0,0,0,0],"sum_hessian":[1E1,8E0,2E0,3E0,5E0,1E0,1E0,2E0,1E0,3E0,2E0,1E0,1E0],"tree_param":{"num_deleted":"0","num_feature":"24","num_nodes":"13","size_leaf_vector":"1"}},{"base_weights":[2.2745782E-3,-5.175816E-3,2.3867568E-2,-1.3520579E-2,-8.600865E-4,3.7716032E-4,1.4129073E-3,-2.0216555E-4,-8.1187784E-4,-1.6769468E-4,3.5829544E-3,2.1656753E-4,5.2154064E-5],"categories":[],"categories_nodes":[],"categories_segments":[],"categories_sizes":[],"default_left":[0,0,0,0,0,0,0,0,0,0,0,0,0],"id":56,"left_children":[1,3,5,7,9,-1,-1,-1,-1,-1,11,-1,-1],"loss_changes":[1.8931732E-3,3.124948E-4,1.8629944E-6,1.15950825E-5,8.9577465E-5,0E0,0E0,0E0,0E0,0E0,1.1845441E-6,0E0,0E0],"parents":[2147483647,0,0,1,1,2,2,3,3,4,4,10,10],"right_children":[2,4,6,8,10,-1,-1,-1,-1,-1,12,-1,-1],"split_conditions":[4.57E2,6.7E1,6.5E1,6.4E1,8.6E1,3.7716032E-4,1.4129073E-3,-2.0216555E-4,-8.1187784E-4,-1.6769468E-4,8.8E1,2.1656753E-4,5.2154064E-5],"split_indices":[12,0,0,0,0,0,0,0,0,0,0,0,0],"split_type":[0,0,0,0,0,0,0,0,0,0,0,0,0],"sum_hessian":[1E1,8E0,2E0,2E0,6E0,1E0,1E0,1E0,1E0,4E0,2E0,1E0,1E0],"tree_param":{"num_deleted":"0","num_feature":"24","num_nodes":"13","size_leaf_vector":"1"}},{"base_weights":[2.2405656E-3,-5.0184927E-3,2.3270885E-2,-1.3182561E-2,-8.026787E-4,3.6773086E-4,1.3775856E-3,-1.9711108E-4,-7.91581E-4,-1.6098798E-4,3.4933488E-3,2.1115244E-4,5.0848725E-5],"categories":[],"categories_nodes":[],"categories_segments":[],"categories_sizes":[],"default_left":[0,0,0,0,0,0,0,0,0,0,0,0,0],"id":57,"left_children":[1,3,5,7,9,-1,-1,-1,-1,-1,11,-1,-1],"loss_changes":[1.7960483E-3,2.9918234E-4,1.7719576E-6,1.1022843E-5,8.3934654E-5,0E0,0E0,0E0,0E0,0E0,1.1262964E-6,0E0,0E0],"parents":[2147483647,0,0,1,1,2,2,3,3,4,4,10,10],"right_children":[2,4,6,8,10,-1,-1,-1,-1,-1,12,-1,-1],"split_conditions":[4.57E2,6.7E1,6.5E1,6.4E1,8.6E1,3.6773086E-4,1.3775856E-3,-1.9711108E-4,-7.91581E-4,-1.6098798E-4,8.8E1,2.1115244E-4,5.0848725E-5],"split_indices":[12,0,0,0,0,0,0,0,0,0,0,0,0],"split_type":[0,0,0,0,0,0,0,0,0,0,0,0,0],"sum_hessian":[1E1,8E0,2E0,2E0,6E0,1E0,1E0,1E0,1E0,4E0,2E0,1E0,1E0],"tree_param":{"num_deleted":"0","num_feature":"24","num_nodes":"13","size_leaf_vector":"1"}},{"base_weights":[2.2065043E-3,-4.866196E-3,2.2689104E-2,-1.2852986E-2,-7.4811495E-4,3.5853684E-4,1.343146E-3,-1.9218326E-4,-7.7179074E-4,-1.545483E-4,3.406008E-3,2.0587444E-4,4.9576163E-5],"categories":[],"categories_nodes":[],"categories_segments":[],"categories_sizes":[],"default_left":[0,0,0,0,0,0,0,0,0,0,0,0,0],"id":58,"left_children":[1,3,5,7,9,-1,-1,-1,-1,-1,11,-1,-1],"loss_changes":[1.7039498E-3,2.863967E-4,1.6855774E-6,1.0478543E-5,7.865529E-5,0E0,0E0,0E0,0E0,0E0,1.0709919E-6,0E0,0E0],"parents":[2147483647,0,0,1,1,2,2,3,3,4,4,10,10],"right_children":[2,4,6,8,10,-1,-1,-1,-1,-1,12,-1,-1],"split_conditions":[4.57E2,6.7E1,6.5E1,6.4E1,8.6E1,3.5853684E-4,1.343146E-3,-1.9218326E-4,-7.7179074E-4,-1.545483E-4,8.8E1,2.0587444E-4,4.9576163E-5],"split_indices":[12,0,0,0,0,0,0,0,0,0,0,0,0],"split_type":[0,0,0,0,0,0,0,0,0,0,0,0,0],"sum_hessian":[1E1,8E0,2E0,2E0,6E0,1E0,1E0,1E0,1E0,4E0,2E0,1E0,1E0],"tree_param":{"num_deleted":"0","num_feature":"24","num_nodes":"13","size_leaf_vector":"1"}},{"base_weights":[2.1724105E-3,-4.718787E-3,2.2121867E-2,-1.0892898E-2,1.8375118E-4,3.495723E-4,1.3095677E-3,-2.2452872E-4,-7.524967E-4,-1.1075065E-4,3.320853E-3,2.0072759E-4,4.8336387E-5],"categories":[],"categories_nodes":[],"categories_segments":[],"categories_sizes":[],"default_left":[0,0,0,0,0,0,0,0,0,0,0,0,0],"id":59,"left_children":[1,3,5,7,9,-1,-1,-1,-1,-1,11,-1,-1],"loss_changes":[1.6166205E-3,2.7442092E-4,1.6036211E-6,3.8875907E-5,5.2506733E-5,0E0,0E0,0E0,0E0,0E0,1.018183E-6,0E0,0E0],"parents":[2147483647,0,0,1,1,2,2,3,3,4,4,10,10],"right_children":[2,4,6,8,10,-1,-1,-1,-1,-1,12,-1,-1],"split_conditions":[4.57E2,6E0,6.5E1,1.1143E2,8.4E1,3.495723E-4,1.3095677E-3,-2.2452872E-4,-7.524967E-4,-1.1075065E-4,8.8E1,2.0072759E-4,4.8336387E-5],"split_indices":[12,6,0,3,0,0,0,0,0,0,0,0,0],"split_type":[0,0,0,0,0,0,0,0,0,0,0,0,0],"sum_hessian":[1E1,8E0,2E0,3E0,5E0,1E0,1E0,2E0,1E0,3E0,2E0,1E0,1E0],"tree_param":{"num_deleted":"0","num_feature":"24","num_nodes":"13","size_leaf_vector":"1"}},{"base_weights":[2.1383872E-3,-4.576034E-3,2.1568855E-2,-1.2205998E-2,-6.523303E-4,3.4083426E-4,1.2768299E-3,-1.8176586E-4,-7.33684E-4,-1.4279842E-4,1.6189218E-4],"categories":[],"categories_nodes":[],"categories_segments":[],"categories_sizes":[],"default_left":[0,0,0,0,0,0,0,0,0,0,0],"id":60,"left_children":[1,3,5,7,9,-1,-1,-1,-1,-1,-1],"loss_changes":[1.5338076E-3,2.6147714E-4,1.5234109E-6,1.0105665E-5,6.925493E-5,0E0,0E0,0E0,0E0,0E0,0E0],"parents":[2147483647,0,0,1,1,2,2,3,3,4,4],"right_children":[2,4,6,8,10,-1,-1,-1,-1,-1,-1],"split_conditions":[4.57E2,6.7E1,6.5E1,6.4E1,8.6E1,3.4083426E-4,1.2768299E-3,-1.8176586E-4,-7.33684E-4,-1.4279842E-4,1.6189218E-4],"split_indices":[12,0,0,0,0,0,0,0,0,0,0],"split_type":[0,0,0,0,0,0,0,0,0,0,0],"sum_hessian":[1E1,8E0,2E0,2E0,6E0,1E0,1E0,1E0,1E0,4E0,2E0],"tree_param":{"num_deleted":"0","num_feature":"24","num_nodes":"11","size_leaf_vector":"1"}},{"base_weights":[2.0970486E-3,-4.4468176E-3,2.102963E-2,-1.1900842E-2,-6.169762E-4,3.323138E-4,1.2449085E-3,-1.7722101E-4,-7.153422E-4,-1.3708591E-4,3.1299193E-3,1.9166172E-4,4.3082237E-5],"categories":[],"categories_nodes":[],"categories_segments":[],"categories_sizes":[],"default_left":[0,0,0,0,0,0,0,0,0,0,0,0,0],"id":61,"left_children":[1,3,5,7,9,-1,-1,-1,-1,-1,11,-1,-1],"loss_changes":[1.4563302E-3,2.4958706E-4,1.4476245E-6,9.607262E-6,6.430967E-5,0E0,0E0,0E0,0E0,0E0,1.4830475E-6,0E0,0E0],"parents":[2147483647,0,0,1,1,2,2,3,3,4,4,10,10],"right_children":[2,4,6,8,10,-1,-1,-1,-1,-1,12,-1,-1],"split_conditions":[4.57E2,6.7E1,6.5E1,6.4E1,8.6E1,3.323138E-4,1.2449085E-3,-1.7722101E-4,-7.153422E-4,-1.3708591E-4,8.8E1,1.9166172E-4,4.3082237E-5],"split_indices":[12,0,0,0,0,0,0,0,0,0,0,0,0],"split_type":[0,0,0,0,0,0,0,0,0,0,0,0,0],"sum_hessian":[1E1,8E0,2E0,2E0,6E0,1E0,1E0,1E0,1E0,4E0,2E0,1E0,1E0],"tree_param":{"num_deleted":"0","num_feature":"24","num_nodes":"13","size_leaf_vector":"1"}},{"base_weights":[2.0633123E-3,-4.3128002E-3,2.0503879E-2,-1.1603336E-2,-5.7217054E-4,3.2400488E-4,1.2137861E-3,-1.7279088E-4,-6.9745927E-4,-1.3160228E-4,3.0516784E-3,1.8686951E-4,4.2006373E-5],"categories":[],"categories_nodes":[],"categories_segments":[],"categories_sizes":[],"default_left":[0,0,0,0,0,0,0,0,0,0,0,0,0],"id":62,"left_children":[1,3,5,7,9,-1,-1,-1,-1,-1,11,-1,-1],"loss_changes":[1.3817996E-3,2.3880166E-4,1.3773097E-6,9.132724E-6,6.0284892E-5,0E0,0E0,0E0,0E0,0E0,1.4095749E-6,0E0,0E0],"parents":[2147483647,0,0,1,1,2,2,3,3,4,4,10,10],"right_children":[2,4,6,8,10,-1,-1,-1,-1,-1,12,-1,-1],"split_conditions":[4.57E2,6.7E1,6.5E1,6.4E1,8.6E1,3.2400488E-4,1.2137861E-3,-1.7279088E-4,-6.9745927E-4,-1.3160228E-4,8.8E1,1.8686951E-4,4.2006373E-5],"split_indices":[12,0,0,0,0,0,0,0,0,0,0,0,0],"split_type":[0,0,0,0,0,0,0,0,0,0,0,0,0],"sum_hessian":[1E1,8E0,2E0,2E0,6E0,1E0,1E0,1E0,1E0,4E0,2E0,1E0,1E0],"tree_param":{"num_deleted":"0","num_feature":"24","num_nodes":"13","size_leaf_vector":"1"}},{"base_weights":[2.0296737E-3,-4.1830475E-3,1.9991279E-2,-9.820074E-3,2.7214488E-4,3.1590462E-4,1.1834413E-3,-2.0132263E-4,-6.8002346E-4,-9.116605E-5,2.9753845E-3,1.821965E-4,4.0957333E-5],"categories":[],"categories_nodes":[],"categories_segments":[],"categories_sizes":[],"default_left":[0,0,0,0,0,0,0,0,0,0,0,0,0],"id":63,"left_children":[1,3,5,7,9,-1,-1,-1,-1,-1,11,-1,-1],"loss_changes":[1.3111192E-3,2.286988E-4,1.309556E-6,3.284705E-5,3.941236E-5,0E0,0E0,0E0,0E0,0E0,1.3397166E-6,0E0,0E0],"parents":[2147483647,0,0,1,1,2,2,3,3,4,4,10,10],"right_children":[2,4,6,8,10,-1,-1,-1,-1,-1,12,-1,-1],"split_conditions":[4.57E2,6E0,6.5E1,1.1143E2,8.4E1,3.1590462E-4,1.1834413E-3,-2.0132263E-4,-6.8002346E-4,-9.116605E-5,8.8E1,1.821965E-4,4.0957333E-5],"split_indices":[12,6,0,3,0,0,0,0,0,0,0,0,0],"split_type":[0,0,0,0,0,0,0,0,0,0,0,0,0],"sum_hessian":[1E1,8E0,2E0,3E0,5E0,1E0,1E0,2E0,1E0,3E0,2E0,1E0,1E0],"tree_param":{"num_deleted":"0","num_feature":"24","num_nodes":"13","size_leaf_vector":"1"}},{"base_weights":[1.996387E-3,-4.0571424E-3,1.9491514E-2,-1.1019468E-2,-4.936968E-4,3.08007E-4,1.1538565E-3,-1.6343743E-4,-6.630227E-4,-1.215887E-4,2.9009979E-3,1.7764271E-4,3.9932132E-5],"categories":[],"categories_nodes":[],"categories_segments":[],"categories_sizes":[],"default_left":[0,0,0,0,0,0,0,0,0,0,0,0,0],"id":64,"left_children":[1,3,5,7,9,-1,-1,-1,-1,-1,11,-1,-1],"loss_changes":[1.2440598E-3,2.1784854E-4,1.2451783E-6,8.762669E-6,5.3108837E-5,0E0,0E0,0E0,0E0,0E0,1.2738419E-6,0E0,0E0],"parents":[2147483647,0,0,1,1,2,2,3,3,4,4,10,10],"right_children":[2,4,6,8,10,-1,-1,-1,-1,-1,12,-1,-1],"split_conditions":[4.57E2,6.7E1,6.5E1,6.4E1,8.6E1,3.08007E-4,1.1538565E-3,-1.6343743E-4,-6.630227E-4,-1.215887E-4,8.8E1,1.7764271E-4,3.9932132E-5],"split_indices":[12,0,0,0,0,0,0,0,0,0,0,0,0],"split_type":[0,0,0,0,0,0,0,0,0,0,0,0,0],"sum_hessian":[1E1,8E0,2E0,2E0,6E0,1E0,1E0,1E0,1E0,4E0,2E0,1E0,1E0],"tree_param":{"num_deleted":"0","num_feature":"24","num_nodes":"13","size_leaf_vector":"1"}},{"base_weights":[1.9630627E-3,-3.9354432E-3,1.9004226E-2,-1.0743976E-2,-4.5529433E-4,3.003061E-4,1.1250109E-3,-1.5935153E-4,-6.4644666E-4,-1.16724965E-4,2.8284788E-3,1.7320216E-4,3.8933755E-5],"categories":[],"categories_nodes":[],"categories_segments":[],"categories_sizes":[],"default_left":[0,0,0,0,0,0,0,0,0,0,0,0,0],"id":65,"left_children":[1,3,5,7,9,-1,-1,-1,-1,-1,11,-1,-1],"loss_changes":[1.1804815E-3,2.0836068E-4,1.1847587E-6,8.329924E-6,4.979926E-5,0E0,0E0,0E0,0E0,0E0,1.2109831E-6,0E0,0E0],"parents":[2147483647,0,0,1,1,2,2,3,3,4,4,10,10],"right_children":[2,4,6,8,10,-1,-1,-1,-1,-1,12,-1,-1],"split_conditions":[4.57E2,6.7E1,6.5E1,6.4E1,8.6E1,3.003061E-4,1.1250109E-3,-1.5935153E-4,-6.4644666E-4,-1.16724965E-4,8.8E1,1.7320216E-4,3.8933755E-5],"split_indices":[12,0,0,0,0,0,0,0,0,0,0,0,0],"split_type":[0,0,0,0,0,0,0,0,0,0,0,0,0],"sum_hessian":[1E1,8E0,2E0,2E0,6E0,1E0,1E0,1E0,1E0,4E0,2E0,1E0,1E0],"tree_param":{"num_deleted":"0","num_feature":"24","num_nodes":"13","size_leaf_vector":"1"}},{"base_weights":[1.9298955E-3,-3.817618E-3,1.8529138E-2,-9.081751E-3,3.280739E-4,2.9279888E-4,1.0968865E-3,-1.8526019E-4,-6.3028483E-4,-7.881001E-5,2.757748E-3,1.6887188E-4,3.795922E-5],"categories":[],"categories_nodes":[],"categories_segments":[],"categories_sizes":[],"default_left":[0,0,0,0,0,0,0,0,0,0,0,0,0],"id":66,"left_children":[1,3,5,7,9,-1,-1,-1,-1,-1,11,-1,-1],"loss_changes":[1.1201851E-3,1.9939074E-4,1.125969E-6,2.9079965E-5,3.2107353E-5,0E0,0E0,0E0,0E0,0E0,1.1513712E-6,0E0,0E0],"parents":[2147483647,0,0,1,1,2,2,3,3,4,4,10,10],"right_children":[2,4,6,8,10,-1,-1,-1,-1,-1,12,-1,-1],"split_conditions":[4.57E2,6E0,6.5E1,1.1143E2,8.4E1,2.9279888E-4,1.0968865E-3,-1.8526019E-4,-6.3028483E-4,-7.881001E-5,8.8E1,1.6887188E-4,3.795922E-5],"split_indices":[12,6,0,3,0,0,0,0,0,0,0,0,0],"split_type":[0,0,0,0,0,0,0,0,0,0,0,0,0],"sum_hessian":[1E1,8E0,2E0,3E0,5E0,1E0,1E0,2E0,1E0,3E0,2E0,1E0,1E0],"tree_param":{"num_deleted":"0","num_feature":"24","num_nodes":"13","size_leaf_vector":"1"}},{"base_weights":[1.8972321E-3,-3.7031372E-3,1.806593E-2,-1.020354E-2,-3.882306E-4,2.8547944E-4,1.0694653E-3,-1.5073716E-4,-6.1452837E-4,-1.078403E-4,2.6888053E-3,1.646489E-4,3.7011505E-5],"categories":[],"categories_nodes":[],"categories_segments":[],"categories_sizes":[],"default_left":[0,0,0,0,0,0,0,0,0,0,0,0,0],"id":67,"left_children":[1,3,5,7,9,-1,-1,-1,-1,-1,11,-1,-1],"loss_changes":[1.062958E-3,1.8997274E-4,1.070206E-6,7.956754E-6,4.389302E-5,0E0,0E0,0E0,0E0,0E0,1.0942658E-6,0E0,0E0],"parents":[2147483647,0,0,1,1,2,2,3,3,4,4,10,10],"right_children":[2,4,6,8,10,-1,-1,-1,-1,-1,12,-1,-1],"split_conditions":[4.57E2,6.7E1,6.5E1,6.4E1,8.6E1,2.8547944E-4,1.0694653E-3,-1.5073716E-4,-6.1452837E-4,-1.078403E-4,8.8E1,1.646489E-4,3.7011505E-5],"split_indices":[12,0,0,0,0,0,0,0,0,0,0,0,0],"split_type":[0,0,0,0,0,0,0,0,0,0,0,0,0],"sum_hessian":[1E1,8E0,2E0,2E0,6E0,1E0,1E0,1E0,1E0,4E0,2E0,1E0,1E0],"tree_param":{"num_deleted":"0","num_feature":"24","num_nodes":"13","size_leaf_vector":"1"}},{"base_weights":[1.8645092E-3,-3.5925838E-3,1.7614285E-2,-9.948452E-3,-3.5541397E-4,2.783418E-4,1.0427296E-3,-1.4696867E-4,-5.991653E-4,-1.0352731E-4,2.6216109E-3,1.6053319E-4,3.6087633E-5],"categories":[],"categories_nodes":[],"categories_segments":[],"categories_sizes":[],"default_left":[0,0,0,0,0,0,0,0,0,0,0,0,0],"id":68,"left_children":[1,3,5,7,9,-1,-1,-1,-1,-1,11,-1,-1],"loss_changes":[1.0087087E-3,1.8163939E-4,1.0181684E-6,7.56394E-6,4.1170104E-5,0E0,0E0,0E0,0E0,0E0,1.0400472E-6,0E0,0E0],"parents":[2147483647,0,0,1,1,2,2,3,3,4,4,10,10],"right_children":[2,4,6,8,10,-1,-1,-1,-1,-1,12,-1,-1],"split_conditions":[4.57E2,6.7E1,6.5E1,6.4E1,8.6E1,2.783418E-4,1.0427296E-3,-1.4696867E-4,-5.991653E-4,-1.0352731E-4,8.8E1,1.6053319E-4,3.6087633E-5],"split_indices":[12,0,0,0,0,0,0,0,0,0,0,0,0],"split_type":[0,0,0,0,0,0,0,0,0,0,0,0,0],"sum_hessian":[1E1,8E0,2E0,2E0,6E0,1E0,1E0,1E0,1E0,4E0,2E0,1E0,1E0],"tree_param":{"num_deleted":"0","num_feature":"24","num_nodes":"13","size_leaf_vector":"1"}},{"base_weights":[1.8320084E-3,-3.4855206E-3,8.586963E-4,-8.400872E-3,3.7230054E-4,-1.7060041E-4,-5.8418664E-4,-6.792918E-5,1.278023E-4],"categories":[],"categories_nodes":[],"categories_segments":[],"categories_sizes":[],"default_left":[0,0,0,0,0,0,0,0,0],"id":69,"left_children":[1,3,-1,5,7,-1,-1,-1,-1],"loss_changes":[9.572521E-4,1.7379058E-4,0E0,2.5645975E-5,2.6151463E-5,0E0,0E0,0E0,0E0],"parents":[2147483647,0,0,1,1,3,3,4,4],"right_children":[2,4,-1,6,8,-1,-1,-1,-1],"split_conditions":[4.57E2,6E0,8.586963E-4,1.1143E2,8.4E1,-1.7060041E-4,-5.8418664E-4,-6.792918E-5,1.278023E-4],"split_indices":[12,6,0,3,0,0,0,0,0],"split_type":[0,0,0,0,0,0,0,0,0],"sum_hessian":[1E1,8E0,2E0,3E0,5E0,2E0,1E0,3E0,2E0],"tree_param":{"num_deleted":"0","num_feature":"24","num_nodes":"9","size_leaf_vector":"1"}},{"base_weights":[1.755308E-3,-3.3884512E-3,1.6601482E-2,-9.448151E-3,-3.0737263E-4,2.499163E-4,9.951949E-4,-1.3902933E-4,-5.69582E-4,-9.564161E-5,2.470851E-3,1.5332401E-4,3.1989814E-5],"categories":[],"categories_nodes":[],"categories_segments":[],"categories_sizes":[],"default_left":[0,0,0,0,0,0,0,0,0,0,0,0,0],"id":70,"left_children":[1,3,5,7,9,-1,-1,-1,-1,-1,11,-1,-1],"loss_changes":[8.9627E-4,1.651296E-4,1.5469152E-5,7.199589E-6,3.5948604E-5,0E0,0E0,0E0,0E0,0E0,1.3099652E-6,0E0,0E0],"parents":[2147483647,0,0,1,1,2,2,3,3,4,4,10,10],"right_children":[2,4,6,8,10,-1,-1,-1,-1,-1,12,-1,-1],"split_conditions":[4.57E2,6.7E1,6.5E1,6.4E1,8.6E1,2.499163E-4,9.951949E-4,-1.3902933E-4,-5.69582E-4,-9.564161E-5,8.8E1,1.5332401E-4,3.1989814E-5],"split_indices":[12,0,0,0,0,0,0,0,0,0,0,0,0],"split_type":[0,0,0,0,0,0,0,0,0,0,0,0,0],"sum_hessian":[1E1,8E0,2E0,2E0,6E0,1E0,1E0,1E0,1E0,4E0,2E0,1E0,1E0],"tree_param":{"num_deleted":"0","num_feature":"24","num_nodes":"13","size_leaf_vector":"1"}},{"base_weights":[1.7244924E-3,-3.287779E-3,1.6186476E-2,-9.211938E-3,-2.7917113E-4,2.4366975E-4,9.7031594E-4,-1.3555288E-4,-5.5534247E-4,-9.1814996E-5,2.4091005E-3,1.4949143E-4,3.119111E-5],"categories":[],"categories_nodes":[],"categories_segments":[],"categories_sizes":[],"default_left":[0,0,0,0,0,0,0,0,0,0,0,0,0],"id":71,"left_children":[1,3,5,7,9,-1,-1,-1,-1,-1,11,-1,-1],"loss_changes":[8.505788E-4,1.5783953E-4,1.4704361E-5,6.844464E-6,3.3725726E-5,0E0,0E0,0E0,0E0,0E0,1.2451619E-6,0E0,0E0],"parents":[2147483647,0,0,1,1,2,2,3,3,4,4,10,10],"right_children":[2,4,6,8,10,-1,-1,-1,-1,-1,12,-1,-1],"split_conditions":[4.57E2,6.7E1,6.5E1,6.4E1,8.6E1,2.4366975E-4,9.7031594E-4,-1.3555288E-4,-5.5534247E-4,-9.1814996E-5,8.8E1,1.4949143E-4,3.119111E-5],"split_indices":[12,0,0,0,0,0,0,0,0,0,0,0,0],"split_type":[0,0,0,0,0,0,0,0,0,0,0,0,0],"sum_hessian":[1E1,8E0,2E0,2E0,6E0,1E0,1E0,1E0,1E0,4E0,2E0,1E0,1E0],"tree_param":{"num_deleted":"0","num_feature":"24","num_nodes":"13","size_leaf_vector":"1"}},{"base_weights":[1.6938827E-3,-3.1902988E-3,1.57818E-2,-7.7727884E-3,3.964106E-4,2.3757816E-4,9.4605685E-4,-1.5721322E-4,-5.41459E-4,-5.835146E-5,2.34886E-3,1.4575422E-4,3.041029E-5],"categories":[],"categories_nodes":[],"categories_segments":[],"categories_sizes":[],"default_left":[0,0,0,0,0,0,0,0,0,0,0,0,0],"id":72,"left_children":[1,3,5,7,9,-1,-1,-1,-1,-1,11,-1,-1],"loss_changes":[8.07236E-4,1.5100573E-4,1.39779295E-5,2.2536537E-5,2.105641E-5,0E0,0E0,0E0,0E0,0E0,1.183831E-6,0E0,0E0],"parents":[2147483647,0,0,1,1,2,2,3,3,4,4,10,10],"right_children":[2,4,6,8,10,-1,-1,-1,-1,-1,12,-1,-1],"split_conditions":[4.57E2,6E0,6.5E1,1.1143E2,8.4E1,2.3757816E-4,9.4605685E-4,-1.5721322E-4,-5.41459E-4,-5.835146E-5,8.8E1,1.4575422E-4,3.041029E-5],"split_indices":[12,6,0,3,0,0,0,0,0,0,0,0,0],"split_type":[0,0,0,0,0,0,0,0,0,0,0,0,0],"sum_hessian":[1E1,8E0,2E0,3E0,5E0,1E0,1E0,2E0,1E0,3E0,2E0,1E0,1E0],"tree_param":{"num_deleted":"0","num_feature":"24","num_nodes":"13","size_leaf_vector":"1"}},{"base_weights":[1.6639883E-3,-3.0953223E-3,1.5387257E-2,-8.74875E-3,-2.3023572E-4,2.3163855E-4,9.2240574E-4,-1.2823344E-4,-5.279228E-4,-8.482039E-5,2.2901297E-3,1.4210939E-4,2.9650331E-5],"categories":[],"categories_nodes":[],"categories_segments":[],"categories_sizes":[],"default_left":[0,0,0,0,0,0,0,0,0,0,0,0,0],"id":73,"left_children":[1,3,5,7,9,-1,-1,-1,-1,-1,11,-1,-1],"loss_changes":[7.6607475E-4,1.4376375E-4,1.3287936E-5,6.4951746E-6,2.975202E-5,0E0,0E0,0E0,0E0,0E0,1.125296E-6,0E0,0E0],"parents":[2147483647,0,0,1,1,2,2,3,3,4,4,10,10],"right_children":[2,4,6,8,10,-1,-1,-1,-1,-1,12,-1,-1],"split_conditions":[4.57E2,6.7E1,6.5E1,6.4E1,8.6E1,2.3163855E-4,9.2240574E-4,-1.2823344E-4,-5.279228E-4,-8.482039E-5,8.8E1,1.4210939E-4,2.9650331E-5],"split_indices":[12,0,0,0,0,0,0,0,0,0,0,0,0],"split_type":[0,0,0,0,0,0,0,0,0,0,0,0,0],"sum_hessian":[1E1,8E0,2E0,2E0,6E0,1E0,1E0,1E0,1E0,4E0,2E0,1E0,1E0],"tree_param":{"num_deleted":"0","num_feature":"24","num_nodes":"13","size_leaf_vector":"1"}},{"base_weights":[1.6339476E-3,-3.0038091E-3,1.5002568E-2,-8.53004E-3,-2.063087E-4,2.2584797E-4,8.993447E-4,-1.250282E-4,-5.147249E-4,-8.1427694E-5,2.2328694E-3,1.3855696E-4,2.8908253E-5],"categories":[],"categories_nodes":[],"categories_segments":[],"categories_sizes":[],"default_left":[0,0,0,0,0,0,0,0,0,0,0,0,0],"id":74,"left_children":[1,3,5,7,9,-1,-1,-1,-1,-1,11,-1,-1],"loss_changes":[7.2706945E-4,1.3737689E-4,1.2631295E-5,6.1741885E-6,2.7920114E-5,0E0,0E0,0E0,0E0,0E0,1.0698559E-6,0E0,0E0],"parents":[2147483647,0,0,1,1,2,2,3,3,4,4,10,10],"right_children":[2,4,6,8,10,-1,-1,-1,-1,-1,12,-1,-1],"split_conditions":[4.57E2,6.7E1,6.5E1,6.4E1,8.6E1,2.2584797E-4,8.993447E-4,-1.250282E-4,-5.147249E-4,-8.1427694E-5,8.8E1,1.3855696E-4,2.8908253E-5],"split_indices":[12,0,0,0,0,0,0,0,0,0,0,0,0],"split_type":[0,0,0,0,0,0,0,0,0,0,0,0,0],"sum_hessian":[1E1,8E0,2E0,2E0,6E0,1E0,1E0,1E0,1E0,4E0,2E0,1E0,1E0],"tree_param":{"num_deleted":"0","num_feature":"24","num_nodes":"13","size_leaf_vector":"1"}},{"base_weights":[1.6042102E-3,-2.9151307E-3,1.4627497E-2,-7.1932673E-3,4.2281547E-4,2.2020043E-4,8.768618E-4,-1.4498035E-4,-5.018562E-4,-4.992932E-5,2.1770794E-3,1.3509393E-4,2.8187036E-5],"categories":[],"categories_nodes":[],"categories_segments":[],"categories_sizes":[],"default_left":[0,0,0,0,0,0,0,0,0,0,0,0,0],"id":75,"left_children":[1,3,5,7,9,-1,-1,-1,-1,-1,11,-1,-1],"loss_changes":[6.9006445E-4,1.3156314E-4,1.2008881E-5,1.9738509E-5,1.7135088E-5,0E0,0E0,0E0,0E0,0E0,1.0168769E-6,0E0,0E0],"parents":[2147483647,0,0,1,1,2,2,3,3,4,4,10,10],"right_children":[2,4,6,8,10,-1,-1,-1,-1,-1,12,-1,-1],"split_conditions":[4.57E2,6E0,6.5E1,1.1143E2,8.4E1,2.2020043E-4,8.768618E-4,-1.4498035E-4,-5.018562E-4,-4.992932E-5,8.8E1,1.3509393E-4,2.8187036E-5],"split_indices":[12,6,0,3,0,0,0,0,0,0,0,0,0],"split_type":[0,0,0,0,0,0,0,0,0,0,0,0,0],"sum_hessian":[1E1,8E0,2E0,3E0,5E0,1E0,1E0,2E0,1E0,3E0,2E0,1E0,1E0],"tree_param":{"num_deleted":"0","num_feature":"24","num_nodes":"13","size_leaf_vector":"1"}},{"base_weights":[1.5752424E-3,-2.8286378E-3,1.4261802E-2,-8.101165E-3,-1.6489199E-4,2.1469593E-4,8.549392E-4,-1.1827797E-4,-4.8930943E-4,-7.522285E-5,1.0613402E-4],"categories":[],"categories_nodes":[],"categories_segments":[],"categories_sizes":[],"default_left":[0,0,0,0,0,0,0,0,0,0,0],"id":76,"left_children":[1,3,5,7,9,-1,-1,-1,-1,-1,-1],"loss_changes":[6.549125E-4,1.2506625E-4,1.1415337E-5,5.8440783E-6,2.4643943E-5,0E0,0E0,0E0,0E0,0E0,0E0],"parents":[2147483647,0,0,1,1,2,2,3,3,4,4],"right_children":[2,4,6,8,10,-1,-1,-1,-1,-1,-1],"split_conditions":[4.57E2,6.7E1,6.5E1,6.4E1,8.6E1,2.1469593E-4,8.549392E-4,-1.1827797E-4,-4.8930943E-4,-7.522285E-5,1.0613402E-4],"split_indices":[12,0,0,0,0,0,0,0,0,0,0],"split_type":[0,0,0,0,0,0,0,0,0,0,0],"sum_hessian":[1E1,8E0,2E0,2E0,6E0,1E0,1E0,1E0,1E0,4E0,2E0],"tree_param":{"num_deleted":"0","num_feature":"24","num_nodes":"11","size_leaf_vector":"1"}},{"base_weights":[1.5412949E-3,-2.7512775E-3,1.3905247E-2,-6.8246275E-3,4.2283535E-4,2.0932853E-4,8.33565E-4,-1.3692379E-4,-4.7707706E-4,-4.5235454E-5,2.0519495E-3,1.2906492E-4,2.4831295E-5],"categories":[],"categories_nodes":[],"categories_segments":[],"categories_sizes":[],"default_left":[0,0,0,0,0,0,0,0,0,0,0,0,0],"id":77,"left_children":[1,3,5,7,9,-1,-1,-1,-1,-1,11,-1,-1],"loss_changes":[6.220619E-4,1.1924915E-4,1.0851538E-5,1.8277598E-5,1.4832747E-5,0E0,0E0,0E0,0E0,0E0,1.1879856E-6,0E0,0E0],"parents":[2147483647,0,0,1,1,2,2,3,3,4,4,10,10],"right_children":[2,4,6,8,10,-1,-1,-1,-1,-1,12,-1,-1],"split_conditions":[4.57E2,6E0,6.5E1,1.1143E2,8.4E1,2.0932853E-4,8.33565E-4,-1.3692379E-4,-4.7707706E-4,-4.5235454E-5,8.8E1,1.2906492E-4,2.4831295E-5],"split_indices":[12,6,0,3,0,0,0,0,0,0,0,0,0],"split_type":[0,0,0,0,0,0,0,0,0,0,0,0,0],"sum_hessian":[1E1,8E0,2E0,3E0,5E0,1E0,1E0,2E0,1E0,3E0,2E0,1E0,1E0],"tree_param":{"num_deleted":"0","num_feature":"24","num_nodes":"13","size_leaf_vector":"1"}},{"base_weights":[1.5131019E-3,-2.6698643E-3,1.3557632E-2,-7.693986E-3,-1.3525996E-4,2.0409525E-4,8.127272E-4,-1.1189878E-4,-4.651502E-4,-6.948769E-5,2.0006497E-3,1.2583732E-4,2.4211407E-5],"categories":[],"categories_nodes":[],"categories_segments":[],"categories_sizes":[],"default_left":[0,0,0,0,0,0,0,0,0,0,0,0,0],"id":78,"left_children":[1,3,5,7,9,-1,-1,-1,-1,-1,11,-1,-1],"loss_changes":[5.9039757E-4,1.1356677E-4,1.03160855E-5,5.5165438E-6,2.153681E-5,0E0,0E0,0E0,0E0,0E0,1.1291804E-6,0E0,0E0],"parents":[2147483647,0,0,1,1,2,2,3,3,4,4,10,10],"right_children":[2,4,6,8,10,-1,-1,-1,-1,-1,12,-1,-1],"split_conditions":[4.57E2,6.7E1,6.5E1,6.4E1,8.6E1,2.0409525E-4,8.127272E-4,-1.1189878E-4,-4.651502E-4,-6.948769E-5,8.8E1,1.2583732E-4,2.4211407E-5],"split_indices":[12,0,0,0,0,0,0,0,0,0,0,0,0],"split_type":[0,0,0,0,0,0,0,0,0,0,0,0,0],"sum_hessian":[1E1,8E0,2E0,2E0,6E0,1E0,1E0,1E0,1E0,4E0,2E0,1E0,1E0],"tree_param":{"num_deleted":"0","num_feature":"24","num_nodes":"13","size_leaf_vector":"1"}},{"base_weights":[1.4847462E-3,-2.591537E-3,1.3218681E-2,-7.5016418E-3,-1.16986885E-4,1.9899309E-4,7.92408E-4,-1.09101835E-4,-4.5352132E-4,-6.670773E-5,1.9506216E-3,1.2269021E-4,2.360642E-5],"categories":[],"categories_nodes":[],"categories_segments":[],"categories_sizes":[],"default_left":[0,0,0,0,0,0,0,0,0,0,0,0,0],"id":79,"left_children":[1,3,5,7,9,-1,-1,-1,-1,-1,11,-1,-1],"loss_changes":[5.6039594E-4,1.084751E-4,9.806361E-6,5.2439427E-6,2.0218815E-5,0E0,0E0,0E0,0E0,0E0,1.0733447E-6,0E0,0E0],"parents":[2147483647,0,0,1,1,2,2,3,3,4,4,10,10],"right_children":[2,4,6,8,10,-1,-1,-1,-1,-1,12,-1,-1],"split_conditions":[4.57E2,6.7E1,6.5E1,6.4E1,8.6E1,1.9899309E-4,7.92408E-4,-1.09101835E-4,-4.5352132E-4,-6.670773E-5,8.8E1,1.2269021E-4,2.360642E-5],"split_indices":[12,0,0,0,0,0,0,0,0,0,0,0,0],"split_type":[0,0,0,0,0,0,0,0,0,0,0,0,0],"sum_hessian":[1E1,8E0,2E0,2E0,6E0,1E0,1E0,1E0,1E0,4E0,2E0,1E0,1E0],"tree_param":{"num_deleted":"0","num_feature":"24","num_nodes":"13","size_leaf_vector":"1"}},{"base_weights":[1.4567267E-3,-2.5156338E-3,1.2888233E-2,-6.3179433E-3,4.3851137E-4,1.9401909E-4,7.725984E-4,-1.2640754E-4,-4.4218302E-4,-3.8431586E-5,1.901865E-3,1.19623546E-4,2.3016333E-5],"categories":[],"categories_nodes":[],"categories_segments":[],"categories_sizes":[],"default_left":[0,0,0,0,0,0,0,0,0,0,0,0,0],"id":80,"left_children":[1,3,5,7,9,-1,-1,-1,-1,-1,11,-1,-1],"loss_changes":[5.319328E-4,1.0386366E-4,9.321724E-6,1.5929661E-5,1.2060697E-5,0E0,0E0,0E0,0E0,0E0,1.020363E-6,0E0,0E0],"parents":[2147483647,0,0,1,1,2,2,3,3,4,4,10,10],"right_children":[2,4,6,8,10,-1,-1,-1,-1,-1,12,-1,-1],"split_conditions":[4.57E2,6E0,6.5E1,1.1143E2,8.4E1,1.9401909E-4,7.725984E-4,-1.2640754E-4,-4.4218302E-4,-3.8431586E-5,8.8E1,1.19623546E-4,2.3016333E-5],"split_indices":[12,6,0,3,0,0,0,0,0,0,0,0,0],"split_type":[0,0,0,0,0,0,0,0,0,0,0,0,0],"sum_hessian":[1E1,8E0,2E0,3E0,5E0,1E0,1E0,2E0,1E0,3E0,2E0,1E0,1E0],"tree_param":{"num_deleted":"0","num_feature":"24","num_nodes":"13","size_leaf_vector":"1"}},{"base_weights":[1.4295578E-3,-2.4414328E-3,1.25660105E-2,-7.124563E-3,-8.560078E-5,1.8916726E-4,7.532835E-4,-1.03214385E-4,-4.3112785E-4,-6.162226E-5,9.271701E-5],"categories":[],"categories_nodes":[],"categories_segments":[],"categories_sizes":[],"default_left":[0,0,0,0,0,0,0,0,0,0,0],"id":81,"left_children":[1,3,5,7,9,-1,-1,-1,-1,-1,-1],"loss_changes":[5.048792E-4,9.868415E-5,8.862378E-6,4.9413356E-6,1.7859047E-5,0E0,0E0,0E0,0E0,0E0,0E0],"parents":[2147483647,0,0,1,1,2,2,3,3,4,4],"right_children":[2,4,6,8,10,-1,-1,-1,-1,-1,-1],"split_conditions":[4.57E2,6.7E1,6.5E1,6.4E1,8.6E1,1.8916726E-4,7.532835E-4,-1.03214385E-4,-4.3112785E-4,-6.162226E-5,9.271701E-5],"split_indices":[12,0,0,0,0,0,0,0,0,0,0],"split_type":[0,0,0,0,0,0,0,0,0,0,0],"sum_hessian":[1E1,8E0,2E0,2E0,6E0,1E0,1E0,1E0,1E0,4E0,2E0],"tree_param":{"num_deleted":"0","num_feature":"24","num_nodes":"11","size_leaf_vector":"1"}},{"base_weights":[1.3980053E-3,-2.3752782E-3,1.2251854E-2,-5.995184E-3,4.3387213E-4,1.8443764E-4,7.344514E-4,-1.1944572E-4,-4.2034985E-4,-3.4678727E-5,1.7925104E-3,1.1431575E-4,2.0122528E-5],"categories":[],"categories_nodes":[],"categories_segments":[],"categories_sizes":[],"default_left":[0,0,0,0,0,0,0,0,0,0,0,0,0],"id":82,"left_children":[1,3,5,7,9,-1,-1,-1,-1,-1,11,-1,-1],"loss_changes":[4.7960272E-4,9.412089E-5,8.425122E-6,1.4706995E-5,1.0433992E-5,0E0,0E0,0E0,0E0,0E0,1.1391248E-6,0E0,0E0],"parents":[2147483647,0,0,1,1,2,2,3,3,4,4,10,10],"right_children":[2,4,6,8,10,-1,-1,-1,-1,-1,12,-1,-1],"split_conditions":[4.57E2,6E0,6.5E1,1.1143E2,8.4E1,1.8443764E-4,7.344514E-4,-1.1944572E-4,-4.2034985E-4,-3.4678727E-5,8.8E1,1.1431575E-4,2.0122528E-5],"split_indices":[12,6,0,3,0,0,0,0,0,0,0,0,0],"split_type":[0,0,0,0,0,0,0,0,0,0,0,0,0],"sum_hessian":[1E1,8E0,2E0,3E0,5E0,1E0,1E0,2E0,1E0,3E0,2E0,1E0,1E0],"tree_param":{"num_deleted":"0","num_feature":"24","num_nodes":"13","size_leaf_vector":"1"}},{"base_weights":[1.3716384E-3,-2.3054082E-3,1.1945565E-2,-6.766518E-3,-6.4160144E-5,1.7982721E-4,7.160902E-4,-9.764731E-5,-4.0984154E-4,-5.6921843E-5,1.7476877E-3,1.1145771E-4,1.9618868E-5],"categories":[],"categories_nodes":[],"categories_segments":[],"categories_sizes":[],"default_left":[0,0,0,0,0,0,0,0,0,0,0,0,0],"id":83,"left_children":[1,3,5,7,9,-1,-1,-1,-1,-1,11,-1,-1],"loss_changes":[4.5522847E-4,8.955193E-5,8.008792E-6,4.646776E-6,1.5614612E-5,0E0,0E0,0E0,0E0,0E0,1.0829399E-6,0E0,0E0],"parents":[2147483647,0,0,1,1,2,2,3,3,4,4,10,10],"right_children":[2,4,6,8,10,-1,-1,-1,-1,-1,12,-1,-1],"split_conditions":[4.57E2,6.7E1,6.5E1,6.4E1,8.6E1,1.7982721E-4,7.160902E-4,-9.764731E-5,-4.0984154E-4,-5.6921843E-5,8.8E1,1.1145771E-4,1.9618868E-5],"split_indices":[12,0,0,0,0,0,0,0,0,0,0,0,0],"split_type":[0,0,0,0,0,0,0,0,0,0,0,0,0],"sum_hessian":[1E1,8E0,2E0,2E0,6E0,1E0,1E0,1E0,1E0,4E0,2E0,1E0,1E0],"tree_param":{"num_deleted":"0","num_feature":"24","num_nodes":"13","size_leaf_vector":"1"}},{"base_weights":[1.345098E-3,-2.2382934E-3,1.1646907E-2,-5.6892782E-3,4.3541193E-4,1.7533005E-4,6.9818797E-4,-1.1288822E-4,-3.995955E-4,-3.1243264E-5,1.7039776E-3,1.0867119E-4,1.912713E-5],"categories":[],"categories_nodes":[],"categories_segments":[],"categories_sizes":[],"default_left":[0,0,0,0,0,0,0,0,0,0,0,0,0],"id":84,"left_children":[1,3,5,7,9,-1,-1,-1,-1,-1,11,-1,-1],"loss_changes":[4.3213874E-4,8.551942E-5,7.614348E-6,1.356221E-5,9.134945E-6,0E0,0E0,0E0,0E0,0E0,1.0296008E-6,0E0,0E0],"parents":[2147483647,0,0,1,1,2,2,3,3,4,4,10,10],"right_children":[2,4,6,8,10,-1,-1,-1,-1,-1,12,-1,-1],"split_conditions":[4.57E2,6E0,6.5E1,1.1143E2,8.4E1,1.7533005E-4,6.9818797E-4,-1.1288822E-4,-3.995955E-4,-3.1243264E-5,8.8E1,1.0867119E-4,1.912713E-5],"split_indices":[12,6,0,3,0,0,0,0,0,0,0,0,0],"split_type":[0,0,0,0,0,0,0,0,0,0,0,0,0],"sum_hessian":[1E1,8E0,2E0,3E0,5E0,1E0,1E0,2E0,1E0,3E0,2E0,1E0,1E0],"tree_param":{"num_deleted":"0","num_feature":"24","num_nodes":"13","size_leaf_vector":"1"}},{"base_weights":[1.3194355E-3,-2.1725958E-3,1.1355718E-2,-6.426533E-3,-3.9109163E-5,1.7094612E-4,6.807327E-4,-9.238422E-5,-3.8960576E-4,-5.2579046E-5,8.306901E-5],"categories":[],"categories_nodes":[],"categories_segments":[],"categories_sizes":[],"default_left":[0,0,0,0,0,0,0,0,0,0,0],"id":85,"left_children":[1,3,5,7,9,-1,-1,-1,-1,-1,-1],"loss_changes":[4.1018854E-4,8.143014E-5,7.2387047E-6,4.3610053E-6,1.3798957E-5,0E0,0E0,0E0,0E0,0E0,0E0],"parents":[2147483647,0,0,1,1,2,2,3,3,4,4],"right_children":[2,4,6,8,10,-1,-1,-1,-1,-1,-1],"split_conditions":[4.57E2,6.7E1,6.5E1,6.4E1,8.6E1,1.7094612E-4,6.807327E-4,-9.238422E-5,-3.8960576E-4,-5.2579046E-5,8.306901E-5],"split_indices":[12,0,0,0,0,0,0,0,0,0,0],"split_type":[0,0,0,0,0,0,0,0,0,0,0],"sum_hessian":[1E1,8E0,2E0,2E0,6E0,1E0,1E0,1E0,1E0,4E0,2E0],"tree_param":{"num_deleted":"0","num_feature":"24","num_nodes":"11","size_leaf_vector":"1"}},{"base_weights":[1.289839E-3,-2.1141437E-3,1.1071841E-2,-6.2658787E-3,-3.28081E-5,1.6667247E-4,6.637156E-4,-9.007454E-5,-3.7986637E-4,-5.0476196E-5,1.6059875E-3,1.03875995E-4,1.6573073E-5],"categories":[],"categories_nodes":[],"categories_segments":[],"categories_sizes":[],"default_left":[0,0,0,0,0,0,0,0,0,0,0,0,0],"id":86,"left_children":[1,3,5,7,9,-1,-1,-1,-1,-1,11,-1,-1],"loss_changes":[3.8968283E-4,7.7564815E-5,6.8815425E-6,4.145797E-6,1.2825746E-5,0E0,0E0,0E0,0E0,0E0,1.1143229E-6,0E0,0E0],"parents":[2147483647,0,0,1,1,2,2,3,3,4,4,10,10],"right_children":[2,4,6,8,10,-1,-1,-1,-1,-1,12,-1,-1],"split_conditions":[4.57E2,6.7E1,6.5E1,6.4E1,8.6E1,1.6667247E-4,6.637156E-4,-9.007454E-5,-3.7986637E-4,-5.0476196E-5,8.8E1,1.03875995E-4,1.6573073E-5],"split_indices":[12,0,0,0,0,0,0,0,0,0,0,0,0],"split_type":[0,0,0,0,0,0,0,0,0,0,0,0,0],"sum_hessian":[1E1,8E0,2E0,2E0,6E0,1E0,1E0,1E0,1E0,4E0,2E0,1E0,1E0],"tree_param":{"num_deleted":"0","num_feature":"24","num_nodes":"13","size_leaf_vector":"1"}},{"base_weights":[1.2644801E-3,-2.05287E-3,1.0795037E-2,-5.2691996E-3,4.3349466E-4,1.6250611E-4,6.471217E-4,-1.0436674E-4,-3.7036985E-4,-1.4502407E-5,1.0128022E-4],"categories":[],"categories_nodes":[],"categories_segments":[],"categories_sizes":[],"default_left":[0,0,0,0,0,0,0,0,0,0,0],"id":87,"left_children":[1,3,5,7,9,-1,-1,-1,-1,-1,-1],"loss_changes":[3.6993896E-4,7.425688E-5,6.5412896E-6,1.1752098E-5,7.499279E-6,0E0,0E0,0E0,0E0,0E0,0E0],"parents":[2147483647,0,0,1,1,2,2,3,3,4,4],"right_children":[2,4,6,8,10,-1,-1,-1,-1,-1,-1],"split_conditions":[4.57E2,6E0,6.5E1,1.1143E2,9.5E1,1.6250611E-4,6.471217E-4,-1.0436674E-4,-3.7036985E-4,-1.4502407E-5,1.0128022E-4],"split_indices":[12,6,0,3,8,0,0,0,0,0,0],"split_type":[0,0,0,0,0,0,0,0,0,0,0],"sum_hessian":[1E1,8E0,2E0,3E0,5E0,1E0,1E0,2E0,1E0,4E0,1E0],"tree_param":{"num_deleted":"0","num_feature":"24","num_nodes":"11","size_leaf_vector":"1"}},{"base_weights":[1.2395923E-3,-1.9933383E-3,1.0525187E-2,-5.9509873E-3,-1.24403405E-5,1.5844405E-4,6.3094497E-4,-8.521378E-5,-3.611103E-4,-4.6978595E-5,7.6846285E-5],"categories":[],"categories_nodes":[],"categories_segments":[],"categories_sizes":[],"default_left":[0,0,0,0,0,0,0,0,0,0,0],"id":88,"left_children":[1,3,5,7,9,-1,-1,-1,-1,-1,-1],"loss_changes":[3.5119674E-4,7.048325E-5,6.218208E-6,3.8868675E-6,1.14993145E-5,0E0,0E0,0E0,0E0,0E0,0E0],"parents":[2147483647,0,0,1,1,2,2,3,3,4,4],"right_children":[2,4,6,8,10,-1,-1,-1,-1,-1,-1],"split_conditions":[4.57E2,6.7E1,6.5E1,6.4E1,8.6E1,1.5844405E-4,6.3094497E-4,-8.521378E-5,-3.611103E-4,-4.6978595E-5,7.6846285E-5],"split_indices":[12,0,0,0,0,0,0,0,0,0,0],"split_type":[0,0,0,0,0,0,0,0,0,0,0],"sum_hessian":[1E1,8E0,2E0,2E0,6E0,1E0,1E0,1E0,1E0,4E0,2E0],"tree_param":{"num_deleted":"0","num_feature":"24","num_nodes":"11","size_leaf_vector":"1"}},{"base_weights":[1.2115024E-3,-1.939959E-3,1.02620525E-2,-5.001098E-3,4.2412677E-4,1.5448332E-4,6.1517063E-4,-9.868443E-5,-3.5208315E-4,-1.3282299E-5,9.682477E-5],"categories":[],"categories_nodes":[],"categories_segments":[],"categories_sizes":[],"default_left":[0,0,0,0,0,0,0,0,0,0,0],"id":89,"left_children":[1,3,5,7,9,-1,-1,-1,-1,-1,-1],"loss_changes":[3.3365499E-4,6.725226E-5,5.9108133E-6,1.0812451E-5,6.7735655E-6,0E0,0E0,0E0,0E0,0E0,0E0],"parents":[2147483647,0,0,1,1,2,2,3,3,4,4],"right_children":[2,4,6,8,10,-1,-1,-1,-1,-1,-1],"split_conditions":[4.57E2,6E0,6.5E1,1.1143E2,9.5E1,1.5448332E-4,6.1517063E-4,-9.868443E-5,-3.5208315E-4,-1.3282299E-5,9.682477E-5],"split_indices":[12,6,0,3,8,0,0,0,0,0,0],"split_type":[0,0,0,0,0,0,0,0,0,0,0],"sum_hessian":[1E1,8E0,2E0,3E0,5E0,1E0,1E0,2E0,1E0,4E0,1E0],"tree_param":{"num_deleted":"0","num_feature":"24","num_nodes":"11","size_leaf_vector":"1"}},{"base_weights":[1.1875196E-3,-1.8837585E-3,1.0005514E-2,-5.651951E-3,2.8950828E-7,1.5062094E-4,5.9979263E-4,-8.061528E-5,-3.4328105E-4,-4.3714048E-5,7.289052E-5],"categories":[],"categories_nodes":[],"categories_segments":[],"categories_sizes":[],"default_left":[0,0,0,0,0,0,0,0,0,0,0],"id":90,"left_children":[1,3,5,7,9,-1,-1,-1,-1,-1,-1],"loss_changes":[3.167556E-4,6.389673E-5,5.6193385E-6,3.6389029E-6,1.0197468E-5,0E0,0E0,0E0,0E0,0E0,0E0],"parents":[2147483647,0,0,1,1,2,2,3,3,4,4],"right_children":[2,4,6,8,10,-1,-1,-1,-1,-1,-1],"split_conditions":[4.57E2,6.7E1,6.5E1,6.4E1,8.6E1,1.5062094E-4,5.9979263E-4,-8.061528E-5,-3.4328105E-4,-4.3714048E-5,7.289052E-5],"split_indices":[12,0,0,0,0,0,0,0,0,0,0],"split_type":[0,0,0,0,0,0,0,0,0,0,0],"sum_hessian":[1E1,8E0,2E0,2E0,6E0,1E0,1E0,1E0,1E0,4E0,2E0],"tree_param":{"num_deleted":"0","num_feature":"24","num_nodes":"11","size_leaf_vector":"1"}},{"base_weights":[1.1604916E-3,-1.8334256E-3,9.755413E-3,-4.7468245E-3,4.1441122E-4,1.4685691E-4,5.8479904E-4,-9.3322E-5,-3.3469946E-4,-1.21688845E-5,9.25839E-5],"categories":[],"categories_nodes":[],"categories_segments":[],"categories_sizes":[],"default_left":[0,0,0,0,0,0,0,0,0,0,0],"id":91,"left_children":[1,3,5,7,9,-1,-1,-1,-1,-1,-1],"loss_changes":[3.0094315E-4,6.0906743E-5,5.3412805E-6,9.940406E-6,6.123166E-6,0E0,0E0,0E0,0E0,0E0,0E0],"parents":[2147483647,0,0,1,1,2,2,3,3,4,4],"right_children":[2,4,6,8,10,-1,-1,-1,-1,-1,-1],"split_conditions":[4.57E2,6E0,6.5E1,1.1143E2,9.5E1,1.4685691E-4,5.8479904E-4,-9.3322E-5,-3.3469946E-4,-1.21688845E-5,9.25839E-5],"split_indices":[12,6,0,3,8,0,0,0,0,0,0],"split_type":[0,0,0,0,0,0,0,0,0,0,0],"sum_hessian":[1E1,8E0,2E0,3E0,5E0,1E0,1E0,2E0,1E0,4E0,1E0],"tree_param":{"num_deleted":"0","num_feature":"24","num_nodes":"11","size_leaf_vector":"1"}},{"base_weights":[1.1373704E-3,-1.7803841E-3,9.511511E-3,-5.3679743E-3,1.1495182E-5,1.4318526E-4,5.7017803E-4,-7.6265635E-5,-3.2633246E-4,-4.066825E-5,6.9121525E-5],"categories":[],"categories_nodes":[],"categories_segments":[],"categories_sizes":[],"default_left":[0,0,0,0,0,0,0,0,0,0,0],"id":92,"left_children":[1,3,5,7,9,-1,-1,-1,-1,-1,-1],"loss_changes":[2.8570465E-4,5.7918463E-5,5.0775125E-6,3.402005E-6,9.040229E-6,0E0,0E0,0E0,0E0,0E0,0E0],"parents":[2147483647,0,0,1,1,2,2,3,3,4,4],"right_children":[2,4,6,8,10,-1,-1,-1,-1,-1,-1],"split_conditions":[4.57E2,6.7E1,6.5E1,6.4E1,8.6E1,1.4318526E-4,5.7017803E-4,-7.6265635E-5,-3.2633246E-4,-4.066825E-5,6.9121525E-5],"split_indices":[12,0,0,0,0,0,0,0,0,0,0],"split_type":[0,0,0,0,0,0,0,0,0,0,0],"sum_hessian":[1E1,8E0,2E0,2E0,6E0,1E0,1E0,1E0,1E0,4E0,2E0],"tree_param":{"num_deleted":"0","num_feature":"24","num_nodes":"11","size_leaf_vector":"1"}},{"base_weights":[1.1113341E-3,-1.7329454E-3,9.273727E-3,-4.505664E-3,4.043579E-4,1.39606E-4,5.559236E-4,-8.8261564E-5,-3.1817408E-4,-1.1154413E-5,8.8539724E-5],"categories":[],"categories_nodes":[],"categories_segments":[],"categories_sizes":[],"default_left":[0,0,0,0,0,0,0,0,0,0,0],"id":93,"left_children":[1,3,5,7,9,-1,-1,-1,-1,-1,-1],"loss_changes":[2.7144828E-4,5.5157172E-5,4.8266083E-6,9.1318725E-6,5.5392356E-6,0E0,0E0,0E0,0E0,0E0,0E0],"parents":[2147483647,0,0,1,1,2,2,3,3,4,4],"right_children":[2,4,6,8,10,-1,-1,-1,-1,-1,-1],"split_conditions":[4.57E2,6E0,6.5E1,1.1143E2,9.5E1,1.39606E-4,5.559236E-4,-8.8261564E-5,-3.1817408E-4,-1.1154413E-5,8.8539724E-5],"split_indices":[12,6,0,3,8,0,0,0,0,0,0],"split_type":[0,0,0,0,0,0,0,0,0,0,0],"sum_hessian":[1E1,8E0,2E0,3E0,5E0,1E0,1E0,2E0,1E0,4E0,1E0],"tree_param":{"num_deleted":"0","num_feature":"24","num_nodes":"11","size_leaf_vector":"1"}},{"base_weights":[1.0890906E-3,-1.6828576E-3,9.041905E-3,-5.0982833E-3,2.1304402E-5,1.3611616E-4,5.4202677E-4,-7.215142E-5,-3.1021982E-4,-3.782511E-5,6.552736E-5],"categories":[],"categories_nodes":[],"categories_segments":[],"categories_sizes":[],"default_left":[0,0,0,0,0,0,0,0,0,0,0],"id":94,"left_children":[1,3,5,7,9,-1,-1,-1,-1,-1,-1],"loss_changes":[2.5770895E-4,5.2492567E-5,4.588306E-6,3.1762538E-6,8.010902E-6,0E0,0E0,0E0,0E0,0E0,0E0],"parents":[2147483647,0,0,1,1,2,2,3,3,4,4],"right_children":[2,4,6,8,10,-1,-1,-1,-1,-1,-1],"split_conditions":[4.57E2,6.7E1,6.5E1,6.4E1,8.6E1,1.3611616E-4,5.4202677E-4,-7.215142E-5,-3.1021982E-4,-3.782511E-5,6.552736E-5],"split_indices":[12,0,0,0,0,0,0,0,0,0,0],"split_type":[0,0,0,0,0,0,0,0,0,0,0],"sum_hessian":[1E1,8E0,2E0,2E0,6E0,1E0,1E0,1E0,1E0,4E0,2E0],"tree_param":{"num_deleted":"0","num_feature":"24","num_nodes":"11","size_leaf_vector":"1"}},{"base_weights":[1.0640458E-3,-1.6381145E-3,8.815845E-3,-4.970809E-3,2.4199486E-5,1.3271272E-4,5.284757E-4,-7.034689E-5,-3.0246377E-4,-2.6817122E-5,8.468628E-5],"categories":[],"categories_nodes":[],"categories_segments":[],"categories_sizes":[],"default_left":[0,0,0,0,0,0,0,0,0,0,0],"id":95,"left_children":[1,3,5,7,9,-1,-1,-1,-1,-1,-1],"loss_changes":[2.44854E-4,4.9980146E-5,4.3619802E-6,3.0195952E-6,7.459293E-6,0E0,0E0,0E0,0E0,0E0,0E0],"parents":[2147483647,0,0,1,1,2,2,3,3,4,4],"right_children":[2,4,6,8,10,-1,-1,-1,-1,-1,-1],"split_conditions":[4.57E2,6.7E1,6.5E1,6.4E1,9.5E1,1.3271272E-4,5.284757E-4,-7.034689E-5,-3.0246377E-4,-2.6817122E-5,8.468628E-5],"split_indices":[12,0,0,0,8,0,0,0,0,0,0],"split_type":[0,0,0,0,0,0,0,0,0,0,0],"sum_hessian":[1E1,8E0,2E0,2E0,6E0,1E0,1E0,1E0,1E0,5E0,1E0],"tree_param":{"num_deleted":"0","num_feature":"24","num_nodes":"11","size_leaf_vector":"1"}},{"base_weights":[1.0423281E-3,-1.591199E-3,8.595467E-3,-4.177019E-3,3.9788088E-4,1.2939573E-4,5.152643E-4,-8.186598E-5,-2.9490291E-4,-9.155274E-6,8.257032E-5],"categories":[],"categories_nodes":[],"categories_segments":[],"categories_sizes":[],"default_left":[0,0,0,0,0,0,0,0,0,0,0],"id":96,"left_children":[1,3,5,7,9,-1,-1,-1,-1,-1,-1],"loss_changes":[2.3248246E-4,4.7952577E-5,4.146277E-6,7.826682E-6,4.672069E-6,0E0,0E0,0E0,0E0,0E0,0E0],"parents":[2147483647,0,0,1,1,2,2,3,3,4,4],"right_children":[2,4,6,8,10,-1,-1,-1,-1,-1,-1],"split_conditions":[4.57E2,6E0,6.5E1,1.1143E2,9.5E1,1.2939573E-4,5.152643E-4,-8.186598E-5,-2.9490291E-4,-9.155274E-6,8.257032E-5],"split_indices":[12,6,0,3,8,0,0,0,0,0,0],"split_type":[0,0,0,0,0,0,0,0,0,0,0],"sum_hessian":[1E1,8E0,2E0,3E0,5E0,1E0,1E0,2E0,1E0,4E0,1E0],"tree_param":{"num_deleted":"0","num_feature":"24","num_nodes":"11","size_leaf_vector":"1"}},{"base_weights":[1.0212497E-3,-1.5453431E-3,8.380611E-3,-4.0623695E-3,3.902316E-4,1.2616218E-4,5.0238374E-4,-7.913808E-5,-2.8752984E-4,-8.788109E-6,8.0505015E-5],"categories":[],"categories_nodes":[],"categories_segments":[],"categories_sizes":[],"default_left":[0,0,0,0,0,0,0,0,0,0,0],"id":97,"left_children":[1,3,5,7,9,-1,-1,-1,-1,-1,-1],"loss_changes":[2.2072425E-4,4.5432298E-5,3.9410806E-6,7.642746E-6,4.425623E-6,0E0,0E0,0E0,0E0,0E0,0E0],"parents":[2147483647,0,0,1,1,2,2,3,3,4,4],"right_children":[2,4,6,8,10,-1,-1,-1,-1,-1,-1],"split_conditions":[4.57E2,6E0,6.5E1,1.1143E2,9.5E1,1.2616218E-4,5.0238374E-4,-7.913808E-5,-2.8752984E-4,-8.788109E-6,8.0505015E-5],"split_indices":[12,6,0,3,8,0,0,0,0,0,0],"split_type":[0,0,0,0,0,0,0,0,0,0,0],"sum_hessian":[1E1,8E0,2E0,3E0,5E0,1E0,1E0,2E0,1E0,4E0,1E0],"tree_param":{"num_deleted":"0","num_feature":"24","num_nodes":"11","size_leaf_vector":"1"}},{"base_weights":[1.0005236E-3,-1.500845E-3,8.171122E-3,-4.5987368E-3,4.1229385E-5,1.2300909E-4,4.8982503E-4,-6.4563756E-5,-2.803415E-4,-3.3090117E-5,5.996029E-5],"categories":[],"categories_nodes":[],"categories_segments":[],"categories_sizes":[],"default_left":[0,0,0,0,0,0,0,0,0,0,0],"id":98,"left_children":[1,3,5,7,9,-1,-1,-1,-1,-1,-1],"loss_changes":[2.0956295E-4,4.3184213E-5,3.7461577E-6,2.762732E-6,6.4922956E-6,0E0,0E0,0E0,0E0,0E0,0E0],"parents":[2147483647,0,0,1,1,2,2,3,3,4,4],"right_children":[2,4,6,8,10,-1,-1,-1,-1,-1,-1],"split_conditions":[4.57E2,6.7E1,6.5E1,6.4E1,8.6E1,1.2300909E-4,4.8982503E-4,-6.4563756E-5,-2.803415E-4,-3.3090117E-5,5.996029E-5],"split_indices":[12,0,0,0,0,0,0,0,0,0,0],"split_type":[0,0,0,0,0,0,0,0,0,0,0],"sum_hessian":[1E1,8E0,2E0,2E0,6E0,1E0,1E0,1E0,1E0,4E0,2E0],"tree_param":{"num_deleted":"0","num_feature":"24","num_nodes":"11","size_leaf_vector":"1"}},{"base_weights":[9.772886E-4,-1.4611483E-3,7.966836E-3,-3.8564205E-3,3.7922463E-4,1.1993349E-4,4.7757925E-4,-7.4872376E-5,-2.7333348E-4,-8.044243E-6,7.69943E-5],"categories":[],"categories_nodes":[],"categories_segments":[],"categories_sizes":[],"default_left":[0,0,0,0,0,0,0,0,0,0,0],"id":99,"left_children":[1,3,5,7,9,-1,-1,-1,-1,-1,-1],"loss_changes":[1.9912003E-4,4.1136194E-5,3.5613339E-6,7.008086E-6,4.00905E-6,0E0,0E0,0E0,0E0,0E0,0E0],"parents":[2147483647,0,0,1,1,2,2,3,3,4,4],"right_children":[2,4,6,8,10,-1,-1,-1,-1,-1,-1],"split_conditions":[4.57E2,6E0,6.5E1,1.1143E2,9.5E1,1.1993349E-4,4.7757925E-4,-7.4872376E-5,-2.7333348E-4,-8.044243E-6,7.69943E-5],"split_indices":[12,6,0,3,8,0,0,0,0,0,0],"split_type":[0,0,0,0,0,0,0,0,0,0,0],"sum_hessian":[1E1,8E0,2E0,3E0,5E0,1E0,1E0,2E0,1E0,4E0,1E0],"tree_param":{"num_deleted":"0","num_feature":"24","num_nodes":"11","size_leaf_vector":"1"}},{"base_weights":[9.5735356E-4,-1.419127E-3,7.7676773E-3,-4.367709E-3,4.7283513E-5,1.1693537E-4,4.6564042E-4,-6.107837E-5,-2.6649982E-4,-3.077686E-5,5.681117E-5],"categories":[],"categories_nodes":[],"categories_segments":[],"categories_sizes":[],"default_left":[0,0,0,0,0,0,0,0,0,0,0],"id":100,"left_children":[1,3,5,7,9,-1,-1,-1,-1,-1,-1],"loss_changes":[1.8905396E-4,3.9121005E-5,3.385474E-6,2.5715271E-6,5.7517914E-6,0E0,0E0,0E0,0E0,0E0,0E0],"parents":[2147483647,0,0,1,1,2,2,3,3,4,4],"right_children":[2,4,6,8,10,-1,-1,-1,-1,-1,-1],"split_conditions":[4.57E2,6.7E1,6.5E1,6.4E1,8.6E1,1.1693537E-4,4.6564042E-4,-6.107837E-5,-2.6649982E-4,-3.077686E-5,5.681117E-5],"split_indices":[12,0,0,0,0,0,0,0,0,0,0],"split_type":[0,0,0,0,0,0,0,0,0,0,0],"sum_hessian":[1E1,8E0,2E0,2E0,6E0,1E0,1E0,1E0,1E0,4E0,2E0],"tree_param":{"num_deleted":"0","num_feature":"24","num_nodes":"11","size_leaf_vector":"1"}},{"base_weights":[9.3501806E-4,-1.3816953E-3,7.5734854E-3,-3.6610663E-3,3.6816797E-4,1.1401177E-4,4.5399964E-4,-7.084608E-5,-2.598375E-4,-7.3689225E-6,7.36475E-5],"categories":[],"categories_nodes":[],"categories_segments":[],"categories_sizes":[],"default_left":[0,0,0,0,0,0,0,0,0,0,0],"id":101,"left_children":[1,3,5,7,9,-1,-1,-1,-1,-1,-1],"loss_changes":[1.7963792E-4,3.7245176E-5,3.218447E-6,6.4218E-6,3.6344793E-6,0E0,0E0,0E0,0E0,0E0,0E0],"parents":[2147483647,0,0,1,1,2,2,3,3,4,4],"right_children":[2,4,6,8,10,-1,-1,-1,-1,-1,-1],"split_conditions":[4.57E2,6E0,6.5E1,1.1143E2,9.5E1,1.1401177E-4,4.5399964E-4,-7.084608E-5,-2.598375E-4,-7.3689225E-6,7.36475E-5],"split_indices":[12,6,0,3,8,0,0,0,0,0,0],"split_type":[0,0,0,0,0,0,0,0,0,0,0],"sum_hessian":[1E1,8E0,2E0,3E0,5E0,1E0,1E0,2E0,1E0,4E0,1E0],"tree_param":{"num_deleted":"0","num_feature":"24","num_nodes":"11","size_leaf_vector":"1"}},{"base_weights":[9.15885E-4,-1.3419787E-3,7.384181E-3,-4.1482844E-3,5.2435058E-5,1.1116266E-4,4.4265093E-4,-5.7779253E-5,-2.533421E-4,-2.0876527E-5,7.180572E-5],"categories":[],"categories_nodes":[],"categories_segments":[],"categories_sizes":[],"default_left":[0,0,0,0,0,0,0,0,0,0,0],"id":102,"left_children":[1,3,5,7,9,-1,-1,-1,-1,-1,-1],"loss_changes":[1.7055926E-4,3.5435878E-5,3.059191E-6,2.3917273E-6,5.151593E-6,0E0,0E0,0E0,0E0,0E0,0E0],"parents":[2147483647,0,0,1,1,2,2,3,3,4,4],"right_children":[2,4,6,8,10,-1,-1,-1,-1,-1,-1],"split_conditions":[4.57E2,6.7E1,6.5E1,6.4E1,9.5E1,1.1116266E-4,4.4265093E-4,-5.7779253E-5,-2.533421E-4,-2.0876527E-5,7.180572E-5],"split_indices":[12,0,0,0,8,0,0,0,0,0,0],"split_type":[0,0,0,0,0,0,0,0,0,0,0],"sum_hessian":[1E1,8E0,2E0,2E0,6E0,1E0,1E0,1E0,1E0,5E0,1E0],"tree_param":{"num_deleted":"0","num_feature":"24","num_nodes":"11","size_leaf_vector":"1"}},{"base_weights":[8.9677353E-4,-1.3037986E-3,7.1995654E-3,-3.4776926E-3,3.627638E-4,1.08382104E-4,4.3158533E-4,-6.717344E-5,-2.470091E-4,-6.238818E-6,7.0011614E-5],"categories":[],"categories_nodes":[],"categories_segments":[],"categories_sizes":[],"default_left":[0,0,0,0,0,0,0,0,0,0,0],"id":103,"left_children":[1,3,5,7,9,-1,-1,-1,-1,-1,-1],"loss_changes":[1.6195403E-4,3.3867953E-5,2.908826E-6,5.8481346E-6,3.2095613E-6,0E0,0E0,0E0,0E0,0E0,0E0],"parents":[2147483647,0,0,1,1,2,2,3,3,4,4],"right_children":[2,4,6,8,10,-1,-1,-1,-1,-1,-1],"split_conditions":[4.57E2,6E0,6.5E1,1.1143E2,9.5E1,1.08382104E-4,4.3158533E-4,-6.717344E-5,-2.470091E-4,-6.238818E-6,7.0011614E-5],"split_indices":[12,6,0,3,8,0,0,0,0,0,0],"split_type":[0,0,0,0,0,0,0,0,0,0,0],"sum_hessian":[1E1,8E0,2E0,3E0,5E0,1E0,1E0,2E0,1E0,4E0,1E0],"tree_param":{"num_deleted":"0","num_feature":"24","num_nodes":"11","size_leaf_vector":"1"}},{"base_weights":[8.78269E-4,-1.2664265E-3,7.0195994E-3,-3.939867E-3,6.025178E-5,1.05673076E-4,4.207969E-4,-5.465597E-5,-2.4083407E-4,-2.6922226E-5,5.189975E-5],"categories":[],"categories_nodes":[],"categories_segments":[],"categories_sizes":[],"default_left":[0,0,0,0,0,0,0,0,0,0,0],"id":104,"left_children":[1,3,5,7,9,-1,-1,-1,-1,-1,-1],"loss_changes":[1.5377393E-4,3.2158543E-5,2.7651258E-6,2.2229979E-6,4.656502E-6,0E0,0E0,0E0,0E0,0E0,0E0],"parents":[2147483647,0,0,1,1,2,2,3,3,4,4],"right_children":[2,4,6,8,10,-1,-1,-1,-1,-1,-1],"split_conditions":[4.57E2,6.7E1,6.5E1,6.4E1,8.6E1,1.05673076E-4,4.207969E-4,-5.465597E-5,-2.4083407E-4,-2.6922226E-5,5.189975E-5],"split_indices":[12,0,0,0,0,0,0,0,0,0,0],"split_type":[0,0,0,0,0,0,0,0,0,0,0],"sum_hessian":[1E1,8E0,2E0,2E0,6E0,1E0,1E0,1E0,1E0,4E0,2E0],"tree_param":{"num_deleted":"0","num_feature":"24","num_nodes":"11","size_leaf_vector":"1"}},{"base_weights":[8.576458E-4,-1.2331406E-3,6.8441234E-3,-3.3017397E-3,3.5144886E-4,1.0303259E-4,4.1027667E-4,-6.357431E-5,-2.348125E-4,-5.6993963E-6,6.696582E-5],"categories":[],"categories_nodes":[],"categories_segments":[],"categories_sizes":[],"default_left":[0,0,0,0,0,0,0,0,0,0,0],"id":105,"left_children":[1,3,5,7,9,-1,-1,-1,-1,-1,-1],"loss_changes":[1.4612067E-4,3.0661315E-5,2.6280468E-6,5.3536205E-6,2.911405E-6,0E0,0E0,0E0,0E0,0E0,0E0],"parents":[2147483647,0,0,1,1,2,2,3,3,4,4],"right_children":[2,4,6,8,10,-1,-1,-1,-1,-1,-1],"split_conditions":[4.57E2,6E0,6.5E1,1.1143E2,9.5E1,1.0303259E-4,4.1027667E-4,-6.357431E-5,-2.348125E-4,-5.6993963E-6,6.696582E-5],"split_indices":[12,6,0,3,8,0,0,0,0,0,0],"split_type":[0,0,0,0,0,0,0,0,0,0,0],"sum_hessian":[1E1,8E0,2E0,3E0,5E0,1E0,1E0,2E0,1E0,4E0,1E0],"tree_param":{"num_deleted":"0","num_feature":"24","num_nodes":"11","size_leaf_vector":"1"}},{"base_weights":[8.3988364E-4,-1.1978149E-3,6.673018E-3,-3.7418802E-3,6.361519E-5,1.0045767E-4,4.000187E-4,-5.169958E-5,-2.2894144E-4,-1.8052757E-5,6.529093E-5],"categories":[],"categories_nodes":[],"categories_segments":[],"categories_sizes":[],"default_left":[0,0,0,0,0,0,0,0,0,0,0],"id":106,"left_children":[1,3,5,7,9,-1,-1,-1,-1,-1,-1],"loss_changes":[1.3874091E-4,2.9120489E-5,2.4978362E-6,2.0646185E-6,4.164161E-6,0E0,0E0,0E0,0E0,0E0,0E0],"parents":[2147483647,0,0,1,1,2,2,3,3,4,4],"right_children":[2,4,6,8,10,-1,-1,-1,-1,-1,-1],"split_conditions":[4.57E2,6.7E1,6.5E1,6.4E1,9.5E1,1.0045767E-4,4.000187E-4,-5.169958E-5,-2.2894144E-4,-1.8052757E-5,6.529093E-5],"split_indices":[12,0,0,0,8,0,0,0,0,0,0],"split_type":[0,0,0,0,0,0,0,0,0,0,0],"sum_hessian":[1E1,8E0,2E0,2E0,6E0,1E0,1E0,1E0,1E0,5E0,1E0],"tree_param":{"num_deleted":"0","num_feature":"24","num_nodes":"11","size_leaf_vector":"1"}},{"base_weights":[8.2215393E-4,-1.1638668E-3,6.506165E-3,-3.1365603E-3,3.4524003E-4,9.794533E-5,3.9001703E-4,-6.0292085E-5,-2.2321791E-4,-4.7487024E-6,6.365776E-5],"categories":[],"categories_nodes":[],"categories_segments":[],"categories_sizes":[],"default_left":[0,0,0,0,0,0,0,0,0,0,0],"id":107,"left_children":[1,3,5,7,9,-1,-1,-1,-1,-1,-1],"loss_changes":[1.3174652E-4,2.7875913E-5,2.3747125E-6,4.8711045E-6,2.5718045E-6,0E0,0E0,0E0,0E0,0E0,0E0],"parents":[2147483647,0,0,1,1,2,2,3,3,4,4],"right_children":[2,4,6,8,10,-1,-1,-1,-1,-1,-1],"split_conditions":[4.57E2,6E0,6.5E1,1.1143E2,9.5E1,9.794533E-5,3.9001703E-4,-6.0292085E-5,-2.2321791E-4,-4.7487024E-6,6.365776E-5],"split_indices":[12,6,0,3,8,0,0,0,0,0,0],"split_type":[0,0,0,0,0,0,0,0,0,0,0],"sum_hessian":[1E1,8E0,2E0,3E0,5E0,1E0,1E0,2E0,1E0,4E0,1E0],"tree_param":{"num_deleted":"0","num_feature":"24","num_nodes":"11","size_leaf_vector":"1"}},{"base_weights":[8.0499327E-4,-1.130614E-3,6.343484E-3,-3.5538275E-3,6.942238E-5,9.549558E-5,3.8026573E-4,-4.8899652E-5,-2.1763743E-4,-2.3568273E-5,4.7379734E-5],"categories":[],"categories_nodes":[],"categories_segments":[],"categories_sizes":[],"default_left":[0,0,0,0,0,0,0,0,0,0,0],"id":108,"left_children":[1,3,5,7,9,-1,-1,-1,-1,-1,-1],"loss_changes":[1.250958E-4,2.6418216E-5,2.257766E-6,1.9167055E-6,3.7709974E-6,0E0,0E0,0E0,0E0,0E0,0E0],"parents":[2147483647,0,0,1,1,2,2,3,3,4,4],"right_children":[2,4,6,8,10,-1,-1,-1,-1,-1,-1],"split_conditions":[4.57E2,6.7E1,6.5E1,6.4E1,8.6E1,9.549558E-5,3.8026573E-4,-4.8899652E-5,-2.1763743E-4,-2.3568273E-5,4.7379734E-5],"split_indices":[12,0,0,0,0,0,0,0,0,0,0],"split_type":[0,0,0,0,0,0,0,0,0,0,0],"sum_hessian":[1E1,8E0,2E0,2E0,6E0,1E0,1E0,1E0,1E0,4E0,2E0],"tree_param":{"num_deleted":"0","num_feature":"24","num_nodes":"11","size_leaf_vector":"1"}},{"base_weights":[7.859252E-4,-1.1010567E-3,6.184896E-3,-2.9780865E-3,3.338059E-4,9.3108414E-5,3.707588E-4,-5.7074427E-5,-2.12197E-4,-4.324913E-6,6.0883165E-5],"categories":[],"categories_nodes":[],"categories_segments":[],"categories_sizes":[],"default_left":[0,0,0,0,0,0,0,0,0,0,0],"id":109,"left_children":[1,3,5,7,9,-1,-1,-1,-1,-1,-1],"loss_changes":[1.1887528E-4,2.5233623E-5,2.146182E-6,4.455047E-6,2.3342593E-6,0E0,0E0,0E0,0E0,0E0,0E0],"parents":[2147483647,0,0,1,1,2,2,3,3,4,4],"right_children":[2,4,6,8,10,-1,-1,-1,-1,-1,-1],"split_conditions":[4.57E2,6E0,6.5E1,1.1143E2,9.5E1,9.3108414E-5,3.707588E-4,-5.7074427E-5,-2.12197E-4,-4.324913E-6,6.0883165E-5],"split_indices":[12,6,0,3,8,0,0,0,0,0,0],"split_type":[0,0,0,0,0,0,0,0,0,0,0],"sum_hessian":[1E1,8E0,2E0,3E0,5E0,1E0,1E0,2E0,1E0,4E0,1E0],"tree_param":{"num_deleted":"0","num_feature":"24","num_nodes":"11","size_leaf_vector":"1"}},{"base_weights":[7.694689E-4,-1.0696319E-3,6.0302815E-3,-3.3752322E-3,