{"learner":{"attributes":{"scikit_learn":"{\"_estimator_type\": \"regressor\"}"},"feature_names":[],"feature_types":[],"gradient_booster":{"model":{"gbtree_model_param":{"num_parallel_tree":"1","num_trees":"200"},"iteration_indptr":[0,1,2,3,4,5,6,7,8,9,10,11,12,13,14,15,16,17,18,19,20,21,22,23,24,25,26,27,28,29,30,31,32,33,34,35,36,37,38,39,40,41,42,43,44,45,46,47,48,49,50,51,52,53,54,55,56,57,58,59,60,61,62,63,64,65,66,67,68,69,70,71,72,73,74,75,76,77,78,79,80,81,82,83,84,85,86,87,88,89,90,91,92,93,94,95,96,97,98,99,100,101,102,103,104,105,106,107,108,109,110,111,112,113,114,115,116,117,118,119,120,121,122,123,124,125,126,127,128,129,130,131,132,133,134,135,136,137,138,139,140,141,142,143,144,145,146,147,148,149,150,151,152,153,154,155,156,157,158,159,160,161,162,163,164,165,166,167,168,169,170,171,172,173,174,175,176,177,178,179,180,181,182,183,184,185,186,187,188,189,190,191,192,193,194,195,196,197,198,199,200],"tree_info":[0,0,0,0,0,0,0,0,0,0,0,0,0,0,0,0,0,0,0,0,0,0,0,0,0,0,0,0,0,0,0,0,0,0,0,0,0,0,0,0,0,0,0,0,0,0,0,0,0,0,0,0,0,0,0,0,0,0,0,0,0,0,0,0,0,0,0,0,0,0,0,0,0,0,0,0,0,0,0,0,0,0,0,0,0,0,0,0,0,0,0,0,0,0,0,0,0,0,0,0,0,0,0,0,0,0,0,0,0,0,0,0,0,0,0,0,0,0,0,0,0,0,0,0,0,0,0,0,0,0,0,0,0,0,0,0,0,0,0,0,0,0,0,0,0,0,0,0,0,0,0,0,0,0,0,0,0,0,0,0,0,0,0,0,0,0,0,0,0,0,0,0,0,0,0,0,0,0,0,0,0,0,0,0,0,0,0,0,0,0,0,0,0,0,0,0,0,0,0,0],"trees":[{"base_weights":[-1.636206E-8,1.10293314E-1,-4.471353E-2,6.327271E-2,9.584E-3,3.9840005E-3,-6.2206082E-2,9.866655E-4,3.5377766E-3,-4.590347E-2,-7.2160005E-3,-4.24E-3,-1.3523822E-3],"categories":[],"categories_nodes":[],"categories_segments":[],"categories_sizes":[],"default_left":[0,0,0,0,0,0,0,0,0,0,0,0,0],"id":0,"left_children":[1,3,5,7,-1,-1,9,-1,-1,11,-1,-1,-1],"loss_changes":[2.5644332E-1,4.5274675E-2,8.546713E-2,2.1875352E-3,0E0,0E0,3.7551373E-2,0E0,0E0,1.8975712E-2,0E0,0E0,0E0],"parents":[2147483647,0,0,1,1,2,2,3,3,6,6,9,9],"right_children":[2,4,6,8,-1,-1,10,-1,-1,12,-1,-1,-1],"split_conditions":[2E0,1E0,8.449E1,9.009E1,9.584E-3,3.9840005E-3,1.16E0,9.866655E-4,3.5377766E-3,4E0,-7.2160005E-3,-4.24E-3,-1.3523822E-3],"split_indices":[5,4,3,3,0,0,22,0,0,6,0,0,0],"split_type":[0,0,0,0,0,0,0,0,0,0,0,0,0],"sum_hessian":[5E1,1.4E1,3.6E1,1E1,4E0,4E0,3.2E1,2E0,8E0,2.8E1,4E0,8E0,2E1],"tree_param":{"num_deleted":"0","num_feature":"24","num_nodes":"13","size_leaf_vector":"1"}},{"base_weights":[1.0358586E-4,1.05719216E-1,-4.271636E-2,6.052039E-2,9.20064E-3,3.8246417E-3,-5.9483927E-2,9.5377764E-4,3.3805424E-3,-4.380115E-2,-6.9273612E-3,-4.051557E-3,-1.2879837E-3],"categories":[],"categories_nodes":[],"categories_segments":[],"categories_sizes":[],"default_left":[0,0,0,0,0,0,0,0,0,0,0,0,0],"id":1,"left_children":[1,3,5,7,-1,-1,9,-1,-1,11,-1,-1,-1],"loss_changes":[2.3516117E-1,4.194516E-2,7.850746E-2,1.9427761E-3,0E0,0E0,3.484922E-2,0E0,0E0,1.7391507E-2,0E0,0E0,0E0],"parents":[2147483647,0,0,1,1,2,2,3,3,6,6,9,9],"right_children":[2,4,6,8,-1,-1,10,-1,-1,12,-1,-1,-1],"split_conditions":[2E0,1E0,8.449E1,9.009E1,9.20064E-3,3.8246417E-3,1.16E0,9.5377764E-4,3.3805424E-3,4E0,-6.9273612E-3,-4.051557E-3,-1.2879837E-3],"split_indices":[5,4,3,3,0,0,22,0,0,6,0,0,0],"split_type":[0,0,0,0,0,0,0,0,0,0,0,0,0],"sum_hessian":[5E1,1.4E1,3.6E1,1E1,4E0,4E0,3.2E1,2E0,8E0,2.8E1,4E0,8E0,2E1],"tree_param":{"num_deleted":"0","num_feature":"24","num_nodes":"13","size_leaf_vector":"1"}},{"base_weights":[1.9827076E-4,1.0133559E-1,-4.0808704E-2,5.78884E-2,8.832614E-3,3.671656E-3,-5.6881443E-2,9.219845E-4,3.230296E-3,-4.1795205E-2,-6.6502667E-3,-3.8714872E-3,-1.2266506E-3],"categories":[],"categories_nodes":[],"categories_segments":[],"categories_sizes":[],"default_left":[0,0,0,0,0,0,0,0,0,0,0,0,0],"id":2,"left_children":[1,3,5,7,-1,-1,9,-1,-1,11,-1,-1,-1],"loss_changes":[2.1564946E-1,3.885837E-2,7.21156E-2,1.7236657E-3,0E0,0E0,3.2338984E-2,0E0,0E0,1.5939195E-2,0E0,0E0,0E0],"parents":[2147483647,0,0,1,1,2,2,3,3,6,6,9,9],"right_children":[2,4,6,8,-1,-1,10,-1,-1,12,-1,-1,-1],"split_conditions":[2E0,1E0,8.449E1,9.009E1,8.832614E-3,3.671656E-3,1.16E0,9.219845E-4,3.230296E-3,4E0,-6.6502667E-3,-3.8714872E-3,-1.2266506E-3],"split_indices":[5,4,3,3,0,0,22,0,0,6,0,0,0],"split_type":[0,0,0,0,0,0,0,0,0,0,0,0,0],"sum_hessian":[5E1,1.4E1,3.6E1,1E1,4E0,4E0,3.2E1,2E0,8E0,2.8E1,4E0,8E0,2E1],"tree_param":{"num_deleted":"0","num_feature":"24","num_nodes":"13","size_leaf_vector":"1"}},{"base_weights":[2.8460633E-4,9.713448E-2,-3.898655E-2,5.537148E-2,8.479309E-3,3.52479E-3,-5.439337E-2,8.9125236E-4,3.0867287E-3,-3.988123E-2,-6.384256E-3,-3.6994205E-3,-1.168238E-3],"categories":[],"categories_nodes":[],"categories_segments":[],"categories_sizes":[],"default_left":[0,0,0,0,0,0,0,0,0,0,0,0,0],"id":3,"left_children":[1,3,5,7,-1,-1,9,-1,-1,11,-1,-1,-1],"loss_changes":[1.9776066E-1,3.5996765E-2,6.624519E-2,1.5276E-3,0E0,0E0,3.000722E-2,0E0,0E0,1.4607854E-2,0E0,0E0,0E0],"parents":[2147483647,0,0,1,1,2,2,3,3,6,6,9,9],"right_children":[2,4,6,8,-1,-1,10,-1,-1,12,-1,-1,-1],"split_conditions":[2E0,1E0,8.449E1,9.009E1,8.479309E-3,3.52479E-3,1.16E0,8.9125236E-4,3.0867287E-3,4E0,-6.384256E-3,-3.6994205E-3,-1.168238E-3],"split_indices":[5,4,3,3,0,0,22,0,0,6,0,0,0],"split_type":[0,0,0,0,0,0,0,0,0,0,0,0,0],"sum_hessian":[5E1,1.4E1,3.6E1,1E1,4E0,4E0,3.2E1,2E0,8E0,2.8E1,4E0,8E0,2E1],"tree_param":{"num_deleted":"0","num_feature":"24","num_nodes":"13","size_leaf_vector":"1"}},{"base_weights":[3.631232E-4,9.3108214E-2,-3.7246052E-2,5.2964523E-2,8.140135E-3,3.3837985E-3,-5.201466E-2,8.615434E-4,2.9495398E-3,-3.805501E-2,-6.128886E-3,-3.5350018E-3,-1.112607E-3],"categories":[],"categories_nodes":[],"categories_segments":[],"categories_sizes":[],"default_left":[0,0,0,0,0,0,0,0,0,0,0,0,0],"id":4,"left_children":[1,3,5,7,-1,-1,9,-1,-1,11,-1,-1,-1],"loss_changes":[1.813593E-1,3.3344135E-2,6.085358E-2,1.352286E-3,0E0,0E0,2.7841486E-2,0E0,0E0,1.3387445E-2,0E0,0E0,0E0],"parents":[2147483647,0,0,1,1,2,2,3,3,6,6,9,9],"right_children":[2,4,6,8,-1,-1,10,-1,-1,12,-1,-1,-1],"split_conditions":[2E0,1E0,8.449E1,9.009E1,8.140135E-3,3.3837985E-3,1.16E0,8.615434E-4,2.9495398E-3,4E0,-6.128886E-3,-3.5350018E-3,-1.112607E-3],"split_indices":[5,4,3,3,0,0,22,0,0,6,0,0,0],"split_type":[0,0,0,0,0,0,0,0,0,0,0,0,0],"sum_hessian":[5E1,1.4E1,3.6E1,1E1,4E0,4E0,3.2E1,2E0,8E0,2.8E1,4E0,8E0,2E1],"tree_param":{"num_deleted":"0","num_feature":"24","num_nodes":"13","size_leaf_vector":"1"}},{"base_weights":[4.343402E-4,8.924957E-2,-3.5583574E-2,5.0662767E-2,7.814531E-3,3.2484462E-3,-4.974051E-2,8.328259E-4,2.8184494E-3,-3.6312547E-2,-5.8837296E-3,-3.377892E-3,-1.059627E-3],"categories":[],"categories_nodes":[],"categories_segments":[],"categories_sizes":[],"default_left":[0,0,0,0,0,0,0,0,0,0,0,0,0],"id":5,"left_children":[1,3,5,7,-1,-1,9,-1,-1,11,-1,-1,-1],"loss_changes":[1.6632171E-1,3.0885391E-2,5.590165E-2,1.1956077E-3,0E0,0E0,2.5830083E-2,0E0,0E0,1.2268726E-2,0E0,0E0,0E0],"parents":[2147483647,0,0,1,1,2,2,3,3,6,6,9,9],"right_children":[2,4,6,8,-1,-1,10,-1,-1,12,-1,-1,-1],"split_conditions":[2E0,1E0,8.449E1,9.009E1,7.814531E-3,3.2484462E-3,1.16E0,8.328259E-4,2.8184494E-3,4E0,-5.8837296E-3,-3.377892E-3,-1.059627E-3],"split_indices":[5,4,3,3,0,0,22,0,0,6,0,0,0],"split_type":[0,0,0,0,0,0,0,0,0,0,0,0,0],"sum_hessian":[5E1,1.4E1,3.6E1,1E1,4E0,4E0,3.2E1,2E0,8E0,2.8E1,4E0,8E0,2E1],"tree_param":{"num_deleted":"0","num_feature":"24","num_nodes":"13","size_leaf_vector":"1"}},{"base_weights":[4.987763E-4,8.555147E-2,-3.3995524E-2,4.8461545E-2,7.50195E-3,3.1185101E-3,-4.7566228E-2,1.5049304E-3,3.2238674E-3,-3.4649916E-2,-5.6483797E-3,-3.2277626E-3,-1.0091674E-3],"categories":[],"categories_nodes":[],"categories_segments":[],"categories_sizes":[],"default_left":[0,0,0,0,0,0,0,0,0,0,0,0,0],"id":6,"left_children":[1,3,5,7,-1,-1,9,-1,-1,11,-1,-1,-1],"loss_changes":[1.5253386E-1,2.8606452E-2,5.1353488E-2,1.2943875E-3,0E0,0E0,2.3962244E-2,0E0,0E0,1.1243254E-2,0E0,0E0,0E0],"parents":[2147483647,0,0,1,1,2,2,3,3,6,6,9,9],"right_children":[2,4,6,8,-1,-1,10,-1,-1,12,-1,-1,-1],"split_conditions":[2E0,1E0,8.449E1,1.0087E2,7.50195E-3,3.1185101E-3,1.16E0,1.5049304E-3,3.2238674E-3,4E0,-5.6483797E-3,-3.2277626E-3,-1.0091674E-3],"split_indices":[5,4,3,3,0,0,22,0,0,6,0,0,0],"split_type":[0,0,0,0,0,0,0,0,0,0,0,0,0],"sum_hessian":[5E1,1.4E1,3.6E1,1E1,4E0,4E0,3.2E1,6E0,4E0,2.8E1,4E0,8E0,2E1],"tree_param":{"num_deleted":"0","num_feature":"24","num_nodes":"13","size_leaf_vector":"1"}},{"base_weights":[5.809723E-4,8.2089275E-2,-3.2478634E-2,4.6468355E-2,7.2018723E-3,2.9937697E-3,-4.5487467E-2,1.440434E-3,3.0949116E-3,-3.306352E-2,-5.4224445E-3,-3.7758758E-3,-1.162509E-3],"categories":[],"categories_nodes":[],"categories_segments":[],"categories_sizes":[],"default_left":[0,0,0,0,0,0,0,0,0,0,0,0,0],"id":7,"left_children":[1,3,5,7,-1,-1,9,-1,-1,11,-1,-1,-1],"loss_changes":[1.400924E-1,2.6406571E-2,4.7176052E-2,1.2141448E-3,0E0,0E0,2.2227868E-2,0E0,0E0,1.032605E-2,0E0,0E0,0E0],"parents":[2147483647,0,0,1,1,2,2,3,3,6,6,9,9],"right_children":[2,4,6,8,-1,-1,10,-1,-1,12,-1,-1,-1],"split_conditions":[2E0,1E0,8.449E1,1.0087E2,7.2018723E-3,2.9937697E-3,1.16E0,1.440434E-3,3.0949116E-3,9.4E-1,-5.4224445E-3,-3.7758758E-3,-1.162509E-3],"split_indices":[5,4,3,3,0,0,22,0,0,20,0,0,0],"split_type":[0,0,0,0,0,0,0,0,0,0,0,0,0],"sum_hessian":[5E1,1.4E1,3.6E1,1E1,4E0,4E0,3.2E1,6E0,4E0,2.8E1,4E0,4E0,2.4E1],"tree_param":{"num_deleted":"0","num_feature":"24","num_nodes":"13","size_leaf_vector":"1"}},{"base_weights":[6.3762243E-4,7.876729E-2,-3.10538E-2,4.455726E-2,6.9137956E-3,-4.938997E-2,3.1479836E-2,1.3787023E-3,2.9711153E-3,-3.6470186E-2,-5.2055456E-3,2.8740168E-3,-4.0831565E-5,-3.6248397E-3,-1.3077873E-3],"categories":[],"categories_nodes":[],"categories_segments":[],"categories_sizes":[],"default_left":[0,0,0,0,0,0,0,0,0,0,0,0,0,0,0],"id":8,"left_children":[1,3,5,7,-1,9,11,-1,-1,13,-1,-1,-1,-1,-1],"loss_changes":[1.2872408E-1,2.4375685E-2,4.398001E-2,1.1385046E-3,0E0,1.670555E-2,7.6044593E-3,0E0,0E0,7.3936507E-3,0E0,0E0,0E0,0E0,0E0],"parents":[2147483647,0,0,1,1,2,2,3,3,5,5,6,6,9,9],"right_children":[2,4,6,8,-1,10,12,-1,-1,14,-1,-1,-1,-1,-1],"split_conditions":[2E0,1E0,1.07E0,1.0087E2,6.9137956E-3,1.04E0,8.449E1,1.3787023E-3,2.9711153E-3,9.4E-1,-5.2055456E-3,2.8740168E-3,-4.0831565E-5,-3.6248397E-3,-1.3077873E-3],"split_indices":[5,4,23,3,0,22,3,0,0,20,0,0,0,0,0],"split_type":[0,0,0,0,0,0,0,0,0,0,0,0,0,0,0],"sum_hessian":[5E1,1.4E1,3.6E1,1E1,4E0,2.8E1,8E0,6E0,4E0,2.4E1,4E0,4E0,4E0,4E0,2E1],"tree_param":{"num_deleted":"0","num_feature":"24","num_nodes":"15","size_leaf_vector":"1"}},{"base_weights":[6.8336376E-4,7.557984E-2,-2.969854E-2,4.2724825E-2,6.637244E-3,-4.727006E-2,3.022064E-2,1.3196162E-3,2.8522683E-3,-3.4843978E-2,-4.997323E-3,2.7590562E-3,-3.91984E-5,-3.4798456E-3,-1.2455117E-3],"categories":[],"categories_nodes":[],"categories_segments":[],"categories_sizes":[],"default_left":[0,0,0,0,0,0,0,0,0,0,0,0,0,0,0],"id":9,"left_children":[1,3,5,7,-1,9,11,-1,-1,13,-1,-1,-1,-1,-1],"loss_changes":[1.1829498E-1,2.2500865E-2,4.038476E-2,1.0672342E-3,0E0,1.5499741E-2,7.0082713E-3,0E0,0E0,6.896995E-3,0E0,0E0,0E0,0E0,0E0],"parents":[2147483647,0,0,1,1,2,2,3,3,5,5,6,6,9,9],"right_children":[2,4,6,8,-1,10,12,-1,-1,14,-1,-1,-1,-1,-1],"split_conditions":[2E0,1E0,1.07E0,1.0087E2,6.637244E-3,1.04E0,8.449E1,1.3196162E-3,2.8522683E-3,9.4E-1,-4.997323E-3,2.7590562E-3,-3.91984E-5,-3.4798456E-3,-1.2455117E-3],"split_indices":[5,4,23,3,0,22,3,0,0,20,0,0,0,0,0],"split_type":[0,0,0,0,0,0,0,0,0,0,0,0,0,0,0],"sum_hessian":[5E1,1.4E1,3.6E1,1E1,4E0,2.8E1,8E0,6E0,4E0,2.4E1,4E0,4E0,4E0,4E0,2E1],"tree_param":{"num_deleted":"0","num_feature":"24","num_nodes":"15","size_leaf_vector":"1"}},{"base_weights":[7.238178E-4,7.252144E-2,-2.840289E-2,4.0967822E-2,6.371756E-3,-4.5241833E-2,2.9011806E-2,6.1694183E-4,2.2979418E-3,-3.3290807E-2,-4.7974302E-3,2.6486923E-3,-3.7629605E-5,-3.340652E-3,-1.1862023E-3],"categories":[],"categories_nodes":[],"categories_segments":[],"categories_sizes":[],"default_left":[0,0,0,0,0,0,0,0,0,0,0,0,0,0,0],"id":10,"left_children":[1,3,5,7,-1,9,11,-1,-1,13,-1,-1,-1,-1,-1],"loss_changes":[1.08712465E-1,2.0770133E-2,3.708425E-2,1.0046866E-3,0E0,1.4379736E-2,6.458808E-3,0E0,0E0,6.432401E-3,0E0,0E0,0E0,0E0,0E0],"parents":[2147483647,0,0,1,1,2,2,3,3,5,5,6,6,9,9],"right_children":[2,4,6,8,-1,10,12,-1,-1,14,-1,-1,-1,-1,-1],"split_conditions":[2E0,1E0,1.07E0,9.009E1,6.371756E-3,1.04E0,8.449E1,6.1694183E-4,2.2979418E-3,9.4E-1,-4.7974302E-3,2.6486923E-3,-3.7629605E-5,-3.340652E-3,-1.1862023E-3],"split_indices":[5,4,23,3,0,22,3,0,0,20,0,0,0,0,0],"split_type":[0,0,0,0,0,0,0,0,0,0,0,0,0,0,0],"sum_hessian":[5E1,1.4E1,3.6E1,1E1,4E0,2.8E1,8E0,2E0,8E0,2.4E1,4E0,4E0,4E0,4E0,2E1],"tree_param":{"num_deleted":"0","num_feature":"24","num_nodes":"15","size_leaf_vector":"1"}},{"base_weights":[7.380738E-4,6.9514446E-2,-2.716419E-2,3.9184377E-2,6.116886E-3,-4.330127E-2,2.7851317E-2,1.1885898E-3,2.6462555E-3,-3.1807348E-2,-4.6055317E-3,2.5427437E-3,-3.6125184E-5,-2.6593448E-3,-9.308871E-4],"categories":[],"categories_nodes":[],"categories_segments":[],"categories_sizes":[],"default_left":[0,0,0,0,0,0,0,0,0,0,0,0,0,0,0],"id":11,"left_children":[1,3,5,7,-1,9,11,-1,-1,13,-1,-1,-1,-1,-1],"loss_changes":[9.975814E-2,1.9238278E-2,3.4054216E-2,1.0714568E-3,0E0,1.3339527E-2,5.9524383E-3,0E0,0E0,6.0594715E-3,0E0,0E0,0E0,0E0,0E0],"parents":[2147483647,0,0,1,1,2,2,3,3,5,5,6,6,9,9],"right_children":[2,4,6,8,-1,10,12,-1,-1,14,-1,-1,-1,-1,-1],"split_conditions":[2E0,1E0,1.07E0,1.0087E2,6.116886E-3,1.04E0,8.449E1,1.1885898E-3,2.6462555E-3,4E0,-4.6055317E-3,2.5427437E-3,-3.6125184E-5,-2.6593448E-3,-9.308871E-4],"split_indices":[5,4,23,3,0,22,3,0,0,6,0,0,0,0,0],"split_type":[0,0,0,0,0,0,0,0,0,0,0,0,0,0,0],"sum_hessian":[5E1,1.4E1,3.6E1,1E1,4E0,2.8E1,8E0,6E0,4E0,2.4E1,4E0,4E0,4E0,8E0,1.6E1],"tree_param":{"num_deleted":"0","num_feature":"24","num_nodes":"15","size_leaf_vector":"1"}},{"base_weights":[7.8475475E-4,6.670218E-2,-2.5959736E-2,3.757378E-2,5.872212E-3,-4.1418817E-2,2.6737265E-2,1.1376492E-3,2.5404072E-3,-3.0360585E-2,-4.4213105E-3,2.4410344E-3,-3.4680368E-5,-3.1006527E-3,-1.068927E-3],"categories":[],"categories_nodes":[],"categories_segments":[],"categories_sizes":[],"default_left":[0,0,0,0,0,0,0,0,0,0,0,0,0,0,0],"id":12,"left_children":[1,3,5,7,-1,9,11,-1,-1,13,-1,-1,-1,-1,-1],"loss_changes":[9.164091E-2,1.7757691E-2,3.1249367E-2,1.0015434E-3,0E0,1.2390073E-2,5.48577E-3,0E0,0E0,5.78185E-3,0E0,0E0,0E0,0E0,0E0],"parents":[2147483647,0,0,1,1,2,2,3,3,5,5,6,6,9,9],"right_children":[2,4,6,8,-1,10,12,-1,-1,14,-1,-1,-1,-1,-1],"split_conditions":[2E0,1E0,1.07E0,1.0087E2,5.872212E-3,1.04E0,8.449E1,1.1376492E-3,2.5404072E-3,9.4E-1,-4.4213105E-3,2.4410344E-3,-3.4680368E-5,-3.1006527E-3,-1.068927E-3],"split_indices":[5,4,23,3,0,22,3,0,0,20,0,0,0,0,0],"split_type":[0,0,0,0,0,0,0,0,0,0,0,0,0,0,0],"sum_hessian":[5E1,1.4E1,3.6E1,1E1,4E0,2.8E1,8E0,6E0,4E0,2.4E1,4E0,4E0,4E0,4E0,2E1],"tree_param":{"num_deleted":"0","num_feature":"24","num_nodes":"15","size_leaf_vector":"1"}},{"base_weights":[8.1152073E-4,6.400377E-2,-2.4828892E-2,3.602949E-2,5.6373216E-3,-3.96441E-2,2.5667774E-2,1.0888934E-3,2.4387932E-3,-2.9009324E-2,-4.244459E-3,2.3433925E-3,-3.329277E-5,-2.9766273E-3,-1.0180246E-3],"categories":[],"categories_nodes":[],"categories_segments":[],"categories_sizes":[],"default_left":[0,0,0,0,0,0,0,0,0,0,0,0,0,0,0],"id":13,"left_children":[1,3,5,7,-1,9,11,-1,-1,13,-1,-1,-1,-1,-1],"loss_changes":[8.422319E-2,1.6390912E-2,2.869797E-2,9.3598664E-4,0E0,1.1491388E-2,5.0556804E-3,0E0,0E0,5.3876434E-3,0E0,0E0,0E0,0E0,0E0],"parents":[2147483647,0,0,1,1,2,2,3,3,5,5,6,6,9,9],"right_children":[2,4,6,8,-1,10,12,-1,-1,14,-1,-1,-1,-1,-1],"split_conditions":[2E0,1E0,1.07E0,1.0087E2,5.6373216E-3,1.04E0,8.449E1,1.0888934E-3,2.4387932E-3,9.4E-1,-4.244459E-3,2.3433925E-3,-3.329277E-5,-2.9766273E-3,-1.0180246E-3],"split_indices":[5,4,23,3,0,22,3,0,0,20,0,0,0,0,0],"split_type":[0,0,0,0,0,0,0,0,0,0,0,0,0,0,0],"sum_hessian":[5E1,1.4E1,3.6E1,1E1,4E0,2.8E1,8E0,6E0,4E0,2.4E1,4E0,4E0,4E0,4E0,2E1],"tree_param":{"num_deleted":"0","num_feature":"24","num_nodes":"15","size_leaf_vector":"1"}},{"base_weights":[8.3441124E-4,6.14146E-2,-2.3747677E-2,3.4548726E-2,5.41183E-3,-3.7945986E-2,2.4641063E-2,1.0422273E-3,2.3412418E-3,-2.771862E-2,-4.074681E-3,2.2496558E-3,-3.196001E-5,-2.3597241E-3,-7.8886823E-4],"categories":[],"categories_nodes":[],"categories_segments":[],"categories_sizes":[],"default_left":[0,0,0,0,0,0,0,0,0,0,0,0,0,0,0],"id":14,"left_children":[1,3,5,7,-1,9,11,-1,-1,13,-1,-1,-1,-1,-1],"loss_changes":[7.740702E-2,1.5129268E-2,2.6355447E-2,8.745324E-4,0E0,1.0657061E-2,4.6593077E-3,0E0,0E0,5.069552E-3,0E0,0E0,0E0,0E0,0E0],"parents":[2147483647,0,0,1,1,2,2,3,3,5,5,6,6,9,9],"right_children":[2,4,6,8,-1,10,12,-1,-1,14,-1,-1,-1,-1,-1],"split_conditions":[2E0,1E0,1.07E0,1.0087E2,5.41183E-3,1.04E0,8.449E1,1.0422273E-3,2.3412418E-3,4E0,-4.074681E-3,2.2496558E-3,-3.196001E-5,-2.3597241E-3,-7.8886823E-4],"split_indices":[5,4,23,3,0,22,3,0,0,6,0,0,0,0,0],"split_type":[0,0,0,0,0,0,0,0,0,0,0,0,0,0,0],"sum_hessian":[5E1,1.4E1,3.6E1,1E1,4E0,2.8E1,8E0,6E0,4E0,2.4E1,4E0,4E0,4E0,8E0,1.6E1],"tree_param":{"num_deleted":"0","num_feature":"24","num_nodes":"15","size_leaf_vector":"1"}},{"base_weights":[8.669998E-4,5.89302E-2,-2.2695567E-2,3.3128858E-2,5.1953555E-3,-3.6297757E-2,2.365544E-2,4.4779578E-4,1.8752761E-3,-2.6458627E-2,-3.911693E-3,2.1596719E-3,-3.0682088E-5,-2.7631712E-3,-9.1702025E-4],"categories":[],"categories_nodes":[],"categories_segments":[],"categories_sizes":[],"default_left":[0,0,0,0,0,0,0,0,0,0,0,0,0,0,0],"id":15,"left_children":[1,3,5,7,-1,9,11,-1,-1,13,-1,-1,-1,-1,-1],"loss_changes":[7.111148E-2,1.3964646E-2,2.4186224E-2,8.2786847E-4,0E0,9.895869E-3,4.2940285E-3,0E0,0E0,4.8325397E-3,0E0,0E0,0E0,0E0,0E0],"parents":[2147483647,0,0,1,1,2,2,3,3,5,5,6,6,9,9],"right_children":[2,4,6,8,-1,10,12,-1,-1,14,-1,-1,-1,-1,-1],"split_conditions":[2E0,1E0,1.07E0,9.009E1,5.1953555E-3,1.04E0,8.449E1,4.4779578E-4,1.8752761E-3,9.4E-1,-3.911693E-3,2.1596719E-3,-3.0682088E-5,-2.7631712E-3,-9.1702025E-4],"split_indices":[5,4,23,3,0,22,3,0,0,20,0,0,0,0,0],"split_type":[0,0,0,0,0,0,0,0,0,0,0,0,0,0,0],"sum_hessian":[5E1,1.4E1,3.6E1,1E1,4E0,2.8E1,8E0,2E0,8E0,2.4E1,4E0,4E0,4E0,4E0,2E1],"tree_param":{"num_deleted":"0","num_feature":"24","num_nodes":"15","size_leaf_vector":"1"}},{"base_weights":[8.6394476E-4,5.6484904E-2,-2.1708444E-2,3.1683598E-2,4.98754E-3,-3.4744665E-2,2.2709211E-2,9.3758275E-4,2.1725798E-3,-2.5282908E-2,-3.755226E-3,2.073283E-3,-2.9454231E-5,-2.652645E-3,-8.733528E-4],"categories":[],"categories_nodes":[],"categories_segments":[],"categories_sizes":[],"default_left":[0,0,0,0,0,0,0,0,0,0,0,0,0,0,0],"id":16,"left_children":[1,3,5,7,-1,9,11,-1,-1,13,-1,-1,-1,-1,-1],"loss_changes":[6.5256596E-2,1.2935296E-2,2.2213442E-2,8.5922517E-4,0E0,9.17552E-3,3.9573675E-3,0E0,0E0,4.4994764E-3,0E0,0E0,0E0,0E0,0E0],"parents":[2147483647,0,0,1,1,2,2,3,3,5,5,6,6,9,9],"right_children":[2,4,6,8,-1,10,12,-1,-1,14,-1,-1,-1,-1,-1],"split_conditions":[2E0,1E0,1.07E0,1.0087E2,4.98754E-3,1.04E0,8.449E1,9.3758275E-4,2.1725798E-3,9.4E-1,-3.755226E-3,2.073283E-3,-2.9454231E-5,-2.652645E-3,-8.733528E-4],"split_indices":[5,4,23,3,0,22,3,0,0,20,0,0,0,0,0],"split_type":[0,0,0,0,0,0,0,0,0,0,0,0,0,0,0],"sum_hessian":[5E1,1.4E1,3.6E1,1E1,4E0,2.8E1,8E0,6E0,4E0,2.4E1,4E0,4E0,4E0,4E0,2E1],"tree_param":{"num_deleted":"0","num_feature":"24","num_nodes":"15","size_leaf_vector":"1"}},{"base_weights":[8.768147E-4,5.420049E-2,-2.076459E-2,3.0382156E-2,4.7880365E-3,-3.3258528E-2,2.1800837E-2,8.974007E-4,2.0856762E-3,-2.4159823E-2,-3.605018E-3,1.9903516E-3,-2.8276443E-5,-2.09471E-3,-6.674935E-4],"categories":[],"categories_nodes":[],"categories_segments":[],"categories_sizes":[],"default_left":[0,0,0,0,0,0,0,0,0,0,0,0,0,0,0],"id":17,"left_children":[1,3,5,7,-1,9,11,-1,-1,13,-1,-1,-1,-1,-1],"loss_changes":[5.9979413E-2,1.1939015E-2,2.0402027E-2,8.0117956E-4,0E0,8.506965E-3,3.6471104E-3,0E0,0E0,4.2334106E-3,0E0,0E0,0E0,0E0,0E0],"parents":[2147483647,0,0,1,1,2,2,3,3,5,5,6,6,9,9],"right_children":[2,4,6,8,-1,10,12,-1,-1,14,-1,-1,-1,-1,-1],"split_conditions":[2E0,1E0,1.07E0,1.0087E2,4.7880365E-3,1.04E0,8.449E1,8.974007E-4,2.0856762E-3,4E0,-3.605018E-3,1.9903516E-3,-2.8276443E-5,-2.09471E-3,-6.674935E-4],"split_indices":[5,4,23,3,0,22,3,0,0,6,0,0,0,0,0],"split_type":[0,0,0,0,0,0,0,0,0,0,0,0,0,0,0],"sum_hessian":[5E1,1.4E1,3.6E1,1E1,4E0,2.8E1,8E0,6E0,4E0,2.4E1,4E0,4E0,4E0,8E0,1.6E1],"tree_param":{"num_deleted":"0","num_feature":"24","num_nodes":"15","size_leaf_vector":"1"}},{"base_weights":[8.989736E-4,5.2008532E-2,-1.9845415E-2,2.913423E-2,4.5965146E-3,-3.181516E-2,2.0928808E-2,1.7178807E-2,2.0022488E-3,-2.3062315E-2,-3.4608175E-3,1.910739E-3,-2.714634E-5,3.717025E-4,9.794951E-4,-2.462752E-3,-7.8638736E-4],"categories":[],"categories_nodes":[],"categories_segments":[],"categories_sizes":[],"default_left":[0,0,0,0,0,0,0,0,0,0,0,0,0,0,0,0,0],"id":18,"left_children":[1,3,5,7,-1,9,11,13,-1,15,-1,-1,-1,-1,-1,-1,-1],"loss_changes":[5.5104196E-2,1.1019416E-2,1.8723961E-2,7.469421E-4,0E0,7.897347E-3,3.3611865E-3,1.8836232E-5,0E0,4.028136E-3,0E0,0E0,0E0,0E0,0E0,0E0,0E0],"parents":[2147483647,0,0,1,1,2,2,3,3,5,5,6,6,7,7,9,9],"right_children":[2,4,6,8,-1,10,12,14,-1,16,-1,-1,-1,-1,-1,-1,-1],"split_conditions":[2E0,1E0,1.07E0,1.0087E2,4.5965146E-3,1.04E0,8.449E1,3.01E2,2.0022488E-3,9.4E-1,-3.4608175E-3,1.910739E-3,-2.714634E-5,3.717025E-4,9.794951E-4,-2.462752E-3,-7.8638736E-4],"split_indices":[5,4,23,3,0,22,3,2,0,20,0,0,0,0,0,0,0],"split_type":[0,0,0,0,0,0,0,0,0,0,0,0,0,0,0,0,0],"sum_hessian":[5E1,1.4E1,3.6E1,1E1,4E0,2.8E1,8E0,6E0,4E0,2.4E1,4E0,4E0,4E0,2E0,4E0,4E0,2E1],"tree_param":{"num_deleted":"0","num_feature":"24","num_nodes":"17","size_leaf_vector":"1"}},{"base_weights":[9.152655E-4,4.9938105E-2,-1.8983597E-2,2.7982365E-2,4.412656E-3,-3.689116E-2,6.8257786E-3,1.651287E-2,1.9221593E-3,-3.1592369E-3,-1.7353062E-2,1.8343115E-3,-6.184891E-3,3.5931272E-4,9.403134E-4,-1.0655059E-3,-4.262651E-4,-2.6061534E-5,-4.4757835E-4],"categories":[],"categories_nodes":[],"categories_segments":[],"categories_sizes":[],"default_left":[0,0,0,0,0,0,0,0,0,0,0,0,0,0,0,0,0,0,0],"id":19,"left_children":[1,3,5,7,-1,9,11,13,-1,-1,15,-1,17,-1,-1,-1,-1,-1,-1],"loss_changes":[5.069844E-2,1.0148987E-2,1.7352585E-2,6.8497565E-4,0E0,1.02055315E-2,6.4429715E-3,1.458067E-5,0E0,0E0,3.073723E-4,0E0,1.833683E-4,0E0,0E0,0E0,0E0,0E0,0E0],"parents":[2147483647,0,0,1,1,2,2,3,3,5,5,6,6,7,7,10,10,12,12],"right_children":[2,4,6,8,-1,10,12,14,-1,-1,16,-1,18,-1,-1,-1,-1,-1,-1],"split_conditions":[2E0,1E0,7.626667E1,1.0087E2,4.412656E-3,9.6666664E-1,8.449E1,3.01E2,1.9221593E-3,-3.1592369E-3,5E0,1.8343115E-3,1E0,3.5931272E-4,9.403134E-4,-1.0655059E-3,-4.262651E-4,-2.6061534E-5,-4.4757835E-4],"split_indices":[5,4,15,3,0,23,3,2,0,0,5,0,4,0,0,0,0,0,0],"split_type":[0,0,0,0,0,0,0,0,0,0,0,0,0,0,0,0,0,0,0],"sum_hessian":[5E1,1.4E1,3.6E1,1E1,4E0,2.1E1,1.5E1,6E0,4E0,8E0,1.3E1,4E0,1.1E1,2E0,4E0,8E0,5E0,4E0,7E0],"tree_param":{"num_deleted":"0","num_feature":"24","num_nodes":"19","size_leaf_vector":"1"}},{"base_weights":[9.5468294E-4,4.795017E-2,-1.8123345E-2,2.6876146E-2,4.23615E-3,-3.5258014E-2,6.5695345E-3,1.5872886E-2,1.845274E-3,-3.018827E-3,-1.6591962E-2,1.7609406E-3,-5.9151254E-3,3.4733614E-4,9.027004E-4,-1.0181506E-3,-4.085029E-4,-2.5019646E-5,-4.2799712E-4],"categories":[],"categories_nodes":[],"categories_segments":[],"categories_sizes":[],"default_left":[0,0,0,0,0,0,0,0,0,0,0,0,0,0,0,0,0,0,0],"id":20,"left_children":[1,3,5,7,-1,9,11,13,-1,-1,15,-1,17,-1,-1,-1,-1,-1,-1],"loss_changes":[4.6594657E-2,9.347249E-3,1.5886487E-2,6.281119E-4,0E0,9.313233E-3,5.9311474E-3,1.0867021E-5,0E0,0E0,2.7826522E-4,0E0,1.6756842E-4,0E0,0E0,0E0,0E0,0E0,0E0],"parents":[2147483647,0,0,1,1,2,2,3,3,5,5,6,6,7,7,10,10,12,12],"right_children":[2,4,6,8,-1,10,12,14,-1,-1,16,-1,18,-1,-1,-1,-1,-1,-1],"split_conditions":[2E0,1E0,7.626667E1,1.0087E2,4.23615E-3,9.6666664E-1,8.449E1,3.01E2,1.845274E-3,-3.018827E-3,5E0,1.7609406E-3,1E0,3.4733614E-4,9.027004E-4,-1.0181506E-3,-4.085029E-4,-2.5019646E-5,-4.2799712E-4],"split_indices":[5,4,15,3,0,23,3,2,0,0,5,0,4,0,0,0,0,0,0],"split_type":[0,0,0,0,0,0,0,0,0,0,0,0,0,0,0,0,0,0,0],"sum_hessian":[5E1,1.4E1,3.6E1,1E1,4E0,2.1E1,1.5E1,6E0,4E0,8E0,1.3E1,4E0,1.1E1,2E0,4E0,8E0,5E0,4E0,7E0],"tree_param":{"num_deleted":"0","num_feature":"24","num_nodes":"19","size_leaf_vector":"1"}},{"base_weights":[9.892057E-4,4.6041466E-2,-1.7301958E-2,2.5813764E-2,4.0667057E-3,-3.3697158E-2,6.3228123E-3,1.5257852E-2,1.7714644E-3,-2.8846555E-3,-1.586425E-2,1.6905022E-3,-5.6571015E-3,3.3575893E-4,8.665944E-4,-9.728988E-4,-3.9148083E-4,-2.4018289E-5,-4.092712E-4],"categories":[],"categories_nodes":[],"categories_segments":[],"categories_sizes":[],"default_left":[0,0,0,0,0,0,0,0,0,0,0,0,0,0,0,0,0,0,0],"id":21,"left_children":[1,3,5,7,-1,9,11,13,-1,-1,15,-1,17,-1,-1,-1,-1,-1,-1],"loss_changes":[4.2823583E-2,8.608796E-3,1.4544373E-2,5.7593174E-4,0E0,8.498935E-3,5.4599815E-3,7.637893E-6,0E0,0E0,2.518911E-4,0E0,1.5312948E-4,0E0,0E0,0E0,0E0,0E0,0E0],"parents":[2147483647,0,0,1,1,2,2,3,3,5,5,6,6,7,7,10,10,12,12],"right_children":[2,4,6,8,-1,10,12,14,-1,-1,16,-1,18,-1,-1,-1,-1,-1,-1],"split_conditions":[2E0,1E0,7.626667E1,1.0087E2,4.0667057E-3,9.6666664E-1,8.449E1,3.01E2,1.7714644E-3,-2.8846555E-3,5E0,1.6905022E-3,1E0,3.3575893E-4,8.665944E-4,-9.728988E-4,-3.9148083E-4,-2.4018289E-5,-4.092712E-4],"split_indices":[5,4,15,3,0,23,3,2,0,0,5,0,4,0,0,0,0,0,0],"split_type":[0,0,0,0,0,0,0,0,0,0,0,0,0,0,0,0,0,0,0],"sum_hessian":[5E1,1.4E1,3.6E1,1E1,4E0,2.1E1,1.5E1,6E0,4E0,8E0,1.3E1,4E0,1.1E1,2E0,4E0,8E0,5E0,4E0,7E0],"tree_param":{"num_deleted":"0","num_feature":"24","num_nodes":"19","size_leaf_vector":"1"}},{"base_weights":[1.0191249E-3,4.420875E-2,-1.6517727E-2,2.4793409E-2,3.9040376E-3,-3.2205436E-2,6.0852356E-3,1.4666693E-2,1.7006064E-3,-2.75645E-3,-1.5168475E-2,1.622882E-3,-5.410368E-3,3.2456717E-4,8.319283E-4,-9.2965766E-4,-3.7516904E-4,-2.305746E-5,-3.9136672E-4],"categories":[],"categories_nodes":[],"categories_segments":[],"categories_sizes":[],"default_left":[0,0,0,0,0,0,0,0,0,0,0,0,0,0,0,0,0,0,0],"id":22,"left_children":[1,3,5,7,-1,9,11,13,-1,-1,15,-1,17,-1,-1,-1,-1,-1,-1],"loss_changes":[3.935814E-2,7.928656E-3,1.3315761E-2,5.280627E-4,0E0,7.755829E-3,5.026275E-3,4.8384536E-6,0E0,0E0,2.2799545E-4,0E0,1.3993555E-4,0E0,0E0,0E0,0E0,0E0,0E0],"parents":[2147483647,0,0,1,1,2,2,3,3,5,5,6,6,7,7,10,10,12,12],"right_children":[2,4,6,8,-1,10,12,14,-1,-1,16,-1,18,-1,-1,-1,-1,-1,-1],"split_conditions":[2E0,1E0,7.626667E1,1.0087E2,3.9040376E-3,9.6666664E-1,8.449E1,3.01E2,1.7006064E-3,-2.75645E-3,5E0,1.622882E-3,1E0,3.2456717E-4,8.319283E-4,-9.2965766E-4,-3.7516904E-4,-2.305746E-5,-3.9136672E-4],"split_indices":[5,4,15,3,0,23,3,2,0,0,5,0,4,0,0,0,0,0,0],"split_type":[0,0,0,0,0,0,0,0,0,0,0,0,0,0,0,0,0,0,0],"sum_hessian":[5E1,1.4E1,3.6E1,1E1,4E0,2.1E1,1.5E1,6E0,4E0,8E0,1.3E1,4E0,1.1E1,2E0,4E0,8E0,5E0,4E0,7E0],"tree_param":{"num_deleted":"0","num_feature":"24","num_nodes":"19","size_leaf_vector":"1"}},{"base_weights":[1.0447993E-3,4.2449046E-2,-1.5768943E-2,2.3813443E-2,3.7478784E-3,1.5579653E-3,-2.2401437E-2,1.4098542E-2,1.6325808E-3,-1.5665026E-2,-2.849617E-3,3.1374695E-4,7.986498E-4,-1.5781786E-3,-4.0527043E-4],"categories":[],"categories_nodes":[],"categories_segments":[],"categories_sizes":[],"default_left":[0,0,0,0,0,0,0,0,0,0,0,0,0,0,0],"id":23,"left_children":[1,3,5,7,-1,-1,9,11,-1,13,-1,-1,-1,-1,-1],"loss_changes":[3.6173556E-2,7.3022395E-3,1.2214313E-2,4.8414106E-4,0E0,0E0,6.7968257E-3,2.4253968E-6,0E0,3.2295855E-3,0E0,0E0,0E0,0E0,0E0],"parents":[2147483647,0,0,1,1,2,2,3,3,6,6,7,7,9,9],"right_children":[2,4,6,8,-1,-1,10,12,-1,14,-1,-1,-1,-1,-1],"split_conditions":[2E0,1E0,8.449E1,1.0087E2,3.7478784E-3,1.5579653E-3,1.16E0,3.01E2,1.6325808E-3,4E0,-2.849617E-3,3.1374695E-4,7.986498E-4,-1.5781786E-3,-4.0527043E-4],"split_indices":[5,4,3,3,0,0,22,2,0,6,0,0,0,0,0],"split_type":[0,0,0,0,0,0,0,0,0,0,0,0,0,0,0],"sum_hessian":[5E1,1.4E1,3.6E1,1E1,4E0,4E0,3.2E1,6E0,4E0,2.8E1,4E0,2E0,4E0,8E0,2E1],"tree_param":{"num_deleted":"0","num_feature":"24","num_nodes":"15","size_leaf_vector":"1"}},{"base_weights":[1.055645E-3,4.075945E-2,-1.5069024E-2,2.2872297E-2,3.5979652E-3,-2.952199E-2,5.7456195E-3,6.776248E-4,1.5672779E-3,-2.5355446E-3,-1.3791842E-2,1.4956475E-3,-4.8029027E-3,-8.4426405E-4,-3.426522E-4,-5.924702E-6,-3.5651476E-4],"categories":[],"categories_nodes":[],"categories_segments":[],"categories_sizes":[],"default_left":[0,0,0,0,0,0,0,0,0,0,0,0,0,0,0,0,0],"id":24,"left_children":[1,3,5,7,-1,9,11,-1,-1,-1,13,-1,15,-1,-1,-1,-1],"loss_changes":[3.3264954E-2,6.725274E-3,1.1300456E-2,4.4384925E-4,0E0,6.633304E-3,4.2225425E-3,0E0,0E0,0E0,1.8479093E-4,0E0,1.2998458E-4,0E0,0E0,0E0,0E0],"parents":[2147483647,0,0,1,1,2,2,3,3,5,5,6,6,10,10,12,12],"right_children":[2,4,6,8,-1,10,12,-1,-1,-1,14,-1,16,-1,-1,-1,-1],"split_conditions":[2E0,1E0,7.626667E1,1.0087E2,3.5979652E-3,9.6666664E-1,8.449E1,6.776248E-4,1.5672779E-3,-2.5355446E-3,5E0,1.4956475E-3,1E0,-8.4426405E-4,-3.426522E-4,-5.924702E-6,-3.5651476E-4],"split_indices":[5,4,15,3,0,23,3,0,0,0,5,0,4,0,0,0,0],"split_type":[0,0,0,0,0,0,0,0,0,0,0,0,0,0,0,0,0],"sum_hessian":[5E1,1.4E1,3.6E1,1E1,4E0,2.1E1,1.5E1,6E0,4E0,8E0,1.3E1,4E0,1.1E1,8E0,5E0,4E0,7E0],"tree_param":{"num_deleted":"0","num_feature":"24","num_nodes":"17","size_leaf_vector":"1"}},{"base_weights":[1.066659E-3,3.9111026E-2,-1.4385561E-2,2.1932798E-2,3.4540463E-3,-2.8215108E-2,5.5291615E-3,1.2971708E-2,1.5045882E-3,-2.4228548E-3,-1.3187038E-2,1.4358235E-3,-4.59298E-3,2.807021E-4,7.395983E-4,-8.067423E-4,-3.2837442E-4,-5.6886674E-6,-3.4091808E-4],"categories":[],"categories_nodes":[],"categories_segments":[],"categories_sizes":[],"default_left":[0,0,0,0,0,0,0,0,0,0,0,0,0,0,0,0,0,0,0],"id":25,"left_children":[1,3,5,7,-1,9,11,13,-1,-1,15,-1,17,-1,-1,-1,-1,-1,-1],"loss_changes":[3.0544002E-2,6.207308E-3,1.0346235E-2,4.1390397E-4,0E0,6.053349E-3,3.8871774E-3,1.0707183E-5,0E0,0E0,1.6721874E-4,0E0,1.1883958E-4,0E0,0E0,0E0,0E0,0E0,0E0],"parents":[2147483647,0,0,1,1,2,2,3,3,5,5,6,6,7,7,10,10,12,12],"right_children":[2,4,6,8,-1,10,12,14,-1,-1,16,-1,18,-1,-1,-1,-1,-1,-1],"split_conditions":[2E0,1E0,7.626667E1,1.0087E2,3.4540463E-3,9.6666664E-1,8.449E1,3.01E2,1.5045882E-3,-2.4228548E-3,5E0,1.4358235E-3,1E0,2.807021E-4,7.395983E-4,-8.067423E-4,-3.2837442E-4,-5.6886674E-6,-3.4091808E-4],"split_indices":[5,4,15,3,0,23,3,2,0,0,5,0,4,0,0,0,0,0,0],"split_type":[0,0,0,0,0,0,0,0,0,0,0,0,0,0,0,0,0,0,0],"sum_hessian":[5E1,1.4E1,3.6E1,1E1,4E0,2.1E1,1.5E1,6E0,4E0,8E0,1.3E1,4E0,1.1E1,2E0,4E0,8E0,5E0,4E0,7E0],"tree_param":{"num_deleted":"0","num_feature":"24","num_nodes":"19","size_leaf_vector":"1"}},{"base_weights":[1.0821527E-3,3.7554074E-2,-1.3733009E-2,2.1065712E-2,3.3158828E-3,-2.2255654E-2,1.5254736E-2,1.2468883E-2,1.4444066E-3,-1.5667373E-2,-2.537296E-3,1.3783885E-3,-5.46217E-6,2.7134418E-4,7.100153E-4,-1.3611634E-3,-4.3139685E-4],"categories":[],"categories_nodes":[],"categories_segments":[],"categories_sizes":[],"default_left":[0,0,0,0,0,0,0,0,0,0,0,0,0,0,0,0,0],"id":26,"left_children":[1,3,5,7,-1,9,11,13,-1,15,-1,-1,-1,-1,-1,-1,-1],"loss_changes":[2.8072935E-2,5.7169367E-3,9.480438E-3,3.795256E-4,0E0,4.648297E-3,1.705606E-3,8.285395E-6,0E0,1.7987946E-3,0E0,0E0,0E0,0E0,0E0,0E0,0E0],"parents":[2147483647,0,0,1,1,2,2,3,3,5,5,6,6,7,7,9,9],"right_children":[2,4,6,8,-1,10,12,14,-1,16,-1,-1,-1,-1,-1,-1,-1],"split_conditions":[2E0,1E0,1.07E0,1.0087E2,3.3158828E-3,1.04E0,8.449E1,3.01E2,1.4444066E-3,4E0,-2.537296E-3,1.3783885E-3,-5.46217E-6,2.7134418E-4,7.100153E-4,-1.3611634E-3,-4.3139685E-4],"split_indices":[5,4,23,3,0,22,3,2,0,6,0,0,0,0,0,0,0],"split_type":[0,0,0,0,0,0,0,0,0,0,0,0,0,0,0,0,0],"sum_hessian":[5E1,1.4E1,3.6E1,1E1,4E0,2.8E1,8E0,6E0,4E0,2.4E1,4E0,4E0,4E0,2E0,4E0,8E0,1.6E1],"tree_param":{"num_deleted":"0","num_feature":"24","num_nodes":"17","size_leaf_vector":"1"}},{"base_weights":[1.082653E-3,3.6059126E-2,-1.3126259E-2,2.0232938E-2,3.1832457E-3,-2.5833277E-2,5.166281E-3,1.1985643E-2,1.3866281E-3,-2.2285383E-3,-1.1942514E-2,1.3232518E-3,-4.138723E-3,2.623002E-4,6.816149E-4,-7.3105097E-4,-2.967169E-4,-5.2428245E-6,-3.0712746E-4],"categories":[],"categories_nodes":[],"categories_segments":[],"categories_sizes":[],"default_left":[0,0,0,0,0,0,0,0,0,0,0,0,0,0,0,0,0,0,0],"id":27,"left_children":[1,3,5,7,-1,9,11,13,-1,-1,15,-1,17,-1,-1,-1,-1,-1,-1],"loss_changes":[2.5819179E-2,5.265286E-3,8.733876E-3,3.4797518E-4,0E0,5.1938277E-3,3.2804913E-3,6.1698956E-6,0E0,0E0,1.385347E-4,0E0,9.635392E-5,0E0,0E0,0E0,0E0,0E0,0E0],"parents":[2147483647,0,0,1,1,2,2,3,3,5,5,6,6,7,7,10,10,12,12],"right_children":[2,4,6,8,-1,10,12,14,-1,-1,16,-1,18,-1,-1,-1,-1,-1,-1],"split_conditions":[2E0,1E0,7.626667E1,1.0087E2,3.1832457E-3,9.6666664E-1,8.449E1,3.01E2,1.3866281E-3,-2.2285383E-3,5E0,1.3232518E-3,1E0,2.623002E-4,6.816149E-4,-7.3105097E-4,-2.967169E-4,-5.2428245E-6,-3.0712746E-4],"split_indices":[5,4,15,3,0,23,3,2,0,0,5,0,4,0,0,0,0,0,0],"split_type":[0,0,0,0,0,0,0,0,0,0,0,0,0,0,0,0,0,0,0],"sum_hessian":[5E1,1.4E1,3.6E1,1E1,4E0,2.1E1,1.5E1,6E0,4E0,8E0,1.3E1,4E0,1.1E1,2E0,4E0,8E0,5E0,4E0,7E0],"tree_param":{"num_deleted":"0","num_feature":"24","num_nodes":"19","size_leaf_vector":"1"}},{"base_weights":[1.0926116E-3,3.462375E-2,-1.2530623E-2,1.9433152E-2,3.055916E-3,-2.468962E-2,4.9711615E-3,1.1521203E-2,1.3311625E-3,-2.1294912E-3,-1.1418803E-2,1.2703228E-3,-3.957808E-3,2.5355816E-4,6.5434934E-4,-6.9855986E-4,-2.843539E-4,-5.0330164E-6,-2.9368998E-4],"categories":[],"categories_nodes":[],"categories_segments":[],"categories_sizes":[],"default_left":[0,0,0,0,0,0,0,0,0,0,0,0,0,0,0,0,0,0,0],"id":28,"left_children":[1,3,5,7,-1,9,11,13,-1,-1,15,-1,17,-1,-1,-1,-1,-1,-1],"loss_changes":[2.3730788E-2,4.8493035E-3,7.99649E-3,3.1903246E-4,0E0,4.739783E-3,3.0200118E-3,4.329311E-6,0E0,0E0,1.2535951E-4,0E0,8.809188E-5,0E0,0E0,0E0,0E0,0E0,0E0],"parents":[2147483647,0,0,1,1,2,2,3,3,5,5,6,6,7,7,10,10,12,12],"right_children":[2,4,6,8,-1,10,12,14,-1,-1,16,-1,18,-1,-1,-1,-1,-1,-1],"split_conditions":[2E0,1E0,7.626667E1,1.0087E2,3.055916E-3,9.6666664E-1,8.449E1,3.01E2,1.3311625E-3,-2.1294912E-3,5E0,1.2703228E-3,1E0,2.5355816E-4,6.5434934E-4,-6.9855986E-4,-2.843539E-4,-5.0330164E-6,-2.9368998E-4],"split_indices":[5,4,15,3,0,23,3,2,0,0,5,0,4,0,0,0,0,0,0],"split_type":[0,0,0,0,0,0,0,0,0,0,0,0,0,0,0,0,0,0,0],"sum_hessian":[5E1,1.4E1,3.6E1,1E1,4E0,2.1E1,1.5E1,6E0,4E0,8E0,1.3E1,4E0,1.1E1,2E0,4E0,8E0,5E0,4E0,7E0],"tree_param":{"num_deleted":"0","num_feature":"24","num_nodes":"19","size_leaf_vector":"1"}},{"base_weights":[1.0998249E-3,3.324555E-2,-1.196195E-2,1.8665032E-2,2.9336787E-3,1.219511E-3,-1.7107371E-2,1.1074849E-2,1.2779142E-3,-1.1668798E-2,-2.2614812E-3,2.4510623E-4,6.2817574E-4,-1.1720512E-3,-3.0339503E-4],"categories":[],"categories_nodes":[],"categories_segments":[],"categories_sizes":[],"default_left":[0,0,0,0,0,0,0,0,0,0,0,0,0,0,0],"id":29,"left_children":[1,3,5,7,-1,-1,9,11,-1,13,-1,-1,-1,-1,-1],"loss_changes":[2.1811571E-2,4.466161E-3,7.338E-3,2.9247697E-4,0E0,0E0,4.5194086E-3,2.7359347E-6,0E0,1.7698775E-3,0E0,0E0,0E0,0E0,0E0],"parents":[2147483647,0,0,1,1,2,2,3,3,6,6,7,7,9,9],"right_children":[2,4,6,8,-1,-1,10,12,-1,14,-1,-1,-1,-1,-1],"split_conditions":[2E0,1E0,8.449E1,1.0087E2,2.9336787E-3,1.219511E-3,1.16E0,3.01E2,1.2779142E-3,4E0,-2.2614812E-3,2.4510623E-4,6.2817574E-4,-1.1720512E-3,-3.0339503E-4],"split_indices":[5,4,3,3,0,0,22,2,0,6,0,0,0,0,0],"split_type":[0,0,0,0,0,0,0,0,0,0,0,0,0,0,0],"sum_hessian":[5E1,1.4E1,3.6E1,1E1,4E0,4E0,3.2E1,6E0,4E0,2.8E1,4E0,2E0,4E0,8E0,2E1],"tree_param":{"num_deleted":"0","num_feature":"24","num_nodes":"15","size_leaf_vector":"1"}},{"base_weights":[1.0951734E-3,3.1922262E-2,-1.1431893E-2,1.792732E-2,2.816334E-3,-1.8647704E-2,1.3089259E-2,1.0645832E-2,1.2267971E-3,-1.2947245E-2,-2.1710228E-3,1.1707306E-3,7.302761E-6,2.3693641E-4,6.0304644E-4,-1.1199594E-3,-3.590836E-4],"categories":[],"categories_nodes":[],"categories_segments":[],"categories_sizes":[],"default_left":[0,0,0,0,0,0,0,0,0,0,0,0,0,0,0,0,0],"id":30,"left_children":[1,3,5,7,-1,9,11,13,-1,15,-1,-1,-1,-1,-1,-1,-1],"loss_changes":[2.0059755E-2,4.1132895E-3,6.7908643E-3,2.6812102E-4,0E0,3.5330905E-3,1.1993684E-3,1.3603712E-6,0E0,1.2015323E-3,0E0,0E0,0E0,0E0,0E0,0E0,0E0],"parents":[2147483647,0,0,1,1,2,2,3,3,5,5,6,6,7,7,9,9],"right_children":[2,4,6,8,-1,10,12,14,-1,16,-1,-1,-1,-1,-1,-1,-1],"split_conditions":[2E0,1E0,1.07E0,1.0087E2,2.816334E-3,1.04E0,8.449E1,3.01E2,1.2267971E-3,4E0,-2.1710228E-3,1.1707306E-3,7.302761E-6,2.3693641E-4,6.0304644E-4,-1.1199594E-3,-3.590836E-4],"split_indices":[5,4,23,3,0,22,3,2,0,6,0,0,0,0,0,0,0],"split_type":[0,0,0,0,0,0,0,0,0,0,0,0,0,0,0,0,0],"sum_hessian":[5E1,1.4E1,3.6E1,1E1,4E0,2.8E1,8E0,6E0,4E0,2.4E1,4E0,4E0,4E0,2E0,4E0,8E0,1.6E1],"tree_param":{"num_deleted":"0","num_feature":"24","num_nodes":"17","size_leaf_vector":"1"}},{"base_weights":[1.0876795E-3,3.0651681E-2,-1.0927123E-2,1.7218828E-2,2.7036811E-3,-2.1686226E-2,4.549589E-3,5.1167526E-4,1.1777257E-3,-1.8854128E-3,-9.837334E-3,1.1239004E-3,-3.299718E-3,-6.0185726E-4,-2.449031E-4,7.009506E-6,-2.518598E-4],"categories":[],"categories_nodes":[],"categories_segments":[],"categories_sizes":[],"default_left":[0,0,0,0,0,0,0,0,0,0,0,0,0,0,0,0,0],"id":31,"left_children":[1,3,5,7,-1,9,11,-1,-1,-1,13,-1,15,-1,-1,-1,-1],"loss_changes":[1.8450422E-2,3.7882673E-3,6.259739E-3,2.4578E-4,0E0,3.8056038E-3,2.3257816E-3,0E0,0E0,0E0,9.315787E-5,0E0,7.242734E-5,0E0,0E0,0E0,0E0],"parents":[2147483647,0,0,1,1,2,2,3,3,5,5,6,6,10,10,12,12],"right_children":[2,4,6,8,-1,10,12,-1,-1,-1,14,-1,16,-1,-1,-1,-1],"split_conditions":[2E0,1E0,7.626667E1,1.0087E2,2.7036811E-3,9.6666664E-1,8.449E1,5.1167526E-4,1.1777257E-3,-1.8854128E-3,5E0,1.1239004E-3,1E0,-6.0185726E-4,-2.449031E-4,7.009506E-6,-2.518598E-4],"split_indices":[5,4,15,3,0,23,3,0,0,0,5,0,4,0,0,0,0],"split_type":[0,0,0,0,0,0,0,0,0,0,0,0,0,0,0,0,0],"sum_hessian":[5E1,1.4E1,3.6E1,1E1,4E0,2.1E1,1.5E1,6E0,4E0,8E0,1.3E1,4E0,1.1E1,8E0,5E0,4E0,7E0],"tree_param":{"num_deleted":"0","num_feature":"24","num_nodes":"17","size_leaf_vector":"1"}},{"base_weights":[1.0831064E-3,2.9412E-2,-1.0430853E-2,1.6511505E-2,2.5955343E-3,-2.0726113E-2,4.377056E-3,9.7949505E-3,1.1306191E-3,-1.8016167E-3,-9.405962E-3,1.0789442E-3,-3.1551272E-3,2.1198194E-4,5.584574E-4,-5.751093E-4,-2.3469825E-4,6.7281726E-6,-2.4083965E-4],"categories":[],"categories_nodes":[],"categories_segments":[],"categories_sizes":[],"default_left":[0,0,0,0,0,0,0,0,0,0,0,0,0,0,0,0,0,0,0],"id":32,"left_children":[1,3,5,7,-1,9,11,13,-1,-1,15,-1,17,-1,-1,-1,-1,-1,-1],"loss_changes":[1.6941857E-2,3.4965398E-3,5.731417E-3,2.2925856E-4,0E0,3.4729922E-3,2.1411614E-3,6.0855527E-6,0E0,0E0,8.429284E-5,0E0,6.624456E-5,0E0,0E0,0E0,0E0,0E0,0E0],"parents":[2147483647,0,0,1,1,2,2,3,3,5,5,6,6,7,7,10,10,12,12],"right_children":[2,4,6,8,-1,10,12,14,-1,-1,16,-1,18,-1,-1,-1,-1,-1,-1],"split_conditions":[2E0,1E0,7.626667E1,1.0087E2,2.5955343E-3,9.6666664E-1,8.449E1,3.01E2,1.1306191E-3,-1.8016167E-3,5E0,1.0789442E-3,1E0,2.1198194E-4,5.584574E-4,-5.751093E-4,-2.3469825E-4,6.7281726E-6,-2.4083965E-4],"split_indices":[5,4,15,3,0,23,3,2,0,0,5,0,4,0,0,0,0,0,0],"split_type":[0,0,0,0,0,0,0,0,0,0,0,0,0,0,0,0,0,0,0],"sum_hessian":[5E1,1.4E1,3.6E1,1E1,4E0,2.1E1,1.5E1,6E0,4E0,8E0,1.3E1,4E0,1.1E1,2E0,4E0,8E0,5E0,4E0,7E0],"tree_param":{"num_deleted":"0","num_feature":"24","num_nodes":"19","size_leaf_vector":"1"}},{"base_weights":[1.0824858E-3,2.8241174E-2,-9.957049E-3,1.5858758E-2,2.4917126E-3,-1.98085E-2,4.2110085E-3,9.415252E-3,1.0853958E-3,-1.7215451E-3,-8.99349E-3,1.0357857E-3,-3.0168693E-3,2.049168E-4,5.361176E-4,-5.4954825E-4,-2.2491813E-4,6.4587593E-6,-2.3030191E-4],"categories":[],"categories_nodes":[],"categories_segments":[],"categories_sizes":[],"default_left":[0,0,0,0,0,0,0,0,0,0,0,0,0,0,0,0,0,0,0],"id":33,"left_children":[1,3,5,7,-1,9,11,13,-1,-1,15,-1,17,-1,-1,-1,-1,-1,-1],"loss_changes":[1.5571983E-2,3.2203076E-3,5.2477224E-3,2.1019438E-4,0E0,3.1694574E-3,1.9712006E-3,4.7044014E-6,0E0,0E0,7.626333E-5,0E0,6.059013E-5,0E0,0E0,0E0,0E0,0E0,0E0],"parents":[2147483647,0,0,1,1,2,2,3,3,5,5,6,6,7,7,10,10,12,12],"right_children":[2,4,6,8,-1,10,12,14,-1,-1,16,-1,18,-1,-1,-1,-1,-1,-1],"split_conditions":[2E0,1E0,7.626667E1,1.0087E2,2.4917126E-3,9.6666664E-1,8.449E1,3.01E2,1.0853958E-3,-1.7215451E-3,5E0,1.0357857E-3,1E0,2.049168E-4,5.361176E-4,-5.4954825E-4,-2.2491813E-4,6.4587593E-6,-2.3030191E-4],"split_indices":[5,4,15,3,0,23,3,2,0,0,5,0,4,0,0,0,0,0,0],"split_type":[0,0,0,0,0,0,0,0,0,0,0,0,0,0,0,0,0,0,0],"sum_hessian":[5E1,1.4E1,3.6E1,1E1,4E0,2.1E1,1.5E1,6E0,4E0,8E0,1.3E1,4E0,1.1E1,2E0,4E0,8E0,5E0,4E0,7E0],"tree_param":{"num_deleted":"0","num_feature":"24","num_nodes":"19","size_leaf_vector":"1"}},{"base_weights":[1.0800139E-3,2.7116997E-2,-9.504709E-3,1.5231869E-2,2.392044E-3,-1.5576887E-2,1.1117273E-2,9.050369E-3,1.0419799E-3,-1.0597837E-2,-1.8678379E-3,9.943533E-4,6.2012673E-6,1.980861E-4,5.146742E-4,-9.116252E-4,-2.966276E-4],"categories":[],"categories_nodes":[],"categories_segments":[],"categories_sizes":[],"default_left":[0,0,0,0,0,0,0,0,0,0,0,0,0,0,0,0,0],"id":34,"left_children":[1,3,5,7,-1,9,11,13,-1,15,-1,-1,-1,-1,-1,-1,-1],"loss_changes":[1.4313047E-2,2.9658843E-3,4.8063244E-3,1.9269972E-4,0E0,2.7489485E-3,8.6520996E-4,3.5004923E-6,0E0,7.822821E-4,0E0,0E0,0E0,0E0,0E0,0E0,0E0],"parents":[2147483647,0,0,1,1,2,2,3,3,5,5,6,6,7,7,9,9],"right_children":[2,4,6,8,-1,10,12,14,-1,16,-1,-1,-1,-1,-1,-1,-1],"split_conditions":[2E0,1E0,1.07E0,1.0087E2,2.392044E-3,1.04E0,8.449E1,3.01E2,1.0419799E-3,4E0,-1.8678379E-3,9.943533E-4,6.2012673E-6,1.980861E-4,5.146742E-4,-9.116252E-4,-2.966276E-4],"split_indices":[5,4,23,3,0,22,3,2,0,6,0,0,0,0,0,0,0],"split_type":[0,0,0,0,0,0,0,0,0,0,0,0,0,0,0,0,0],"sum_hessian":[5E1,1.4E1,3.6E1,1E1,4E0,2.8E1,8E0,6E0,4E0,2.4E1,4E0,4E0,4E0,2E0,4E0,8E0,1.6E1],"tree_param":{"num_deleted":"0","num_feature":"24","num_nodes":"17","size_leaf_vector":"1"}},{"base_weights":[1.0666391E-3,2.6037598E-2,-9.085551E-3,1.4629797E-2,2.2963618E-3,-1.8139053E-2,3.930863E-3,8.69969E-3,1.0002995E-3,-1.583265E-3,-8.147963E-3,9.545803E-4,-2.7136852E-3,1.9148191E-4,4.9408915E-4,-4.982723E-4,-2.0318727E-4,5.9533118E-6,-2.0724721E-4],"categories":[],"categories_nodes":[],"categories_segments":[],"categories_sizes":[],"default_left":[0,0,0,0,0,0,0,0,0,0,0,0,0,0,0,0,0,0,0],"id":35,"left_children":[1,3,5,7,-1,9,11,13,-1,-1,15,-1,17,-1,-1,-1,-1,-1,-1],"loss_changes":[1.3165571E-2,2.7315496E-3,4.4315355E-3,1.7664931E-4,0E0,2.715115E-3,1.6635893E-3,2.454326E-6,0E0,0E0,6.342487E-5,0E0,4.9146336E-5,0E0,0E0,0E0,0E0,0E0,0E0],"parents":[2147483647,0,0,1,1,2,2,3,3,5,5,6,6,7,7,10,10,12,12],"right_children":[2,4,6,8,-1,10,12,14,-1,-1,16,-1,18,-1,-1,-1,-1,-1,-1],"split_conditions":[2E0,1E0,7.626667E1,1.0087E2,2.2963618E-3,9.6666664E-1,8.449E1,3.01E2,1.0002995E-3,-1.583265E-3,5E0,9.545803E-4,1E0,1.9148191E-4,4.9408915E-4,-4.982723E-4,-2.0318727E-4,5.9533118E-6,-2.0724721E-4],"split_indices":[5,4,15,3,0,23,3,2,0,0,5,0,4,0,0,0,0,0,0],"split_type":[0,0,0,0,0,0,0,0,0,0,0,0,0,0,0,0,0,0,0],"sum_hessian":[5E1,1.4E1,3.6E1,1E1,4E0,2.1E1,1.5E1,6E0,4E0,8E0,1.3E1,4E0,1.1E1,2E0,4E0,8E0,5E0,4E0,7E0],"tree_param":{"num_deleted":"0","num_feature":"24","num_nodes":"19","size_leaf_vector":"1"}},{"base_weights":[1.0613659E-3,2.5001207E-2,-8.672661E-3,1.4051568E-2,2.2045088E-3,-1.7335938E-2,3.7813857E-3,8.362634E-3,9.6028805E-4,-1.5128971E-3,-7.790655E-3,9.1639516E-4,-2.594779E-3,1.8510023E-4,4.7432422E-4,-4.7612586E-4,-1.9472092E-4,5.714893E-6,-1.9818023E-4],"categories":[],"categories_nodes":[],"categories_segments":[],"categories_sizes":[],"default_left":[0,0,0,0,0,0,0,0,0,0,0,0,0,0,0,0,0,0,0],"id":36,"left_children":[1,3,5,7,-1,9,11,13,-1,-1,15,-1,17,-1,-1,-1,-1,-1,-1],"loss_changes":[1.2101411E-2,2.5157249E-3,4.05759E-3,1.6192975E-4,0E0,2.4778424E-3,1.5315729E-3,1.5459955E-6,0E0,0E0,5.738379E-5,0E0,4.4952074E-5,0E0,0E0,0E0,0E0,0E0,0E0],"parents":[2147483647,0,0,1,1,2,2,3,3,5,5,6,6,7,7,10,10,12,12],"right_children":[2,4,6,8,-1,10,12,14,-1,-1,16,-1,18,-1,-1,-1,-1,-1,-1],"split_conditions":[2E0,1E0,7.626667E1,1.0087E2,2.2045088E-3,9.6666664E-1,8.449E1,3.01E2,9.6028805E-4,-1.5128971E-3,5E0,9.1639516E-4,1E0,1.8510023E-4,4.7432422E-4,-4.7612586E-4,-1.9472092E-4,5.714893E-6,-1.9818023E-4],"split_indices":[5,4,15,3,0,23,3,2,0,0,5,0,4,0,0,0,0,0,0],"split_type":[0,0,0,0,0,0,0,0,0,0,0,0,0,0,0,0,0,0,0],"sum_hessian":[5E1,1.4E1,3.6E1,1E1,4E0,2.1E1,1.5E1,6E0,4E0,8E0,1.3E1,4E0,1.1E1,2E0,4E0,8E0,5E0,4E0,7E0],"tree_param":{"num_deleted":"0","num_feature":"24","num_nodes":"19","size_leaf_vector":"1"}},{"base_weights":[1.0546598E-3,2.4006097E-2,-8.278481E-3,1.3496247E-2,2.1163274E-3,8.7974075E-4,-1.1947814E-2,4.0193458E-4,9.218788E-4,-7.839657E-3,-1.6692783E-3,-7.8065E-4,-2.0674538E-4],"categories":[],"categories_nodes":[],"categories_segments":[],"categories_sizes":[],"default_left":[0,0,0,0,0,0,0,0,0,0,0,0,0],"id":37,"left_children":[1,3,5,7,-1,-1,9,-1,-1,11,-1,-1,-1],"loss_changes":[1.1123392E-2,2.3169275E-3,3.722916E-3,1.4842954E-4,0E0,0E0,2.6445673E-3,0E0,0E0,7.705919E-4,0E0,0E0,0E0],"parents":[2147483647,0,0,1,1,2,2,3,3,6,6,9,9],"right_children":[2,4,6,8,-1,-1,10,-1,-1,12,-1,-1,-1],"split_conditions":[2E0,1E0,8.449E1,1.0087E2,2.1163274E-3,8.7974075E-4,1.16E0,4.0193458E-4,9.218788E-4,4E0,-1.6692783E-3,-7.8065E-4,-2.0674538E-4],"split_indices":[5,4,3,3,0,0,22,0,0,6,0,0,0],"split_type":[0,0,0,0,0,0,0,0,0,0,0,0,0],"sum_hessian":[5E1,1.4E1,3.6E1,1E1,4E0,4E0,3.2E1,6E0,4E0,2.8E1,4E0,8E0,2E1],"tree_param":{"num_deleted":"0","num_feature":"24","num_nodes":"13","size_leaf_vector":"1"}},{"base_weights":[1.0345438E-3,2.303513E-2,-7.912573E-3,1.2941772E-2,2.0316744E-3,-1.5896441E-2,3.559783E-3,1.6553006E-4,1.4714188E-2,-1.3912148E-3,-7.093076E-3,8.4455014E-4,-2.2915404E-3,4.3927194E-4,8.8500505E-4,-4.3302245E-4,-1.779919E-4,1.3756752E-5,-1.804635E-4],"categories":[],"categories_nodes":[],"categories_segments":[],"categories_sizes":[],"default_left":[0,0,0,0,0,0,0,0,0,0,0,0,0,0,0,0,0,0,0],"id":38,"left_children":[1,3,5,7,-1,9,11,-1,13,-1,15,-1,17,-1,-1,-1,-1,-1,-1],"loss_changes":[1.02212E-2,2.138528E-3,3.4455582E-3,1.3906194E-4,0E0,2.1127565E-3,1.2867908E-3,0E0,3.821333E-6,0E0,4.670082E-5,0E0,4.1579246E-5,0E0,0E0,0E0,0E0,0E0,0E0],"parents":[2147483647,0,0,1,1,2,2,3,3,5,5,6,6,8,8,10,10,12,12],"right_children":[2,4,6,8,-1,10,12,-1,14,-1,16,-1,18,-1,-1,-1,-1,-1,-1],"split_conditions":[2E0,1E0,7.626667E1,9.009E1,2.0316744E-3,9.6666664E-1,8.449E1,1.6553006E-4,1.0087E2,-1.3912148E-3,5E0,8.4455014E-4,1E0,4.3927194E-4,8.8500505E-4,-4.3302245E-4,-1.779919E-4,1.3756752E-5,-1.804635E-4],"split_indices":[5,4,15,3,0,23,3,0,3,0,5,0,4,0,0,0,0,0,0],"split_type":[0,0,0,0,0,0,0,0,0,0,0,0,0,0,0,0,0,0,0],"sum_hessian":[5E1,1.4E1,3.6E1,1E1,4E0,2.1E1,1.5E1,2E0,8E0,8E0,1.3E1,4E0,1.1E1,4E0,4E0,8E0,5E0,4E0,7E0],"tree_param":{"num_deleted":"0","num_feature":"24","num_nodes":"19","size_leaf_vector":"1"}},{"base_weights":[1.0258929E-3,2.2118123E-2,-7.5527383E-3,1.2430104E-2,1.950407E-3,-1.2477536E-2,9.155247E-3,7.3958123E-3,8.496046E-4,-8.2865115E-3,-1.5468573E-3,8.1076624E-4,1.3206006E-5,1.6001066E-4,4.217005E-4,-7.054157E-4,-2.35847E-4],"categories":[],"categories_nodes":[],"categories_segments":[],"categories_sizes":[],"default_left":[0,0,0,0,0,0,0,0,0,0,0,0,0,0,0,0,0],"id":39,"left_children":[1,3,5,7,-1,9,11,13,-1,15,-1,-1,-1,-1,-1,-1,-1],"loss_changes":[9.395119E-3,1.969587E-3,3.1587223E-3,1.2695976E-4,0E0,1.9872147E-3,5.6066556E-4,3.500405E-6,0E0,4.529854E-4,0E0,0E0,0E0,0E0,0E0,0E0,0E0],"parents":[2147483647,0,0,1,1,2,2,3,3,5,5,6,6,7,7,9,9],"right_children":[2,4,6,8,-1,10,12,14,-1,16,-1,-1,-1,-1,-1,-1,-1],"split_conditions":[2E0,1E0,1.07E0,1.0087E2,1.950407E-3,1.04E0,8.449E1,3.01E2,8.496046E-4,4E0,-1.5468573E-3,8.1076624E-4,1.3206006E-5,1.6001066E-4,4.217005E-4,-7.054157E-4,-2.35847E-4],"split_indices":[5,4,23,3,0,22,3,2,0,6,0,0,0,0,0,0,0],"split_type":[0,0,0,0,0,0,0,0,0,0,0,0,0,0,0,0,0],"sum_hessian":[5E1,1.4E1,3.6E1,1E1,4E0,2.8E1,8E0,6E0,4E0,2.4E1,4E0,4E0,4E0,2E0,4E0,8E0,1.6E1],"tree_param":{"num_deleted":"0","num_feature":"24","num_nodes":"17","size_leaf_vector":"1"}},{"base_weights":[1.0082874E-3,2.1237692E-2,-7.220073E-3,1.1938745E-2,1.8723917E-3,-1.4558375E-2,3.321346E-3,7.109165E-3,8.156205E-4,-1.2793316E-3,-6.4288974E-3,7.7833654E-4,-2.0576764E-3,1.5467803E-4,4.0483475E-4,-3.9285954E-4,-1.6074876E-4,1.2676716E-5,-1.6224869E-4],"categories":[],"categories_nodes":[],"categories_segments":[],"categories_sizes":[],"default_left":[0,0,0,0,0,0,0,0,0,0,0,0,0,0,0,0,0,0,0],"id":40,"left_children":[1,3,5,7,-1,9,11,13,-1,-1,15,-1,17,-1,-1,-1,-1,-1,-1],"loss_changes":[8.642535E-3,1.8139784E-3,2.9105297E-3,1.1638494E-4,0E0,1.8078932E-3,1.0859225E-3,2.7111091E-6,0E0,0E0,3.9005186E-5,0E0,3.3751843E-5,0E0,0E0,0E0,0E0,0E0,0E0],"parents":[2147483647,0,0,1,1,2,2,3,3,5,5,6,6,7,7,10,10,12,12],"right_children":[2,4,6,8,-1,10,12,14,-1,-1,16,-1,18,-1,-1,-1,-1,-1,-1],"split_conditions":[2E0,1E0,7.626667E1,1.0087E2,1.8723917E-3,9.6666664E-1,8.449E1,3.01E2,8.156205E-4,-1.2793316E-3,5E0,7.7833654E-4,1E0,1.5467803E-4,4.0483475E-4,-3.9285954E-4,-1.6074876E-4,1.2676716E-5,-1.6224869E-4],"split_indices":[5,4,15,3,0,23,3,2,0,0,5,0,4,0,0,0,0,0,0],"split_type":[0,0,0,0,0,0,0,0,0,0,0,0,0,0,0,0,0,0,0],"sum_hessian":[5E1,1.4E1,3.6E1,1E1,4E0,2.1E1,1.5E1,6E0,4E0,8E0,1.3E1,4E0,1.1E1,2E0,4E0,8E0,5E0,4E0,7E0],"tree_param":{"num_deleted":"0","num_feature":"24","num_nodes":"19","size_leaf_vector":"1"}},{"base_weights":[9.97936E-4,2.0392291E-2,-6.8916115E-3,1.1466807E-2,1.7974948E-3,-3.382083E-3,-1.4338088E-3,6.8336213E-3,7.829952E-4,7.472038E-4,-6.4251423E-3,1.4952025E-4,3.8864135E-4,-6.3690345E-4,-1.7068216E-4],"categories":[],"categories_nodes":[],"categories_segments":[],"categories_sizes":[],"default_left":[0,0,0,0,0,0,0,0,0,0,0,0,0,0,0],"id":41,"left_children":[1,3,5,7,-1,9,-1,11,-1,-1,13,-1,-1,-1,-1],"loss_changes":[7.9441825E-3,1.6706567E-3,2.7317957E-3,1.0668754E-4,0E0,1.9363483E-3,0E0,2.0230946E-6,0E0,0E0,5.078465E-4,0E0,0E0,0E0,0E0],"parents":[2147483647,0,0,1,1,2,2,3,3,5,5,7,7,10,10],"right_children":[2,4,6,8,-1,10,-1,12,-1,-1,14,-1,-1,-1,-1],"split_conditions":[2E0,1E0,1.16E0,1.0087E2,1.7974948E-3,8.449E1,-1.4338088E-3,3.01E2,7.829952E-4,7.472038E-4,4E0,1.4952025E-4,3.8864135E-4,-6.3690345E-4,-1.7068216E-4],"split_indices":[5,4,22,3,0,3,0,2,0,0,6,0,0,0,0],"split_type":[0,0,0,0,0,0,0,0,0,0,0,0,0,0,0],"sum_hessian":[5E1,1.4E1,3.6E1,1E1,4E0,3.2E1,4E0,6E0,4E0,4E0,2.8E1,2E0,4E0,8E0,2E1],"tree_param":{"num_deleted":"0","num_feature":"24","num_nodes":"15","size_leaf_vector":"1"}},{"base_weights":[9.79905E-4,1.958062E-2,-6.5874085E-3,1.1013594E-2,1.7255973E-3,-3.2148E-3,-1.3764573E-3,6.5688407E-3,7.5167656E-4,7.173157E-4,-6.131723E-3,1.4453729E-4,3.7309647E-4,-5.3253083E-4,-1.15770454E-4],"categories":[],"categories_nodes":[],"categories_segments":[],"categories_sizes":[],"default_left":[0,0,0,0,0,0,0,0,0,0,0,0,0,0,0],"id":42,"left_children":[1,3,5,7,-1,9,-1,11,-1,-1,13,-1,-1,-1,-1],"loss_changes":[7.3076147E-3,1.5386557E-3,2.5247457E-3,9.77912E-5,0E0,1.7783731E-3,0E0,1.4234975E-6,0E0,0E0,4.7545938E-4,0E0,0E0,0E0,0E0],"parents":[2147483647,0,0,1,1,2,2,3,3,5,5,7,7,10,10],"right_children":[2,4,6,8,-1,10,-1,12,-1,-1,14,-1,-1,-1,-1],"split_conditions":[2E0,1E0,1.16E0,1.0087E2,1.7255973E-3,8.449E1,-1.3764573E-3,3.01E2,7.5167656E-4,7.173157E-4,6E0,1.4453729E-4,3.7309647E-4,-5.3253083E-4,-1.15770454E-4],"split_indices":[5,4,22,3,0,3,0,2,0,0,6,0,0,0,0],"split_type":[0,0,0,0,0,0,0,0,0,0,0,0,0,0,0],"sum_hessian":[5E1,1.4E1,3.6E1,1E1,4E0,3.2E1,4E0,6E0,4E0,4E0,2.8E1,2E0,4E0,1.2E1,1.6E1],"tree_param":{"num_deleted":"0","num_feature":"24","num_nodes":"15","size_leaf_vector":"1"}},{"base_weights":[9.639871E-4,1.8801244E-2,-6.293387E-3,1.0578286E-2,1.6565751E-3,-3.0519818E-3,-1.3213992E-3,3.1571728E-4,7.2160724E-4,6.886244E-4,-5.847512E-3,-5.849308E-4,-1.530721E-4],"categories":[],"categories_nodes":[],"categories_segments":[],"categories_sizes":[],"default_left":[0,0,0,0,0,0,0,0,0,0,0,0,0],"id":43,"left_children":[1,3,5,7,-1,9,-1,-1,-1,-1,11,-1,-1],"loss_changes":[6.7203576E-3,1.4170827E-3,2.3341249E-3,8.962944E-5,0E0,1.6326339E-3,0E0,0E0,0E0,0E0,4.3693127E-4,0E0,0E0],"parents":[2147483647,0,0,1,1,2,2,3,3,5,5,10,10],"right_children":[2,4,6,8,-1,10,-1,-1,-1,-1,12,-1,-1],"split_conditions":[2E0,1E0,1.16E0,1.0087E2,1.6565751E-3,8.449E1,-1.3213992E-3,3.1571728E-4,7.2160724E-4,6.886244E-4,4E0,-5.849308E-4,-1.530721E-4],"split_indices":[5,4,22,3,0,3,0,0,0,0,6,0,0],"split_type":[0,0,0,0,0,0,0,0,0,0,0,0,0],"sum_hessian":[5E1,1.4E1,3.6E1,1E1,4E0,3.2E1,4E0,6E0,4E0,4E0,2.8E1,8E0,2E1],"tree_param":{"num_deleted":"0","num_feature":"24","num_nodes":"13","size_leaf_vector":"1"}},{"base_weights":[9.4173936E-4,1.8040815E-2,-6.015771E-3,1.0143713E-2,1.590314E-3,-2.9008822E-3,-1.2685442E-3,1.2919903E-4,5.7682727E-4,6.610775E-4,-5.5805813E-3,-6.96466E-4,-1.8438054E-4],"categories":[],"categories_nodes":[],"categories_segments":[],"categories_sizes":[],"default_left":[0,0,0,0,0,0,0,0,0,0,0,0,0],"id":44,"left_children":[1,3,5,7,-1,9,-1,-1,-1,-1,11,-1,-1],"loss_changes":[6.175847E-3,1.307975E-3,2.157096E-3,8.601346E-5,0E0,1.4994919E-3,0E0,0E0,0E0,0E0,4.0694769E-4,0E0,0E0],"parents":[2147483647,0,0,1,1,2,2,3,3,5,5,10,10],"right_children":[2,4,6,8,-1,10,-1,-1,-1,-1,12,-1,-1],"split_conditions":[2E0,1E0,1.16E0,9.009E1,1.590314E-3,8.449E1,-1.2685442E-3,1.2919903E-4,5.7682727E-4,6.610775E-4,9.4E-1,-6.96466E-4,-1.8438054E-4],"split_indices":[5,4,22,3,0,3,0,0,0,0,20,0,0],"split_type":[0,0,0,0,0,0,0,0,0,0,0,0,0],"sum_hessian":[5E1,1.4E1,3.6E1,1E1,4E0,3.2E1,4E0,2E0,8E0,4E0,2.8E1,4E0,2.4E1],"tree_param":{"num_deleted":"0","num_feature":"24","num_nodes":"13","size_leaf_vector":"1"}},{"base_weights":[9.104738E-4,1.7291833E-2,-5.7552247E-3,9.7006885E-3,1.526699E-3,-2.76252E-3,-1.2178016E-3,5.677223E-3,6.696701E-4,6.3463213E-4,-5.3319437E-3,1.2489161E-4,3.2247067E-4,-4.712123E-4,-9.4444615E-5],"categories":[],"categories_nodes":[],"categories_segments":[],"categories_sizes":[],"default_left":[0,0,0,0,0,0,0,0,0,0,0,0,0,0,0],"id":45,"left_children":[1,3,5,7,-1,9,-1,11,-1,-1,13,-1,-1,-1,-1],"loss_changes":[5.668372E-3,1.2116451E-3,1.9923847E-3,8.7395194E-5,0E0,1.3781348E-3,0E0,1.0761141E-6,0E0,0E0,3.9080885E-4,0E0,0E0,0E0,0E0],"parents":[2147483647,0,0,1,1,2,2,3,3,5,5,7,7,10,10],"right_children":[2,4,6,8,-1,10,-1,12,-1,-1,14,-1,-1,-1,-1],"split_conditions":[2E0,1E0,1.16E0,1.0087E2,1.526699E-3,8.449E1,-1.2178016E-3,3.01E2,6.696701E-4,6.3463213E-4,6E0,1.2489161E-4,3.2247067E-4,-4.712123E-4,-9.4444615E-5],"split_indices":[5,4,22,3,0,3,0,2,0,0,6,0,0,0,0],"split_type":[0,0,0,0,0,0,0,0,0,0,0,0,0,0,0],"sum_hessian":[5E1,1.4E1,3.6E1,1E1,4E0,3.2E1,4E0,6E0,4E0,4E0,2.8E1,2E0,4E0,1.2E1,1.6E1],"tree_param":{"num_deleted":"0","num_feature":"24","num_nodes":"15","size_leaf_vector":"1"}},{"base_weights":[8.94266E-4,1.660347E-2,-5.4984996E-3,9.317181E-3,1.4656306E-3,-2.6222866E-3,-1.1690903E-3,2.7286325E-4,6.4288144E-4,6.092453E-4,-5.084827E-3,-6.497574E-4,-1.6496849E-4],"categories":[],"categories_nodes":[],"categories_segments":[],"categories_sizes":[],"default_left":[0,0,0,0,0,0,0,0,0,0,0,0,0],"id":46,"left_children":[1,3,5,7,-1,9,-1,-1,-1,-1,11,-1,-1],"loss_changes":[5.212982E-3,1.1159256E-3,1.8418253E-3,8.015649E-5,0E0,1.2652475E-3,0E0,0E0,0E0,0E0,3.6670687E-4,0E0,0E0],"parents":[2147483647,0,0,1,1,2,2,3,3,5,5,10,10],"right_children":[2,4,6,8,-1,10,-1,-1,-1,-1,12,-1,-1],"split_conditions":[2E0,1E0,1.16E0,1.0087E2,1.4656306E-3,8.449E1,-1.1690903E-3,2.7286325E-4,6.4288144E-4,6.092453E-4,9.4E-1,-6.497574E-4,-1.6496849E-4],"split_indices":[5,4,22,3,0,3,0,0,0,0,20,0,0],"split_type":[0,0,0,0,0,0,0,0,0,0,0,0,0],"sum_hessian":[5E1,1.4E1,3.6E1,1E1,4E0,3.2E1,4E0,6E0,4E0,4E0,2.8E1,4E0,2.4E1],"tree_param":{"num_deleted":"0","num_feature":"24","num_nodes":"13","size_leaf_vector":"1"}},{"base_weights":[8.692928E-4,1.5932035E-2,-5.260719E-3,8.934563E-3,1.4070034E-3,-8.89256E-3,7.0264074E-3,5.223376E-3,6.171656E-4,-5.826063E-3,-1.1223269E-3,5.848742E-4,4.750252E-5,1.1163155E-4,2.9865743E-4,-6.237674E-4,-1.9827344E-4],"categories":[],"categories_nodes":[],"categories_segments":[],"categories_sizes":[],"default_left":[0,0,0,0,0,0,0,0,0,0,0,0,0,0,0,0,0],"id":47,"left_children":[1,3,5,7,-1,9,11,13,-1,15,-1,-1,-1,-1,-1,-1,-1],"loss_changes":[4.7928886E-3,1.0299613E-3,1.713604E-3,7.468171E-5,0E0,1.074559E-3,2.4433486E-4,2.3608154E-6,0E0,2.5981985E-4,0E0,0E0,0E0,0E0,0E0,0E0,0E0],"parents":[2147483647,0,0,1,1,2,2,3,3,5,5,6,6,7,7,9,9],"right_children":[2,4,6,8,-1,10,12,14,-1,16,-1,-1,-1,-1,-1,-1,-1],"split_conditions":[2E0,1E0,1.07E0,1.0087E2,1.4070034E-3,1.04E0,8.449E1,3.01E2,6.171656E-4,9.4E-1,-1.1223269E-3,5.848742E-4,4.750252E-5,1.1163155E-4,2.9865743E-4,-6.237674E-4,-1.9827344E-4],"split_indices":[5,4,23,3,0,22,3,2,0,20,0,0,0,0,0,0,0],"split_type":[0,0,0,0,0,0,0,0,0,0,0,0,0,0,0,0,0],"sum_hessian":[5E1,1.4E1,3.6E1,1E1,4E0,2.8E1,8E0,6E0,4E0,2.4E1,4E0,4E0,4E0,2E0,4E0,4E0,2E1],"tree_param":{"num_deleted":"0","num_feature":"24","num_nodes":"17","size_leaf_vector":"1"}},{"base_weights":[8.4783515E-4,1.5297746E-2,-5.0331517E-3,8.5812695E-3,1.3507223E-3,-1.0440087E-2,2.7159564E-3,5.020857E-3,5.924797E-4,-9.3124976E-4,-4.43264E-3,5.614805E-4,-1.0577291E-3,1.0791222E-4,2.8671263E-4,-2.721045E-4,-1.0898461E-4,4.5602323E-5,-1.0783114E-4],"categories":[],"categories_nodes":[],"categories_segments":[],"categories_sizes":[],"default_left":[0,0,0,0,0,0,0,0,0,0,0,0,0,0,0,0,0,0,0],"id":48,"left_children":[1,3,5,7,-1,9,11,13,-1,-1,15,-1,17,-1,-1,-1,-1,-1,-1],"loss_changes":[4.410962E-3,9.486058E-4,1.5786152E-3,6.850733E-5,0E0,9.991908E-4,5.259235E-4,1.9193103E-6,0E0,0E0,1.9977248E-5,0E0,2.7941824E-5,0E0,0E0,0E0,0E0,0E0,0E0],"parents":[2147483647,0,0,1,1,2,2,3,3,5,5,6,6,7,7,10,10,12,12],"right_children":[2,4,6,8,-1,10,12,14,-1,-1,16,-1,18,-1,-1,-1,-1,-1,-1],"split_conditions":[2E0,1E0,7.626667E1,1.0087E2,1.3507223E-3,9.6666664E-1,8.449E1,3.01E2,5.924797E-4,-9.3124976E-4,5E0,5.614805E-4,1E0,1.0791222E-4,2.8671263E-4,-2.721045E-4,-1.0898461E-4,4.5602323E-5,-1.0783114E-4],"split_indices":[5,4,15,3,0,23,3,2,0,0,5,0,4,0,0,0,0,0,0],"split_type":[0,0,0,0,0,0,0,0,0,0,0,0,0,0,0,0,0,0,0],"sum_hessian":[5E1,1.4E1,3.6E1,1E1,4E0,2.1E1,1.5E1,6E0,4E0,8E0,1.3E1,4E0,1.1E1,2E0,4E0,8E0,5E0,4E0,7E0],"tree_param":{"num_deleted":"0","num_feature":"24","num_nodes":"19","size_leaf_vector":"1"}},{"base_weights":[8.353381E-4,1.4688714E-2,-4.803472E-3,8.241957E-3,1.296692E-3,-2.2336442E-3,-1.0401821E-3,4.8262053E-3,5.6878093E-4,5.390215E-4,-4.400428E-3,1.0431608E-4,2.752447E-4,-3.9599492E-4,-7.251098E-5],"categories":[],"categories_nodes":[],"categories_segments":[],"categories_sizes":[],"default_left":[0,0,0,0,0,0,0,0,0,0,0,0,0,0,0],"id":49,"left_children":[1,3,5,7,-1,9,-1,11,-1,-1,13,-1,-1,-1,-1],"loss_changes":[4.0545017E-3,8.73673E-4,1.4748862E-3,6.2840874E-5,0E0,9.779951E-4,0E0,1.5317055E-6,0E0,0E0,2.8962642E-4,0E0,0E0,0E0,0E0],"parents":[2147483647,0,0,1,1,2,2,3,3,5,5,7,7,10,10],"right_children":[2,4,6,8,-1,10,-1,12,-1,-1,14,-1,-1,-1,-1],"split_conditions":[2E0,1E0,1.16E0,1.0087E2,1.296692E-3,8.449E1,-1.0401821E-3,3.01E2,5.6878093E-4,5.390215E-4,6E0,1.0431608E-4,2.752447E-4,-3.9599492E-4,-7.251098E-5],"split_indices":[5,4,22,3,0,3,0,2,0,0,6,0,0,0,0],"split_type":[0,0,0,0,0,0,0,0,0,0,0,0,0,0,0],"sum_hessian":[5E1,1.4E1,3.6E1,1E1,4E0,3.2E1,4E0,6E0,4E0,4E0,2.8E1,2E0,4E0,1.2E1,1.6E1],"tree_param":{"num_deleted":"0","num_feature":"24","num_nodes":"15","size_leaf_vector":"1"}},{"base_weights":[8.1859267E-4,1.4103969E-2,-4.589495E-3,7.916082E-3,1.2448264E-3,-2.1198103E-3,-9.985757E-4,4.6391147E-3,5.46031E-4,5.1745895E-4,-4.196539E-3,1.0083914E-4,2.6423455E-4,-4.3770074E-4,-1.0217499E-4],"categories":[],"categories_nodes":[],"categories_segments":[],"categories_sizes":[],"default_left":[0,0,0,0,0,0,0,0,0,0,0,0,0,0,0],"id":50,"left_children":[1,3,5,7,-1,9,-1,11,-1,-1,13,-1,-1,-1,-1],"loss_changes":[3.7290026E-3,8.0466364E-4,1.3632473E-3,5.7641475E-5,0E0,8.979561E-4,0E0,1.1923257E-6,0E0,0E0,2.6667147E-4,0E0,0E0,0E0,0E0],"parents":[2147483647,0,0,1,1,2,2,3,3,5,5,7,7,10,10],"right_children":[2,4,6,8,-1,10,-1,12,-1,-1,14,-1,-1,-1,-1],"split_conditions":[2E0,1E0,1.16E0,1.0087E2,1.2448264E-3,8.449E1,-9.985757E-4,3.01E2,5.46031E-4,5.1745895E-4,4E0,1.0083914E-4,2.6423455E-4,-4.3770074E-4,-1.0217499E-4],"split_indices":[5,4,22,3,0,3,0,2,0,0,6,0,0,0,0],"split_type":[0,0,0,0,0,0,0,0,0,0,0,0,0,0,0],"sum_hessian":[5E1,1.4E1,3.6E1,1E1,4E0,3.2E1,4E0,6E0,4E0,4E0,2.8E1,2E0,4E0,8E0,2E1],"tree_param":{"num_deleted":"0","num_feature":"24","num_nodes":"15","size_leaf_vector":"1"}},{"base_weights":[7.999072E-4,1.3542509E-2,-4.3876315E-3,7.6031033E-3,1.195035E-3,-2.014516E-3,-9.5863343E-4,2.2296396E-4,5.241918E-4,4.967594E-4,-4.0053437E-3,-5.2821875E-4,-1.266662E-4],"categories":[],"categories_nodes":[],"categories_segments":[],"categories_sizes":[],"default_left":[0,0,0,0,0,0,0,0,0,0,0,0,0],"id":51,"left_children":[1,3,5,7,-1,9,-1,-1,-1,-1,11,-1,-1],"loss_changes":[3.4306594E-3,7.4110273E-4,1.2595807E-3,5.2871415E-5,0E0,8.248574E-4,0E0,0E0,0E0,0E0,2.5323275E-4,0E0,0E0],"parents":[2147483647,0,0,1,1,2,2,3,3,5,5,10,10],"right_children":[2,4,6,8,-1,10,-1,-1,-1,-1,12,-1,-1],"split_conditions":[2E0,1E0,1.16E0,1.0087E2,1.195035E-3,8.449E1,-9.5863343E-4,2.2296396E-4,5.241918E-4,4.967594E-4,9.4E-1,-5.2821875E-4,-1.266662E-4],"split_indices":[5,4,22,3,0,3,0,0,0,0,20,0,0],"split_type":[0,0,0,0,0,0,0,0,0,0,0,0,0],"sum_hessian":[5E1,1.4E1,3.6E1,1E1,4E0,3.2E1,4E0,6E0,4E0,4E0,2.8E1,4E0,2.4E1],"tree_param":{"num_deleted":"0","num_feature":"24","num_nodes":"13","size_leaf_vector":"1"}},{"base_weights":[7.7609805E-4,1.2994877E-2,-4.1984366E-3,7.2909053E-3,1.147232E-3,-7.1936003E-3,5.9191384E-3,4.2682034E-3,5.0322537E-4,-4.6634222E-3,-9.2028856E-4,4.768896E-4,5.5832865E-5,9.004672E-5,2.4474622E-4,-5.070901E-4,-1.5684891E-4],"categories":[],"categories_nodes":[],"categories_segments":[],"categories_sizes":[],"default_left":[0,0,0,0,0,0,0,0,0,0,0,0,0,0,0,0,0],"id":52,"left_children":[1,3,5,7,-1,9,11,13,-1,15,-1,-1,-1,-1,-1,-1,-1],"loss_changes":[3.1544783E-3,6.8401033E-4,1.1638203E-3,4.9264112E-5,0E0,7.3686114E-4,1.457562E-4,2.0085863E-6,0E0,1.7724634E-4,0E0,0E0,0E0,0E0,0E0,0E0,0E0],"parents":[2147483647,0,0,1,1,2,2,3,3,5,5,6,6,7,7,9,9],"right_children":[2,4,6,8,-1,10,12,14,-1,16,-1,-1,-1,-1,-1,-1,-1],"split_conditions":[2E0,1E0,1.07E0,1.0087E2,1.147232E-3,1.04E0,8.449E1,3.01E2,5.0322537E-4,9.4E-1,-9.2028856E-4,4.768896E-4,5.5832865E-5,9.004672E-5,2.4474622E-4,-5.070901E-4,-1.5684891E-4],"split_indices":[5,4,23,3,0,22,3,2,0,20,0,0,0,0,0,0,0],"split_type":[0,0,0,0,0,0,0,0,0,0,0,0,0,0,0,0,0],"sum_hessian":[5E1,1.4E1,3.6E1,1E1,4E0,2.8E1,8E0,6E0,4E0,2.4E1,4E0,4E0,4E0,2E0,4E0,4E0,2E1],"tree_param":{"num_deleted":"0","num_feature":"24","num_nodes":"17","size_leaf_vector":"1"}},{"base_weights":[7.555987E-4,1.2477493E-2,-4.0169423E-3,7.00257E-3,1.1013413E-3,-1.8266421E-3,-8.8347675E-4,4.102639E-3,4.8309803E-4,4.5781612E-4,-3.657269E-3,8.7046625E-5,2.3495674E-4,-3.3802804E-4,-5.345152E-5],"categories":[],"categories_nodes":[],"categories_segments":[],"categories_sizes":[],"default_left":[0,0,0,0,0,0,0,0,0,0,0,0,0,0,0],"id":53,"left_children":[1,3,5,7,-1,9,-1,11,-1,-1,13,-1,-1,-1,-1],"loss_changes":[2.9032258E-3,6.299834E-4,1.0741453E-3,4.519301E-5,0E0,6.969756E-4,0E0,1.6803606E-6,0E0,0E0,2.2570248E-4,0E0,0E0,0E0,0E0],"parents":[2147483647,0,0,1,1,2,2,3,3,5,5,7,7,10,10],"right_children":[2,4,6,8,-1,10,-1,12,-1,-1,14,-1,-1,-1,-1],"split_conditions":[2E0,1E0,1.16E0,1.0087E2,1.1013413E-3,8.449E1,-8.8347675E-4,3.01E2,4.8309803E-4,4.5781612E-4,6E0,8.7046625E-5,2.3495674E-4,-3.3802804E-4,-5.345152E-5],"split_indices":[5,4,22,3,0,3,0,2,0,0,6,0,0,0,0],"split_type":[0,0,0,0,0,0,0,0,0,0,0,0,0,0,0],"sum_hessian":[5E1,1.4E1,3.6E1,1E1,4E0,3.2E1,4E0,6E0,4E0,4E0,2.8E1,2E0,4E0,1.2E1,1.6E1],"tree_param":{"num_deleted":"0","num_feature":"24","num_nodes":"15","size_leaf_vector":"1"}},{"base_weights":[7.391759E-4,1.1980693E-2,-3.8381733E-3,6.725615E-3,1.0572863E-3,-1.7332904E-3,-8.4813836E-4,3.9435113E-3,4.6377184E-4,4.3950556E-4,-3.4879015E-3,8.414586E-5,2.2555828E-4,-4.7328472E-4,-1.0764135E-4],"categories":[],"categories_nodes":[],"categories_segments":[],"categories_sizes":[],"default_left":[0,0,0,0,0,0,0,0,0,0,0,0,0,0,0],"id":54,"left_children":[1,3,5,7,-1,9,-1,11,-1,-1,13,-1,-1,-1,-1],"loss_changes":[2.6702576E-3,5.8022654E-4,9.927506E-4,4.145474E-5,0E0,6.399868E-4,0E0,1.3907338E-6,0E0,0E0,2.110652E-4,0E0,0E0,0E0,0E0],"parents":[2147483647,0,0,1,1,2,2,3,3,5,5,7,7,10,10],"right_children":[2,4,6,8,-1,10,-1,12,-1,-1,14,-1,-1,-1,-1],"split_conditions":[2E0,1E0,1.16E0,1.0087E2,1.0572863E-3,8.449E1,-8.4813836E-4,3.01E2,4.6377184E-4,4.3950556E-4,9.4E-1,8.414586E-5,2.2555828E-4,-4.7328472E-4,-1.0764135E-4],"split_indices":[5,4,22,3,0,3,0,2,0,0,20,0,0,0,0],"split_type":[0,0,0,0,0,0,0,0,0,0,0,0,0,0,0],"sum_hessian":[5E1,1.4E1,3.6E1,1E1,4E0,3.2E1,4E0,6E0,4E0,4E0,2.8E1,2E0,4E0,4E0,2.4E1],"tree_param":{"num_deleted":"0","num_feature":"24","num_nodes":"15","size_leaf_vector":"1"}},{"base_weights":[7.1871397E-4,1.1503728E-2,-3.6730138E-3,6.4596697E-3,1.0149956E-3,-6.3482174E-3,5.3551993E-3,3.790583E-3,4.4522286E-4,-4.107077E-3,-8.142138E-4,4.219246E-4,6.0043334E-5,8.134048E-5,2.1653653E-4,-4.543543E-4,-1.3628928E-4],"categories":[],"categories_nodes":[],"categories_segments":[],"categories_sizes":[],"default_left":[0,0,0,0,0,0,0,0,0,0,0,0,0,0,0,0,0],"id":55,"left_children":[1,3,5,7,-1,9,11,13,-1,15,-1,-1,-1,-1,-1,-1,-1],"loss_changes":[2.4578606E-3,5.3439615E-4,9.2763134E-4,3.8025784E-5,0E0,5.7889416E-4,1.05147716E-4,1.1360244E-6,0E0,1.4720162E-4,0E0,0E0,0E0,0E0,0E0,0E0,0E0],"parents":[2147483647,0,0,1,1,2,2,3,3,5,5,6,6,7,7,9,9],"right_children":[2,4,6,8,-1,10,12,14,-1,16,-1,-1,-1,-1,-1,-1,-1],"split_conditions":[2E0,1E0,1.07E0,1.0087E2,1.0149956E-3,1.04E0,8.449E1,3.01E2,4.4522286E-4,9.4E-1,-8.142138E-4,4.219246E-4,6.0043334E-5,8.134048E-5,2.1653653E-4,-4.543543E-4,-1.3628928E-4],"split_indices":[5,4,23,3,0,22,3,2,0,20,0,0,0,0,0,0,0],"split_type":[0,0,0,0,0,0,0,0,0,0,0,0,0,0,0,0,0],"sum_hessian":[5E1,1.4E1,3.6E1,1E1,4E0,2.8E1,8E0,6E0,4E0,2.4E1,4E0,4E0,4E0,2E0,4E0,4E0,2E1],"tree_param":{"num_deleted":"0","num_feature":"24","num_nodes":"17","size_leaf_vector":"1"}},{"base_weights":[6.991777E-4,1.10457735E-2,-3.514285E-3,6.204258E-3,9.7439764E-4,-7.5040353E-3,2.1912642E-3,1.8218246E-4,4.27413E-4,-6.765697E-4,-3.0933022E-3,4.0504933E-4,-4.5372546E-4,-1.9194947E-4,-7.2961055E-5,5.764246E-5,-7.005595E-5],"categories":[],"categories_nodes":[],"categories_segments":[],"categories_sizes":[],"default_left":[0,0,0,0,0,0,0,0,0,0,0,0,0,0,0,0,0],"id":56,"left_children":[1,3,5,7,-1,9,11,-1,-1,-1,13,-1,15,-1,-1,-1,-1],"loss_changes":[2.2621627E-3,4.9218594E-4,8.587007E-4,3.4875935E-5,0E0,5.430147E-4,2.5377408E-4,0E0,0E0,0E0,1.1457261E-5,0E0,1.9879979E-5,0E0,0E0,0E0,0E0],"parents":[2147483647,0,0,1,1,2,2,3,3,5,5,6,6,10,10,12,12],"right_children":[2,4,6,8,-1,10,12,-1,-1,-1,14,-1,16,-1,-1,-1,-1],"split_conditions":[2E0,1E0,7.626667E1,1.0087E2,9.7439764E-4,9.6666664E-1,8.449E1,1.8218246E-4,4.27413E-4,-6.765697E-4,5E0,4.0504933E-4,1E0,-1.9194947E-4,-7.2961055E-5,5.764246E-5,-7.005595E-5],"split_indices":[5,4,15,3,0,23,3,0,0,0,5,0,4,0,0,0,0],"split_type":[0,0,0,0,0,0,0,0,0,0,0,0,0,0,0,0,0],"sum_hessian":[5E1,1.4E1,3.6E1,1E1,4E0,2.1E1,1.5E1,6E0,4E0,8E0,1.3E1,4E0,1.1E1,8E0,5E0,4E0,7E0],"tree_param":{"num_deleted":"0","num_feature":"24","num_nodes":"17","size_leaf_vector":"1"}},{"base_weights":[6.8451377E-4,1.0599105E-2,-3.3534153E-3,5.949497E-3,9.35421E-4,-1.4732751E-3,-7.5458287E-4,3.4875188E-3,4.1031837E-4,3.888464E-4,-3.0173352E-3,7.255872E-5,2.005911E-4,-2.8433526E-4,-3.99281E-5],"categories":[],"categories_nodes":[],"categories_segments":[],"categories_sizes":[],"default_left":[0,0,0,0,0,0,0,0,0,0,0,0,0,0,0],"id":57,"left_children":[1,3,5,7,-1,9,-1,11,-1,-1,13,-1,-1,-1,-1],"loss_changes":[2.0772982E-3,4.542712E-4,7.9433894E-4,3.250016E-5,0E0,4.948003E-4,0E0,1.6517733E-6,0E0,0E0,1.6721786E-4,0E0,0E0,0E0,0E0],"parents":[2147483647,0,0,1,1,2,2,3,3,5,5,7,7,10,10],"right_children":[2,4,6,8,-1,10,-1,12,-1,-1,14,-1,-1,-1,-1],"split_conditions":[2E0,1E0,1.16E0,1.0087E2,9.35421E-4,8.449E1,-7.5458287E-4,3.01E2,4.1031837E-4,3.888464E-4,6E0,7.255872E-5,2.005911E-4,-2.8433526E-4,-3.99281E-5],"split_indices":[5,4,22,3,0,3,0,2,0,0,6,0,0,0,0],"split_type":[0,0,0,0,0,0,0,0,0,0,0,0,0,0,0],"sum_hessian":[5E1,1.4E1,3.6E1,1E1,4E0,3.2E1,4E0,6E0,4E0,4E0,2.8E1,2E0,4E0,1.2E1,1.6E1],"tree_param":{"num_deleted":"0","num_feature":"24","num_nodes":"15","size_leaf_vector":"1"}},{"base_weights":[6.68493E-4,1.0177056E-2,-3.2043972E-3,5.714135E-3,8.980036E-4,-1.3976602E-3,-7.243991E-4,3.3521312E-3,3.9390565E-4,-3.565817E-3,4.7802925E-3,7.013877E-5,1.9256592E-4,-3.9774418E-4,-1.17550015E-4,3.73292E-4,5.6934357E-5],"categories":[],"categories_nodes":[],"categories_segments":[],"categories_sizes":[],"default_left":[0,0,0,0,0,0,0,0,0,0,0,0,0,0,0,0,0],"id":58,"left_children":[1,3,5,7,-1,9,-1,11,-1,13,15,-1,-1,-1,-1,-1,-1],"loss_changes":[1.910718E-3,4.1839865E-4,7.3405006E-4,2.9816118E-5,0E0,4.5907305E-4,0E0,1.4091202E-6,0E0,1.1459584E-4,7.951609E-5,0E0,0E0,0E0,0E0,0E0,0E0],"parents":[2147483647,0,0,1,1,2,2,3,3,5,5,7,7,9,9,10,10],"right_children":[2,4,6,8,-1,10,-1,12,-1,14,16,-1,-1,-1,-1,-1,-1],"split_conditions":[2E0,1E0,1.16E0,1.0087E2,8.980036E-4,1.07E0,-7.243991E-4,3.01E2,3.9390565E-4,9.4E-1,8.449E1,7.013877E-5,1.9256592E-4,-3.9774418E-4,-1.17550015E-4,3.73292E-4,5.6934357E-5],"split_indices":[5,4,22,3,0,23,0,2,0,20,3,0,0,0,0,0,0],"split_type":[0,0,0,0,0,0,0,0,0,0,0,0,0,0,0,0,0],"sum_hessian":[5E1,1.4E1,3.6E1,1E1,4E0,3.2E1,4E0,6E0,4E0,2.4E1,8E0,2E0,4E0,4E0,2E1,4E0,4E0],"tree_param":{"num_deleted":"0","num_feature":"24","num_nodes":"17","size_leaf_vector":"1"}},{"base_weights":[6.49686E-4,9.771871E-3,-3.0660564E-3,5.4881573E-3,8.620834E-4,-1.330354E-3,-6.954241E-4,3.222091E-3,3.7815093E-4,-3.4081459E-3,4.5891074E-3,6.780227E-5,1.84865E-4,-3.818345E-4,-1.1195285E-4,3.583622E-4,5.465746E-5],"categories":[],"categories_nodes":[],"categories_segments":[],"categories_sizes":[],"default_left":[0,0,0,0,0,0,0,0,0,0,0,0,0,0,0,0,0],"id":59,"left_children":[1,3,5,7,-1,9,-1,11,-1,13,15,-1,-1,-1,-1,-1,-1],"loss_changes":[1.7586414E-3,3.8535218E-4,6.7780813E-4,2.7350761E-5,0E0,4.2152082E-4,0E0,1.1936281E-6,0E0,1.06489606E-4,7.3282674E-5,0E0,0E0,0E0,0E0,0E0,0E0],"parents":[2147483647,0,0,1,1,2,2,3,3,5,5,7,7,9,9,10,10],"right_children":[2,4,6,8,-1,10,-1,12,-1,14,16,-1,-1,-1,-1,-1,-1],"split_conditions":[2E0,1E0,1.16E0,1.0087E2,8.620834E-4,1.07E0,-6.954241E-4,3.01E2,3.7815093E-4,9.4E-1,8.449E1,6.780227E-5,1.84865E-4,-3.818345E-4,-1.1195285E-4,3.583622E-4,5.465746E-5],"split_indices":[5,4,22,3,0,23,0,2,0,20,3,0,0,0,0,0,0],"split_type":[0,0,0,0,0,0,0,0,0,0,0,0,0,0,0,0,0],"sum_hessian":[5E1,1.4E1,3.6E1,1E1,4E0,3.2E1,4E0,6E0,4E0,2.4E1,8E0,2E0,4E0,4E0,2E1,4E0,4E0],"tree_param":{"num_deleted":"0","num_feature":"24","num_nodes":"17","size_leaf_vector":"1"}},{"base_weights":[6.312436E-4,9.382788E-3,-2.9337406E-3,5.271088E-3,8.2759856E-4,-1.2662916E-3,-6.676078E-4,3.0970573E-3,3.6302567E-4,-3.2575035E-3,4.4055516E-3,6.5541266E-5,1.7746926E-4,-3.6656143E-4,-1.0662249E-4,3.4402846E-4,5.247116E-5],"categories":[],"categories_nodes":[],"categories_segments":[],"categories_sizes":[],"default_left":[0,0,0,0,0,0,0,0,0,0,0,0,0,0,0,0,0],"id":60,"left_children":[1,3,5,7,-1,9,-1,11,-1,13,15,-1,-1,-1,-1,-1,-1],"loss_changes":[1.6186816E-3,3.549162E-4,6.2586274E-4,2.5089597E-5,0E0,3.8704788E-4,0E0,1.0031144E-6,0E0,9.8945515E-5,6.753768E-5,0E0,0E0,0E0,0E0,0E0,0E0],"parents":[2147483647,0,0,1,1,2,2,3,3,5,5,7,7,9,9,10,10],"right_children":[2,4,6,8,-1,10,-1,12,-1,14,16,-1,-1,-1,-1,-1,-1],"split_conditions":[2E0,1E0,1.16E0,1.0087E2,8.2759856E-4,1.07E0,-6.676078E-4,3.01E2,3.6302567E-4,9.4E-1,8.449E1,6.5541266E-5,1.7746926E-4,-3.6656143E-4,-1.0662249E-4,3.4402846E-4,5.247116E-5],"split_indices":[5,4,22,3,0,23,0,2,0,20,3,0,0,0,0,0,0],"split_type":[0,0,0,0,0,0,0,0,0,0,0,0,0,0,0,0,0],"sum_hessian":[5E1,1.4E1,3.6E1,1E1,4E0,3.2E1,4E0,6E0,4E0,2.4E1,8E0,2E0,4E0,4E0,2E1,4E0,4E0],"tree_param":{"num_deleted":"0","num_feature":"24","num_nodes":"17","size_leaf_vector":"1"}},{"base_weights":[6.132079E-4,9.009234E-3,-2.8071597E-3,5.0626234E-3,7.9449656E-4,-6.083751E-3,1.8736012E-3,1.4884472E-4,3.48506E-4,-5.5155624E-4,-2.4687436E-3,3.3026698E-4,-2.5408962E-4,-1.5584496E-4,-5.4252643E-5,5.037308E-5,-5.0539897E-5],"categories":[],"categories_nodes":[],"categories_segments":[],"categories_sizes":[],"default_left":[0,0,0,0,0,0,0,0,0,0,0,0,0,0,0,0,0],"id":61,"left_children":[1,3,5,7,-1,9,11,-1,-1,-1,13,-1,15,-1,-1,-1,-1],"loss_changes":[1.4898827E-3,3.2688666E-4,5.7886535E-4,2.3014436E-5,0E0,3.6623236E-4,1.6276115E-4,0E0,0E0,0E0,9.173855E-6,0E0,1.2473855E-5,0E0,0E0,0E0,0E0],"parents":[2147483647,0,0,1,1,2,2,3,3,5,5,6,6,10,10,12,12],"right_children":[2,4,6,8,-1,10,12,-1,-1,-1,14,-1,16,-1,-1,-1,-1],"split_conditions":[2E0,1E0,7.626667E1,1.0087E2,7.9449656E-4,9.6666664E-1,8.449E1,1.4884472E-4,3.48506E-4,-5.5155624E-4,5E0,3.3026698E-4,1E0,-1.5584496E-4,-5.4252643E-5,5.037308E-5,-5.0539897E-5],"split_indices":[5,4,15,3,0,23,3,0,0,0,5,0,4,0,0,0,0],"split_type":[0,0,0,0,0,0,0,0,0,0,0,0,0,0,0,0,0],"sum_hessian":[5E1,1.4E1,3.6E1,1E1,4E0,2.1E1,1.5E1,6E0,4E0,8E0,1.3E1,4E0,1.1E1,8E0,5E0,4E0,7E0],"tree_param":{"num_deleted":"0","num_feature":"24","num_nodes":"17","size_leaf_vector":"1"}},{"base_weights":[5.9942406E-4,8.644883E-3,-2.678449E-3,4.854701E-3,7.6271535E-4,-1.1278391E-3,-6.188393E-4,5.8392685E-5,5.5442387E-3,-2.9504157E-3,4.060189E-3,1.6441346E-4,3.3456803E-4,-3.2983543E-4,-9.708774E-5,3.1705858E-4,4.835844E-5],"categories":[],"categories_nodes":[],"categories_segments":[],"categories_sizes":[],"default_left":[0,0,0,0,0,0,0,0,0,0,0,0,0,0,0,0,0],"id":62,"left_children":[1,3,5,7,-1,9,-1,-1,11,13,15,-1,-1,-1,-1,-1,-1],"loss_changes":[1.3681265E-3,3.017087E-4,5.424594E-4,2.148957E-5,0E0,3.2401332E-4,0E0,0E0,1.2878445E-6,7.913762E-5,5.7363126E-5,0E0,0E0,0E0,0E0,0E0,0E0],"parents":[2147483647,0,0,1,1,2,2,3,3,5,5,8,8,9,9,10,10],"right_children":[2,4,6,8,-1,10,-1,-1,12,14,16,-1,-1,-1,-1,-1,-1],"split_conditions":[2E0,1E0,1.16E0,9.009E1,7.6271535E-4,1.07E0,-6.188393E-4,5.8392685E-5,1.0087E2,9.4E-1,8.449E1,1.6441346E-4,3.3456803E-4,-3.2983543E-4,-9.708774E-5,3.1705858E-4,4.835844E-5],"split_indices":[5,4,22,3,0,23,0,0,3,20,3,0,0,0,0,0,0],"split_type":[0,0,0,0,0,0,0,0,0,0,0,0,0,0,0,0,0],"sum_hessian":[5E1,1.4E1,3.6E1,1E1,4E0,3.2E1,4E0,2E0,8E0,2.4E1,8E0,4E0,4E0,4E0,2E1,4E0,4E0],"tree_param":{"num_deleted":"0","num_feature":"24","num_nodes":"17","size_leaf_vector":"1"}},{"base_weights":[5.819961E-4,8.300638E-3,-2.5629126E-3,4.662622E-3,7.322073E-4,-1.0733063E-3,-5.9408665E-4,2.738646E-3,3.211832E-4,-2.8199626E-3,3.8977729E-3,5.64456E-5,1.5783787E-4,-2.5779937E-4,-7.086817E-5,3.043747E-4,4.6424866E-5],"categories":[],"categories_nodes":[],"categories_segments":[],"categories_sizes":[],"default_left":[0,0,0,0,0,0,0,0,0,0,0,0,0,0,0,0,0],"id":63,"left_children":[1,3,5,7,-1,9,-1,11,-1,13,15,-1,-1,-1,-1,-1,-1],"loss_changes":[1.2592695E-3,2.7788663E-4,5.008582E-4,1.967809E-5,0E0,2.9752287E-4,0E0,1.1476332E-6,0E0,7.460473E-5,5.286475E-5,0E0,0E0,0E0,0E0,0E0,0E0],"parents":[2147483647,0,0,1,1,2,2,3,3,5,5,7,7,9,9,10,10],"right_children":[2,4,6,8,-1,10,-1,12,-1,14,16,-1,-1,-1,-1,-1,-1],"split_conditions":[2E0,1E0,1.16E0,1.0087E2,7.322073E-4,1.07E0,-5.9408665E-4,3.01E2,3.211832E-4,4E0,8.449E1,5.64456E-5,1.5783787E-4,-2.5779937E-4,-7.086817E-5,3.043747E-4,4.6424866E-5],"split_indices":[5,4,22,3,0,23,0,2,0,6,3,0,0,0,0,0,0],"split_type":[0,0,0,0,0,0,0,0,0,0,0,0,0,0,0,0,0],"sum_hessian":[5E1,1.4E1,3.6E1,1E1,4E0,3.2E1,4E0,6E0,4E0,2.4E1,8E0,2E0,4E0,8E0,1.6E1,4E0,4E0],"tree_param":{"num_deleted":"0","num_feature":"24","num_nodes":"17","size_leaf_vector":"1"}},{"base_weights":[5.6654564E-4,7.970142E-3,-2.4502245E-3,4.4781943E-3,7.0291996E-4,-1.0189685E-3,-5.703235E-4,1.3161729E-4,3.083372E-4,-2.692113E-3,3.7418737E-3,-3.0632975E-4,-8.730917E-5,2.9220103E-4,4.4567587E-5],"categories":[],"categories_nodes":[],"categories_segments":[],"categories_sizes":[],"default_left":[0,0,0,0,0,0,0,0,0,0,0,0,0,0,0],"id":64,"left_children":[1,3,5,7,-1,9,-1,-1,-1,11,13,-1,-1,-1,-1],"loss_changes":[1.1586112E-3,2.5594188E-4,4.626683E-4,1.8051884E-5,0E0,2.7293756E-4,0E0,0E0,0E0,7.052129E-5,4.8720874E-5,0E0,0E0,0E0,0E0],"parents":[2147483647,0,0,1,1,2,2,3,3,5,5,9,9,10,10],"right_children":[2,4,6,8,-1,10,-1,-1,-1,12,14,-1,-1,-1,-1],"split_conditions":[2E0,1E0,1.16E0,1.0087E2,7.0291996E-4,1.07E0,-5.703235E-4,1.3161729E-4,3.083372E-4,9.4E-1,8.449E1,-3.0632975E-4,-8.730917E-5,2.9220103E-4,4.4567587E-5],"split_indices":[5,4,22,3,0,23,0,0,0,20,3,0,0,0,0],"split_type":[0,0,0,0,0,0,0,0,0,0,0,0,0,0,0],"sum_hessian":[5E1,1.4E1,3.6E1,1E1,4E0,3.2E1,4E0,6E0,4E0,2.4E1,8E0,4E0,2E1,4E0,4E0],"tree_param":{"num_deleted":"0","num_feature":"24","num_nodes":"15","size_leaf_vector":"1"}},{"base_weights":[5.48323E-4,7.6478003E-3,-2.344663E-3,4.2942655E-3,6.748009E-4,-9.697387E-4,-5.475116E-4,5.0179166E-5,2.4570094E-4,2.8051375E-4,-2.0707846E-3,-2.0547281E-4,-1.9499485E-5],"categories":[],"categories_nodes":[],"categories_segments":[],"categories_sizes":[],"default_left":[0,0,0,0,0,0,0,0,0,0,0,0,0],"id":65,"left_children":[1,3,5,7,-1,9,-1,-1,-1,-1,11,-1,-1],"loss_changes":[1.0654047E-3,2.3622753E-4,4.2716536E-4,1.7501909E-5,0E0,2.506993E-4,0E0,0E0,0E0,0E0,9.7768425E-5,0E0,0E0],"parents":[2147483647,0,0,1,1,2,2,3,3,5,5,10,10],"right_children":[2,4,6,8,-1,10,-1,-1,-1,-1,12,-1,-1],"split_conditions":[2E0,1E0,1.16E0,9.009E1,6.748009E-4,8.449E1,-5.475116E-4,5.0179166E-5,2.4570094E-4,2.8051375E-4,6E0,-2.0547281E-4,-1.9499485E-5],"split_indices":[5,4,22,3,0,3,0,0,0,0,6,0,0],"split_type":[0,0,0,0,0,0,0,0,0,0,0,0,0],"sum_hessian":[5E1,1.4E1,3.6E1,1E1,4E0,3.2E1,4E0,2E0,8E0,4E0,2.8E1,1.2E1,1.6E1],"tree_param":{"num_deleted":"0","num_feature":"24","num_nodes":"13","size_leaf_vector":"1"}},{"base_weights":[5.3028733E-4,7.3301154E-3,-2.2407318E-3,4.1064564E-3,6.4780714E-4,-9.1957685E-4,-5.2561046E-4,1.18240285E-4,2.8617383E-4,-2.4652719E-3,3.476196E-3,-2.858591E-4,-7.8680685E-5,2.6929379E-4,4.3563843E-5],"categories":[],"categories_nodes":[],"categories_segments":[],"categories_sizes":[],"default_left":[0,0,0,0,0,0,0,0,0,0,0,0,0,0,0],"id":66,"left_children":[1,3,5,7,-1,9,-1,-1,-1,11,13,-1,-1,-1,-1],"loss_changes":[9.7739E-4,2.18842E-4,3.9466564E-4,1.7444196E-5,0E0,2.3278908E-4,0E0,0E0,0E0,6.349318E-5,4.0078463E-5,0E0,0E0,0E0,0E0],"parents":[2147483647,0,0,1,1,2,2,3,3,5,5,9,9,10,10],"right_children":[2,4,6,8,-1,10,-1,-1,-1,12,14,-1,-1,-1,-1],"split_conditions":[2E0,1E0,1.16E0,1.0087E2,6.4780714E-4,1.07E0,-5.2561046E-4,1.18240285E-4,2.8617383E-4,9.4E-1,8.449E1,-2.858591E-4,-7.8680685E-5,2.6929379E-4,4.3563843E-5],"split_indices":[5,4,22,3,0,23,0,0,0,20,3,0,0,0,0],"split_type":[0,0,0,0,0,0,0,0,0,0,0,0,0,0,0],"sum_hessian":[5E1,1.4E1,3.6E1,1E1,4E0,3.2E1,4E0,6E0,4E0,2.4E1,8E0,4E0,2E1,4E0,4E0],"tree_param":{"num_deleted":"0","num_feature":"24","num_nodes":"15","size_leaf_vector":"1"}},{"base_weights":[5.130791E-4,7.0337453E-3,-2.1443013E-3,3.937873E-3,6.218958E-4,-8.75166E-4,-5.0458673E-4,2.2634438E-3,2.7472497E-4,-2.3565912E-3,3.3371449E-3,4.4564407E-5,1.3170243E-4,-2.7442456E-4,-7.493411E-5,2.5852205E-4,4.1821004E-5],"categories":[],"categories_nodes":[],"categories_segments":[],"categories_sizes":[],"default_left":[0,0,0,0,0,0,0,0,0,0,0,0,0,0,0,0,0],"id":67,"left_children":[1,3,5,7,-1,9,-1,11,-1,13,15,-1,-1,-1,-1,-1,-1],"loss_changes":[8.988049E-4,2.0198035E-4,3.6436366E-4,1.6234582E-5,0E0,2.1379167E-4,0E0,1.2119963E-6,0E0,5.894662E-5,3.6936457E-5,0E0,0E0,0E0,0E0,0E0,0E0],"parents":[2147483647,0,0,1,1,2,2,3,3,5,5,7,7,9,9,10,10],"right_children":[2,4,6,8,-1,10,-1,12,-1,14,16,-1,-1,-1,-1,-1,-1],"split_conditions":[2E0,1E0,1.16E0,1.0087E2,6.218958E-4,1.07E0,-5.0458673E-4,3.01E2,2.7472497E-4,9.4E-1,8.449E1,4.4564407E-5,1.3170243E-4,-2.7442456E-4,-7.493411E-5,2.5852205E-4,4.1821004E-5],"split_indices":[5,4,22,3,0,23,0,2,0,20,3,0,0,0,0,0,0],"split_type":[0,0,0,0,0,0,0,0,0,0,0,0,0,0,0,0,0],"sum_hessian":[5E1,1.4E1,3.6E1,1E1,4E0,3.2E1,4E0,6E0,4E0,2.4E1,8E0,2E0,4E0,4E0,2E1,4E0,4E0],"tree_param":{"num_deleted":"0","num_feature":"24","num_nodes":"17","size_leaf_vector":"1"}},{"base_weights":[4.975913E-4,6.753556E-3,-2.052059E-3,3.7819473E-3,5.970192E-4,-8.329081E-4,-4.844022E-4,2.1754333E-3,2.6373388E-4,-2.2527457E-3,3.2036304E-3,4.3078264E-5,1.2643337E-4,-2.1259917E-4,-5.3090556E-5,2.4817945E-4,4.0147304E-5],"categories":[],"categories_nodes":[],"categories_segments":[],"categories_sizes":[],"default_left":[0,0,0,0,0,0,0,0,0,0,0,0,0,0,0,0,0],"id":68,"left_children":[1,3,5,7,-1,9,-1,11,-1,13,15,-1,-1,-1,-1,-1,-1],"loss_changes":[8.2733535E-4,1.8604042E-4,3.3637922E-4,1.490429E-5,0E0,1.9634754E-4,0E0,1.0701115E-6,0E0,5.5009223E-5,3.4040444E-5,0E0,0E0,0E0,0E0,0E0,0E0],"parents":[2147483647,0,0,1,1,2,2,3,3,5,5,7,7,9,9,10,10],"right_children":[2,4,6,8,-1,10,-1,12,-1,14,16,-1,-1,-1,-1,-1,-1],"split_conditions":[2E0,1E0,1.16E0,1.0087E2,5.970192E-4,1.07E0,-4.844022E-4,3.01E2,2.6373388E-4,4E0,8.449E1,4.3078264E-5,1.2643337E-4,-2.1259917E-4,-5.3090556E-5,2.4817945E-4,4.0147304E-5],"split_indices":[5,4,22,3,0,23,0,2,0,6,3,0,0,0,0,0,0],"split_type":[0,0,0,0,0,0,0,0,0,0,0,0,0,0,0,0,0],"sum_hessian":[5E1,1.4E1,3.6E1,1E1,4E0,3.2E1,4E0,6E0,4E0,2.4E1,8E0,2E0,4E0,8E0,1.6E1,4E0,4E0],"tree_param":{"num_deleted":"0","num_feature":"24","num_nodes":"17","size_leaf_vector":"1"}},{"base_weights":[4.8386582E-4,6.4845723E-3,-1.9619304E-3,3.632242E-3,5.731392E-4,-7.9057075E-4,-4.650259E-4,1.04543135E-4,2.5318624E-4,-2.1507216E-3,3.0754672E-3,-2.5494336E-4,-6.731834E-5,2.3825168E-4,3.8540365E-5],"categories":[],"categories_nodes":[],"categories_segments":[],"categories_sizes":[],"default_left":[0,0,0,0,0,0,0,0,0,0,0,0,0,0,0],"id":69,"left_children":[1,3,5,7,-1,9,-1,-1,-1,11,13,-1,-1,-1,-1],"loss_changes":[7.6122396E-4,1.7135695E-4,3.1070394E-4,1.3683486E-5,0E0,1.801415E-4,0E0,0E0,0E0,5.2418938E-5,3.1371972E-5,0E0,0E0,0E0,0E0],"parents":[2147483647,0,0,1,1,2,2,3,3,5,5,9,9,10,10],"right_children":[2,4,6,8,-1,10,-1,-1,-1,12,14,-1,-1,-1,-1],"split_conditions":[2E0,1E0,1.16E0,1.0087E2,5.731392E-4,1.07E0,-4.650259E-4,1.04543135E-4,2.5318624E-4,9.4E-1,8.449E1,-2.5494336E-4,-6.731834E-5,2.3825168E-4,3.8540365E-5],"split_indices":[5,4,22,3,0,23,0,0,0,20,3,0,0,0,0],"split_type":[0,0,0,0,0,0,0,0,0,0,0,0,0,0,0],"sum_hessian":[5E1,1.4E1,3.6E1,1E1,4E0,3.2E1,4E0,6E0,4E0,2.4E1,8E0,4E0,2E1,4E0,4E0],"tree_param":{"num_deleted":"0","num_feature":"24","num_nodes":"15","size_leaf_vector":"1"}},{"base_weights":[4.6789646E-4,6.222391E-3,-1.8776526E-3,3.4831436E-3,5.5021286E-4,-4.1888086E-3,1.41754E-3,2.0012516E-3,2.430582E-4,-3.8398372E-4,-1.6454799E-3,2.2871971E-4,-1.5944242E-5,3.8158894E-5,1.1719227E-4,-1.085639E-4,-2.9126802E-5,3.6997797E-5,-2.431944E-5],"categories":[],"categories_nodes":[],"categories_segments":[],"categories_sizes":[],"default_left":[0,0,0,0,0,0,0,0,0,0,0,0,0,0,0,0,0,0,0],"id":70,"left_children":[1,3,5,7,-1,9,11,13,-1,-1,15,-1,17,-1,-1,-1,-1,-1,-1],"loss_changes":[7.000534E-4,1.5815138E-4,2.8771884E-4,1.2734439E-5,0E0,1.8268847E-4,7.247775E-5,1.180324E-6,0E0,0E0,6.559665E-6,0E0,4.6272157E-6,0E0,0E0,0E0,0E0,0E0,0E0],"parents":[2147483647,0,0,1,1,2,2,3,3,5,5,6,6,7,7,10,10,12,12],"right_children":[2,4,6,8,-1,10,12,14,-1,-1,16,-1,18,-1,-1,-1,-1,-1,-1],"split_conditions":[2E0,1E0,7.626667E1,1.0087E2,5.5021286E-4,9.6666664E-1,8.449E1,3.01E2,2.430582E-4,-3.8398372E-4,5E0,2.2871971E-4,1E0,3.8158894E-5,1.1719227E-4,-1.085639E-4,-2.9126802E-5,3.6997797E-5,-2.431944E-5],"split_indices":[5,4,15,3,0,23,3,2,0,0,5,0,4,0,0,0,0,0,0],"split_type":[0,0,0,0,0,0,0,0,0,0,0,0,0,0,0,0,0,0,0],"sum_hessian":[5E1,1.4E1,3.6E1,1E1,4E0,2.1E1,1.5E1,6E0,4E0,8E0,1.3E1,4E0,1.1E1,2E0,4E0,8E0,5E0,4E0,7E0],"tree_param":{"num_deleted":"0","num_feature":"24","num_nodes":"19","size_leaf_vector":"1"}},{"base_weights":[4.575942E-4,5.9744995E-3,-1.7913564E-3,3.3452078E-3,5.282021E-4,-7.022312E-4,-4.3106553E-4,1.9233908E-3,2.333355E-4,-1.9472908E-3,2.8342935E-3,3.6887326E-5,1.1250495E-4,-1.8504461E-4,-4.5218363E-5,2.1956922E-4,3.5517216E-5],"categories":[],"categories_nodes":[],"categories_segments":[],"categories_sizes":[],"default_left":[0,0,0,0,0,0,0,0,0,0,0,0,0,0,0,0,0],"id":71,"left_children":[1,3,5,7,-1,9,-1,11,-1,13,15,-1,-1,-1,-1,-1,-1],"loss_changes":[6.4347207E-4,1.4566974E-4,2.6917682E-4,1.1692377E-5,0E0,1.5082427E-4,0E0,1.0515196E-6,0E0,4.2374857E-5,2.664524E-5,0E0,0E0,0E0,0E0,0E0,0E0],"parents":[2147483647,0,0,1,1,2,2,3,3,5,5,7,7,9,9,10,10],"right_children":[2,4,6,8,-1,10,-1,12,-1,14,16,-1,-1,-1,-1,-1,-1],"split_conditions":[2E0,1E0,1.16E0,1.0087E2,5.282021E-4,1.07E0,-4.3106553E-4,3.01E2,2.333355E-4,4E0,8.449E1,3.6887326E-5,1.1250495E-4,-1.8504461E-4,-4.5218363E-5,2.1956922E-4,3.5517216E-5],"split_indices":[5,4,22,3,0,23,0,2,0,6,3,0,0,0,0,0,0],"split_type":[0,0,0,0,0,0,0,0,0,0,0,0,0,0,0,0,0],"sum_hessian":[5E1,1.4E1,3.6E1,1E1,4E0,3.2E1,4E0,6E0,4E0,2.4E1,8E0,2E0,4E0,8E0,1.6E1,4E0,4E0],"tree_param":{"num_deleted":"0","num_feature":"24","num_nodes":"17","size_leaf_vector":"1"}},{"base_weights":[4.4462143E-4,5.73651E-3,-1.7127555E-3,3.2127553E-3,5.070734E-4,-6.6635286E-4,-4.1382315E-4,9.2428076E-5,2.240038E-4,-1.8591142E-3,2.7209122E-3,-2.2198439E-4,-5.7808134E-5,2.1078587E-4,3.409624E-5],"categories":[],"categories_nodes":[],"categories_segments":[],"categories_sizes":[],"default_left":[0,0,0,0,0,0,0,0,0,0,0,0,0,0,0],"id":72,"left_children":[1,3,5,7,-1,9,-1,-1,-1,11,13,-1,-1,-1,-1],"loss_changes":[5.920718E-4,1.3417343E-4,2.4861135E-4,1.07358865E-5,0E0,1.3838505E-4,0E0,0E0,0E0,4.0217456E-5,2.4556197E-5,0E0,0E0,0E0,0E0],"parents":[2147483647,0,0,1,1,2,2,3,3,5,5,9,9,10,10],"right_children":[2,4,6,8,-1,10,-1,-1,-1,12,14,-1,-1,-1,-1],"split_conditions":[2E0,1E0,1.16E0,1.0087E2,5.070734E-4,1.07E0,-4.1382315E-4,9.2428076E-5,2.240038E-4,9.4E-1,8.449E1,-2.2198439E-4,-5.7808134E-5,2.1078587E-4,3.409624E-5],"split_indices":[5,4,22,3,0,23,0,0,0,20,3,0,0,0,0],"split_type":[0,0,0,0,0,0,0,0,0,0,0,0,0,0,0],"sum_hessian":[5E1,1.4E1,3.6E1,1E1,4E0,3.2E1,4E0,6E0,4E0,2.4E1,8E0,4E0,2E1,4E0,4E0],"tree_param":{"num_deleted":"0","num_feature":"24","num_nodes":"15","size_leaf_vector":"1"}},{"base_weights":[4.29746E-4,5.5045923E-3,-1.6392389E-3,3.0809098E-3,4.8678878E-4,-6.3408684E-4,-3.972697E-4,3.25799E-5,1.7741787E-4,-1.7773461E-3,2.6120874E-3,-1.4846142E-4,-2.2437252E-5,2.023554E-4,3.273249E-5],"categories":[],"categories_nodes":[],"categories_segments":[],"categories_sizes":[],"default_left":[0,0,0,0,0,0,0,0,0,0,0,0,0,0,0],"id":73,"left_children":[1,3,5,7,-1,9,-1,-1,-1,11,13,-1,-1,-1,-1],"loss_changes":[5.445122E-4,1.2383063E-4,2.294918E-4,1.01792175E-5,0E0,1.271128E-4,0E0,0E0,0E0,3.8255974E-5,2.2631219E-5,0E0,0E0,0E0,0E0],"parents":[2147483647,0,0,1,1,2,2,3,3,5,5,9,9,10,10],"right_children":[2,4,6,8,-1,10,-1,-1,-1,12,14,-1,-1,-1,-1],"split_conditions":[2E0,1E0,1.16E0,9.009E1,4.8678878E-4,1.07E0,-3.972697E-4,3.25799E-5,1.7741787E-4,6E0,8.449E1,-1.4846142E-4,-2.2437252E-5,2.023554E-4,3.273249E-5],"split_indices":[5,4,22,3,0,23,0,0,0,6,3,0,0,0,0],"split_type":[0,0,0,0,0,0,0,0,0,0,0,0,0,0,0],"sum_hessian":[5E1,1.4E1,3.6E1,1E1,4E0,3.2E1,4E0,2E0,8E0,2.4E1,8E0,1.2E1,1.2E1,4E0,4E0],"tree_param":{"num_deleted":"0","num_feature":"24","num_nodes":"15","size_leaf_vector":"1"}},{"base_weights":[4.1540348E-4,5.2758534E-3,-1.5662763E-3,2.9459866E-3,4.673195E-4,-6.0043373E-4,-3.8137913E-4,8.293561E-5,2.0794869E-4,1.9426346E-4,-1.3531261E-3,-1.4160872E-4,-7.124683E-6],"categories":[],"categories_nodes":[],"categories_segments":[],"categories_sizes":[],"default_left":[0,0,0,0,0,0,0,0,0,0,0,0,0],"id":74,"left_children":[1,3,5,7,-1,9,-1,-1,-1,-1,11,-1,-1],"loss_changes":[4.9948803E-4,1.1472279E-4,2.1202804E-4,1.0277385E-5,0E0,1.16676965E-4,0E0,0E0,0E0,0E0,5.1523366E-5,0E0,0E0],"parents":[2147483647,0,0,1,1,2,2,3,3,5,5,10,10],"right_children":[2,4,6,8,-1,10,-1,-1,-1,-1,12,-1,-1],"split_conditions":[2E0,1E0,1.16E0,1.0087E2,4.673195E-4,8.449E1,-3.8137913E-4,8.293561E-5,2.0794869E-4,1.9426346E-4,6E0,-1.4160872E-4,-7.124683E-6],"split_indices":[5,4,22,3,0,3,0,0,0,0,6,0,0],"split_type":[0,0,0,0,0,0,0,0,0,0,0,0,0],"sum_hessian":[5E1,1.4E1,3.6E1,1E1,4E0,3.2E1,4E0,6E0,4E0,4E0,2.8E1,1.2E1,1.6E1],"tree_param":{"num_deleted":"0","num_feature":"24","num_nodes":"13","size_leaf_vector":"1"}},{"base_weights":[4.0292155E-4,5.062612E-3,-1.4970319E-3,2.82513E-3,4.4862748E-4,-5.690203E-4,-3.661251E-4,7.937976E-5,1.9963265E-4,-1.6239095E-3,2.424452E-3,-2.0150184E-4,-4.868465E-5,1.8649102E-4,3.170967E-5],"categories":[],"categories_nodes":[],"categories_segments":[],"categories_sizes":[],"default_left":[0,0,0,0,0,0,0,0,0,0,0,0,0,0,0],"id":75,"left_children":[1,3,5,7,-1,9,-1,-1,-1,11,13,-1,-1,-1,-1],"loss_changes":[4.590918E-4,1.0587761E-4,1.958592E-4,9.5546275E-6,0E0,1.0814388E-4,0E0,0E0,0E0,3.5188576E-5,1.8667091E-5,0E0,0E0,0E0,0E0],"parents":[2147483647,0,0,1,1,2,2,3,3,5,5,9,9,10,10],"right_children":[2,4,6,8,-1,10,-1,-1,-1,12,14,-1,-1,-1,-1],"split_conditions":[2E0,1E0,1.16E0,1.0087E2,4.4862748E-4,1.07E0,-3.661251E-4,7.937976E-5,1.9963265E-4,9.4E-1,8.449E1,-2.0150184E-4,-4.868465E-5,1.8649102E-4,3.170967E-5],"split_indices":[5,4,22,3,0,23,0,0,0,20,3,0,0,0,0],"split_type":[0,0,0,0,0,0,0,0,0,0,0,0,0,0,0],"sum_hessian":[5E1,1.4E1,3.6E1,1E1,4E0,3.2E1,4E0,6E0,4E0,2.4E1,8E0,4E0,2E1,4E0,4E0],"tree_param":{"num_deleted":"0","num_feature":"24","num_nodes":"15","size_leaf_vector":"1"}},{"base_weights":[3.8924755E-4,4.8579853E-3,-1.432923E-3,2.7092153E-3,4.3068407E-4,-5.4152263E-4,-3.5147904E-4,1.5195438E-3,1.9164562E-4,-1.5527081E-3,2.3274953E-3,2.6082993E-5,9.071827E-5,-1.9344092E-4,-4.6365745E-5,1.7903329E-4,3.0441286E-5],"categories":[],"categories_nodes":[],"categories_segments":[],"categories_sizes":[],"default_left":[0,0,0,0,0,0,0,0,0,0,0,0,0,0,0,0,0],"id":76,"left_children":[1,3,5,7,-1,9,-1,11,-1,13,15,-1,-1,-1,-1,-1,-1],"loss_changes":[4.2224408E-4,9.771559E-5,1.8078125E-4,8.880852E-6,0E0,9.9350524E-5,0E0,1.112905E-6,0E0,3.262438E-5,1.7204075E-5,0E0,0E0,0E0,0E0,0E0,0E0],"parents":[2147483647,0,0,1,1,2,2,3,3,5,5,7,7,9,9,10,10],"right_children":[2,4,6,8,-1,10,-1,12,-1,14,16,-1,-1,-1,-1,-1,-1],"split_conditions":[2E0,1E0,1.16E0,1.0087E2,4.3068407E-4,1.07E0,-3.5147904E-4,3.01E2,1.9164562E-4,9.4E-1,8.449E1,2.6082993E-5,9.071827E-5,-1.9344092E-4,-4.6365745E-5,1.7903329E-4,3.0441286E-5],"split_indices":[5,4,22,3,0,23,0,2,0,20,3,0,0,0,0,0,0],"split_type":[0,0,0,0,0,0,0,0,0,0,0,0,0,0,0,0,0],"sum_hessian":[5E1,1.4E1,3.6E1,1E1,4E0,3.2E1,4E0,6E0,4E0,2.4E1,8E0,2E0,4E0,4E0,2E1,4E0,4E0],"tree_param":{"num_deleted":"0","num_feature":"24","num_nodes":"17","size_leaf_vector":"1"}},{"base_weights":[3.7678433E-4,4.6643415E-3,-1.3715979E-3,2.6017753E-3,4.1345597E-4,-5.153688E-4,-3.3741954E-4,1.4602457E-3,1.8397809E-4,-1.4846635E-3,2.2343795E-3,2.5212765E-5,8.708954E-5,-1.8570424E-4,-4.4157536E-5,1.7187119E-4,2.9222965E-5],"categories":[],"categories_nodes":[],"categories_segments":[],"categories_sizes":[],"default_left":[0,0,0,0,0,0,0,0,0,0,0,0,0,0,0,0,0],"id":77,"left_children":[1,3,5,7,-1,9,-1,11,-1,13,15,-1,-1,-1,-1,-1,-1],"loss_changes":[3.8870834E-4,9.001201E-5,1.6686143E-4,8.160518E-6,0E0,9.127274E-5,0E0,1.0057738E-6,0E0,3.0245548E-5,1.5855305E-5,0E0,0E0,0E0,0E0,0E0,0E0],"parents":[2147483647,0,0,1,1,2,2,3,3,5,5,7,7,9,9,10,10],"right_children":[2,4,6,8,-1,10,-1,12,-1,14,16,-1,-1,-1,-1,-1,-1],"split_conditions":[2E0,1E0,1.16E0,1.0087E2,4.1345597E-4,1.07E0,-3.3741954E-4,3.01E2,1.8397809E-4,9.4E-1,8.449E1,2.5212765E-5,8.708954E-5,-1.8570424E-4,-4.4157536E-5,1.7187119E-4,2.9222965E-5],"split_indices":[5,4,22,3,0,23,0,2,0,20,3,0,0,0,0,0,0],"split_type":[0,0,0,0,0,0,0,0,0,0,0,0,0,0,0,0,0],"sum_hessian":[5E1,1.4E1,3.6E1,1E1,4E0,3.2E1,4E0,6E0,4E0,2.4E1,8E0,2E0,4E0,4E0,2E1,4E0,4E0],"tree_param":{"num_deleted":"0","num_feature":"24","num_nodes":"17","size_leaf_vector":"1"}},{"base_weights":[3.6469044E-4,4.4784546E-3,-1.3129083E-3,2.4986267E-3,3.9691926E-4,-4.9046497E-4,-3.2392264E-4,7.016319E-5,1.7662048E-4,-1.4196134E-3,2.1449989E-3,-1.782751E-4,-4.2054344E-5,1.6499519E-4,2.8054714E-5],"categories":[],"categories_nodes":[],"categories_segments":[],"categories_sizes":[],"default_left":[0,0,0,0,0,0,0,0,0,0,0,0,0,0,0],"id":78,"left_children":[1,3,5,7,-1,9,-1,-1,-1,11,13,-1,-1,-1,-1],"loss_changes":[3.5784332E-4,8.291594E-5,1.5401214E-4,7.4991403E-6,0E0,8.385339E-5,0E0,0E0,0E0,2.8037448E-5,1.4611778E-5,0E0,0E0,0E0,0E0],"parents":[2147483647,0,0,1,1,2,2,3,3,5,5,9,9,10,10],"right_children":[2,4,6,8,-1,10,-1,-1,-1,12,14,-1,-1,-1,-1],"split_conditions":[2E0,1E0,1.16E0,1.0087E2,3.9691926E-4,1.07E0,-3.2392264E-4,7.016319E-5,1.7662048E-4,9.4E-1,8.449E1,-1.782751E-4,-4.2054344E-5,1.6499519E-4,2.8054714E-5],"split_indices":[5,4,22,3,0,23,0,0,0,20,3,0,0,0,0],"split_type":[0,0,0,0,0,0,0,0,0,0,0,0,0,0,0],"sum_hessian":[5E1,1.4E1,3.6E1,1E1,4E0,3.2E1,4E0,6E0,4E0,2.4E1,8E0,4E0,2E1,4E0,4E0],"tree_param":{"num_deleted":"0","num_feature":"24","num_nodes":"15","size_leaf_vector":"1"}},{"base_weights":[3.5218982E-4,4.2973994E-3,-1.2567382E-3,2.396085E-3,3.810406E-4,-2.8867612E-3,1.0630898E-3,2.2033852E-5,1.3908281E-4,-2.678381E-4,-1.0927065E-3,1.5839578E-4,9.7488366E-5,-7.510053E-5,-1.4831622E-5,2.6931762E-5,-9.520724E-6],"categories":[],"categories_nodes":[],"categories_segments":[],"categories_sizes":[],"default_left":[0,0,0,0,0,0,0,0,0,0,0,0,0,0,0,0,0],"id":79,"left_children":[1,3,5,7,-1,9,11,-1,-1,-1,13,-1,15,-1,-1,-1,-1],"loss_changes":[3.2912617E-4,7.652267E-5,1.429797E-4,7.067625E-6,0E0,9.163561E-5,3.2209926E-5,0E0,0E0,0E0,4.1161657E-6,0E0,1.6266533E-6,0E0,0E0,0E0,0E0],"parents":[2147483647,0,0,1,1,2,2,3,3,5,5,6,6,10,10,12,12],"right_children":[2,4,6,8,-1,10,12,-1,-1,-1,14,-1,16,-1,-1,-1,-1],"split_conditions":[2E0,1E0,7.626667E1,9.009E1,3.810406E-4,9.6666664E-1,8.449E1,2.2033852E-5,1.3908281E-4,-2.678381E-4,5E0,1.5839578E-4,1E0,-7.510053E-5,-1.4831622E-5,2.6931762E-5,-9.520724E-6],"split_indices":[5,4,15,3,0,23,3,0,0,0,5,0,4,0,0,0,0],"split_type":[0,0,0,0,0,0,0,0,0,0,0,0,0,0,0,0,0],"sum_hessian":[5E1,1.4E1,3.6E1,1E1,4E0,2.1E1,1.5E1,2E0,8E0,8E0,1.3E1,4E0,1.1E1,8E0,5E0,4E0,7E0],"tree_param":{"num_deleted":"0","num_feature":"24","num_nodes":"17","size_leaf_vector":"1"}},{"base_weights":[3.4164448E-4,4.118665E-3,-1.1988137E-3,2.2908992E-3,3.6580086E-4,-4.3427583E-4,-3.0025007E-4,6.286417E-5,1.6398907E-4,-1.284895E-3,1.9768078E-3,-1.11385496E-4,-1.2162099E-5,1.520586E-4,2.5854111E-5],"categories":[],"categories_nodes":[],"categories_segments":[],"categories_sizes":[],"default_left":[0,0,0,0,0,0,0,0,0,0,0,0,0,0,0],"id":80,"left_children":[1,3,5,7,-1,9,-1,-1,-1,11,13,-1,-1,-1,-1],"loss_changes":[3.0167296E-4,7.08999E-5,1.3334912E-4,7.1197537E-6,0E0,7.022015E-5,0E0,0E0,0E0,2.4010275E-5,1.2410579E-5,0E0,0E0,0E0,0E0],"parents":[2147483647,0,0,1,1,2,2,3,3,5,5,9,9,10,10],"right_children":[2,4,6,8,-1,10,-1,-1,-1,12,14,-1,-1,-1,-1],"split_conditions":[2E0,1E0,1.16E0,1.0087E2,3.6580086E-4,1.07E0,-3.0025007E-4,6.286417E-5,1.6398907E-4,6E0,8.449E1,-1.11385496E-4,-1.2162099E-5,1.520586E-4,2.5854111E-5],"split_indices":[5,4,22,3,0,23,0,0,0,6,3,0,0,0,0],"split_type":[0,0,0,0,0,0,0,0,0,0,0,0,0,0,0],"sum_hessian":[5E1,1.4E1,3.6E1,1E1,4E0,3.2E1,4E0,6E0,4E0,2.4E1,8E0,1.2E1,1.2E1,4E0,4E0],"tree_param":{"num_deleted":"0","num_feature":"24","num_nodes":"15","size_leaf_vector":"1"}},{"base_weights":[3.3135508E-4,3.952233E-3,-1.145524E-3,2.196984E-3,3.5116673E-4,-4.1091803E-4,-2.8824093E-4,6.017174E-5,1.5742778E-4,-1.2255859E-3,1.897706E-3,-1.2424125E-4,-2.4341836E-5,1.4597416E-4,2.4819374E-5],"categories":[],"categories_nodes":[],"categories_segments":[],"categories_sizes":[],"default_left":[0,0,0,0,0,0,0,0,0,0,0,0,0,0,0],"id":81,"left_children":[1,3,5,7,-1,9,-1,-1,-1,11,13,-1,-1,-1,-1],"loss_changes":[2.772549E-4,6.5428074E-5,1.2318548E-4,6.6106877E-6,0E0,6.4390944E-5,0E0,0E0,0E0,2.204684E-5,1.14373215E-5,0E0,0E0,0E0,0E0],"parents":[2147483647,0,0,1,1,2,2,3,3,5,5,9,9,10,10],"right_children":[2,4,6,8,-1,10,-1,-1,-1,12,14,-1,-1,-1,-1],"split_conditions":[2E0,1E0,1.16E0,1.0087E2,3.5116673E-4,1.07E0,-2.8824093E-4,6.017174E-5,1.5742778E-4,4E0,8.449E1,-1.2424125E-4,-2.4341836E-5,1.4597416E-4,2.4819374E-5],"split_indices":[5,4,22,3,0,23,0,0,0,6,3,0,0,0,0],"split_type":[0,0,0,0,0,0,0,0,0,0,0,0,0,0,0],"sum_hessian":[5E1,1.4E1,3.6E1,1E1,4E0,3.2E1,4E0,6E0,4E0,2.4E1,8E0,8E0,1.6E1,4E0,4E0],"tree_param":{"num_deleted":"0","num_feature":"24","num_nodes":"15","size_leaf_vector":"1"}},{"base_weights":[3.2070104E-4,3.7925085E-3,-1.0954561E-3,2.1068833E-3,3.371191E-4,-3.8972046E-4,-2.7671098E-4,5.7591715E-5,1.5112877E-4,1.401329E-4,-9.266919E-4,-1.0204774E-4,-1.0048642E-6],"categories":[],"categories_nodes":[],"categories_segments":[],"categories_sizes":[],"default_left":[0,0,0,0,0,0,0,0,0,0,0,0,0],"id":82,"left_children":[1,3,5,7,-1,9,-1,-1,-1,-1,11,-1,-1],"loss_changes":[2.5490238E-4,6.0380335E-5,1.13749156E-4,6.1383325E-6,0E0,5.9166334E-5,0E0,0E0,0E0,0E0,2.925434E-5,0E0,0E0],"parents":[2147483647,0,0,1,1,2,2,3,3,5,5,10,10],"right_children":[2,4,6,8,-1,10,-1,-1,-1,-1,12,-1,-1],"split_conditions":[2E0,1E0,1.16E0,1.0087E2,3.371191E-4,8.449E1,-2.7671098E-4,5.7591715E-5,1.5112877E-4,1.401329E-4,6E0,-1.0204774E-4,-1.0048642E-6],"split_indices":[5,4,22,3,0,3,0,0,0,0,6,0,0],"split_type":[0,0,0,0,0,0,0,0,0,0,0,0,0],"sum_hessian":[5E1,1.4E1,3.6E1,1E1,4E0,3.2E1,4E0,6E0,4E0,4E0,2.8E1,1.2E1,1.6E1],"tree_param":{"num_deleted":"0","num_feature":"24","num_nodes":"13","size_leaf_vector":"1"}},{"base_weights":[3.106641E-4,3.639269E-3,-1.0471666E-3,2.0205108E-3,3.2363416E-4,-3.691153E-4,-2.656436E-4,1.5278658E-5,1.1838278E-4,-1.1208057E-3,1.7599264E-3,-1.4692306E-4,-3.1732947E-5,1.345253E-4,2.3868084E-5],"categories":[],"categories_nodes":[],"categories_segments":[],"categories_sizes":[],"default_left":[0,0,0,0,0,0,0,0,0,0,0,0,0,0,0],"id":83,"left_children":[1,3,5,7,-1,9,-1,-1,-1,11,13,-1,-1,-1,-1],"loss_changes":[2.3431469E-4,5.572106E-5,1.0505652E-4,5.825157E-6,0E0,5.4785094E-5,0E0,0E0,0E0,2.0226267E-5,9.457412E-6,0E0,0E0,0E0,0E0],"parents":[2147483647,0,0,1,1,2,2,3,3,5,5,9,9,10,10],"right_children":[2,4,6,8,-1,10,-1,-1,-1,12,14,-1,-1,-1,-1],"split_conditions":[2E0,1E0,1.16E0,9.009E1,3.2363416E-4,1.07E0,-2.656436E-4,1.5278658E-5,1.1838278E-4,9.4E-1,8.449E1,-1.4692306E-4,-3.1732947E-5,1.345253E-4,2.3868084E-5],"split_indices":[5,4,22,3,0,23,0,0,0,20,3,0,0,0,0],"split_type":[0,0,0,0,0,0,0,0,0,0,0,0,0,0,0],"sum_hessian":[5E1,1.4E1,3.6E1,1E1,4E0,3.2E1,4E0,2E0,8E0,2.4E1,8E0,4E0,2E1,4E0,4E0],"tree_param":{"num_deleted":"0","num_feature":"24","num_nodes":"15","size_leaf_vector":"1"}},{"base_weights":[2.9849072E-4,3.4877935E-3,-1.0025372E-3,1.9316457E-3,3.1068802E-4,-3.5127727E-4,-2.5501728E-4,5.1523963E-5,1.4034749E-4,-1.0719299E-3,1.6895665E-3,-1.4104605E-4,-3.022296E-5,1.2914657E-4,2.291441E-5],"categories":[],"categories_nodes":[],"categories_segments":[],"categories_sizes":[],"default_left":[0,0,0,0,0,0,0,0,0,0,0,0,0,0,0],"id":84,"left_children":[1,3,5,7,-1,9,-1,-1,-1,11,13,-1,-1,-1,-1],"loss_changes":[2.1511463E-4,5.162733E-5,9.695169E-5,5.784241E-6,0E0,5.03455E-5,0E0,0E0,0E0,1.8734921E-5,8.716099E-6,0E0,0E0,0E0,0E0],"parents":[2147483647,0,0,1,1,2,2,3,3,5,5,9,9,10,10],"right_children":[2,4,6,8,-1,10,-1,-1,-1,12,14,-1,-1,-1,-1],"split_conditions":[2E0,1E0,1.16E0,1.0087E2,3.1068802E-4,1.07E0,-2.5501728E-4,5.1523963E-5,1.4034749E-4,9.4E-1,8.449E1,-1.4104605E-4,-3.022296E-5,1.2914657E-4,2.291441E-5],"split_indices":[5,4,22,3,0,23,0,0,0,20,3,0,0,0,0],"split_type":[0,0,0,0,0,0,0,0,0,0,0,0,0,0,0],"sum_hessian":[5E1,1.4E1,3.6E1,1E1,4E0,3.2E1,4E0,6E0,4E0,2.4E1,8E0,4E0,2E1,4E0,4E0],"tree_param":{"num_deleted":"0","num_feature":"24","num_nodes":"15","size_leaf_vector":"1"}},{"base_weights":[2.8805173E-4,3.3469358E-3,-9.598216E-4,1.852534E-3,2.9826164E-4,-3.3429175E-4,-2.4481775E-4,4.9316885E-5,1.3473512E-4,-1.8200508E-3,6.0138246E-4,-5.6223078E-5,-1.3540506E-4,1.2398243E-4,6.7879176E-7],"categories":[],"categories_nodes":[],"categories_segments":[],"categories_sizes":[],"default_left":[0,0,0,0,0,0,0,0,0,0,0,0,0,0,0],"id":85,"left_children":[1,3,5,7,-1,9,-1,-1,-1,11,13,-1,-1,-1,-1],"loss_changes":[1.9788457E-4,4.764102E-5,8.947268E-5,5.366426E-6,0E0,4.6970697E-5,0E0,0E0,0E0,4.985184E-6,2.3151539E-5,0E0,0E0,0E0,0E0],"parents":[2147483647,0,0,1,1,2,2,3,3,5,5,9,9,10,10],"right_children":[2,4,6,8,-1,10,-1,-1,-1,12,14,-1,-1,-1,-1],"split_conditions":[2E0,1E0,1.16E0,1.0087E2,2.9826164E-4,6E0,-2.4481775E-4,4.9316885E-5,1.3473512E-4,1.1143E2,8.449E1,-5.6223078E-5,-1.3540506E-4,1.2398243E-4,6.7879176E-7],"split_indices":[5,4,22,3,0,6,0,0,0,3,3,0,0,0,0],