{"learner":{"attributes":{"scikit_learn":"{\"_estimator_type\": \"regressor\"}"},"feature_names":[],"feature_types":[],"gradient_booster":{"model":{"gbtree_model_param":{"num_parallel_tree":"1","num_trees":"200"},"iteration_indptr":[0,1,2,3,4,5,6,7,8,9,10,11,12,13,14,15,16,17,18,19,20,21,22,23,24,25,26,27,28,29,30,31,32,33,34,35,36,37,38,39,40,41,42,43,44,45,46,47,48,49,50,51,52,53,54,55,56,57,58,59,60,61,62,63,64,65,66,67,68,69,70,71,72,73,74,75,76,77,78,79,80,81,82,83,84,85,86,87,88,89,90,91,92,93,94,95,96,97,98,99,100,101,102,103,104,105,106,107,108,109,110,111,112,113,114,115,116,117,118,119,120,121,122,123,124,125,126,127,128,129,130,131,132,133,134,135,136,137,138,139,140,141,142,143,144,145,146,147,148,149,150,151,152,153,154,155,156,157,158,159,160,161,162,163,164,165,166,167,168,169,170,171,172,173,174,175,176,177,178,179,180,181,182,183,184,185,186,187,188,189,190,191,192,193,194,195,196,197,198,199,200],"tree_info":[0,0,0,0,0,0,0,0,0,0,0,0,0,0,0,0,0,0,0,0,0,0,0,0,0,0,0,0,0,0,0,0,0,0,0,0,0,0,0,0,0,0,0,0,0,0,0,0,0,0,0,0,0,0,0,0,0,0,0,0,0,0,0,0,0,0,0,0,0,0,0,0,0,0,0,0,0,0,0,0,0,0,0,0,0,0,0,0,0,0,0,0,0,0,0,0,0,0,0,0,0,0,0,0,0,0,0,0,0,0,0,0,0,0,0,0,0,0,0,0,0,0,0,0,0,0,0,0,0,0,0,0,0,0,0,0,0,0,0,0,0,0,0,0,0,0,0,0,0,0,0,0,0,0,0,0,0,0,0,0,0,0,0,0,0,0,0,0,0,0,0,0,0,0,0,0,0,0,0,0,0,0,0,0,0,0,0,0,0,0,0,0,0,0,0,0,0,0,0,0],"trees":[{"base_weights":[5.4186042E-9,7.720001E-2,-2.7571428E-3,5.3000017E-3,1.1333327E-3],"categories":[],"categories_nodes":[],"categories_segments":[],"categories_sizes":[],"default_left":[0,0,0,0,0],"id":0,"left_children":[1,3,-1,-1,-1],"loss_changes":[5.1084347E-2,5.4501444E-3,0E0,0E0,0E0],"parents":[2147483647,0,0,1,1],"right_children":[2,4,-1,-1,-1],"split_conditions":[2E0,1.622E3,-2.7571428E-3,5.3000017E-3,1.1333327E-3],"split_indices":[5,1,0,0,0],"split_type":[0,0,0,0,0],"sum_hessian":[1E1,4E0,6E0,2E0,2E0],"tree_param":{"num_deleted":"0","num_feature":"24","num_nodes":"5","size_leaf_vector":"1"}},{"base_weights":[3.3420324E-4,7.4626684E-2,-5.2779596E-2,5.1233354E-3,1.0955553E-3,-1.6297151E-3,-3.441428E-3],"categories":[],"categories_nodes":[],"categories_segments":[],"categories_sizes":[],"default_left":[0,0,0,0,0,0,0],"id":1,"left_children":[1,3,5,-1,-1,-1,-1],"loss_changes":[4.7344282E-2,5.0928555E-3,2.425164E-5,0E0,0E0,0E0,0E0],"parents":[2147483647,0,0,1,1,2,2],"right_children":[2,4,6,-1,-1,-1,-1],"split_conditions":[2E0,1.622E3,8.7E1,5.1233354E-3,1.0955553E-3,-1.6297151E-3,-3.441428E-3],"split_indices":[5,1,0,0,0,0,0],"split_type":[0,0,0,0,0,0,0],"sum_hessian":[1E1,4E0,6E0,2E0,2E0,4E0,2E0],"tree_param":{"num_deleted":"0","num_feature":"24","num_nodes":"7","size_leaf_vector":"1"}},{"base_weights":[4.218329E-4,7.213912E-2,-5.086506E-2,4.952556E-3,1.0590375E-3,-1.5645266E-3,-3.3267129E-3],"categories":[],"categories_nodes":[],"categories_segments":[],"categories_sizes":[],"default_left":[0,0,0,0,0,0,0],"id":2,"left_children":[1,3,5,-1,-1,-1,-1],"loss_changes":[4.4129092E-2,4.75898E-3,6.512925E-5,0E0,0E0,0E0,0E0],"parents":[2147483647,0,0,1,1,2,2],"right_children":[2,4,6,-1,-1,-1,-1],"split_conditions":[2E0,1.622E3,8.7E1,4.952556E-3,1.0590375E-3,-1.5645266E-3,-3.3267129E-3],"split_indices":[5,1,0,0,0,0,0],"split_type":[0,0,0,0,0,0,0],"sum_hessian":[1E1,4E0,6E0,2E0,2E0,4E0,2E0],"tree_param":{"num_deleted":"0","num_feature":"24","num_nodes":"7","size_leaf_vector":"1"}},{"base_weights":[5.0258095E-4,6.973448E-2,-4.902057E-2,4.7874707E-3,1.0237356E-3,-1.3143249E-3,-2.9749752E-3],"categories":[],"categories_nodes":[],"categories_segments":[],"categories_sizes":[],"default_left":[0,0,0,0,0,0,0],"id":3,"left_children":[1,3,5,-1,-1,-1,-1],"loss_changes":[4.1132823E-2,4.4470076E-3,1.0356866E-4,0E0,0E0,0E0,0E0],"parents":[2147483647,0,0,1,1,2,2],"right_children":[2,4,6,-1,-1,-1,-1],"split_conditions":[2E0,1.622E3,1.732E3,4.7874707E-3,1.0237356E-3,-1.3143249E-3,-2.9749752E-3],"split_indices":[5,1,1,0,0,0,0],"split_type":[0,0,0,0,0,0,0],"sum_hessian":[1E1,4E0,6E0,2E0,2E0,3E0,3E0],"tree_param":{"num_deleted":"0","num_feature":"24","num_nodes":"7","size_leaf_vector":"1"}},{"base_weights":[6.1582436E-4,6.7410015E-2,-4.7182288E-2,4.6278895E-3,9.89612E-4,-1.4327663E-3,-3.1166563E-3],"categories":[],"categories_nodes":[],"categories_segments":[],"categories_sizes":[],"default_left":[0,0,0,0,0,0,0],"id":4,"left_children":[1,3,5,-1,-1,-1,-1],"loss_changes":[3.8299557E-2,4.1554794E-3,1.7871521E-4,0E0,0E0,0E0,0E0],"parents":[2147483647,0,0,1,1,2,2],"right_children":[2,4,6,-1,-1,-1,-1],"split_conditions":[2E0,1.622E3,8.7E1,4.6278895E-3,9.89612E-4,-1.4327663E-3,-3.1166563E-3],"split_indices":[5,1,0,0,0,0,0],"split_type":[0,0,0,0,0,0,0],"sum_hessian":[1E1,4E0,6E0,2E0,2E0,4E0,2E0],"tree_param":{"num_deleted":"0","num_feature":"24","num_nodes":"7","size_leaf_vector":"1"}},{"base_weights":[6.821264E-4,6.5162994E-2,-4.547308E-2,4.4736248E-3,9.5662475E-4,-1.3754553E-3,-3.0127675E-3],"categories":[],"categories_nodes":[],"categories_segments":[],"categories_sizes":[],"default_left":[0,0,0,0,0,0,0],"id":5,"left_children":[1,3,5,-1,-1,-1,-1],"loss_changes":[3.5700567E-2,3.88306E-3,2.0126812E-4,0E0,0E0,0E0,0E0],"parents":[2147483647,0,0,1,1,2,2],"right_children":[2,4,6,-1,-1,-1,-1],"split_conditions":[2E0,1.622E3,8.7E1,4.4736248E-3,9.5662475E-4,-1.3754553E-3,-3.0127675E-3],"split_indices":[5,1,0,0,0,0,0],"split_type":[0,0,0,0,0,0,0],"sum_hessian":[1E1,4E0,6E0,2E0,2E0,4E0,2E0],"tree_param":{"num_deleted":"0","num_feature":"24","num_nodes":"7","size_leaf_vector":"1"}},{"base_weights":[7.4276055E-4,6.2990926E-2,-4.3826323E-2,4.324506E-3,9.2473824E-4,-1.3204379E-3,-2.9123416E-3],"categories":[],"categories_nodes":[],"categories_segments":[],"categories_sizes":[],"default_left":[0,0,0,0,0,0,0],"id":6,"left_children":[1,3,5,-1,-1,-1,-1],"loss_changes":[3.3278443E-2,3.6285035E-3,2.1996442E-4,0E0,0E0,0E0,0E0],"parents":[2147483647,0,0,1,1,2,2],"right_children":[2,4,6,-1,-1,-1,-1],"split_conditions":[2E0,1.622E3,8.7E1,4.324506E-3,9.2473824E-4,-1.3204379E-3,-2.9123416E-3],"split_indices":[5,1,0,0,0,0,0],"split_type":[0,0,0,0,0,0,0],"sum_hessian":[1E1,4E0,6E0,2E0,2E0,4E0,2E0],"tree_param":{"num_deleted":"0","num_feature":"24","num_nodes":"7","size_leaf_vector":"1"}},{"base_weights":[7.9800864E-4,6.08912E-2,-4.22397E-2,4.885265E-3,2.7261347E-2,-1.267621E-3,-2.8152636E-3,2.954349E-4,1.6204665E-3],"categories":[],"categories_nodes":[],"categories_segments":[],"categories_sizes":[],"default_left":[0,0,0,0,0,0,0,0,0],"id":7,"left_children":[1,3,5,-1,7,-1,-1,-1,-1],"loss_changes":[3.102103E-2,3.5266858E-3,2.352288E-4,0E0,2.4819514E-4,0E0,0E0,0E0,0E0],"parents":[2147483647,0,0,1,1,2,2,4,4],"right_children":[2,4,6,-1,8,-1,-1,-1,-1],"split_conditions":[2E0,5.8E1,8.7E1,4.885265E-3,5.9E1,-1.267621E-3,-2.8152636E-3,2.954349E-4,1.6204665E-3],"split_indices":[5,0,0,0,0,0,0,0,0],"split_type":[0,0,0,0,0,0,0,0,0],"sum_hessian":[1E1,4E0,6E0,1E0,3E0,4E0,2E0,1E0,2E0],"tree_param":{"num_deleted":"0","num_feature":"24","num_nodes":"9","size_leaf_vector":"1"}},{"base_weights":[1.005216E-3,5.9206866E-2,-4.0710993E-2,4.7631324E-3,2.637726E-2,-1.2169165E-3,-2.7214221E-3,2.8804838E-4,1.5664519E-3],"categories":[],"categories_nodes":[],"categories_segments":[],"categories_sizes":[],"default_left":[0,0,0,0,0,0,0,0,0],"id":8,"left_children":[1,3,5,-1,7,-1,-1,-1,-1],"loss_changes":[2.9117847E-2,3.4057181E-3,2.474403E-4,0E0,2.278632E-4,0E0,0E0,0E0,0E0],"parents":[2147483647,0,0,1,1,2,2,4,4],"right_children":[2,4,6,-1,8,-1,-1,-1,-1],"split_conditions":[2E0,5.8E1,8.7E1,4.7631324E-3,5.9E1,-1.2169165E-3,-2.7214221E-3,2.8804838E-4,1.5664519E-3],"split_indices":[5,0,0,0,0,0,0,0,0],"split_type":[0,0,0,0,0,0,0,0,0],"sum_hessian":[1E1,4E0,6E0,1E0,3E0,4E0,2E0,1E0,2E0],"tree_param":{"num_deleted":"0","num_feature":"24","num_nodes":"9","size_leaf_vector":"1"}},{"base_weights":[1.1985247E-3,5.7570063E-2,-3.9238077E-2,4.6440545E-3,2.5522038E-2,-1.1682409E-3,-2.6307076E-3,2.8084667E-4,1.5142382E-3],"categories":[],"categories_nodes":[],"categories_segments":[],"categories_sizes":[],"default_left":[0,0,0,0,0,0,0,0,0],"id":9,"left_children":[1,3,5,-1,7,-1,-1,-1,-1],"loss_changes":[2.733315E-2,3.287727E-3,2.569342E-4,0E0,2.091024E-4,0E0,0E0,0E0,0E0],"parents":[2147483647,0,0,1,1,2,2,4,4],"right_children":[2,4,6,-1,8,-1,-1,-1,-1],"split_conditions":[2E0,5.8E1,8.7E1,4.6440545E-3,5.9E1,-1.1682409E-3,-2.6307076E-3,2.8084667E-4,1.5142382E-3],"split_indices":[5,0,0,0,0,0,0,0,0],"split_type":[0,0,0,0,0,0,0,0,0],"sum_hessian":[1E1,4E0,6E0,1E0,3E0,4E0,2E0,1E0,2E0],"tree_param":{"num_deleted":"0","num_feature":"24","num_nodes":"9","size_leaf_vector":"1"}},{"base_weights":[1.3786283E-3,5.597941E-2,-3.7818875E-2,4.5279535E-3,2.4694726E-2,-1.1215109E-3,-2.5430173E-3,2.7382522E-4,1.4637649E-3],"categories":[],"categories_nodes":[],"categories_segments":[],"categories_sizes":[],"default_left":[0,0,0,0,0,0,0,0,0],"id":10,"left_children":[1,3,5,-1,7,-1,-1,-1,-1],"loss_changes":[2.5659434E-2,3.1727366E-3,2.6402622E-4,0E0,1.917954E-4,0E0,0E0,0E0,0E0],"parents":[2147483647,0,0,1,1,2,2,4,4],"right_children":[2,4,6,-1,8,-1,-1,-1,-1],"split_conditions":[2E0,5.8E1,8.7E1,4.5279535E-3,5.9E1,-1.1215109E-3,-2.5430173E-3,2.7382522E-4,1.4637649E-3],"split_indices":[5,0,0,0,0,0,0,0,0],"split_type":[0,0,0,0,0,0,0,0,0],"sum_hessian":[1E1,4E0,6E0,1E0,3E0,4E0,2E0,1E0,2E0],"tree_param":{"num_deleted":"0","num_feature":"24","num_nodes":"9","size_leaf_vector":"1"}},{"base_weights":[1.5461608E-3,5.4433547E-2,-3.6451425E-2,4.4147554E-3,2.3894385E-2,-1.0766501E-3,-2.4582497E-3,2.6697965E-4,1.4149726E-3],"categories":[],"categories_nodes":[],"categories_segments":[],"categories_sizes":[],"default_left":[0,0,0,0,0,0,0,0,0],"id":11,"left_children":[1,3,5,-1,7,-1,-1,-1,-1],"loss_changes":[2.4089705E-2,3.06076E-3,2.689939E-4,0E0,1.75833E-4,0E0,0E0,0E0,0E0],"parents":[2147483647,0,0,1,1,2,2,4,4],"right_children":[2,4,6,-1,8,-1,-1,-1,-1],"split_conditions":[2E0,5.8E1,8.7E1,4.4147554E-3,5.9E1,-1.0766501E-3,-2.4582497E-3,2.6697965E-4,1.4149726E-3],"split_indices":[5,0,0,0,0,0,0,0,0],"split_type":[0,0,0,0,0,0,0,0,0],"sum_hessian":[1E1,4E0,6E0,1E0,3E0,4E0,2E0,1E0,2E0],"tree_param":{"num_deleted":"0","num_feature":"24","num_nodes":"9","size_leaf_vector":"1"}},{"base_weights":[1.7017343E-3,5.293119E-2,-3.513384E-2,4.3043853E-3,2.3120135E-2,-1.0335845E-3,-2.376307E-3,2.6030542E-4,1.3678054E-3],"categories":[],"categories_nodes":[],"categories_segments":[],"categories_sizes":[],"default_left":[0,0,0,0,0,0,0,0,0],"id":12,"left_children":[1,3,5,-1,7,-1,-1,-1,-1],"loss_changes":[2.2617407E-2,2.9517924E-3,2.7208962E-4,0E0,1.6111461E-4,0E0,0E0,0E0,0E0],"parents":[2147483647,0,0,1,1,2,2,4,4],"right_children":[2,4,6,-1,8,-1,-1,-1,-1],"split_conditions":[2E0,5.8E1,8.7E1,4.3043853E-3,5.9E1,-1.0335845E-3,-2.376307E-3,2.6030542E-4,1.3678054E-3],"split_indices":[5,0,0,0,0,0,0,0,0],"split_type":[0,0,0,0,0,0,0,0,0],"sum_hessian":[1E1,4E0,6E0,1E0,3E0,4E0,2E0,1E0,2E0],"tree_param":{"num_deleted":"0","num_feature":"24","num_nodes":"9","size_leaf_vector":"1"}},{"base_weights":[1.845983E-3,5.1471125E-2,-3.386426E-2,4.196775E-3,2.2371158E-2,-9.922403E-4,-2.2970967E-3,2.5379806E-4,1.3222118E-3],"categories":[],"categories_nodes":[],"categories_segments":[],"categories_sizes":[],"default_left":[0,0,0,0,0,0,0,0,0],"id":13,"left_children":[1,3,5,-1,7,-1,-1,-1,-1],"loss_changes":[2.1236418E-2,2.8458266E-3,2.7354714E-4,0E0,1.4754874E-4,0E0,0E0,0E0,0E0],"parents":[2147483647,0,0,1,1,2,2,4,4],"right_children":[2,4,6,-1,8,-1,-1,-1,-1],"split_conditions":[2E0,5.8E1,8.7E1,4.196775E-3,5.9E1,-9.922403E-4,-2.2970967E-3,2.5379806E-4,1.3222118E-3],"split_indices":[5,0,0,0,0,0,0,0,0],"split_type":[0,0,0,0,0,0,0,0,0],"sum_hessian":[1E1,4E0,6E0,1E0,3E0,4E0,2E0,1E0,2E0],"tree_param":{"num_deleted":"0","num_feature":"24","num_nodes":"9","size_leaf_vector":"1"}},{"base_weights":[1.9794377E-3,5.0052095E-2,-3.2640953E-2,4.091856E-3,2.164656E-2,-9.525508E-4,-2.2205263E-3,2.4745168E-4,1.2781363E-3],"categories":[],"categories_nodes":[],"categories_segments":[],"categories_sizes":[],"default_left":[0,0,0,0,0,0,0,0,0],"id":14,"left_children":[1,3,5,-1,7,-1,-1,-1,-1],"loss_changes":[1.9940982E-2,2.7428614E-3,2.7356902E-4,0E0,1.3505016E-4,0E0,0E0,0E0,0E0],"parents":[2147483647,0,0,1,1,2,2,4,4],"right_children":[2,4,6,-1,8,-1,-1,-1,-1],"split_conditions":[2E0,5.8E1,8.7E1,4.091856E-3,5.9E1,-9.525508E-4,-2.2205263E-3,2.4745168E-4,1.2781363E-3],"split_indices":[5,0,0,0,0,0,0,0,0],"split_type":[0,0,0,0,0,0,0,0,0],"sum_hessian":[1E1,4E0,6E0,1E0,3E0,4E0,2E0,1E0,2E0],"tree_param":{"num_deleted":"0","num_feature":"24","num_nodes":"9","size_leaf_vector":"1"}},{"base_weights":[2.1026677E-3,4.8672963E-2,-3.146221E-2,3.9895596E-3,2.0945609E-2,-7.7911466E-4,-1.9738288E-3,2.412647E-4,1.2355308E-3],"categories":[],"categories_nodes":[],"categories_segments":[],"categories_sizes":[],"default_left":[0,0,0,0,0,0,0,0,0],"id":15,"left_children":[1,3,5,-1,7,-1,-1,-1,-1],"loss_changes":[1.8725747E-2,2.642856E-3,2.7573667E-4,0E0,1.2353633E-4,0E0,0E0,0E0,0E0],"parents":[2147483647,0,0,1,1,2,2,4,4],"right_children":[2,4,6,-1,8,-1,-1,-1,-1],"split_conditions":[2E0,5.8E1,1.732E3,3.9895596E-3,5.9E1,-7.7911466E-4,-1.9738288E-3,2.412647E-4,1.2355308E-3],"split_indices":[5,0,1,0,0,0,0,0,0],"split_type":[0,0,0,0,0,0,0,0,0],"sum_hessian":[1E1,4E0,6E0,1E0,3E0,3E0,3E0,1E0,2E0],"tree_param":{"num_deleted":"0","num_feature":"24","num_nodes":"9","size_leaf_vector":"1"}},{"base_weights":[2.2442015E-3,4.7332596E-2,-3.0282395E-2,3.88982E-3,2.0267546E-2,-8.7133824E-4,-2.0807157E-3,2.3523271E-4,1.194348E-3],"categories":[],"categories_nodes":[],"categories_segments":[],"categories_sizes":[],"default_left":[0,0,0,0,0,0,0,0,0],"id":16,"left_children":[1,3,5,-1,7,-1,-1,-1,-1],"loss_changes":[1.7565636E-2,2.5457796E-3,2.945494E-4,0E0,1.1293404E-4,0E0,0E0,0E0,0E0],"parents":[2147483647,0,0,1,1,2,2,4,4],"right_children":[2,4,6,-1,8,-1,-1,-1,-1],"split_conditions":[2E0,5.8E1,8.7E1,3.88982E-3,5.9E1,-8.7133824E-4,-2.0807157E-3,2.3523271E-4,1.194348E-3],"split_indices":[5,0,0,0,0,0,0,0,0],"split_type":[0,0,0,0,0,0,0,0,0],"sum_hessian":[1E1,4E0,6E0,1E0,3E0,4E0,2E0,1E0,2E0],"tree_param":{"num_deleted":"0","num_feature":"24","num_nodes":"9","size_leaf_vector":"1"}},{"base_weights":[2.34722E-3,4.6029855E-2,-2.9189978E-2,3.792575E-3,1.9611567E-2,-8.3648384E-4,-2.0113578E-3,2.2935272E-4,1.154536E-3],"categories":[],"categories_nodes":[],"categories_segments":[],"categories_sizes":[],"default_left":[0,0,0,0,0,0,0,0,0],"id":17,"left_children":[1,3,5,-1,7,-1,-1,-1,-1],"loss_changes":[1.6497517E-2,2.4516182E-3,2.896986E-4,0E0,1.03171915E-4,0E0,0E0,0E0,0E0],"parents":[2147483647,0,0,1,1,2,2,4,4],"right_children":[2,4,6,-1,8,-1,-1,-1,-1],"split_conditions":[2E0,5.8E1,8.7E1,3.792575E-3,5.9E1,-8.3648384E-4,-2.0113578E-3,2.2935272E-4,1.154536E-3],"split_indices":[5,0,0,0,0,0,0,0,0],"split_type":[0,0,0,0,0,0,0,0,0],"sum_hessian":[1E1,4E0,6E0,1E0,3E0,4E0,2E0,1E0,2E0],"tree_param":{"num_deleted":"0","num_feature":"24","num_nodes":"9","size_leaf_vector":"1"}},{"base_weights":[2.441558E-3,4.4763662E-2,-2.813731E-2,3.697762E-3,1.8976957E-2,-8.0302416E-4,-1.9443125E-3,2.2361874E-4,1.1160512E-3],"categories":[],"categories_nodes":[],"categories_segments":[],"categories_sizes":[],"default_left":[0,0,0,0,0,0,0,0,0],"id":18,"left_children":[1,3,5,-1,7,-1,-1,-1,-1],"loss_changes":[1.5495311E-2,2.360328E-3,2.841591E-4,0E0,9.418931E-5,0E0,0E0,0E0,0E0],"parents":[2147483647,0,0,1,1,2,2,4,4],"right_children":[2,4,6,-1,8,-1,-1,-1,-1],"split_conditions":[2E0,5.8E1,8.7E1,3.697762E-3,5.9E1,-8.0302416E-4,-1.9443125E-3,2.2361874E-4,1.1160512E-3],"split_indices":[5,0,0,0,0,0,0,0,0],"split_type":[0,0,0,0,0,0,0,0,0],"sum_hessian":[1E1,4E0,6E0,1E0,3E0,4E0,2E0,1E0,2E0],"tree_param":{"num_deleted":"0","num_feature":"24","num_nodes":"9","size_leaf_vector":"1"}},{"base_weights":[2.5276812E-3,4.3532968E-2,-2.7122905E-2,3.605318E-3,1.8363029E-2,-7.70902E-4,-1.8795023E-3,2.1802784E-4,1.07885E-3],"categories":[],"categories_nodes":[],"categories_segments":[],"categories_sizes":[],"default_left":[0,0,0,0,0,0,0,0,0],"id":19,"left_children":[1,3,5,-1,7,-1,-1,-1,-1],"loss_changes":[1.455488E-2,2.2718608E-3,2.7805008E-4,0E0,8.59265E-5,0E0,0E0,0E0,0E0],"parents":[2147483647,0,0,1,1,2,2,4,4],"right_children":[2,4,6,-1,8,-1,-1,-1,-1],"split_conditions":[2E0,5.8E1,8.7E1,3.605318E-3,5.9E1,-7.70902E-4,-1.8795023E-3,2.1802784E-4,1.07885E-3],"split_indices":[5,0,0,0,0,0,0,0,0],"split_type":[0,0,0,0,0,0,0,0,0],"sum_hessian":[1E1,4E0,6E0,1E0,3E0,4E0,2E0,1E0,2E0],"tree_param":{"num_deleted":"0","num_feature":"24","num_nodes":"9","size_leaf_vector":"1"}},{"base_weights":[2.6060126E-3,4.233675E-2,-2.6145373E-2,3.515184E-3,1.7769098E-2,-7.4006495E-4,-1.8168519E-3,2.1257698E-4,1.0428886E-3],"categories":[],"categories_nodes":[],"categories_segments":[],"categories_sizes":[],"default_left":[0,0,0,0,0,0,0,0,0],"id":20,"left_children":[1,3,5,-1,7,-1,-1,-1,-1],"loss_changes":[1.3672361E-2,2.1861764E-3,2.7146935E-4,0E0,7.832772E-5,0E0,0E0,0E0,0E0],"parents":[2147483647,0,0,1,1,2,2,4,4],"right_children":[2,4,6,-1,8,-1,-1,-1,-1],"split_conditions":[2E0,5.8E1,8.7E1,3.515184E-3,5.9E1,-7.4006495E-4,-1.8168519E-3,2.1257698E-4,1.0428886E-3],"split_indices":[5,0,0,0,0,0,0,0,0],"split_type":[0,0,0,0,0,0,0,0,0],"sum_hessian":[1E1,4E0,6E0,1E0,3E0,4E0,2E0,1E0,2E0],"tree_param":{"num_deleted":"0","num_feature":"24","num_nodes":"9","size_leaf_vector":"1"}},{"base_weights":[2.6769638E-3,4.1174054E-2,-2.520338E-2,3.427303E-3,1.719454E-2,-7.104629E-4,-1.7562896E-3,2.0726323E-4,1.0081272E-3],"categories":[],"categories_nodes":[],"categories_segments":[],"categories_sizes":[],"default_left":[0,0,0,0,0,0,0,0,0],"id":21,"left_children":[1,3,5,-1,7,-1,-1,-1,-1],"loss_changes":[1.2844159E-2,2.1032197E-3,2.6450586E-4,0E0,7.134199E-5,0E0,0E0,0E0,0E0],"parents":[2147483647,0,0,1,1,2,2,4,4],"right_children":[2,4,6,-1,8,-1,-1,-1,-1],"split_conditions":[2E0,5.8E1,8.7E1,3.427303E-3,5.9E1,-7.104629E-4,-1.7562896E-3,2.0726323E-4,1.0081272E-3],"split_indices":[5,0,0,0,0,0,0,0,0],"split_type":[0,0,0,0,0,0,0,0,0],"sum_hessian":[1E1,4E0,6E0,1E0,3E0,4E0,2E0,1E0,2E0],"tree_param":{"num_deleted":"0","num_feature":"24","num_nodes":"9","size_leaf_vector":"1"}},{"base_weights":[2.740936E-3,4.004388E-2,-2.4295585E-2,3.3416213E-3,1.6638637E-2,-6.8204344E-4,-1.697746E-3,2.0208061E-4,9.745221E-4],"categories":[],"categories_nodes":[],"categories_segments":[],"categories_sizes":[],"default_left":[0,0,0,0,0,0,0,0,0],"id":22,"left_children":[1,3,5,-1,7,-1,-1,-1,-1],"loss_changes":[1.2066849E-2,2.022962E-3,2.5724713E-4,0E0,6.492424E-5,0E0,0E0,0E0,0E0],"parents":[2147483647,0,0,1,1,2,2,4,4],"right_children":[2,4,6,-1,8,-1,-1,-1,-1],"split_conditions":[2E0,5.8E1,8.7E1,3.3416213E-3,5.9E1,-6.8204344E-4,-1.697746E-3,2.0208061E-4,9.745221E-4],"split_indices":[5,0,0,0,0,0,0,0,0],"split_type":[0,0,0,0,0,0,0,0,0],"sum_hessian":[1E1,4E0,6E0,1E0,3E0,4E0,2E0,1E0,2E0],"tree_param":{"num_deleted":"0","num_feature":"24","num_nodes":"9","size_leaf_vector":"1"}},{"base_weights":[2.7982863E-3,3.8945317E-2,-2.3420777E-2,3.2580793E-3,1.6100854E-2,-7.475898E-4,-1.8558666E-3,1.9702912E-4,9.4203756E-4],"categories":[],"categories_nodes":[],"categories_segments":[],"categories_sizes":[],"default_left":[0,0,0,0,0,0,0,0,0],"id":23,"left_children":[1,3,5,-1,7,-1,-1,-1,-1],"loss_changes":[1.1337284E-2,1.9453261E-3,2.5700033E-4,0E0,5.902804E-5,0E0,0E0,0E0,0E0],"parents":[2147483647,0,0,1,1,2,2,4,4],"right_children":[2,4,6,-1,8,-1,-1,-1,-1],"split_conditions":[2E0,5.8E1,1.488E3,3.2580793E-3,5.9E1,-7.475898E-4,-1.8558666E-3,1.9702912E-4,9.4203756E-4],"split_indices":[5,0,11,0,0,0,0,0,0],"split_type":[0,0,0,0,0,0,0,0,0],"sum_hessian":[1E1,4E0,6E0,1E0,3E0,5E0,1E0,1E0,2E0],"tree_param":{"num_deleted":"0","num_feature":"24","num_nodes":"9","size_leaf_vector":"1"}},{"base_weights":[2.8214238E-3,3.787749E-2,-2.2621682E-2,3.1766265E-3,1.5580595E-2,-7.1644137E-4,-1.8094704E-3,1.9210279E-4,9.1063784E-4],"categories":[],"categories_nodes":[],"categories_segments":[],"categories_sizes":[],"default_left":[0,0,0,0,0,0,0,0,0],"id":24,"left_children":[1,3,5,-1,7,-1,-1,-1,-1],"loss_changes":[1.066814E-2,1.8702643E-3,2.6905444E-4,0E0,5.3616473E-5,0E0,0E0,0E0,0E0],"parents":[2147483647,0,0,1,1,2,2,4,4],"right_children":[2,4,6,-1,8,-1,-1,-1,-1],"split_conditions":[2E0,5.8E1,1.488E3,3.1766265E-3,5.9E1,-7.1644137E-4,-1.8094704E-3,1.9210279E-4,9.1063784E-4],"split_indices":[5,0,11,0,0,0,0,0,0],"split_type":[0,0,0,0,0,0,0,0,0],"sum_hessian":[1E1,4E0,6E0,1E0,3E0,5E0,1E0,1E0,2E0],"tree_param":{"num_deleted":"0","num_feature":"24","num_nodes":"9","size_leaf_vector":"1"}},{"base_weights":[2.839771E-3,3.6839508E-2,-2.1851437E-2,3.0972124E-3,1.5077263E-2,-6.865894E-4,-1.7642335E-3,1.8730164E-4,8.802831E-4],"categories":[],"categories_nodes":[],"categories_segments":[],"categories_sizes":[],"default_left":[0,0,0,0,0,0,0,0,0],"id":25,"left_children":[1,3,5,-1,7,-1,-1,-1,-1],"loss_changes":[1.0039438E-2,1.7977273E-3,2.7899048E-4,0E0,4.86481E-5,0E0,0E0,0E0,0E0],"parents":[2147483647,0,0,1,1,2,2,4,4],"right_children":[2,4,6,-1,8,-1,-1,-1,-1],"split_conditions":[2E0,5.8E1,1.488E3,3.0972124E-3,5.9E1,-6.865894E-4,-1.7642335E-3,1.8730164E-4,8.802831E-4],"split_indices":[5,0,11,0,0,0,0,0,0],"split_type":[0,0,0,0,0,0,0,0,0],"sum_hessian":[1E1,4E0,6E0,1E0,3E0,5E0,1E0,1E0,2E0],"tree_param":{"num_deleted":"0","num_feature":"24","num_nodes":"9","size_leaf_vector":"1"}},{"base_weights":[2.8536103E-3,3.583052E-2,-2.1108985E-2,3.019783E-3,1.4590323E-2,-6.5798167E-4,-1.7201275E-3,1.826197E-4,8.509417E-4],"categories":[],"categories_nodes":[],"categories_segments":[],"categories_sizes":[],"default_left":[0,0,0,0,0,0,0,0,0],"id":26,"left_children":[1,3,5,-1,7,-1,-1,-1,-1],"loss_changes":[9.448682E-3,1.7276504E-3,2.8700195E-4,0E0,4.4092012E-5,0E0,0E0,0E0,0E0],"parents":[2147483647,0,0,1,1,2,2,4,4],"right_children":[2,4,6,-1,8,-1,-1,-1,-1],"split_conditions":[2E0,5.8E1,1.488E3,3.019783E-3,5.9E1,-6.5798167E-4,-1.7201275E-3,1.826197E-4,8.509417E-4],"split_indices":[5,0,11,0,0,0,0,0,0],"split_type":[0,0,0,0,0,0,0,0,0],"sum_hessian":[1E1,4E0,6E0,1E0,3E0,5E0,1E0,1E0,2E0],"tree_param":{"num_deleted":"0","num_feature":"24","num_nodes":"9","size_leaf_vector":"1"}},{"base_weights":[2.863223E-3,3.4849666E-2,-2.039327E-2,2.9442876E-3,1.4119208E-2,-6.30566E-4,-1.6771242E-3,1.7805398E-4,8.225779E-4],"categories":[],"categories_nodes":[],"categories_segments":[],"categories_sizes":[],"default_left":[0,0,0,0,0,0,0,0,0],"id":27,"left_children":[1,3,5,-1,7,-1,-1,-1,-1],"loss_changes":[8.893517E-3,1.6599754E-3,2.9327045E-4,0E0,3.991573E-5,0E0,0E0,0E0,0E0],"parents":[2147483647,0,0,1,1,2,2,4,4],"right_children":[2,4,6,-1,8,-1,-1,-1,-1],"split_conditions":[2E0,5.8E1,1.488E3,2.9442876E-3,5.9E1,-6.30566E-4,-1.6771242E-3,1.7805398E-4,8.225779E-4],"split_indices":[5,0,11,0,0,0,0,0,0],"split_type":[0,0,0,0,0,0,0,0,0],"sum_hessian":[1E1,4E0,6E0,1E0,3E0,5E0,1E0,1E0,2E0],"tree_param":{"num_deleted":"0","num_feature":"24","num_nodes":"9","size_leaf_vector":"1"}},{"base_weights":[2.8689017E-3,3.3896185E-2,-1.9703286E-2,2.870682E-3,1.3663411E-2,-6.042928E-4,-1.6351969E-3,1.7360151E-4,7.951598E-4],"categories":[],"categories_nodes":[],"categories_segments":[],"categories_sizes":[],"default_left":[0,0,0,0,0,0,0,0,0],"id":28,"left_children":[1,3,5,-1,7,-1,-1,-1,-1],"loss_changes":[8.371756E-3,1.5946506E-3,2.9796595E-4,0E0,3.6089565E-5,0E0,0E0,0E0,0E0],"parents":[2147483647,0,0,1,1,2,2,4,4],"right_children":[2,4,6,-1,8,-1,-1,-1,-1],"split_conditions":[2E0,5.8E1,1.488E3,2.870682E-3,5.9E1,-6.042928E-4,-1.6351969E-3,1.7360151E-4,7.951598E-4],"split_indices":[5,0,11,0,0,0,0,0,0],"split_type":[0,0,0,0,0,0,0,0,0],"sum_hessian":[1E1,4E0,6E0,1E0,3E0,5E0,1E0,1E0,2E0],"tree_param":{"num_deleted":"0","num_feature":"24","num_nodes":"9","size_leaf_vector":"1"}},{"base_weights":[2.8709064E-3,3.2969285E-2,-1.9038064E-2,2.798915E-3,1.3222456E-2,-5.7911477E-4,-1.594317E-3,1.6926229E-4,7.6865556E-4],"categories":[],"categories_nodes":[],"categories_segments":[],"categories_sizes":[],"default_left":[0,0,0,0,0,0,0,0,0],"id":29,"left_children":[1,3,5,-1,7,-1,-1,-1,-1],"loss_changes":[7.881341E-3,1.5316047E-3,3.012393E-4,0E0,3.2584067E-5,0E0,0E0,0E0,0E0],"parents":[2147483647,0,0,1,1,2,2,4,4],"right_children":[2,4,6,-1,8,-1,-1,-1,-1],"split_conditions":[2E0,5.8E1,1.488E3,2.798915E-3,5.9E1,-5.7911477E-4,-1.594317E-3,1.6926229E-4,7.6865556E-4],"split_indices":[5,0,11,0,0,0,0,0,0],"split_type":[0,0,0,0,0,0,0,0,0],"sum_hessian":[1E1,4E0,6E0,1E0,3E0,5E0,1E0,1E0,2E0],"tree_param":{"num_deleted":"0","num_feature":"24","num_nodes":"9","size_leaf_vector":"1"}},{"base_weights":[2.8694868E-3,3.206818E-2,-1.839665E-2,2.728942E-3,1.2795806E-2,-5.5498484E-4,-1.5544593E-3,1.6503036E-4,7.4303354E-4],"categories":[],"categories_nodes":[],"categories_segments":[],"categories_sizes":[],"default_left":[0,0,0,0,0,0,0,0,0],"id":30,"left_children":[1,3,5,-1,7,-1,-1,-1,-1],"loss_changes":[7.420325E-3,1.4707893E-3,3.0323747E-4,0E0,2.9375893E-5,0E0,0E0,0E0,0E0],"parents":[2147483647,0,0,1,1,2,2,4,4],"right_children":[2,4,6,-1,8,-1,-1,-1,-1],"split_conditions":[2E0,5.8E1,1.488E3,2.728942E-3,5.9E1,-5.5498484E-4,-1.5544593E-3,1.6503036E-4,7.4303354E-4],"split_indices":[5,0,11,0,0,0,0,0,0],"split_type":[0,0,0,0,0,0,0,0,0],"sum_hessian":[1E1,4E0,6E0,1E0,3E0,5E0,1E0,1E0,2E0],"tree_param":{"num_deleted":"0","num_feature":"24","num_nodes":"9","size_leaf_vector":"1"}},{"base_weights":[2.8648863E-3,3.1192183E-2,-1.7778168E-2,2.6607185E-3,1.2383044E-2,-4.476613E-4,-1.3280173E-3,1.6090572E-4,7.182658E-4],"categories":[],"categories_nodes":[],"categories_segments":[],"categories_sizes":[],"default_left":[0,0,0,0,0,0,0,0,0],"id":31,"left_children":[1,3,5,-1,7,-1,-1,-1,-1],"loss_changes":[6.9869207E-3,1.4121365E-3,3.0471478E-4,0E0,2.6440248E-5,0E0,0E0,0E0,0E0],"parents":[2147483647,0,0,1,1,2,2,4,4],"right_children":[2,4,6,-1,8,-1,-1,-1,-1],"split_conditions":[2E0,5.8E1,8.7E1,2.6607185E-3,5.9E1,-4.476613E-4,-1.3280173E-3,1.6090572E-4,7.182658E-4],"split_indices":[5,0,0,0,0,0,0,0,0],"split_type":[0,0,0,0,0,0,0,0,0],"sum_hessian":[1E1,4E0,6E0,1E0,3E0,4E0,2E0,1E0,2E0],"tree_param":{"num_deleted":"0","num_feature":"24","num_nodes":"9","size_leaf_vector":"1"}},{"base_weights":[2.8820308E-3,3.0340552E-2,-1.7142918E-2,2.5941997E-3,1.1983693E-2,-5.058711E-4,-1.4823973E-3,1.5688241E-4,6.943246E-4],"categories":[],"categories_nodes":[],"categories_segments":[],"categories_sizes":[],"default_left":[0,0,0,0,0,0,0,0,0],"id":32,"left_children":[1,3,5,-1,7,-1,-1,-1,-1],"loss_changes":[6.5685357E-3,1.355588E-3,3.1501753E-4,0E0,2.3758039E-5,0E0,0E0,0E0,0E0],"parents":[2147483647,0,0,1,1,2,2,4,4],"right_children":[2,4,6,-1,8,-1,-1,-1,-1],"split_conditions":[2E0,5.8E1,1.488E3,2.5941997E-3,5.9E1,-5.058711E-4,-1.4823973E-3,1.5688241E-4,6.943246E-4],"split_indices":[5,0,11,0,0,0,0,0,0],"split_type":[0,0,0,0,0,0,0,0,0],"sum_hessian":[1E1,4E0,6E0,1E0,3E0,5E0,1E0,1E0,2E0],"tree_param":{"num_deleted":"0","num_feature":"24","num_nodes":"9","size_leaf_vector":"1"}},{"base_weights":[2.8703972E-3,2.951262E-2,-1.656982E-2,2.529344E-3,1.1597335E-2,-4.8479342E-4,-1.4453381E-3,1.5296042E-4,6.7118206E-4],"categories":[],"categories_nodes":[],"categories_segments":[],"categories_sizes":[],"default_left":[0,0,0,0,0,0,0,0,0],"id":33,"left_children":[1,3,5,-1,7,-1,-1,-1,-1],"loss_changes":[6.1862543E-3,1.3010842E-3,3.1334872E-4,0E0,2.1307205E-5,0E0,0E0,0E0,0E0],"parents":[2147483647,0,0,1,1,2,2,4,4],"right_children":[2,4,6,-1,8,-1,-1,-1,-1],"split_conditions":[2E0,5.8E1,1.488E3,2.529344E-3,5.9E1,-4.8479342E-4,-1.4453381E-3,1.5296042E-4,6.7118206E-4],"split_indices":[5,0,11,0,0,0,0,0,0],"split_type":[0,0,0,0,0,0,0,0,0],"sum_hessian":[1E1,4E0,6E0,1E0,3E0,5E0,1E0,1E0,2E0],"tree_param":{"num_deleted":"0","num_feature":"24","num_nodes":"9","size_leaf_vector":"1"}},{"base_weights":[2.8562655E-3,2.8707694E-2,-1.601708E-2,2.4661093E-3,1.1223525E-2,-4.645949E-4,-1.4092043E-3,1.4913679E-4,6.4881047E-4],"categories":[],"categories_nodes":[],"categories_segments":[],"categories_sizes":[],"default_left":[0,0,0,0,0,0,0,0,0],"id":34,"left_children":[1,3,5,-1,7,-1,-1,-1,-1],"loss_changes":[5.8267456E-3,1.2485678E-3,3.1089375E-4,0E0,1.906947E-5,0E0,0E0,0E0,0E0],"parents":[2147483647,0,0,1,1,2,2,4,4],"right_children":[2,4,6,-1,8,-1,-1,-1,-1],"split_conditions":[2E0,5.8E1,1.488E3,2.4661093E-3,5.9E1,-4.645949E-4,-1.4092043E-3,1.4913679E-4,6.4881047E-4],"split_indices":[5,0,11,0,0,0,0,0,0],"split_type":[0,0,0,0,0,0,0,0,0],"sum_hessian":[1E1,4E0,6E0,1E0,3E0,5E0,1E0,1E0,2E0],"tree_param":{"num_deleted":"0","num_feature":"24","num_nodes":"9","size_leaf_vector":"1"}},{"base_weights":[2.839847E-3,2.792511E-2,-1.5483891E-2,2.4044574E-3,1.0861814E-2,-4.4523575E-4,-1.3739736E-3,1.4540851E-4,6.271819E-4],"categories":[],"categories_nodes":[],"categories_segments":[],"categories_sizes":[],"default_left":[0,0,0,0,0,0,0,0,0],"id":35,"left_children":[1,3,5,-1,7,-1,-1,-1,-1],"loss_changes":[5.4886024E-3,1.1979891E-3,3.077502E-4,0E0,1.7027516E-5,0E0,0E0,0E0,0E0],"parents":[2147483647,0,0,1,1,2,2,4,4],"right_children":[2,4,6,-1,8,-1,-1,-1,-1],"split_conditions":[2E0,5.8E1,1.488E3,2.4044574E-3,5.9E1,-4.4523575E-4,-1.3739736E-3,1.4540851E-4,6.271819E-4],"split_indices":[5,0,11,0,0,0,0,0,0],"split_type":[0,0,0,0,0,0,0,0,0],"sum_hessian":[1E1,4E0,6E0,1E0,3E0,5E0,1E0,1E0,2E0],"tree_param":{"num_deleted":"0","num_feature":"24","num_nodes":"9","size_leaf_vector":"1"}},{"base_weights":[2.8212992E-3,2.716427E-2,-1.4969579E-2,2.3443461E-3,1.0511875E-2,-4.266838E-4,-1.3396249E-3,1.4177263E-4,6.062766E-4],"categories":[],"categories_nodes":[],"categories_segments":[],"categories_sizes":[],"default_left":[0,0,0,0,0,0,0,0,0],"id":36,"left_children":[1,3,5,-1,7,-1,-1,-1,-1],"loss_changes":[5.1705483E-3,1.1492779E-3,3.0399964E-4,0E0,1.5167083E-5,0E0,0E0,0E0,0E0],"parents":[2147483647,0,0,1,1,2,2,4,4],"right_children":[2,4,6,-1,8,-1,-1,-1,-1],"split_conditions":[2E0,5.8E1,1.488E3,2.3443461E-3,5.9E1,-4.266838E-4,-1.3396249E-3,1.4177263E-4,6.062766E-4],"split_indices":[5,0,11,0,0,0,0,0,0],"split_type":[0,0,0,0,0,0,0,0,0],"sum_hessian":[1E1,4E0,6E0,1E0,3E0,5E0,1E0,1E0,2E0],"tree_param":{"num_deleted":"0","num_feature":"24","num_nodes":"9","size_leaf_vector":"1"}},{"base_weights":[2.8007952E-3,2.6424527E-2,-1.4473413E-2,2.2857368E-3,1.0173291E-2,-4.0890425E-4,-1.3061345E-3,1.3822914E-4,5.860666E-4],"categories":[],"categories_nodes":[],"categories_segments":[],"categories_sizes":[],"default_left":[0,0,0,0,0,0,0,0,0],"id":37,"left_children":[1,3,5,-1,7,-1,-1,-1,-1],"loss_changes":[4.871347E-3,1.1023795E-3,2.9971846E-4,0E0,1.3471377E-5,0E0,0E0,0E0,0E0],"parents":[2147483647,0,0,1,1,2,2,4,4],"right_children":[2,4,6,-1,8,-1,-1,-1,-1],"split_conditions":[2E0,5.8E1,1.488E3,2.2857368E-3,5.9E1,-4.0890425E-4,-1.3061345E-3,1.3822914E-4,5.860666E-4],"split_indices":[5,0,11,0,0,0,0,0,0],"split_type":[0,0,0,0,0,0,0,0,0],"sum_hessian":[1E1,4E0,6E0,1E0,3E0,5E0,1E0,1E0,2E0],"tree_param":{"num_deleted":"0","num_feature":"24","num_nodes":"9","size_leaf_vector":"1"}},{"base_weights":[2.7784759E-3,2.5705313E-2,-1.3994762E-2,2.228594E-3,9.845704E-3,-3.9186724E-4,-1.2734815E-3,1.3477207E-4,5.6653225E-4],"categories":[],"categories_nodes":[],"categories_segments":[],"categories_sizes":[],"default_left":[0,0,0,0,0,0,0,0,0],"id":38,"left_children":[1,3,5,-1,7,-1,-1,-1,-1],"loss_changes":[4.58987E-3,1.05724E-3,2.9497454E-4,0E0,1.1929806E-5,0E0,0E0,0E0,0E0],"parents":[2147483647,0,0,1,1,2,2,4,4],"right_children":[2,4,6,-1,8,-1,-1,-1,-1],"split_conditions":[2E0,5.8E1,1.488E3,2.228594E-3,5.9E1,-3.9186724E-4,-1.2734815E-3,1.3477207E-4,5.6653225E-4],"split_indices":[5,0,11,0,0,0,0,0,0],"split_type":[0,0,0,0,0,0,0,0,0],"sum_hessian":[1E1,4E0,6E0,1E0,3E0,5E0,1E0,1E0,2E0],"tree_param":{"num_deleted":"0","num_feature":"24","num_nodes":"9","size_leaf_vector":"1"}},{"base_weights":[2.7544985E-3,2.5006032E-2,-1.3532953E-2,2.1728785E-3,9.528756E-3,-3.7554055E-4,-1.2416452E-3,1.3140142E-4,5.476495E-4],"categories":[],"categories_nodes":[],"categories_segments":[],"categories_sizes":[],"default_left":[0,0,0,0,0,0,0,0,0],"id":39,"left_children":[1,3,5,-1,7,-1,-1,-1,-1],"loss_changes":[4.325034E-3,1.013801E-3,2.898341E-4,0E0,1.0528194E-5,0E0,0E0,0E0,0E0],"parents":[2147483647,0,0,1,1,2,2,4,4],"right_children":[2,4,6,-1,8,-1,-1,-1,-1],"split_conditions":[2E0,5.8E1,1.488E3,2.1728785E-3,5.9E1,-3.7554055E-4,-1.2416452E-3,1.3140142E-4,5.476495E-4],"split_indices":[5,0,11,0,0,0,0,0,0],"split_type":[0,0,0,0,0,0,0,0,0],"sum_hessian":[1E1,4E0,6E0,1E0,3E0,5E0,1E0,1E0,2E0],"tree_param":{"num_deleted":"0","num_feature":"24","num_nodes":"9","size_leaf_vector":"1"}},{"base_weights":[2.729042E-3,2.4326134E-2,-1.30873155E-2,2.1185577E-3,9.22209E-3,-3.5989186E-4,-1.2106047E-3,1.281172E-4,5.2939454E-4],"categories":[],"categories_nodes":[],"categories_segments":[],"categories_sizes":[],"default_left":[0,0,0,0,0,0,0,0,0],"id":40,"left_children":[1,3,5,-1,7,-1,-1,-1,-1],"loss_changes":[4.0758243E-3,9.7201345E-4,2.843592E-4,0E0,9.2537375E-6,0E0,0E0,0E0,0E0],"parents":[2147483647,0,0,1,1,2,2,4,4],"right_children":[2,4,6,-1,8,-1,-1,-1,-1],"split_conditions":[2E0,5.8E1,1.488E3,2.1185577E-3,5.9E1,-3.5989186E-4,-1.2106047E-3,1.281172E-4,5.2939454E-4],"split_indices":[5,0,11,0,0,0,0,0,0],"split_type":[0,0,0,0,0,0,0,0,0],"sum_hessian":[1E1,4E0,6E0,1E0,3E0,5E0,1E0,1E0,2E0],"tree_param":{"num_deleted":"0","num_feature":"24","num_nodes":"9","size_leaf_vector":"1"}},{"base_weights":[2.702182E-3,2.3665022E-2,-1.26573015E-2,2.0655931E-3,8.9253485E-3,-1.9103587E-4,-9.1647805E-4,1.2491345E-4,5.117476E-4],"categories":[],"categories_nodes":[],"categories_segments":[],"categories_sizes":[],"default_left":[0,0,0,0,0,0,0,0,0],"id":41,"left_children":[1,3,5,-1,7,-1,-1,-1,-1],"loss_changes":[3.8412982E-3,9.3182037E-4,2.808316E-4,0E0,8.098024E-6,0E0,0E0,0E0,0E0],"parents":[2147483647,0,0,1,1,2,2,4,4],"right_children":[2,4,6,-1,8,-1,-1,-1,-1],"split_conditions":[2E0,5.8E1,1.732E3,2.0655931E-3,5.9E1,-1.9103587E-4,-9.1647805E-4,1.2491345E-4,5.117476E-4],"split_indices":[5,0,1,0,0,0,0,0,0],"split_type":[0,0,0,0,0,0,0,0,0],"sum_hessian":[1E1,4E0,6E0,1E0,3E0,3E0,3E0,1E0,2E0],"tree_param":{"num_deleted":"0","num_feature":"24","num_nodes":"9","size_leaf_vector":"1"}},{"base_weights":[2.7120493E-3,2.3022223E-2,-1.2182653E-2,2.0139546E-3,8.638233E-3,-3.248458E-4,-1.1574269E-3,1.2179017E-4,4.9468875E-4],"categories":[],"categories_nodes":[],"categories_segments":[],"categories_sizes":[],"default_left":[0,0,0,0,0,0,0,0,0],"id":42,"left_children":[1,3,5,-1,7,-1,-1,-1,-1],"loss_changes":[3.6081255E-3,8.9317304E-4,2.860499E-4,0E0,7.0503447E-6,0E0,0E0,0E0,0E0],"parents":[2147483647,0,0,1,1,2,2,4,4],"right_children":[2,4,6,-1,8,-1,-1,-1,-1],"split_conditions":[2E0,5.8E1,1.488E3,2.0139546E-3,5.9E1,-3.248458E-4,-1.1574269E-3,1.2179017E-4,4.9468875E-4],"split_indices":[5,0,11,0,0,0,0,0,0],"split_type":[0,0,0,0,0,0,0,0,0],"sum_hessian":[1E1,4E0,6E0,1E0,3E0,5E0,1E0,1E0,2E0],"tree_param":{"num_deleted":"0","num_feature":"24","num_nodes":"9","size_leaf_vector":"1"}},{"base_weights":[2.6808165E-3,2.2397185E-2,-1.1785277E-2,1.9636066E-3,8.360416E-3,-3.113106E-4,-1.1284918E-3,1.1874438E-4,4.7819814E-4],"categories":[],"categories_nodes":[],"categories_segments":[],"categories_sizes":[],"default_left":[0,0,0,0,0,0,0,0,0],"id":43,"left_children":[1,3,5,-1,7,-1,-1,-1,-1],"loss_changes":[3.4013642E-3,8.56017E-4,2.791399E-4,0E0,6.102113E-6,0E0,0E0,0E0,0E0],"parents":[2147483647,0,0,1,1,2,2,4,4],"right_children":[2,4,6,-1,8,-1,-1,-1,-1],"split_conditions":[2E0,5.8E1,1.488E3,1.9636066E-3,5.9E1,-3.113106E-4,-1.1284918E-3,1.1874438E-4,4.7819814E-4],"split_indices":[5,0,11,0,0,0,0,0,0],"split_type":[0,0,0,0,0,0,0,0,0],"sum_hessian":[1E1,4E0,6E0,1E0,3E0,5E0,1E0,1E0,2E0],"tree_param":{"num_deleted":"0","num_feature":"24","num_nodes":"9","size_leaf_vector":"1"}},{"base_weights":[2.6486733E-3,2.1789456E-2,-1.1401696E-2,1.6207517E-3,1.9503634E-4,-5.9667826E-3,-1.1002794E-3,-1.6001612E-4,-3.8332344E-4],"categories":[],"categories_nodes":[],"categories_segments":[],"categories_sizes":[],"default_left":[0,0,0,0,0,0,0,0,0],"id":44,"left_children":[1,3,5,-1,-1,7,-1,-1,-1],"loss_changes":[3.2067222E-3,8.239483E-4,2.721161E-4,0E0,0E0,3.6775164E-6,0E0,0E0,0E0],"parents":[2147483647,0,0,1,1,2,2,5,5],"right_children":[2,4,6,-1,-1,8,-1,-1,-1],"split_conditions":[2E0,1.622E3,1.488E3,1.6207517E-3,1.9503634E-4,1.732E3,-1.1002794E-3,-1.6001612E-4,-3.8332344E-4],"split_indices":[5,1,11,0,0,1,0,0,0],"split_type":[0,0,0,0,0,0,0,0,0],"sum_hessian":[1E1,4E0,6E0,2E0,2E0,5E0,1E0,3E0,2E0],"tree_param":{"num_deleted":"0","num_feature":"24","num_nodes":"9","size_leaf_vector":"1"}},{"base_weights":[2.531897E-3,2.1063138E-2,-1.1066402E-2,1.8739969E-3,7.588953E-3,-5.758991E-3,-1.0727718E-3,1.109004E-4,4.319966E-4,-1.5401468E-4,-3.705462E-4],"categories":[],"categories_nodes":[],"categories_segments":[],"categories_sizes":[],"default_left":[0,0,0,0,0,0,0,0,0,0,0],"id":45,"left_children":[1,3,5,-1,7,9,-1,-1,-1,-1,-1],"loss_changes":[3.0050199E-3,8.215818E-4,2.6241055E-4,0E0,3.4155528E-6,3.7223363E-6,0E0,0E0,0E0,0E0,0E0],"parents":[2147483647,0,0,1,1,2,2,4,4,5,5],"right_children":[2,4,6,-1,8,10,-1,-1,-1,-1,-1],"split_conditions":[2E0,5.8E1,1.488E3,1.8739969E-3,5.9E1,1.732E3,-1.0727718E-3,1.109004E-4,4.319966E-4,-1.5401468E-4,-3.705462E-4],"split_indices":[5,0,11,0,0,1,0,0,0,0,0],"split_type":[0,0,0,0,0,0,0,0,0,0,0],"sum_hessian":[1E1,4E0,6E0,1E0,3E0,5E0,1E0,1E0,2E0,3E0,2E0],"tree_param":{"num_deleted":"0","num_feature":"24","num_nodes":"11","size_leaf_vector":"1"}},{"base_weights":[2.4798133E-3,2.0493364E-2,-1.0741268E-2,1.8271477E-3,7.3452294E-3,-5.558461E-3,-1.0459528E-3,1.08128785E-4,4.175961E-4,-1.4823899E-4,-3.581941E-4],"categories":[],"categories_nodes":[],"categories_segments":[],"categories_sizes":[],"default_left":[0,0,0,0,0,0,0,0,0,0,0],"id":46,"left_children":[1,3,5,-1,7,9,-1,-1,-1,-1,-1],"loss_changes":[2.8398694E-3,7.8669447E-4,2.5296875E-4,0E0,2.8076902E-6,3.7443679E-6,0E0,0E0,0E0,0E0,0E0],"parents":[2147483647,0,0,1,1,2,2,4,4,5,5],"right_children":[2,4,6,-1,8,10,-1,-1,-1,-1,-1],"split_conditions":[2E0,5.8E1,1.488E3,1.8271477E-3,5.9E1,1.732E3,-1.0459528E-3,1.08128785E-4,4.175961E-4,-1.4823899E-4,-3.581941E-4],"split_indices":[5,0,11,0,0,1,0,0,0,0,0],"split_type":[0,0,0,0,0,0,0,0,0,0,0],"sum_hessian":[1E1,4E0,6E0,1E0,3E0,5E0,1E0,1E0,2E0,3E0,2E0],"tree_param":{"num_deleted":"0","num_feature":"24","num_nodes":"11","size_leaf_vector":"1"}},{"base_weights":[2.4285913E-3,1.993928E-2,-1.0425985E-2,1.7814696E-3,7.1094036E-3,-5.3649545E-3,-1.0198042E-3,1.05425715E-4,4.0367641E-4,-1.4268012E-4,-3.462553E-4],"categories":[],"categories_nodes":[],"categories_segments":[],"categories_sizes":[],"default_left":[0,0,0,0,0,0,0,0,0,0,0],"id":47,"left_children":[1,3,5,-1,7,9,-1,-1,-1,-1,-1],"loss_changes":[2.6839036E-3,7.5320737E-4,2.437887E-4,0E0,2.2627937E-6,3.7470309E-6,0E0,0E0,0E0,0E0,0E0],"parents":[2147483647,0,0,1,1,2,2,4,4,5,5],"right_children":[2,4,6,-1,8,10,-1,-1,-1,-1,-1],"split_conditions":[2E0,5.8E1,1.488E3,1.7814696E-3,5.9E1,1.732E3,-1.0198042E-3,1.05425715E-4,4.0367641E-4,-1.4268012E-4,-3.462553E-4],"split_indices":[5,0,11,0,0,1,0,0,0,0,0],"split_type":[0,0,0,0,0,0,0,0,0,0,0],"sum_hessian":[1E1,4E0,6E0,1E0,3E0,5E0,1E0,1E0,2E0,3E0,2E0],"tree_param":{"num_deleted":"0","num_feature":"24","num_nodes":"11","size_leaf_vector":"1"}},{"base_weights":[2.378247E-3,1.736933E-3,-4.3316605E-3,2.36266E-3,-1.4963806E-2,6.881237E-3,-1.373291E-4,-9.943098E-4,-3.3471387E-4,1.0279119E-4,3.9022168E-4],"categories":[],"categories_nodes":[],"categories_segments":[],"categories_sizes":[],"default_left":[0,0,0,0,0,0,0,0,0,0,0],"id":48,"left_children":[1,-1,3,5,7,9,-1,-1,-1,-1,-1],"loss_changes":[2.5389653E-3,0E0,7.471043E-4,1.805054E-4,2.9699644E-5,1.7746788E-6,0E0,0E0,0E0,0E0,0E0],"parents":[2147483647,0,0,2,2,3,3,4,4,5,5],"right_children":[2,-1,4,6,8,10,-1,-1,-1,-1,-1],"split_conditions":[9.82E2,1.736933E-3,3.95E2,2E0,1.741E3,5.9E1,-1.373291E-4,-9.943098E-4,-3.3471387E-4,1.0279119E-4,3.9022168E-4],"split_indices":[1,0,13,5,1,0,0,0,0,0,0],"split_type":[0,0,0,0,0,0,0,0,0,0,0],"sum_hessian":[1E1,1E0,9E0,6E0,3E0,3E0,3E0,1E0,2E0,1E0,2E0],"tree_param":{"num_deleted":"0","num_feature":"24","num_nodes":"11","size_leaf_vector":"1"}},{"base_weights":[2.3287751E-3,1.693511E-3,-4.2123916E-3,2.2953579E-3,-1.4547855E-2,6.6604614E-3,-1.3217927E-4,-9.694517E-4,-3.2355587E-4,4.3500663E-4,1.5402636E-4],"categories":[],"categories_nodes":[],"categories_segments":[],"categories_sizes":[],"default_left":[0,0,0,0,0,0,0,0,0,0,0],"id":49,"left_children":[1,-1,3,5,7,9,-1,-1,-1,-1,-1],"loss_changes":[2.4121709E-3,0E0,7.059985E-4,1.6852049E-4,3.0935043E-5,2.4065666E-6,0E0,0E0,0E0,0E0,0E0],"parents":[2147483647,0,0,2,2,3,3,4,4,5,5],"right_children":[2,-1,4,6,8,10,-1,-1,-1,-1,-1],"split_conditions":[9.82E2,1.693511E-3,3.95E2,2E0,1.741E3,1.622E3,-1.3217927E-4,-9.694517E-4,-3.2355587E-4,4.3500663E-4,1.5402636E-4],"split_indices":[1,0,13,5,1,1,0,0,0,0,0],"split_type":[0,0,0,0,0,0,0,0,0,0,0],"sum_hessian":[1E1,1E0,9E0,6E0,3E0,3E0,3E0,1E0,2E0,1E0,2E0],"tree_param":{"num_deleted":"0","num_feature":"24","num_nodes":"11","size_leaf_vector":"1"}},{"base_weights":[2.2902868E-3,1.6511738E-3,-4.0853797E-3,2.245869E-3,-1.414372E-2,6.4747036E-3,-1.2722165E-4,-9.4521494E-4,-3.127714E-4,4.2413175E-4,1.488924E-4],"categories":[],"categories_nodes":[],"categories_segments":[],"categories_sizes":[],"default_left":[0,0,0,0,0,0,0,0,0,0,0],"id":50,"left_children":[1,-1,3,5,7,9,-1,-1,-1,-1,-1],"loss_changes":[2.2903036E-3,0E0,6.6858355E-4,1.5827622E-4,3.195682E-5,2.8257782E-6,0E0,0E0,0E0,0E0,0E0],"parents":[2147483647,0,0,2,2,3,3,4,4,5,5],"right_children":[2,-1,4,6,8,10,-1,-1,-1,-1,-1],"split_conditions":[9.82E2,1.6511738E-3,3.95E2,2E0,1.741E3,1.622E3,-1.2722165E-4,-9.4521494E-4,-3.127714E-4,4.2413175E-4,1.488924E-4],"split_indices":[1,0,13,5,1,1,0,0,0,0,0],"split_type":[0,0,0,0,0,0,0,0,0,0,0],"sum_hessian":[1E1,1E0,9E0,6E0,3E0,3E0,3E0,1E0,2E0,1E0,2E0],"tree_param":{"num_deleted":"0","num_feature":"24","num_nodes":"11","size_leaf_vector":"1"}},{"base_weights":[2.2520314E-3,1.6098947E-3,-3.962344E-3,2.1972486E-3,-1.3751045E-2,6.2942207E-3,-1.2245179E-4,-9.2158467E-4,-3.0234654E-4,4.135281E-4,1.4392933E-4],"categories":[],"categories_nodes":[],"categories_segments":[],"categories_sizes":[],"default_left":[0,0,0,0,0,0,0,0,0,0,0],"id":51,"left_children":[1,-1,3,5,7,9,-1,-1,-1,-1,-1],"loss_changes":[2.1746221E-3,0E0,6.331586E-4,1.4866465E-4,3.2785814E-5,3.1943055E-6,0E0,0E0,0E0,0E0,0E0],"parents":[2147483647,0,0,2,2,3,3,4,4,5,5],"right_children":[2,-1,4,6,8,10,-1,-1,-1,-1,-1],"split_conditions":[9.82E2,1.6098947E-3,3.95E2,2E0,1.741E3,1.622E3,-1.2245179E-4,-9.2158467E-4,-3.0234654E-4,4.135281E-4,1.4392933E-4],"split_indices":[1,0,13,5,1,1,0,0,0,0,0],"split_type":[0,0,0,0,0,0,0,0,0,0,0],"sum_hessian":[1E1,1E0,9E0,6E0,3E0,3E0,3E0,1E0,2E0,1E0,2E0],"tree_param":{"num_deleted":"0","num_feature":"24","num_nodes":"11","size_leaf_vector":"1"}},{"base_weights":[2.2140688E-3,1.5696466E-3,-3.8431108E-3,2.149531E-3,-1.3369456E-2,6.1188936E-3,-1.17860734E-4,-8.985445E-4,-2.922674E-4,4.0318965E-4,1.3913313E-4],"categories":[],"categories_nodes":[],"categories_segments":[],"categories_sizes":[],"default_left":[0,0,0,0,0,0,0,0,0,0,0],"id":52,"left_children":[1,-1,3,5,7,9,-1,-1,-1,-1,-1],"loss_changes":[2.064804E-3,0E0,5.996178E-4,1.396459E-4,3.3440592E-5,3.5157136E-6,0E0,0E0,0E0,0E0,0E0],"parents":[2147483647,0,0,2,2,3,3,4,4,5,5],"right_children":[2,-1,4,6,8,10,-1,-1,-1,-1,-1],"split_conditions":[9.82E2,1.5696466E-3,3.95E2,2E0,1.741E3,1.622E3,-1.17860734E-4,-8.985445E-4,-2.922674E-4,4.0318965E-4,1.3913313E-4],"split_indices":[1,0,13,5,1,1,0,0,0,0,0],"split_type":[0,0,0,0,0,0,0,0,0,0,0],"sum_hessian":[1E1,1E0,9E0,6E0,3E0,3E0,3E0,1E0,2E0,1E0,2E0],"tree_param":{"num_deleted":"0","num_feature":"24","num_nodes":"11","size_leaf_vector":"1"}},{"base_weights":[2.1763877E-3,1.530406E-3,-3.727597E-3,2.10269E-3,-1.29987E-2,5.9485435E-3,-1.134418E-4,-8.76081E-4,-2.8252602E-4,3.9311053E-4,1.3449589E-4],"categories":[],"categories_nodes":[],"categories_segments":[],"categories_sizes":[],"default_left":[0,0,0,0,0,0,0,0,0,0,0],"id":53,"left_children":[1,-1,3,5,7,9,-1,-1,-1,-1,-1],"loss_changes":[1.9605602E-3,0E0,5.6786416E-4,1.3118201E-4,3.393466E-5,3.794994E-6,0E0,0E0,0E0,0E0,0E0],"parents":[2147483647,0,0,2,2,3,3,4,4,5,5],"right_children":[2,-1,4,6,8,10,-1,-1,-1,-1,-1],"split_conditions":[9.82E2,1.530406E-3,3.95E2,2E0,1.741E3,1.622E3,-1.134418E-4,-8.76081E-4,-2.8252602E-4,3.9311053E-4,1.3449589E-4],"split_indices":[1,0,13,5,1,1,0,0,0,0,0],"split_type":[0,0,0,0,0,0,0,0,0,0,0],"sum_hessian":[1E1,1E0,9E0,6E0,3E0,3E0,3E0,1E0,2E0,1E0,2E0],"tree_param":{"num_deleted":"0","num_feature":"24","num_nodes":"11","size_leaf_vector":"1"}},{"base_weights":[2.1390156E-3,1.4921457E-3,-3.6156655E-3,2.0567179E-3,-1.263842E-2,5.7830215E-3,-1.0918826E-4,-8.5417926E-4,-2.7310848E-4,3.832817E-4,1.3001362E-4],"categories":[],"categories_nodes":[],"categories_segments":[],"categories_sizes":[],"default_left":[0,0,0,0,0,0,0,0,0,0,0],"id":54,"left_children":[1,-1,3,5,7,9,-1,-1,-1,-1,-1],"loss_changes":[1.8616E-3,0E0,5.3779886E-4,1.2323806E-4,3.428501E-5,4.034795E-6,0E0,0E0,0E0,0E0,0E0],"parents":[2147483647,0,0,2,2,3,3,4,4,5,5],"right_children":[2,-1,4,6,8,10,-1,-1,-1,-1,-1],"split_conditions":[9.82E2,1.4921457E-3,3.95E2,2E0,1.741E3,1.622E3,-1.0918826E-4,-8.5417926E-4,-2.7310848E-4,3.832817E-4,1.3001362E-4],"split_indices":[1,0,13,5,1,1,0,0,0,0,0],"split_type":[0,0,0,0,0,0,0,0,0,0,0],"sum_hessian":[1E1,1E0,9E0,6E0,3E0,3E0,3E0,1E0,2E0,1E0,2E0],"tree_param":{"num_deleted":"0","num_feature":"24","num_nodes":"11","size_leaf_vector":"1"}},{"base_weights":[2.1019687E-3,1.4548422E-3,-3.507203E-3,2.0116058E-3,-1.2288317E-2,5.6221783E-3,-1.0509342E-4,-8.3282444E-4,-2.640049E-4,3.7370026E-4,1.2567839E-4],"categories":[],"categories_nodes":[],"categories_segments":[],"categories_sizes":[],"default_left":[0,0,0,0,0,0,0,0,0,0,0],"id":55,"left_children":[1,-1,3,5,7,9,-1,-1,-1,-1,-1],"loss_changes":[1.7676562E-3,0E0,5.093321E-4,1.1578106E-4,3.450457E-5,4.2400206E-6,0E0,0E0,0E0,0E0,0E0],"parents":[2147483647,0,0,2,2,3,3,4,4,5,5],"right_children":[2,-1,4,6,8,10,-1,-1,-1,-1,-1],"split_conditions":[9.82E2,1.4548422E-3,3.95E2,2E0,1.741E3,1.622E3,-1.0509342E-4,-8.3282444E-4,-2.640049E-4,3.7370026E-4,1.2567839E-4],"split_indices":[1,0,13,5,1,1,0,0,0,0,0],"split_type":[0,0,0,0,0,0,0,0,0,0,0],"sum_hessian":[1E1,1E0,9E0,6E0,3E0,3E0,3E0,1E0,2E0,1E0,2E0],"tree_param":{"num_deleted":"0","num_feature":"24","num_nodes":"11","size_leaf_vector":"1"}},{"base_weights":[2.0652576E-3,1.4184713E-3,-3.402102E-3,1.9673535E-3,-1.1948124E-2,5.4659247E-3,-1.0115281E-4,-8.120045E-4,-2.5520523E-4,3.6435723E-4,1.2149016E-4],"categories":[],"categories_nodes":[],"categories_segments":[],"categories_sizes":[],"default_left":[0,0,0,0,0,0,0,0,0,0,0],"id":56,"left_children":[1,-1,3,5,7,9,-1,-1,-1,-1,-1],"loss_changes":[1.6784735E-3,0E0,4.8238097E-4,1.08782995E-4,3.4606142E-5,4.4114568E-6,0E0,0E0,0E0,0E0,0E0],"parents":[2147483647,0,0,2,2,3,3,4,4,5,5],"right_children":[2,-1,4,6,8,10,-1,-1,-1,-1,-1],"split_conditions":[9.82E2,1.4184713E-3,3.95E2,2E0,1.741E3,1.622E3,-1.0115281E-4,-8.120045E-4,-2.5520523E-4,3.6435723E-4,1.2149016E-4],"split_indices":[1,0,13,5,1,1,0,0,0,0,0],"split_type":[0,0,0,0,0,0,0,0,0,0,0],"sum_hessian":[1E1,1E0,9E0,6E0,3E0,3E0,3E0,1E0,2E0,1E0,2E0],"tree_param":{"num_deleted":"0","num_feature":"24","num_nodes":"11","size_leaf_vector":"1"}},{"base_weights":[2.0289095E-3,1.3830096E-3,-3.3002377E-3,1.9239528E-3,-1.16175115E-2,5.3141117E-3,-9.735972E-5,-7.917047E-4,-2.4669766E-4,3.5524965E-4,1.1744102E-4],"categories":[],"categories_nodes":[],"categories_segments":[],"categories_sizes":[],"default_left":[0,0,0,0,0,0,0,0,0,0,0],"id":57,"left_children":[1,-1,3,5,7,9,-1,-1,-1,-1,-1],"loss_changes":[1.5938068E-3,0E0,4.5686174E-4,1.0221423E-4,3.4602417E-5,4.5535926E-6,0E0,0E0,0E0,0E0,0E0],"parents":[2147483647,0,0,2,2,3,3,4,4,5,5],"right_children":[2,-1,4,6,8,10,-1,-1,-1,-1,-1],"split_conditions":[9.82E2,1.3830096E-3,3.95E2,2E0,1.741E3,1.622E3,-9.735972E-5,-7.917047E-4,-2.4669766E-4,3.5524965E-4,1.1744102E-4],"split_indices":[1,0,13,5,1,1,0,0,0,0,0],"split_type":[0,0,0,0,0,0,0,0,0,0,0],"sum_hessian":[1E1,1E0,9E0,6E0,3E0,3E0,3E0,1E0,2E0,1E0,2E0],"tree_param":{"num_deleted":"0","num_feature":"24","num_nodes":"11","size_leaf_vector":"1"}},{"base_weights":[1.9929083E-3,1.348433E-3,-3.2015324E-3,1.8813695E-3,-1.1296228E-2,5.16659E-3,-9.370968E-5,-7.7191147E-4,-2.3847421E-4,3.4636856E-4,1.1352698E-4],"categories":[],"categories_nodes":[],"categories_segments":[],"categories_sizes":[],"default_left":[0,0,0,0,0,0,0,0,0,0,0],"id":58,"left_children":[1,-1,3,5,7,9,-1,-1,-1,-1,-1],"loss_changes":[1.5134265E-3,0E0,4.3269777E-4,9.604817E-5,3.4502707E-5,4.668371E-6,0E0,0E0,0E0,0E0,0E0],"parents":[2147483647,0,0,2,2,3,3,4,4,5,5],"right_children":[2,-1,4,6,8,10,-1,-1,-1,-1,-1],"split_conditions":[9.82E2,1.348433E-3,3.95E2,2E0,1.741E3,1.622E3,-9.370968E-5,-7.7191147E-4,-2.3847421E-4,3.4636856E-4,1.1352698E-4],"split_indices":[1,0,13,5,1,1,0,0,0,0,0],"split_type":[0,0,0,0,0,0,0,0,0,0,0],"sum_hessian":[1E1,1E0,9E0,6E0,3E0,3E0,3E0,1E0,2E0,1E0,2E0],"tree_param":{"num_deleted":"0","num_feature":"24","num_nodes":"11","size_leaf_vector":"1"}},{"base_weights":[1.957292E-3,1.3147235E-3,-3.1058728E-3,1.8396123E-3,-1.0984004E-2,5.023241E-3,-9.019599E-5,-7.5261295E-4,-2.3052495E-4,3.37708E-4,1.09744076E-4],"categories":[],"categories_nodes":[],"categories_segments":[],"categories_sizes":[],"default_left":[0,0,0,0,0,0,0,0,0,0,0],"id":59,"left_children":[1,-1,3,5,7,9,-1,-1,-1,-1,-1],"loss_changes":[1.4371218E-3,0E0,4.0981808E-4,9.02591E-5,3.4317753E-5,4.7580616E-6,0E0,0E0,0E0,0E0,0E0],"parents":[2147483647,0,0,2,2,3,3,4,4,5,5],"right_children":[2,-1,4,6,8,10,-1,-1,-1,-1,-1],"split_conditions":[9.82E2,1.3147235E-3,3.95E2,2E0,1.741E3,1.622E3,-9.019599E-5,-7.5261295E-4,-2.3052495E-4,3.37708E-4,1.09744076E-4],"split_indices":[1,0,13,5,1,1,0,0,0,0,0],"split_type":[0,0,0,0,0,0,0,0,0,0,0],"sum_hessian":[1E1,1E0,9E0,6E0,3E0,3E0,3E0,1E0,2E0,1E0,2E0],"tree_param":{"num_deleted":"0","num_feature":"24","num_nodes":"11","size_leaf_vector":"1"}},{"base_weights":[1.9220385E-3,1.2818546E-3,-3.0131757E-3,1.7986468E-3,-1.0680571E-2,4.883915E-3,-8.6814165E-5,-7.3379726E-4,-2.2283991E-4,3.29265E-4,1.0608435E-4],"categories":[],"categories_nodes":[],"categories_segments":[],"categories_sizes":[],"default_left":[0,0,0,0,0,0,0,0,0,0,0],"id":60,"left_children":[1,-1,3,5,7,9,-1,-1,-1,-1,-1],"loss_changes":[1.3646766E-3,0E0,3.8815205E-4,8.482332E-5,3.4057477E-5,4.8265065E-6,0E0,0E0,0E0,0E0,0E0],"parents":[2147483647,0,0,2,2,3,3,4,4,5,5],"right_children":[2,-1,4,6,8,10,-1,-1,-1,-1,-1],"split_conditions":[9.82E2,1.2818546E-3,3.95E2,2E0,1.741E3,1.622E3,-8.6814165E-5,-7.3379726E-4,-2.2283991E-4,3.29265E-4,1.0608435E-4],"split_indices":[1,0,13,5,1,1,0,0,0,0,0],"split_type":[0,0,0,0,0,0,0,0,0,0,0],"sum_hessian":[1E1,1E0,9E0,6E0,3E0,3E0,3E0,1E0,2E0,1E0,2E0],"tree_param":{"num_deleted":"0","num_feature":"24","num_nodes":"11","size_leaf_vector":"1"}},{"base_weights":[1.8871968E-3,1.2498081E-3,-2.9233159E-3,1.7585158E-3,-1.0385692E-2,4.748553E-3,-8.355752E-5,-7.154524E-4,-2.1541119E-4,3.210336E-4,1.02547805E-4],"categories":[],"categories_nodes":[],"categories_segments":[],"categories_sizes":[],"default_left":[0,0,0,0,0,0,0,0,0,0,0],"id":61,"left_children":[1,-1,3,5,7,9,-1,-1,-1,-1,-1],"loss_changes":[1.2958973E-3,0E0,3.676393E-4,7.971936E-5,3.372971E-5,4.8742877E-6,0E0,0E0,0E0,0E0,0E0],"parents":[2147483647,0,0,2,2,3,3,4,4,5,5],"right_children":[2,-1,4,6,8,10,-1,-1,-1,-1,-1],"split_conditions":[9.82E2,1.2498081E-3,3.95E2,2E0,1.741E3,1.622E3,-8.355752E-5,-7.154524E-4,-2.1541119E-4,3.210336E-4,1.02547805E-4],"split_indices":[1,0,13,5,1,1,0,0,0,0,0],"split_type":[0,0,0,0,0,0,0,0,0,0,0],"sum_hessian":[1E1,1E0,9E0,6E0,3E0,3E0,3E0,1E0,2E0,1E0,2E0],"tree_param":{"num_deleted":"0","num_feature":"24","num_nodes":"11","size_leaf_vector":"1"}},{"base_weights":[1.8527508E-3,1.2185633E-3,-2.8362274E-3,1.7191768E-3,-1.0099128E-2,4.6170354E-3,-8.04238E-5,-6.975666E-4,-2.082308E-4,3.1300783E-4,9.913048E-5],"categories":[],"categories_nodes":[],"categories_segments":[],"categories_sizes":[],"default_left":[0,0,0,0,0,0,0,0,0,0,0],"id":62,"left_children":[1,-1,3,5,7,9,-1,-1,-1,-1,-1],"loss_changes":[1.2305995E-3,0E0,3.4821668E-4,7.492786E-5,3.3341843E-5,4.9032897E-6,0E0,0E0,0E0,0E0,0E0],"parents":[2147483647,0,0,2,2,3,3,4,4,5,5],"right_children":[2,-1,4,6,8,10,-1,-1,-1,-1,-1],"split_conditions":[9.82E2,1.2185633E-3,3.95E2,2E0,1.741E3,1.622E3,-8.04238E-5,-6.975666E-4,-2.082308E-4,3.1300783E-4,9.913048E-5],"split_indices":[1,0,13,5,1,1,0,0,0,0,0],"split_type":[0,0,0,0,0,0,0,0,0,0,0],"sum_hessian":[1E1,1E0,9E0,6E0,3E0,3E0,3E0,1E0,2E0,1E0,2E0],"tree_param":{"num_deleted":"0","num_feature":"24","num_nodes":"11","size_leaf_vector":"1"}},{"base_weights":[1.8186894E-3,1.1880994E-3,-2.751839E-3,1.6805785E-3,-9.82061E-3,4.4891834E-3,-7.740856E-5,-6.8012776E-4,-2.0128887E-4,3.0518175E-4,9.5824405E-5],"categories":[],"categories_nodes":[],"categories_segments":[],"categories_sizes":[],"default_left":[0,0,0,0,0,0,0,0,0,0,0],"id":63,"left_children":[1,-1,3,5,7,9,-1,-1,-1,-1,-1],"loss_changes":[1.1686063E-3,0E0,3.2982178E-4,7.0427996E-5,3.2902084E-5,4.91643E-6,0E0,0E0,0E0,0E0,0E0],"parents":[2147483647,0,0,2,2,3,3,4,4,5,5],"right_children":[2,-1,4,6,8,10,-1,-1,-1,-1,-1],"split_conditions":[9.82E2,1.1880994E-3,3.95E2,2E0,1.741E3,1.622E3,-7.740856E-5,-6.8012776E-4,-2.0128887E-4,3.0518175E-4,9.5824405E-5],"split_indices":[1,0,13,5,1,1,0,0,0,0,0],"split_type":[0,0,0,0,0,0,0,0,0,0,0],"sum_hessian":[1E1,1E0,9E0,6E0,3E0,3E0,3E0,1E0,2E0,1E0,2E0],"tree_param":{"num_deleted":"0","num_feature":"24","num_nodes":"11","size_leaf_vector":"1"}},{"base_weights":[1.7850616E-3,1.1583985E-3,-2.670026E-3,1.6427806E-3,-9.549931E-3,4.3649673E-3,-7.4505064E-5,-6.63124E-4,-1.9457936E-4,2.9755235E-4,9.26296E-5],"categories":[],"categories_nodes":[],"categories_segments":[],"categories_sizes":[],"default_left":[0,0,0,0,0,0,0,0,0,0,0],"id":64,"left_children":[1,-1,3,5,7,9,-1,-1,-1,-1,-1],"loss_changes":[1.109749E-3,0E0,3.124054E-4,6.6202265E-5,3.241544E-5,4.914451E-6,0E0,0E0,0E0,0E0,0E0],"parents":[2147483647,0,0,2,2,3,3,4,4,5,5],"right_children":[2,-1,4,6,8,10,-1,-1,-1,-1,-1],"split_conditions":[9.82E2,1.1583985E-3,3.95E2,2E0,1.741E3,1.622E3,-7.4505064E-5,-6.63124E-4,-1.9457936E-4,2.9755235E-4,9.26296E-5],"split_indices":[1,0,13,5,1,1,0,0,0,0,0],"split_type":[0,0,0,0,0,0,0,0,0,0,0],"sum_hessian":[1E1,1E0,9E0,6E0,3E0,3E0,3E0,1E0,2E0,1E0,2E0],"tree_param":{"num_deleted":"0","num_feature":"24","num_nodes":"11","size_leaf_vector":"1"}},{"base_weights":[1.7518509E-3,1.1294394E-3,-2.590722E-3,1.6057406E-3,-9.286851E-3,4.244268E-3,-7.1711096E-5,-6.465465E-4,-1.880924E-4,2.901137E-4,8.9542074E-5],"categories":[],"categories_nodes":[],"categories_segments":[],"categories_sizes":[],"default_left":[0,0,0,0,0,0,0,0,0,0,0],"id":65,"left_children":[1,-1,3,5,7,9,-1,-1,-1,-1,-1],"loss_changes":[1.0538665E-3,0E0,2.959128E-4,6.223439E-5,3.189E-5,4.8988586E-6,0E0,0E0,0E0,0E0,0E0],"parents":[2147483647,0,0,2,2,3,3,4,4,5,5],"right_children":[2,-1,4,6,8,10,-1,-1,-1,-1,-1],"split_conditions":[9.82E2,1.1294394E-3,3.95E2,2E0,1.741E3,1.622E3,-7.1711096E-5,-6.465465E-4,-1.880924E-4,2.901137E-4,8.9542074E-5],"split_indices":[1,0,13,5,1,1,0,0,0,0,0],"split_type":[0,0,0,0,0,0,0,0,0,0,0],"sum_hessian":[1E1,1E0,9E0,6E0,3E0,3E0,3E0,1E0,2E0,1E0,2E0],"tree_param":{"num_deleted":"0","num_feature":"24","num_nodes":"11","size_leaf_vector":"1"}},{"base_weights":[1.7190576E-3,1.1012048E-3,-2.5138557E-3,1.5694414E-3,-9.031162E-3,4.126966E-3,-6.902218E-5,-6.303832E-4,-1.8182198E-4,2.828598E-4,8.655787E-5],"categories":[],"categories_nodes":[],"categories_segments":[],"categories_sizes":[],"default_left":[0,0,0,0,0,0,0,0,0,0,0],"id":66,"left_children":[1,-1,3,5,7,9,-1,-1,-1,-1,-1],"loss_changes":[1.0008095E-3,0E0,2.8029486E-4,5.8507867E-5,3.1329924E-5,4.871057E-6,0E0,0E0,0E0,0E0,0E0],"parents":[2147483647,0,0,2,2,3,3,4,4,5,5],"right_children":[2,-1,4,6,8,10,-1,-1,-1,-1,-1],"split_conditions":[9.82E2,1.1012048E-3,3.95E2,2E0,1.741E3,1.622E3,-6.902218E-5,-6.303832E-4,-1.8182198E-4,2.828598E-4,8.655787E-5],"split_indices":[1,0,13,5,1,1,0,0,0,0,0],"split_type":[0,0,0,0,0,0,0,0,0,0,0],"sum_hessian":[1E1,1E0,9E0,6E0,3E0,3E0,3E0,1E0,2E0,1E0,2E0],"tree_param":{"num_deleted":"0","num_feature":"24","num_nodes":"11","size_leaf_vector":"1"}},{"base_weights":[1.6866759E-3,1.0736734E-3,-2.43935E-3,1.5338829E-3,-8.78267E-3,4.012972E-3,-6.643385E-5,-6.146237E-4,-1.7576218E-4,2.7578772E-4,8.3673E-5],"categories":[],"categories_nodes":[],"categories_segments":[],"categories_sizes":[],"default_left":[0,0,0,0,0,0,0,0,0,0,0],"id":67,"left_children":[1,-1,3,5,7,9,-1,-1,-1,-1,-1],"loss_changes":[9.504302E-4,0E0,2.6550647E-4,5.5007735E-5,3.0739495E-5,4.832713E-6,0E0,0E0,0E0,0E0,0E0],"parents":[2147483647,0,0,2,2,3,3,4,4,5,5],"right_children":[2,-1,4,6,8,10,-1,-1,-1,-1,-1],"split_conditions":[9.82E2,1.0736734E-3,3.95E2,2E0,1.741E3,1.622E3,-6.643385E-5,-6.146237E-4,-1.7576218E-4,2.7578772E-4,8.3673E-5],"split_indices":[1,0,13,5,1,1,0,0,0,0,0],"split_type":[0,0,0,0,0,0,0,0,0,0,0],"sum_hessian":[1E1,1E0,9E0,6E0,3E0,3E0,3E0,1E0,2E0,1E0,2E0],"tree_param":{"num_deleted":"0","num_feature":"24","num_nodes":"11","size_leaf_vector":"1"}},{"base_weights":[1.6547441E-3,1.0468304E-3,-2.367103E-3,1.4990653E-3,-8.541122E-3,3.902197E-3,-6.394163E-5,-5.9925765E-4,-1.6990304E-4,2.6889445E-4,8.08835E-5],"categories":[],"categories_nodes":[],"categories_segments":[],"categories_sizes":[],"default_left":[0,0,0,0,0,0,0,0,0,0,0],"id":68,"left_children":[1,-1,3,5,7,9,-1,-1,-1,-1,-1],"loss_changes":[9.0259494E-4,0E0,2.5150168E-4,5.1719835E-5,3.0125171E-5,4.7853755E-6,0E0,0E0,0E0,0E0,0E0],"parents":[2147483647,0,0,2,2,3,3,4,4,5,5],"right_children":[2,-1,4,6,8,10,-1,-1,-1,-1,-1],"split_conditions":[9.82E2,1.0468304E-3,3.95E2,2E0,1.741E3,1.622E3,-6.394163E-5,-5.9925765E-4,-1.6990304E-4,2.6889445E-4,8.08835E-5],"split_indices":[1,0,13,5,1,1,0,0,0,0,0],"split_type":[0,0,0,0,0,0,0,0,0,0,0],"sum_hessian":[1E1,1E0,9E0,6E0,3E0,3E0,3E0,1E0,2E0,1E0,2E0],"tree_param":{"num_deleted":"0","num_feature":"24","num_nodes":"11","size_leaf_vector":"1"}},{"base_weights":[1.6232566E-3,1.020661E-3,-2.2970617E-3,1.464963E-3,-8.306339E-3,3.794551E-3,-6.154329E-5,-5.8427604E-4,-1.642386E-4,2.6217103E-4,7.8189376E-5],"categories":[],"categories_nodes":[],"categories_segments":[],"categories_sizes":[],"default_left":[0,0,0,0,0,0,0,0,0,0,0],"id":69,"left_children":[1,-1,3,5,7,9,-1,-1,-1,-1,-1],"loss_changes":[8.5717946E-4,0E0,2.3823898E-4,4.8631773E-5,2.9490882E-5,4.7287467E-6,0E0,0E0,0E0,0E0,0E0],"parents":[2147483647,0,0,2,2,3,3,4,4,5,5],"right_children":[2,-1,4,6,8,10,-1,-1,-1,-1,-1],"split_conditions":[9.82E2,1.020661E-3,3.95E2,2E0,1.741E3,1.622E3,-6.154329E-5,-5.8427604E-4,-1.642386E-4,2.6217103E-4,7.8189376E-5],"split_indices":[1,0,13,5,1,1,0,0,0,0,0],"split_type":[0,0,0,0,0,0,0,0,0,0,0],"sum_hessian":[1E1,1E0,9E0,6E0,3E0,3E0,3E0,1E0,2E0,1E0,2E0],"tree_param":{"num_deleted":"0","num_feature":"24","num_nodes":"11","size_leaf_vector":"1"}},{"base_weights":[1.5921864E-3,9.951442E-4,-2.229172E-3,1.4315589E-3,-8.078158E-3,3.689915E-3,-5.9234353E-5,-5.696684E-4,-1.5876493E-4,2.5561752E-4,7.558267E-5],"categories":[],"categories_nodes":[],"categories_segments":[],"categories_sizes":[],"default_left":[0,0,0,0,0,0,0,0,0,0,0],"id":70,"left_children":[1,-1,3,5,7,9,-1,-1,-1,-1,-1],"loss_changes":[8.1405614E-4,0E0,2.2567998E-4,4.5730296E-5,2.8838695E-5,4.6656423E-6,0E0,0E0,0E0,0E0,0E0],"parents":[2147483647,0,0,2,2,3,3,4,4,5,5],"right_children":[2,-1,4,6,8,10,-1,-1,-1,-1,-1],"split_conditions":[9.82E2,9.951442E-4,3.95E2,2E0,1.741E3,1.622E3,-5.9234353E-5,-5.696684E-4,-1.5876493E-4,2.5561752E-4,7.558267E-5],"split_indices":[1,0,13,5,1,1,0,0,0,0,0],"split_type":[0,0,0,0,0,0,0,0,0,0,0],"sum_hessian":[1E1,1E0,9E0,6E0,3E0,3E0,3E0,1E0,2E0,1E0,2E0],"tree_param":{"num_deleted":"0","num_feature":"24","num_nodes":"11","size_leaf_vector":"1"}},{"base_weights":[1.561555E-3,9.702653E-4,-2.1633506E-3,1.3988444E-3,-7.856354E-3,3.5882294E-3,-5.701259E-5,-5.554274E-4,-1.5347204E-4,2.492279E-4,7.306338E-5],"categories":[],"categories_nodes":[],"categories_segments":[],"categories_sizes":[],"default_left":[0,0,0,0,0,0,0,0,0,0,0],"id":71,"left_children":[1,-1,3,5,7,9,-1,-1,-1,-1,-1],"loss_changes":[7.731096E-4,0E0,2.1378571E-4,4.3004897E-5,2.8174865E-5,4.5959787E-6,0E0,0E0,0E0,0E0,0E0],"parents":[2147483647,0,0,2,2,3,3,4,4,5,5],"right_children":[2,-1,4,6,8,10,-1,-1,-1,-1,-1],"split_conditions":[9.82E2,9.702653E-4,3.95E2,2E0,1.741E3,1.622E3,-5.701259E-5,-5.554274E-4,-1.5347204E-4,2.492279E-4,7.306338E-5],"split_indices":[1,0,13,5,1,1,0,0,0,0,0],"split_type":[0,0,0,0,0,0,0,0,0,0,0],"sum_hessian":[1E1,1E0,9E0,6E0,3E0,3E0,3E0,1E0,2E0,1E0,2E0],"tree_param":{"num_deleted":"0","num_feature":"24","num_nodes":"11","size_leaf_vector":"1"}},{"base_weights":[1.5313625E-3,9.460092E-4,-2.0995378E-3,1.3668026E-3,-7.640749E-3,3.489375E-3,-5.4873526E-5,-5.4154097E-4,-1.4835596E-4,2.4299622E-4,7.062753E-5],"categories":[],"categories_nodes":[],"categories_segments":[],"categories_sizes":[],"default_left":[0,0,0,0,0,0,0,0,0,0,0],"id":72,"left_children":[1,-1,3,5,7,9,-1,-1,-1,-1,-1],"loss_changes":[7.342315E-4,0E0,2.0252065E-4,4.0443676E-5,2.75005E-5,4.5206725E-6,0E0,0E0,0E0,0E0,0E0],"parents":[2147483647,0,0,2,2,3,3,4,4,5,5],"right_children":[2,-1,4,6,8,10,-1,-1,-1,-1,-1],"split_conditions":[9.82E2,9.460092E-4,3.95E2,2E0,1.741E3,1.622E3,-5.4873526E-5,-5.4154097E-4,-1.4835596E-4,2.4299622E-4,7.062753E-5],"split_indices":[1,0,13,5,1,1,0,0,0,0,0],"split_type":[0,0,0,0,0,0,0,0,0,0,0],"sum_hessian":[1E1,1E0,9E0,6E0,3E0,3E0,3E0,1E0,2E0,1E0,2E0],"tree_param":{"num_deleted":"0","num_feature":"24","num_nodes":"11","size_leaf_vector":"1"}},{"base_weights":[1.5016198E-3,9.223581E-4,-2.0376504E-3,1.3354591E-3,-7.4311793E-3,2.0228427E-4,-5.5776833E-4,-5.280018E-4,-1.4341077E-4,3.590882E-5,-5.2814932E-5],"categories":[],"categories_nodes":[],"categories_segments":[],"categories_sizes":[],"default_left":[0,0,0,0,0,0,0,0,0,0,0],"id":73,"left_children":[1,-1,3,5,7,-1,9,-1,-1,-1,-1],"loss_changes":[6.973121E-4,0E0,1.9185367E-4,3.8174072E-5,2.681899E-5,0E0,3.9390934E-6,0E0,0E0,0E0,0E0],"parents":[2147483647,0,0,2,2,3,3,4,4,6,6],"right_children":[2,-1,4,6,8,-1,10,-1,-1,-1,-1],"split_conditions":[9.82E2,9.223581E-4,3.95E2,8.4E2,1.741E3,2.0228427E-4,9.009E1,-5.280018E-4,-1.4341077E-4,3.590882E-5,-5.2814932E-5],"split_indices":[1,0,13,11,1,0,3,0,0,0,0],"split_type":[0,0,0,0,0,0,0,0,0,0,0],"sum_hessian":[1E1,1E0,9E0,6E0,3E0,2E0,4E0,1E0,2E0,1E0,3E0],"tree_param":{"num_deleted":"0","num_feature":"24","num_nodes":"11","size_leaf_vector":"1"}},{"base_weights":[1.4662038E-3,8.993E-4,-1.9843758E-3,1.2951663E-3,-7.2274804E-3,1.9554098E-4,-5.332589E-4,-5.1480235E-4,-1.3863048E-4,3.501177E-5,-5.0834566E-5],"categories":[],"categories_nodes":[],"categories_segments":[],"categories_sizes":[],"default_left":[0,0,0,0,0,0,0,0,0,0,0],"id":74,"left_children":[1,-1,3,5,7,-1,9,-1,-1,-1,-1],"loss_changes":[6.6272257E-4,0E0,1.813106E-4,3.5563164E-5,2.6133363E-5,0E0,3.693479E-6,0E0,0E0,0E0,0E0],"parents":[2147483647,0,0,2,2,3,3,4,4,6,6],"right_children":[2,-1,4,6,8,-1,10,-1,-1,-1,-1],"split_conditions":[9.82E2,8.993E-4,3.95E2,8.4E2,1.741E3,1.9554098E-4,9.009E1,-5.1480235E-4,-1.3863048E-4,3.501177E-5,-5.0834566E-5],"split_indices":[1,0,13,11,1,0,3,0,0,0,0],"split_type":[0,0,0,0,0,0,0,0,0,0,0],"sum_hessian":[1E1,1E0,9E0,6E0,3E0,2E0,4E0,1E0,2E0,1E0,3E0],"tree_param":{"num_deleted":"0","num_feature":"24","num_nodes":"11","size_leaf_vector":"1"}},{"base_weights":[1.4315898E-3,8.768171E-4,-1.9325197E-3,1.2560913E-3,-7.029459E-3,3.176719E-3,-4.8927963E-5,-5.019322E-4,-1.3400913E-4,2.2697747E-4,6.0462953E-5],"categories":[],"categories_nodes":[],"categories_segments":[],"categories_sizes":[],"default_left":[0,0,0,0,0,0,0,0,0,0,0],"id":75,"left_children":[1,-1,3,5,7,9,-1,-1,-1,-1,-1],"loss_changes":[6.29849E-4,0E0,1.7135119E-4,3.3152126E-5,2.5445726E-5,5.235768E-6,0E0,0E0,0E0,0E0,0E0],"parents":[2147483647,0,0,2,2,3,3,4,4,5,5],"right_children":[2,-1,4,6,8,10,-1,-1,-1,-1,-1],"split_conditions":[9.82E2,8.768171E-4,3.95E2,2E0,1.741E3,1.622E3,-4.8927963E-5,-5.019322E-4,-1.3400913E-4,2.2697747E-4,6.0462953E-5],"split_indices":[1,0,13,5,1,1,0,0,0,0,0],"split_type":[0,0,0,0,0,0,0,0,0,0,0],"sum_hessian":[1E1,1E0,9E0,6E0,3E0,3E0,3E0,1E0,2E0,1E0,2E0],"tree_param":{"num_deleted":"0","num_feature":"24","num_nodes":"11","size_leaf_vector":"1"}},{"base_weights":[1.4035973E-3,8.548975E-4,-1.875633E-3,1.2273703E-3,-6.8369806E-3,1.8423398E-4,-4.924893E-4,-4.8938394E-4,-1.2954275E-4,3.2624605E-5,-4.7092886E-5],"categories":[],"categories_nodes":[],"categories_segments":[],"categories_sizes":[],"default_left":[0,0,0,0,0,0,0,0,0,0,0],"id":76,"left_children":[1,-1,3,5,7,-1,9,-1,-1,-1,-1],"loss_changes":[5.9818884E-4,0E0,1.6234227E-4,3.1398253E-5,2.4757697E-5,0E0,3.1871464E-6,0E0,0E0,0E0,0E0],"parents":[2147483647,0,0,2,2,3,3,4,4,6,6],"right_children":[2,-1,4,6,8,-1,10,-1,-1,-1,-1],"split_conditions":[9.82E2,8.548975E-4,3.95E2,8.4E2,1.741E3,1.8423398E-4,9.009E1,-4.8938394E-4,-1.2954275E-4,3.2624605E-5,-4.7092886E-5],"split_indices":[1,0,13,11,1,0,3,0,0,0,0],"split_type":[0,0,0,0,0,0,0,0,0,0,0],"sum_hessian":[1E1,1E0,9E0,6E0,3E0,2E0,4E0,1E0,2E0,1E0,3E0],"tree_param":{"num_deleted":"0","num_feature":"24","num_nodes":"11","size_leaf_vector":"1"}},{"base_weights":[1.3703053E-3,8.3352625E-4,-1.8267691E-3,1.1902621E-3,-6.6498816E-3,3.5618942E-3,-4.7076942E-4,-4.7715008E-4,-1.2522539E-4,2.1669865E-4,5.044341E-5,3.180802E-5,-4.53271E-5],"categories":[],"categories_nodes":[],"categories_segments":[],"categories_sizes":[],"default_left":[0,0,0,0,0,0,0,0,0,0,0,0,0],"id":77,"left_children":[1,-1,3,5,7,9,11,-1,-1,-1,-1,-1,-1],"loss_changes":[5.6852854E-4,0E0,1.5342992E-4,2.9252318E-5,2.4071749E-5,1.5410042E-6,2.9885541E-6,0E0,0E0,0E0,0E0,0E0,0E0],"parents":[2147483647,0,0,2,2,3,3,4,4,5,5,6,6],"right_children":[2,-1,4,6,8,10,12,-1,-1,-1,-1,-1,-1],"split_conditions":[9.82E2,8.3352625E-4,3.95E2,8.4E2,1.741E3,6.7E1,9.009E1,-4.7715008E-4,-1.2522539E-4,2.1669865E-4,5.044341E-5,3.180802E-5,-4.53271E-5],"split_indices":[1,0,13,11,1,0,3,0,0,0,0,0,0],"split_type":[0,0,0,0,0,0,0,0,0,0,0,0,0],"sum_hessian":[1E1,1E0,9E0,6E0,3E0,2E0,4E0,1E0,2E0,1E0,1E0,1E0,3E0],"tree_param":{"num_deleted":"0","num_feature":"24","num_nodes":"13","size_leaf_vector":"1"}},{"base_weights":[1.3458512E-3,8.126885E-4,-1.7703176E-3,1.1669652E-3,-6.467983E-3,3.4728448E-3,-4.4995546E-4,-4.652217E-4,-1.21051075E-4,2.1128058E-4,4.9182774E-5,3.1012296E-5,-4.3628366E-5],"categories":[],"categories_nodes":[],"categories_segments":[],"categories_sizes":[],"default_left":[0,0,0,0,0,0,0,0,0,0,0,0,0],"id":78,"left_children":[1,-1,3,5,7,9,11,-1,-1,-1,-1,-1,-1],"loss_changes":[5.397858E-4,0E0,1.4553164E-4,2.7661596E-5,2.3389803E-5,1.4647958E-6,2.802605E-6,0E0,0E0,0E0,0E0,0E0,0E0],"parents":[2147483647,0,0,2,2,3,3,4,4,5,5,6,6],"right_children":[2,-1,4,6,8,10,12,-1,-1,-1,-1,-1,-1],"split_conditions":[9.82E2,8.126885E-4,3.95E2,8.4E2,1.741E3,6.7E1,9.009E1,-4.652217E-4,-1.21051075E-4,2.1128058E-4,4.9182774E-5,3.1012296E-5,-4.3628366E-5],"split_indices":[1,0,13,11,1,0,3,0,0,0,0,0,0],"split_type":[0,0,0,0,0,0,0,0,0,0,0,0,0],"sum_hessian":[1E1,1E0,9E0,6E0,3E0,2E0,4E0,1E0,2E0,1E0,1E0,1E0,3E0],"tree_param":{"num_deleted":"0","num_feature":"24","num_nodes":"13","size_leaf_vector":"1"}},{"base_weights":[1.3216789E-3,7.923722E-4,-1.7156422E-3,1.144026E-3,-6.291151E-3,3.3860207E-3,-4.2997597E-4,-4.5359135E-4,-1.1701584E-4,2.0599962E-4,4.7951937E-5,3.0237437E-5,-4.1992218E-5],"categories":[],"categories_nodes":[],"categories_segments":[],"categories_sizes":[],"default_left":[0,0,0,0,0,0,0,0,0,0,0,0,0],"id":79,"left_children":[1,-1,3,5,7,9,11,-1,-1,-1,-1,-1,-1],"loss_changes":[5.125021E-4,0E0,1.3804162E-4,2.6158235E-5,2.2713008E-5,1.3927747E-6,2.6283994E-6,0E0,0E0,0E0,0E0,0E0,0E0],"parents":[2147483647,0,0,2,2,3,3,4,4,5,5,6,6],"right_children":[2,-1,4,6,8,10,12,-1,-1,-1,-1,-1,-1],"split_conditions":[9.82E2,7.923722E-4,3.95E2,8.4E2,1.741E3,6.7E1,9.009E1,-4.5359135E-4,-1.1701584E-4,2.0599962E-4,4.7951937E-5,3.0237437E-5,-4.1992218E-5],"split_indices":[1,0,13,11,1,0,3,0,0,0,0,0,0],"split_type":[0,0,0,0,0,0,0,0,0,0,0,0,0],"sum_hessian":[1E1,1E0,9E0,6E0,3E0,2E0,4E0,1E0,2E0,1E0,1E0,1E0,3E0],"tree_param":{"num_deleted":"0","num_feature":"24","num_nodes":"13","size_leaf_vector":"1"}},{"base_weights":[1.2977774E-3,7.7256263E-4,-1.6626954E-3,1.1214359E-3,-6.1192513E-3,3.301382E-3,-4.1081905E-4,-4.4225156E-4,-1.13115704E-4,2.0084977E-4,4.6753885E-5,2.9480458E-5,-4.041642E-5],"categories":[],"categories_nodes":[],"categories_segments":[],"categories_sizes":[],"default_left":[0,0,0,0,0,0,0,0,0,0,0,0,0],"id":80,"left_children":[1,-1,3,5,7,9,11,-1,-1,-1,-1,-1,-1],"loss_changes":[4.8660152E-4,0E0,1.3093872E-4,2.4737905E-5,2.2042412E-5,1.323875E-6,2.4649958E-6,0E0,0E0,0E0,0E0,0E0,0E0],"parents":[2147483647,0,0,2,2,3,3,4,4,5,5,6,6],"right_children":[2,-1,4,6,8,10,12,-1,-1,-1,-1,-1,-1],"split_conditions":[9.82E2,7.7256263E-4,3.95E2,8.4E2,1.741E3,6.7E1,9.009E1,-4.4225156E-4,-1.13115704E-4,2.0084977E-4,4.6753885E-5,2.9480458E-5,-4.041642E-5],"split_indices":[1,0,13,11,1,0,3,0,0,0,0,0,0],"split_type":[0,0,0,0,0,0,0,0,0,0,0,0,0],"sum_hessian":[1E1,1E0,9E0,6E0,3E0,2E0,4E0,1E0,2E0,1E0,1E0,1E0,3E0],"tree_param":{"num_deleted":"0","num_feature":"24","num_nodes":"13","size_leaf_vector":"1"}},{"base_weights":[1.2741522E-3,7.5324776E-4,-1.6114234E-3,1.0991778E-3,-5.95212E-3,3.2188494E-3,-3.9246082E-4,-4.311949E-4,-1.0934472E-4,1.9582808E-4,4.558563E-5,2.874434E-5,-3.8900973E-5],"categories":[],"categories_nodes":[],"categories_segments":[],"categories_sizes":[],"default_left":[0,0,0,0,0,0,0,0,0,0,0,0,0],"id":81,"left_children":[1,-1,3,5,7,9,11,-1,-1,-1,-1,-1,-1],"loss_changes":[4.6201446E-4,0E0,1.242014E-4,2.339576E-5,2.1379834E-5,1.2583732E-6,2.3121192E-6,0E0,0E0,0E0,0E0,0E0,0E0],"parents":[2147483647,0,0,2,2,3,3,4,4,5,5,6,6],"right_children":[2,-1,4,6,8,10,12,-1,-1,-1,-1,-1,-1],"split_conditions":[9.82E2,7.5324776E-4,3.95E2,8.4E2,1.741E3,6.7E1,9.009E1,-4.311949E-4,-1.0934472E-4,1.9582808E-4,4.558563E-5,2.874434E-5,-3.8900973E-5],"split_indices":[1,0,13,11,1,0,3,0,0,0,0,0,0],"split_type":[0,0,0,0,0,0,0,0,0,0,0,0,0],"sum_hessian":[1E1,1E0,9E0,6E0,3E0,2E0,4E0,1E0,2E0,1E0,1E0,1E0,3E0],"tree_param":{"num_deleted":"0","num_feature":"24","num_nodes":"13","size_leaf_vector":"1"}},{"base_weights":[1.2508143E-3,7.3441566E-4,-1.5617668E-3,1.0772689E-3,-5.7896376E-3,3.1383832E-3,-3.748536E-4,-4.204154E-4,-1.05698906E-4,1.9093156E-4,4.4447184E-5,2.8026105E-5,-3.7441405E-5],"categories":[],"categories_nodes":[],"categories_segments":[],"categories_sizes":[],"default_left":[0,0,0,0,0,0,0,0,0,0,0,0,0],"id":82,"left_children":[1,-1,3,5,7,9,11,-1,-1,-1,-1,-1,-1],"loss_changes":[4.3867432E-4,0E0,1.1781202E-4,2.2127366E-5,2.072638E-5,1.1959819E-6,2.1687679E-6,0E0,0E0,0E0,0E0,0E0,0E0],"parents":[2147483647,0,0,2,2,3,3,4,4,5,5,6,6],"right_children":[2,-1,4,6,8,10,12,-1,-1,-1,-1,-1,-1],"split_conditions":[9.82E2,7.3441566E-4,3.95E2,8.4E2,1.741E3,6.7E1,9.009E1,-4.204154E-4,-1.05698906E-4,1.9093156E-4,4.4447184E-5,2.8026105E-5,-3.7441405E-5],"split_indices":[1,0,13,11,1,0,3,0,0,0,0,0,0],"split_type":[0,0,0,0,0,0,0,0,0,0,0,0,0],"sum_hessian":[1E1,1E0,9E0,6E0,3E0,2E0,4E0,1E0,2E0,1E0,1E0,1E0,3E0],"tree_param":{"num_deleted":"0","num_feature":"24","num_nodes":"13","size_leaf_vector":"1"}},{"base_weights":[1.2277365E-3,7.1605446E-4,-1.5137077E-3,1.0556749E-3,-5.6317E-3,3.0599039E-3,-3.5799743E-4,-4.0990562E-4,-1.0217627E-4,1.8615722E-4,4.3335556E-5,2.732575E-5,-3.6037713E-5],"categories":[],"categories_nodes":[],"categories_segments":[],"categories_sizes":[],"default_left":[0,0,0,0,0,0,0,0,0,0,0,0,0],"id":83,"left_children":[1,-1,3,5,7,9,11,-1,-1,-1,-1,-1,-1],"loss_changes":[4.1651956E-4,0E0,1.1175223E-4,2.0928695E-5,2.008189E-5,1.1369539E-6,2.0344933E-6,0E0,0E0,0E0,0E0,0E0,0E0],"parents":[2147483647,0,0,2,2,3,3,4,4,5,5,6,6],"right_children":[2,-1,4,6,8,10,12,-1,-1,-1,-1,-1,-1],"split_conditions":[9.82E2,7.1605446E-4,3.95E2,8.4E2,1.741E3,6.7E1,9.009E1,-4.0990562E-4,-1.0217627E-4,1.8615722E-4,4.3335556E-5,2.732575E-5,-3.6037713E-5],"split_indices":[1,0,13,11,1,0,3,0,0,0,0,0,0],"split_type":[0,0,0,0,0,0,0,0,0,0,0,0,0],"sum_hessian":[1E1,1E0,9E0,6E0,3E0,2E0,4E0,1E0,2E0,1E0,1E0,1E0,3E0],"tree_param":{"num_deleted":"0","num_feature":"24","num_nodes":"13","size_leaf_vector":"1"}},{"base_weights":[1.2049567E-3,6.981522E-4,-1.4671565E-3,1.4608436E-4,-3.9965808E-4,2.5039613E-3,-1.450181E-3,1.8150211E-4,4.592935E-5,-3.4685432E-5,-9.8770855E-5],"categories":[],"categories_nodes":[],"categories_segments":[],"categories_sizes":[],"default_left":[0,0,0,0,0,0,0,0,0,0,0],"id":84,"left_children":[1,-1,3,5,-1,7,9,-1,-1,-1,-1],"loss_changes":[3.9548753E-4,0E0,1.0644786E-4,3.750537E-5,0E0,3.8065282E-6,1.0135946E-6,0E0,0E0,0E0,0E0],"parents":[2147483647,0,0,2,2,3,3,5,5,6,6],"right_children":[2,-1,4,6,-1,8,10,-1,-1,-1,-1],"split_conditions":[9.82E2,6.981522E-4,1.593E3,2E0,-3.9965808E-4,1.622E3,1.732E3,1.8150211E-4,4.592935E-5,-3.4685432E-5,-9.8770855E-5],"split_indices":[1,0,11,5,0,1,1,0,0,0,0],"split_type":[0,0,0,0,0,0,0,0,0,0,0],"sum_hessian":[1E1,1E0,9E0,8E0,1E0,3E0,5E0,1E0,2E0,3E0,2E0],"tree_param":{"num_deleted":"0","num_feature":"24","num_nodes":"11","size_leaf_vector":"1"}},{"base_weights":[1.1803833E-3,6.80697E-4,-1.4243663E-3,1.4922355E-4,-3.8966685E-4,2.4356246E-3,-6.999572E-5,1.769632E-4,4.43995E-5],"categories":[],"categories_nodes":[],"categories_segments":[],"categories_sizes":[],"default_left":[0,0,0,0,0,0,0,0,0],"id":85,"left_children":[1,-1,3,5,-1,7,-1,-1,-1],"loss_changes":[3.7564055E-4,0E0,1.0138442E-4,3.5287223E-5,0E0,3.6892925E-6,0E0,0E0,0E0],"parents":[2147483647,0,0,2,2,3,3,5,5],"right_children":[2,-1,4,6,-1,8,-1,-1,-1],"split_conditions":[9.82E2,6.80697E-4,1.593E3,2E0,-3.8966685E-4,1.622E3,-6.999572E-5,1.769632E-4,4.43995E-5],"split_indices":[1,0,11,5,0,1,0,0,0],"split_type":[0,0,0,0,0,0,0,0,0],"sum_hessian":[1E1,1E0,9E0,8E0,1E0,3E0,5E0,1E0,2E0],"tree_param":{"num_deleted":"0","num_feature":"24","num_nodes":"9","size_leaf_vector":"1"}},{"base_weights":[1.1615916E-3,6.6367985E-4,-1.3769686E-3,1.585881E-4,-3.799245E-4,2.369225E-3,-1.3416013E-3,1.7254055E-4,4.2921307E-5,-3.0760468E-5,-9.314616E-5],"categories":[],"categories_nodes":[],"categories_segments":[],"categories_sizes":[],"default_left":[0,0,0,0,0,0,0,0,0,0,0],"id":86,"left_children":[1,-1,3,5,-1,7,9,-1,-1,-1,-1],"loss_changes":[3.5649491E-4,0E0,9.674002E-5,3.302592E-5,0E0,3.5739704E-6,1.1260181E-6,0E0,0E0,0E0,0E0],"parents":[2147483647,0,0,2,2,3,3,5,5,6,6],"right_children":[2,-1,4,6,-1,8,10,-1,-1,-1,-1],"split_conditions":[9.82E2,6.6367985E-4,1.593E3,2E0,-3.799245E-4,1.622E3,1.732E3,1.7254055E-4,4.2921307E-5,-3.0760468E-5,-9.314616E-5],"split_indices":[1,0,11,5,0,1,1,0,0,0,0],"split_type":[0,0,0,0,0,0,0,0,0,0,0],"sum_hessian":[1E1,1E0,9E0,8E0,1E0,3E0,5E0,1E0,2E0,3E0,2E0],"tree_param":{"num_deleted":"0","num_feature":"24","num_nodes":"11","size_leaf_vector":"1"}},{"base_weights":[1.1376414E-3,6.470889E-4,-1.3369501E-3,1.6083982E-4,-3.7042648E-4,2.3046434E-3,-1.2951692E-3,1.6822816E-4,4.1490795E-5,-2.9607118E-5,-9.004076E-5],"categories":[],"categories_nodes":[],"categories_segments":[],"categories_sizes":[],"default_left":[0,0,0,0,0,0,0,0,0,0,0],"id":87,"left_children":[1,-1,3,5,-1,7,9,-1,-1,-1,-1],"loss_changes":[3.3861704E-4,0E0,9.2131086E-5,3.107748E-5,0E0,3.4608256E-6,1.0665572E-6,0E0,0E0,0E0,0E0],"parents":[2147483647,0,0,2,2,3,3,5,5,6,6],"right_children":[2,-1,4,6,-1,8,10,-1,-1,-1,-1],"split_conditions":[9.82E2,6.470889E-4,1.593E3,2E0,-3.7042648E-4,1.622E3,1.732E3,1.6822816E-4,4.1490795E-5,-2.9607118E-5,-9.004076E-5],"split_indices":[1,0,11,5,0,1,1,0,0,0,0],"split_type":[0,0,0,0,0,0,0,0,0,0,0],"sum_hessian":[1E1,1E0,9E0,8E0,1E0,3E0,5E0,1E0,2E0,3E0,2E0],"tree_param":{"num_deleted":"0","num_feature":"24","num_nodes":"11","size_leaf_vector":"1"}},{"base_weights":[1.1141137E-3,6.309122E-4,-1.2981236E-3,1.6282003E-4,-3.611654E-4,2.24185E-3,-1.2503365E-3,1.6402305E-4,4.0107967E-5,-2.8496235E-5,-8.703868E-5],"categories":[],"categories_nodes":[],"categories_segments":[],"categories_sizes":[],"default_left":[0,0,0,0,0,0,0,0,0,0,0],"id":88,"left_children":[1,-1,3,5,-1,7,9,-1,-1,-1,-1],"loss_changes":[3.2163764E-4,0E0,8.77397E-5,2.924502E-5,0E0,3.3496617E-6,1.0100848E-6,0E0,0E0,0E0,0E0],"parents":[2147483647,0,0,2,2,3,3,5,5,6,6],"right_children":[2,-1,4,6,-1,8,10,-1,-1,-1,-1],"split_conditions":[9.82E2,6.309122E-4,1.593E3,2E0,-3.611654E-4,1.622E3,1.732E3,1.6402305E-4,4.0107967E-5,-2.8496235E-5,-8.703868E-5],"split_indices":[1,0,11,5,0,1,1,0,0,0,0],"split_type":[0,0,0,0,0,0,0,0,0,0,0],"sum_hessian":[1E1,1E0,9E0,8E0,1E0,3E0,5E0,1E0,2E0,3E0,2E0],"tree_param":{"num_deleted":"0","num_feature":"24","num_nodes":"11","size_leaf_vector":"1"}},{"base_weights":[1.0909926E-3,6.1514083E-4,-1.2604713E-3,1.6452868E-4,-3.521368E-4,2.1808147E-3,-6.0354174E-5,1.5992225E-4,3.877282E-5],"categories":[],"categories_nodes":[],"categories_segments":[],"categories_sizes":[],"default_left":[0,0,0,0,0,0,0,0,0],"id":89,"left_children":[1,-1,3,5,-1,7,-1,-1,-1],"loss_changes":[3.055135E-4,0E0,8.3556006E-5,2.7522488E-5,0E0,3.240284E-6,0E0,0E0,0E0],"parents":[2147483647,0,0,2,2,3,3,5,5],"right_children":[2,-1,4,6,-1,8,-1,-1,-1],"split_conditions":[9.82E2,6.1514083E-4,1.593E3,2E0,-3.521368E-4,1.622E3,-6.0354174E-5,1.5992225E-4,3.877282E-5],"split_indices":[1,0,11,5,0,1,0,0,0],"split_type":[0,0,0,0,0,0,0,0,0],"sum_hessian":[1E1,1E0,9E0,8E0,1E0,3E0,5E0,1E0,2E0],"tree_param":{"num_deleted":"0","num_feature":"24","num_nodes":"9","size_leaf_vector":"1"}},{"base_weights":[1.0729432E-3,5.9976283E-4,-1.2188137E-3,1.7168786E-4,-3.433332E-4,2.1214485E-3,-1.1567672E-3,1.5592277E-4,3.748139E-5,-2.5163592E-5,-8.212527E-5],"categories":[],"categories_nodes":[],"categories_segments":[],"categories_sizes":[],"default_left":[0,0,0,0,0,0,0,0,0,0,0],"id":90,"left_children":[1,-1,3,5,-1,7,9,-1,-1,-1,-1],"loss_changes":[2.899641E-4,0E0,7.9712365E-5,2.5765547E-5,0E0,3.1331783E-6,1.0779395E-6,0E0,0E0,0E0,0E0],"parents":[2147483647,0,0,2,2,3,3,5,5,6,6],"right_children":[2,-1,4,6,-1,8,10,-1,-1,-1,-1],"split_conditions":[9.82E2,5.9976283E-4,1.593E3,2E0,-3.433332E-4,1.622E3,1.732E3,1.5592277E-4,3.748139E-5,-2.5163592E-5,-8.212527E-5],"split_indices":[1,0,11,5,0,1,1,0,0,0,0],"split_type":[0,0,0,0,0,0,0,0,0,0,0],"sum_hessian":[1E1,1E0,9E0,8E0,1E0,3E0,5E0,1E0,2E0,3E0,2E0],"tree_param":{"num_deleted":"0","num_feature":"24","num_nodes":"11","size_leaf_vector":"1"}},{"base_weights":[1.0504451E-3,5.8476924E-4,-1.1835874E-3,1.7268128E-4,-3.3475013E-4,2.0637512E-3,-1.1168122E-3,1.5202463E-4,3.6233665E-5,-2.4220348E-5,-7.938743E-5],"categories":[],"categories_nodes":[],"categories_segments":[],"categories_sizes":[],"default_left":[0,0,0,0,0,0,0,0,0,0,0],"id":91,"left_children":[1,-1,3,5,-1,7,9,-1,-1,-1,-1],"loss_changes":[2.7543507E-4,0E0,7.590569E-5,2.4251523E-5,0E0,3.0283682E-6,1.0178192E-6,0E0,0E0,0E0,0E0],"parents":[2147483647,0,0,2,2,3,3,5,5,6,6],"right_children":[2,-1,4,6,-1,8,10,-1,-1,-1,-1],"split_conditions":[9.82E2,5.8476924E-4,1.593E3,2E0,-3.3475013E-4,1.622E3,1.732E3,1.5202463E-4,3.6233665E-5,-2.4220348E-5,-7.938743E-5],"split_indices":[1,0,11,5,0,1,1,0,0,0,0],"split_type":[0,0,0,0,0,0,0,0,0,0,0],"sum_hessian":[1E1,1E0,9E0,8E0,1E0,3E0,5E0,1E0,2E0,3E0,2E0],"tree_param":{"num_deleted":"0","num_feature":"24","num_nodes":"11","size_leaf_vector":"1"}},{"base_weights":[1.0283481E-3,5.701512E-4,-1.1494219E-3,1.7344952E-4,-3.2638162E-4,2.0076334E-3,-5.39124E-5,1.4822483E-4,3.5025678E-5],"categories":[],"categories_nodes":[],"categories_segments":[],"categories_sizes":[],"default_left":[0,0,0,0,0,0,0,0,0],"id":92,"left_children":[1,-1,3,5,-1,7,-1,-1,-1],"loss_changes":[2.6163712E-4,0E0,7.227903E-5,2.282732E-5,0E0,2.9262683E-6,0E0,0E0,0E0],"parents":[2147483647,0,0,2,2,3,3,5,5],"right_children":[2,-1,4,6,-1,8,-1,-1,-1],"split_conditions":[9.82E2,5.701512E-4,1.593E3,2E0,-3.2638162E-4,1.622E3,-5.39124E-5,1.4822483E-4,3.5025678E-5],"split_indices":[1,0,11,5,0,1,0,0,0],"split_type":[0,0,0,0,0,0,0,0,0],"sum_hessian":[1E1,1E0,9E0,8E0,1E0,3E0,5E0,1E0,2E0],"tree_param":{"num_deleted":"0","num_feature":"24","num_nodes":"9","size_leaf_vector":"1"}},{"base_weights":[1.0108623E-3,5.558968E-4,-1.1116385E-3,1.7916494E-4,-3.1822175E-4,1.9530654E-3,-1.0332962E-3,1.4452041E-4,3.385743E-5,-2.1290034E-5,-7.494291E-5],"categories":[],"categories_nodes":[],"categories_segments":[],"categories_sizes":[],"default_left":[0,0,0,0,0,0,0,0,0,0,0],"id":93,"left_children":[1,-1,3,5,-1,7,9,-1,-1,-1,-1],"loss_changes":[2.4833408E-4,0E0,6.894356E-5,2.1375163E-5,0E0,2.8266495E-6,1.0587455E-6,0E0,0E0,0E0,0E0],"parents":[2147483647,0,0,2,2,3,3,5,5,6,6],"right_children":[2,-1,4,6,-1,8,10,-1,-1,-1,-1],"split_conditions":[9.82E2,5.558968E-4,1.593E3,2E0,-3.1822175E-4,1.622E3,1.732E3,1.4452041E-4,3.385743E-5,-2.1290034E-5,-7.494291E-5],"split_indices":[1,0,11,5,0,1,1,0,0,0,0],"split_type":[0,0,0,0,0,0,0,0,0,0,0],"sum_hessian":[1E1,1E0,9E0,8E0,1E0,3E0,5E0,1E0,2E0,3E0,2E0],"tree_param":{"num_deleted":"0","num_feature":"24","num_nodes":"11","size_leaf_vector":"1"}},{"base_weights":[9.893938E-4,5.4199994E-4,-1.0796667E-3,1.7933051E-4,-3.10266E-4,1.9000173E-3,-4.9884122E-5,1.4090836E-4,3.2728913E-5],"categories":[],"categories_nodes":[],"categories_segments":[],"categories_sizes":[],"default_left":[0,0,0,0,0,0,0,0,0],"id":94,"left_children":[1,-1,3,5,-1,7,-1,-1,-1],"loss_changes":[2.3590005E-4,0E0,6.564464E-5,2.0123047E-5,0E0,2.729288E-6,0E0,0E0,0E0],"parents":[2147483647,0,0,2,2,3,3,5,5],"right_children":[2,-1,4,6,-1,8,-1,-1,-1],"split_conditions":[9.82E2,5.4199994E-4,1.593E3,2E0,-3.10266E-4,1.622E3,-4.9884122E-5,1.4090836E-4,3.2728913E-5],"split_indices":[1,0,11,5,0,1,0,0,0],"split_type":[0,0,0,0,0,0,0,0,0],"sum_hessian":[1E1,1E0,9E0,8E0,1E0,3E0,5E0,1E0,2E0],"tree_param":{"num_deleted":"0","num_feature":"24","num_nodes":"9","size_leaf_vector":"1"}},{"base_weights":[9.722276E-4,5.2844884E-4,-1.0443449E-3,1.841055E-4,-3.0250996E-4,1.8483996E-3,-9.5610815E-4,1.3738572E-4,3.163616E-5,-1.8621236E-5,-7.07825E-5],"categories":[],"categories_nodes":[],"categories_segments":[],"categories_sizes":[],"default_left":[0,0,0,0,0,0,0,0,0,0,0],"id":95,"left_children":[1,-1,3,5,-1,7,9,-1,-1,-1,-1],"loss_changes":[2.2391559E-4,0E0,6.2608306E-5,1.8846129E-5,0E0,2.6345615E-6,1.0821391E-6,0E0,0E0,0E0,0E0],"parents":[2147483647,0,0,2,2,3,3,5,5,6,6],"right_children":[2,-1,4,6,-1,8,10,-1,-1,-1,-1],"split_conditions":[9.82E2,5.2844884E-4,1.593E3,2E0,-3.0250996E-4,1.622E3,1.732E3,1.3738572E-4,3.163616E-5,-1.8621236E-5,-7.07825E-5],"split_indices":[1,0,11,5,0,1,1,0,0,0,0],"split_type":[0,0,0,0,0,0,0,0,0,0,0],"sum_hessian":[1E1,1E0,9E0,8E0,1E0,3E0,5E0,1E0,2E0,3E0,2E0],"tree_param":{"num_deleted":"0","num_feature":"24","num_nodes":"11","size_leaf_vector":"1"}},{"base_weights":[9.514039E-4,5.1523745E-4,-1.0144055E-3,1.8376112E-4,-2.9494762E-4,1.7982721E-3,-9.232064E-4,1.339525E-4,3.0583145E-5,-1.7923861E-5,-6.842216E-5],"categories":[],"categories_nodes":[],"categories_segments":[],"categories_sizes":[],"default_left":[0,0,0,0,0,0,0,0,0,0,0],"id":96,"left_children":[1,-1,3,5,-1,7,9,-1,-1,-1,-1],"loss_changes":[2.1270903E-4,0E0,5.9609018E-5,1.7745078E-5,0E0,2.5418803E-6,1.0180729E-6,0E0,0E0,0E0,0E0],"parents":[2147483647,0,0,2,2,3,3,5,5,6,6],"right_children":[2,-1,4,6,-1,8,10,-1,-1,-1,-1],"split_conditions":[9.82E2,5.1523745E-4,1.593E3,2E0,-2.9494762E-4,1.622E3,1.732E3,1.339525E-4,3.0583145E-5,-1.7923861E-5,-6.842216E-5],"split_indices":[1,0,11,5,0,1,1,0,0,0,0],"split_type":[0,0,0,0,0,0,0,0,0,0,0],"sum_hessian":[1E1,1E0,9E0,8E0,1E0,3E0,5E0,1E0,2E0,3E0,2E0],"tree_param":{"num_deleted":"0","num_feature":"24","num_nodes":"11","size_leaf_vector":"1"}},{"base_weights":[9.3095953E-4,5.023569E-4,-9.853721E-4,1.8325116E-4,-2.8757454E-4,1.7494559E-3,-4.4571363E-5,1.3060273E-4,2.9561916E-5],"categories":[],"categories_nodes":[],"categories_segments":[],"categories_sizes":[],"default_left":[0,0,0,0,0,0,0,0,0],"id":97,"left_children":[1,-1,3,5,-1,7,-1,-1,-1],"loss_changes":[2.0206599E-4,0E0,5.675193E-5,1.670801E-5,0E0,2.4519595E-6,0E0,0E0,0E0],"parents":[2147483647,0,0,2,2,3,3,5,5],"right_children":[2,-1,4,6,-1,8,-1,-1,-1],"split_conditions":[9.82E2,5.023569E-4,1.593E3,2E0,-2.8757454E-4,1.622E3,-4.4571363E-5,1.3060273E-4,2.9561916E-5],"split_indices":[1,0,11,5,0,1,0,0,0],"split_type":[0,0,0,0,0,0,0,0,0],"sum_hessian":[1E1,1E0,9E0,8E0,1E0,3E0,5E0,1E0,2E0],"tree_param":{"num_deleted":"0","num_feature":"24","num_nodes":"9","size_leaf_vector":"1"}},{"base_weights":[9.1444905E-4,4.897982E-4,-9.532988E-4,1.8693341E-4,-2.8038473E-4,1.04381645E-4,-6.5435685E-4,-7.011891E-6,-6.465514E-5],"categories":[],"categories_nodes":[],"categories_segments":[],"categories_sizes":[],"default_left":[0,0,0,0,0,0,0,0,0],"id":98,"left_children":[1,-1,3,5,-1,-1,7,-1,-1],"loss_changes":[1.9181122E-4,0E0,5.4119184E-5,1.5757418E-5,0E0,0E0,2.1173987E-6,0E0,0E0],"parents":[2147483647,0,0,2,2,3,3,6,6],"right_children":[2,-1,4,6,-1,-1,8,-1,-1],"split_conditions":[9.82E2,4.897982E-4,1.593E3,8.4E2,-2.8038473E-4,1.04381645E-4,1.732E3,-7.011891E-6,-6.465514E-5],"split_indices":[1,0,11,11,0,0,1,0,0],"split_type":[0,0,0,0,0,0,0,0,0],"sum_hessian":[1E1,1E0,9E0,8E0,1E0,2E0,6E0,4E0,2E0],"tree_param":{"num_deleted":"0","num_feature":"24","num_nodes":"9","size_leaf_vector":"1"}},{"base_weights":[8.907372E-4,4.775524E-4,-9.303987E-4,1.812246E-4,-2.7337522E-4,1.6515553E-3,-4.146E-5,1.247257E-4,2.6953221E-5],"categories":[],"categories_nodes":[],"categories_segments":[],"categories_sizes":[],"default_left":[0,0,0,0,0,0,0,0,0],"id":99,"left_children":[1,-1,3,5,-1,7,-1,-1,-1],"loss_changes":[1.8237391E-4,0E0,5.142637E-5,1.4740393E-5,0E0,2.406432E-6,0E0,0E0,0E0],"parents":[2147483647,0,0,2,2,3,3,5,5],"right_children":[2,-1,4,6,-1,8,-1,-1,-1],"split_conditions":[9.82E2,4.775524E-4,1.593E3,2E0,-2.7337522E-4,1.622E3,-4.146E-5,1.247257E-4,2.6953221E-5],"split_indices":[1,0,11,5,0,1,0,0,0],"split_type":[0,0,0,0,0,0,0,0,0],"sum_hessian":[1E1,1E0,9E0,8E0,1E0,3E0,5E0,1E0,2E0],"tree_param":{"num_deleted":"0","num_feature":"24","num_nodes":"9","size_leaf_vector":"1"}},{"base_weights":[8.747957E-4,4.6561362E-4,-9.0017915E-4,1.8443001E-4,-2.6654155E-4,9.83735E-5,-6.060771E-4,-5.7554244E-6,-6.111662E-5],"categories":[],"categories_nodes":[],"categories_segments":[],"categories_sizes":[],"default_left":[0,0,0,0,0,0,0,0,0],"id":100,"left_children":[1,-1,3,5,-1,-1,7,-1,-1],"loss_changes":[1.731221E-4,0E0,4.903842E-5,1.387799E-5,0E0,0E0,1.9772328E-6,0E0,0E0],"parents":[2147483647,0,0,2,2,3,3,6,6],"right_children":[2,-1,4,6,-1,-1,8,-1,-1],"split_conditions":[9.82E2,4.6561362E-4,1.593E3,8.4E2,-2.6654155E-4,9.83735E-5,1.732E3,-5.7554244E-6,-6.111662E-5],"split_indices":[1,0,11,11,0,0,1,0,0],"split_type":[0,0,0,0,0,0,0,0,0],"sum_hessian":[1E1,1E0,9E0,8E0,1E0,2E0,6E0,4E0,2E0],"tree_param":{"num_deleted":"0","num_feature":"24","num_nodes":"9","size_leaf_vector":"1"}},{"base_weights":[8.5202133E-4,4.539728E-4,-8.786678E-4,1.7871459E-4,-2.5987774E-4,1.5591681E-3,-3.8568676E-5,1.19149685E-4,2.4511419E-5],"categories":[],"categories_nodes":[],"categories_segments":[],"categories_sizes":[],"default_left":[0,0,0,0,0,0,0,0,0],"id":101,"left_children":[1,-1,3,5,-1,7,-1,-1,-1],"loss_changes":[1.6460828E-4,0E0,4.6596033E-5,1.3006673E-5,0E0,2.3542689E-6,0E0,0E0,0E0],"parents":[2147483647,0,0,2,2,3,3,5,5],"right_children":[2,-1,4,6,-1,8,-1,-1,-1],"split_conditions":[9.82E2,4.539728E-4,1.593E3,2E0,-2.5987774E-4,1.622E3,-3.8568676E-5,1.19149685E-4,2.4511419E-5],"split_indices":[1,0,11,5,0,1,0,0,0],"split_type":[0,0,0,0,0,0,0,0,0],"sum_hessian":[1E1,1E0,9E0,8E0,1E0,3E0,5E0,1E0,2E0],"tree_param":{"num_deleted":"0","num_feature":"24","num_nodes":"9","size_leaf_vector":"1"}},{"base_weights":[8.366162E-4,4.426241E-4,-8.502185E-4,1.8144978E-4,-2.5338083E-4,9.270112E-5,-5.6128844E-4,-4.6133996E-6,-5.779465E-5],"categories":[],"categories_nodes":[],"categories_segments":[],"categories_sizes":[],"default_left":[0,0,0,0,0,0,0,0,0],"id":102,"left_children":[1,-1,3,5,-1,-1,7,-1,-1],"loss_changes":[1.562624E-4,0E0,4.442908E-5,1.2221193E-5,0E0,0E0,1.84552E-6,0E0,0E0],"parents":[2147483647,0,0,2,2,3,3,6,6],"right_children":[2,-1,4,6,-1,-1,8,-1,-1],"split_conditions":[9.82E2,4.426241E-4,1.593E3,8.4E2,-2.5338083E-4,9.270112E-5,1.732E3,-4.6133996E-6,-5.779465E-5],"split_indices":[1,0,11,11,0,0,1,0,0],"split_type":[0,0,0,0,0,0,0,0,0],"sum_hessian":[1E1,1E0,9E0,8E0,1E0,2E0,6E0,4E0,2E0],"tree_param":{"num_deleted":"0","num_feature":"24","num_nodes":"9","size_leaf_vector":"1"}},{"base_weights":[8.147359E-4,4.315585E-4,-8.300245E-4,1.7573436E-4,-2.4704635E-4,1.4719069E-3,-3.5883488E-5,1.13853814E-4,2.2224585E-5],"categories":[],"categories_nodes":[],"categories_segments":[],"categories_sizes":[],"default_left":[0,0,0,0,0,0,0,0,0],"id":103,"left_children":[1,-1,3,5,-1,7,-1,-1,-1],"loss_changes":[1.4858184E-4,0E0,4.2214055E-5,1.1478395E-5,0E0,2.2968316E-6,0E0,0E0,0E0],"parents":[2147483647,0,0,2,2,3,3,5,5],"right_children":[2,-1,4,6,-1,8,-1,-1,-1],"split_conditions":[9.82E2,4.315585E-4,1.593E3,2E0,-2.4704635E-4,1.622E3,-3.5883488E-5,1.13853814E-4,2.2224585E-5],"split_indices":[1,0,11,5,0,1,0,0,0],"split_type":[0,0,0,0,0,0,0,0,0],"sum_hessian":[1E1,1E0,9E0,8E0,1E0,3E0,5E0,1E0,2E0],"tree_param":{"num_deleted":"0","num_feature":"24","num_nodes":"9","size_leaf_vector":"1"}},{"base_weights":[7.9989433E-4,4.2077005E-4,-8.0319645E-4,1.7809206E-4,-2.4086982E-4,1.7468532E-3,-5.1967584E-4,1.1100769E-4,2.0006299E-5,-3.5744906E-6,-5.4671367E-5],"categories":[],"categories_nodes":[],"categories_segments":[],"categories_sizes":[],"default_left":[0,0,0,0,0,0,0,0,0,0,0],"id":104,"left_children":[1,-1,3,5,-1,7,9,-1,-1,-1,-1],"loss_changes":[1.4105106E-4,0E0,4.0248822E-5,1.0759478E-5,0E0,1.0238791E-6,1.721863E-6,0E0,0E0,0E0,0E0],"parents":[2147483647,0,0,2,2,3,3,5,5,6,6],"right_children":[2,-1,4,6,-1,8,10,-1,-1,-1,-1],"split_conditions":[9.82E2,4.2077005E-4,1.593E3,8.4E2,-2.4086982E-4,6.7E1,1.732E3,1.1100769E-4,2.0006299E-5,-3.5744906E-6,-5.4671367E-5],"split_indices":[1,0,11,11,0,0,1,0,0,0,0],"split_type":[0,0,0,0,0,0,0,0,0,0,0],"sum_hessian":[1E1,1E0,9E0,8E0,1E0,2E0,6E0,1E0,1E0,4E0,2E0],"tree_param":{"num_deleted":"0","num_feature":"24","num_nodes":"11","size_leaf_vector":"1"}},{"base_weights":[7.8286364E-4,4.1024984E-4,-7.798493E-4,1.7727083E-4,-2.3484827E-4,1.4005005E-3,-3.338804E-5,1.0823309E-4,2.1211306E-5],"categories":[],"categories_nodes":[],"categories_segments":[],"categories_sizes":[],"default_left":[0,0,0,0,0,0,0,0,0],"id":105,"left_children":[1,-1,3,5,-1,7,-1,-1,-1],"loss_changes":[1.3398397E-4,0E0,3.832414E-5,1.0238209E-5,0E0,2.065819E-6,0E0,0E0,0E0],"parents":[2147483647,0,0,2,2,3,3,5,5],"right_children":[2,-1,4,6,-1,8,-1,-1,-1],"split_conditions":[9.82E2,4.1024984E-4,1.593E3,2E0,-2.3484827E-4,1.622E3,-3.338804E-5,1.0823309E-4,2.1211306E-5],"split_indices":[1,0,11,5,0,1,0,0,0],"split_type":[0,0,0,0,0,0,0,0,0],"sum_hessian":[1E1,1E0,9E0,8E0,1E0,3E0,5E0,1E0,2E0],"tree_param":{"num_deleted":"0","num_feature":"24","num_nodes":"9","size_leaf_vector":"1"}},{"base_weights":[7.68396E-4,3.9999487E-4,-7.547438E-4,1.7907222E-4,-2.2897721E-4,8.3001454E-5,-4.8120532E-4,-2.6422738E-6,-5.173683E-5],"categories":[],"categories_nodes":[],"categories_segments":[],"categories_sizes":[],"default_left":[0,0,0,0,0,0,0,0,0],"id":106,"left_children":[1,-1,3,5,-1,-1,7,-1,-1],"loss_changes":[1.2719833E-4,0E0,3.6536665E-5,9.599397E-6,0E0,0E0,1.605093E-6,0E0,0E0],"parents":[2147483647,0,0,2,2,3,3,6,6],"right_children":[2,-1,4,6,-1,-1,8,-1,-1],"split_conditions":[9.82E2,3.9999487E-4,1.593E3,8.4E2,-2.2897721E-4,8.3001454E-5,1.732E3,-2.6422738E-6,-5.173683E-5],"split_indices":[1,0,11,11,0,0,1,0,0],"split_type":[0,0,0,0,0,0,0,0,0],"sum_hessian":[1E1,1E0,9E0,8E0,1E0,2E0,6E0,4E0,2E0],"tree_param":{"num_deleted":"0","num_feature":"24","num_nodes":"9","size_leaf_vector":"1"}},{"base_weights":[7.4813043E-4,3.899962E-4,-7.3704123E-4,1.7329719E-4,-2.2325218E-4,1.034528E-4,-3.2230467E-4,-5.0012273E-5,3.5191576E-6],"categories":[],"categories_nodes":[],"categories_segments":[],"categories_sizes":[],"default_left":[0,0,0,0,0,0,0,0,0],"id":107,"left_children":[1,-1,3,5,-1,-1,7,-1,-1],"loss_changes":[1.2095321E-4,0E0,3.4711215E-5,9.122741E-6,0E0,0E0,2.200153E-6,0E0,0E0],"parents":[2147483647,0,0,2,2,3,3,6,6],"right_children":[2,-1,4,6,-1,-1,8,-1,-1],"split_conditions":[9.82E2,3.899962E-4,1.593E3,2E0,-2.2325218E-4,1.034528E-4,6E0,-5.0012273E-5,3.5191576E-6],"split_indices":[1,0,11,6,0,0,6,0,0],"split_type":[0,0,0,0,0,0,0,0,0],"sum_hessian":[1E1,1E0,9E0,8E0,1E0,1E0,7E0,2E0,5E0],"tree_param":{"num_deleted":"0","num_feature":"24","num_nodes":"9","size_leaf_vector":"1"}},{"base_weights":[7.3104555E-4,3.8024486E-4,-7.168293E-4,1.7094612E-4,-2.1767021E-4,1.0086596E-4,-3.120154E-4,-4.834533E-5,3.3716362E-6],"categories":[],"categories_nodes":[],"categories_segments":[],"categories_sizes":[],"default_left":[0,0,0,0,0,0,0,0,0],"id":108,"left_children":[1,-1,3,5,-1,-1,7,-1,-1],"loss_changes":[1.14928655E-4,0E0,3.3028817E-5,8.65498E-6,0E0,0E0,2.053179E-6,0E0,0E0],"parents":[2147483647,0,0,2,2,3,3,6,6],"right_children":[2,-1,4,6,-1,-1,8,-1,-1],"split_conditions":[9.82E2,3.8024486E-4,1.593E3,2E0,-2.1767021E-4,1.0086596E-4,6E0,-4.834533E-5,3.3716362E-6],"split_indices":[1,0,11,6,0,0,6,0,0],"split_type":[0,0,0,0,0,0,0,0,0],"sum_hessian":[1E1,1E0,9E0,8E0,1E0,1E0,7E0,2E0,5E0],"tree_param":{"num_deleted":"0","num_feature":"24","num_nodes":"9","size_leaf_vector":"1"}},{"base_weights":[7.1435084E-4,3.7073792E-4,-6.971657E-4,1.686083E-4,-2.122283E-4,1.267463E-3,-2.9603145E-5,9.834469E-5,1.893441E-5],"categories":[],"categories_nodes":[],"categories_segments":[],"categories_sizes":[],"default_left":[0,0,0,0,0,0,0,0,0],"id":109,"left_children":[1,-1,3,5,-1,7,-1,-1,-1],"loss_changes":[1.09204404E-4,0E0,3.142814E-5,8.273221E-6,0E0,1.7417055E-6,0E0,0E0,0E0],"parents":[2147483647,0,0,2,2,3,3,5,5],"right_children":[2,-1,4,6,-1,8,-1,-1,-1],"split_conditions":[9.82E2,3.7073792E-4,1.593E3,2E0,-2.122283E-4,1.622E3,-2.9603145E-5,9.834469E-5,1.893441E-5],"split_indices":[1,0,11,5,0,1,0,0,0],"split_type":[0,0,0,0,0,0,0,0,0],"sum_hessian":[1E1,1E0,9E0,8E0,1E0,3E0,5E0,1E0,2E0],"tree_param":{"num_deleted":"0","num_feature":"24","num_nodes":"9","size_leaf_vector":"1"}},{"base_weights":[7.0102105E-4,3.614694E-4,-6.747544E-4,1.6992622E-4,-2.0692199E-4,9.5886E-5,-2.8826296E-4,-4.5746565E-5,3.6557515E-6],"categories":[],"categories_nodes":[],"categories_segments":[],"categories_sizes":[],"default_left":[0,0,0,0,0,0,0,0,0],"id":110,"left_children":[1,-1,3,5,-1,-1,7,-1,-1],"loss_changes":[1.03675295E-4,0E0,2.9960313E-5,7.760189E-6,0E0,0E0,1.8786086E-6,0E0,0E0],"parents":[2147483647,0,0,2,2,3,3,6,6],"right_children":[2,-1,4,6,-1,-1,8,-1,-1],"split_conditions":[9.82E2,3.614694E-4,1.593E3,2E0,-2.0692199E-4,9.5886E-5,6E0,-4.5746565E-5,3.6557515E-6],"split_indices":[1,0,11,6,0,0,6,0,0],"split_type":[0,0,0,0,0,0,0,0,0],"sum_hessian":[1E1,1E0,9E0,8E0,1E0,1E0,7E0,2E0,5E0],"tree_param":{"num_deleted":"0","num_feature":"24","num_nodes":"9","size_leaf_vector":"1"}},{"base_weights":[6.8491156E-4,3.5243333E-4,-6.563306E-4,1.6740296E-4,-2.0174832E-4,1.2075901E-3,-2.769778E-5,9.3489885E-5,1.8179417E-5],"categories":[],"categories_nodes":[],"categories_segments":[],"categories_sizes":[],"default_left":[0,0,0,0,0,0,0,0,0],"id":111,"left_children":[1,-1,3,5,-1,7,-1,-1,-1],"loss_changes":[9.851495E-5,0E0,2.850642E-5,7.4220825E-6,0E0,1.5557812E-6,0E0,0E0,0E0],"parents":[2147483647,0,0,2,2,3,3,5,5],"right_children":[2,-1,4,6,-1,8,-1,-1,-1],"split_conditions":[9.82E2,3.5243333E-4,1.593E3,2E0,-2.0174832E-4,1.622E3,-2.769778E-5,9.3489885E-5,1.8179417E-5],"split_indices":[1,0,11,5,0,1,0,0,0],"split_type":[0,0,0,0,0,0,0,0,0],"sum_hessian":[1E1,1E0,9E0,8E0,1E0,3E0,5E0,1E0,2E0],"tree_param":{"num_deleted":"0","num_feature":"24","num_nodes":"9","size_leaf_vector":"1"}},{"base_weights":[6.720044E-4,3.4362377E-4,-6.3529017E-4,1.6836326E-4,-1.9670428E-4,9.1153386E-5,-2.6635826E-4,-4.32988E-5,3.8921835E-6],"categories":[],"categories_nodes":[],"categories_segments":[],"categories_sizes":[],"default_left":[0,0,0,0,0,0,0,0,0],"id":112,"left_children":[1,-1,3,5,-1,-1,7,-1,-1],"loss_changes":[9.3530274E-5,0E0,2.7173237E-5,6.95961E-6,0E0,0E0,1.7185273E-6,0E0,0E0],"parents":[2147483647,0,0,2,2,3,3,6,6],"right_children":[2,-1,4,6,-1,-1,8,-1,-1],"split_conditions":[9.82E2,3.4362377E-4,1.593E3,2E0,-1.9670428E-4,9.1153386E-5,6E0,-4.32988E-5,3.8921835E-6],"split_indices":[1,0,11,6,0,0,6,0,0],"split_type":[0,0,0,0,0,0,0,0,0],"sum_hessian":[1E1,1E0,9E0,8E0,1E0,1E0,7E0,2E0,5E0],"tree_param":{"num_deleted":"0","num_feature":"24","num_nodes":"9","size_leaf_vector":"1"}},{"base_weights":[6.564476E-4,3.3503174E-4,-6.180346E-4,1.6568105E-4,-1.917869E-4,1.1503398E-3,-2.5918582E-5,8.887351E-5,1.744032E-5],"categories":[],"categories_nodes":[],"categories_segments":[],"categories_sizes":[],"default_left":[0,0,0,0,0,0,0,0,0],"id":113,"left_children":[1,-1,3,5,-1,7,-1,-1,-1],"loss_changes":[8.887653E-5,0E0,2.585315E-5,6.6583298E-6,0E0,1.3906706E-6,0E0,0E0,0E0],"parents":[2147483647,0,0,2,2,3,3,5,5],"right_children":[2,-1,4,6,-1,8,-1,-1,-1],"split_conditions":[9.82E2,3.3503174E-4,1.593E3,2E0,-1.917869E-4,1.622E3,-2.5918582E-5,8.887351E-5,1.744032E-5],"split_indices":[1,0,11,5,0,1,0,0,0],"split_type":[0,0,0,0,0,0,0,0,0],"sum_hessian":[1E1,1E0,9E0,8E0,1E0,3E0,5E0,1E0,2E0],"tree_param":{"num_deleted":"0","num_feature":"24","num_nodes":"9","size_leaf_vector":"1"}},{"base_weights":[6.439686E-4,3.266573E-4,-5.9826375E-4,1.663367E-4,-1.8699169E-4,1.119405E-3,-2.4838248E-5,8.665025E-5,1.6860167E-5],"categories":[],"categories_nodes":[],"categories_segments":[],"categories_sizes":[],"default_left":[0,0,0,0,0,0,0,0,0],"id":114,"left_children":[1,-1,3,5,-1,7,-1,-1,-1],"loss_changes":[8.4381536E-5,0E0,2.464253E-5,6.243912E-6,0E0,1.3354611E-6,0E0,0E0,0E0],"parents":[2147483647,0,0,2,2,3,3,5,5],"right_children":[2,-1,4,6,-1,8,-1,-1,-1],"split_conditions":[9.82E2,3.266573E-4,1.593E3,2E0,-1.8699169E-4,1.622E3,-2.4838248E-5,8.665025E-5,1.6860167E-5],"split_indices":[1,0,11,5,0,1,0,0,0],"split_type":[0,0,0,0,0,0,0,0,0],"sum_hessian":[1E1,1E0,9E0,8E0,1E0,3E0,5E0,1E0,2E0],"tree_param":{"num_deleted":"0","num_feature":"24","num_nodes":"9","size_leaf_vector":"1"}},{"base_weights":[6.3163583E-4,3.1849145E-4,-5.791664E-4,1.6678042E-4,-1.823172E-4,8.4483625E-5,-2.3479015E-4,1.0000808E-6,-5.045831E-5],"categories":[],"categories_nodes":[],"categories_segments":[],"categories_sizes":[],"default_left":[0,0,0,0,0,0,0,0,0],"id":115,"left_children":[1,-1,3,5,-1,-1,7,-1,-1],"loss_changes":[8.0115184E-5,0E0,2.3487653E-5,5.900656E-6,0E0,0E0,1.5986222E-6,0E0,0E0],"parents":[2147483647,0,0,2,2,3,3,6,6],"right_children":[2,-1,4,6,-1,-1,8,-1,-1],"split_conditions":[9.82E2,3.1849145E-4,1.593E3,2E0,-1.823172E-4,8.4483625E-5,9.5E1,1.0000808E-6,-5.045831E-5],"split_indices":[1,0,11,6,0,0,0,0,0],"split_type":[0,0,0,0,0,0,0,0,0],"sum_hessian":[1E1,1E0,9E0,8E0,1E0,1E0,7E0,6E0,1E0],"tree_param":{"num_deleted":"0","num_feature":"24","num_nodes":"9","size_leaf_vector":"1"}},{"base_weights":[6.156184E-4,3.105283E-4,-5.649328E-4,1.6233657E-4,-1.7775894E-4,1.0677278E-3,-2.3415685E-5,8.237064E-5,1.6268094E-5],"categories":[],"categories_nodes":[],"categories_segments":[],"categories_sizes":[],"default_left":[0,0,0,0,0,0,0,0,0],"id":116,"left_children":[1,-1,3,5,-1,7,-1,-1,-1],"loss_changes":[7.616489E-5,0E0,2.2324277E-5,5.6388985E-6,0E0,1.1853481E-6,0E0,0E0,0E0],"parents":[2147483647,0,0,2,2,3,3,5,5],"right_children":[2,-1,4,6,-1,8,-1,-1,-1],"split_conditions":[9.82E2,3.105283E-4,1.593E3,2E0,-1.7775894E-4,1.622E3,-2.3415685E-5,8.237064E-5,1.6268094E-5],"split_indices":[1,0,11,5,0,1,0,0,0],"split_type":[0,0,0,0,0,0,0,0,0],"sum_hessian":[1E1,1E0,9E0,8E0,1E0,3E0,5E0,1E0,2E0],"tree_param":{"num_deleted":"0","num_feature":"24","num_nodes":"9","size_leaf_vector":"1"}},{"base_weights":[6.037571E-4,3.027648E-4,-5.469263E-4,1.6259485E-4,-1.733154E-4,6.308953E-5,-3.3171687E-4,-3.1466286E-6,-4.8610567E-5],"categories":[],"categories_nodes":[],"categories_segments":[],"categories_sizes":[],"default_left":[0,0,0,0,0,0,0,0,0],"id":117,"left_children":[1,-1,3,5,-1,-1,7,-1,-1],"loss_changes":[7.231474E-5,